=== Run information ===

Scheme:       weka.classifiers.trees.J48 -C 0.25 -M 2
Relation:     host+lexical+whitelist_training
Instances:    159660
Attributes:   12
              is_top_1m
              num_ip
              reg_time
              country
              registrar
              tld
              dot_num
              avg_host
              max_host
              avg_path
              max_path
              class
Test mode:    10-fold cross-validation

=== Classifier model (full training set) ===

J48 pruned tree
------------------

is_top_1m <= 0
|   dot_num <= 0
|   |   tld = com
|   |   |   reg_time <= 1326470400
|   |   |   |   num_ip <= 2: bad (9709.66/493.57)
|   |   |   |   num_ip > 2
|   |   |   |   |   reg_time <= 846172800: good (103.48/3.28)
|   |   |   |   |   reg_time > 846172800
|   |   |   |   |   |   registrar = PDR LTD. D/B/A PUBLICDOMAINREGISTRY.COM: bad (188.7/5.97)
|   |   |   |   |   |   registrar = MARKMONITOR INC.
|   |   |   |   |   |   |   reg_time <= 1186416000
|   |   |   |   |   |   |   |   max_path <= 7
|   |   |   |   |   |   |   |   |   avg_path <= 3.875: good (7.52/1.02)
|   |   |   |   |   |   |   |   |   avg_path > 3.875: bad (2.71/0.02)
|   |   |   |   |   |   |   |   max_path > 7: good (39.51/0.97)
|   |   |   |   |   |   |   reg_time > 1186416000: bad (6.98/2.13)
|   |   |   |   |   |   registrar = GABIA INC.: bad (3.47/0.07)
|   |   |   |   |   |   registrar = GODADDY.COM: bad (0.0)
|   |   |   |   |   |   registrar = CSC CORPORATE DOMAINS INC.
|   |   |   |   |   |   |   reg_time <= 1125590400: good (19.37/1.97)
|   |   |   |   |   |   |   reg_time > 1125590400: bad (6.1/1.13)
|   |   |   |   |   |   registrar = US LOCALITY: bad (0.0)
|   |   |   |   |   |   registrar = GODADDY.COM LLC: bad (127.34/17.68)
|   |   |   |   |   |   registrar = ASCIO TECHNOLOGIES INC: bad (22.0/0.46)
|   |   |   |   |   |   registrar = WEBCC: bad (0.0)
|   |   |   |   |   |   registrar = RELIABLE SOFTWARE LTD: bad (0.0)
|   |   |   |   |   |   registrar = R01-RU: bad (0.0)
|   |   |   |   |   |   registrar = 1&1 INTERNET SE: good (1.16/0.13)
|   |   |   |   |   |   registrar = NETWORK SOLUTIONS LLC.
|   |   |   |   |   |   |   avg_path <= 4.681818
|   |   |   |   |   |   |   |   avg_host <= 9.75: bad (7.79/0.16)
|   |   |   |   |   |   |   |   avg_host > 9.75: good (31.13/1.16)
|   |   |   |   |   |   |   avg_path > 4.681818: bad (28.23/2.28)
|   |   |   |   |   |   registrar = GODADDY.COM INC.: bad (9.26/1.19)
|   |   |   |   |   |   registrar = GIP RENATER: bad (0.0)
|   |   |   |   |   |   registrar = TUCOWS INC.: bad (87.98/6.85)
|   |   |   |   |   |   registrar = ENOM INC.
|   |   |   |   |   |   |   reg_time <= 1035734400
|   |   |   |   |   |   |   |   max_path <= 7: bad (6.81/0.44)
|   |   |   |   |   |   |   |   max_path > 7: good (6.9/1.7)
|   |   |   |   |   |   |   reg_time > 1035734400: bad (190.04/13.65)
|   |   |   |   |   |   registrar = GANDI SAS: bad (12.73/3.27)
|   |   |   |   |   |   registrar = DOMAIN.COM LLC: bad (15.05/2.32)
|   |   |   |   |   |   registrar = FASTDOMAIN INC.: good (3.47/1.4)
|   |   |   |   |   |   registrar = GODADDY.COM INC. (R171-LRMS): bad (0.0)
|   |   |   |   |   |   registrar = RU-CENTER-RU: bad (0.0)
|   |   |   |   |   |   registrar = DNC HOLDINGS INC.: bad (3.47/1.07)
|   |   |   |   |   |   registrar = ENOM INC. (R39-LROR): bad (0.0)
|   |   |   |   |   |   registrar = MONIKER ONLINE SERVICES LLC: good (6.95/0.8)
|   |   |   |   |   |   registrar = WILD WEST DOMAINS LLC: bad (18.52/1.39)
|   |   |   |   |   |   registrar = NETWORK SOLUTIONS LLC: bad (0.0)
|   |   |   |   |   |   registrar = EASYDNS TECHNOLOGIES INC.: good (3.47/0.4)
|   |   |   |   |   |   registrar = DANESCO TRADING LTD.: bad (0.0)
|   |   |   |   |   |   registrar = OVH SAS: bad (0.0)
|   |   |   |   |   |   registrar = CSL COMPUTER SERVICE LANGENBACH GMBH D/B/A JOKER.COM: bad (4.63/0.1)
|   |   |   |   |   |   registrar = NOM-IQ LTD DBA COM LAUDE: bad (0.0)
|   |   |   |   |   |   registrar = KEY-SYSTEMS GMBH: bad (12.73/0.27)
|   |   |   |   |   |   registrar = REGISTRAR OF DOMAIN NAMES REG.RU LLC: bad (0.0)
|   |   |   |   |   |   registrar = DIRECTI INTERNET SOLUTIONS PVT. LTD. D/B/A PUBLICDOMAINREGISTRY.COM (R27-LROR): bad (0.0)
|   |   |   |   |   |   registrar = DYNAMIC NETWORK SERVICES INC: bad (2.32/0.05)
|   |   |   |   |   |   registrar = PAIR NETWORKS INC.D/B/A PAIRNIC: bad (0.0)
|   |   |   |   |   |   registrar = DIRECTI INTERNET SOLUTIONS PVT. LTD. D/B/A PUBLICDOMAINREGISTRY.COM: bad (9.26/0.19)
|   |   |   |   |   |   registrar = OVH: bad (0.0)
|   |   |   |   |   |   registrar = PAIRNIC INC: bad (0.0)
|   |   |   |   |   |   registrar = REGRU-RU: bad (0.0)
|   |   |   |   |   |   registrar = ASCIO TECHNOLOGIES INC. DANMARK - FILIAL AF ASCIO TECHNOLOGIES INC. USA: bad (0.0)
|   |   |   |   |   |   registrar = TUCOWS DOMAINS INC.: bad (81.04/3.71)
|   |   |   |   |   |   registrar = MELBOURNE IT LTD. D/B/A INTERNET NAMES WORLDWIDE: bad (13.89/0.29)
|   |   |   |   |   |   registrar = NAMECHEAP INC.: bad (0.0)
|   |   |   |   |   |   registrar = ONLINE SAS: bad (0.0)
|   |   |   |   |   |   registrar = NETWORK SOLUTIONS LLC (R63-LROR): bad (0.0)
|   |   |   |   |   |   registrar = EURODNS S.A.: good (1.16/0.13)
|   |   |   |   |   |   registrar = BIZCN.COM INC.: bad (17.37/0.37)
|   |   |   |   |   |   registrar = ??????????????: bad (0.0)
|   |   |   |   |   |   registrar = SOLUCIONES CORPORATIVAS IPSLU: bad (0.0)
|   |   |   |   |   |   registrar = WEBIQ DOMAINS SOLUTIONS PVT. LTD. (R131-AFIN): bad (0.0)
|   |   |   |   |   |   registrar = TIERRANET INC. DBA DOMAINDISCOVER: bad (0.0)
|   |   |   |   |   |   registrar = ONLINENIC INC.: bad (0.0)
|   |   |   |   |   |   registrar = NAMESILO LLC: bad (0.0)
|   |   |   |   |   |   registrar = GODADDY.COM LLC (R91-LROR): bad (0.0)
|   |   |   |   |   |   registrar = REGISTER.COM INC.: bad (39.36/2.83)
|   |   |   |   |   |   registrar = INTERNET DOMAIN SERVICE BS CORP.: bad (1.16/0.02)
|   |   |   |   |   |   registrar = REGIONAL NETWORK INFORMATION CENTER JSC DBA RU-CENTER: bad (10.42/1.22)
|   |   |   |   |   |   registrar = DOMAINPEOPLE INC.: bad (3.47/0.07)
|   |   |   |   |   |   registrar = XINNET TECHNOLOGY CORPORATION: bad (0.0)
|   |   |   |   |   |   registrar = WEBFUSION LIMITED: bad (0.0)
|   |   |   |   |   |   registrar = TUCOWS.COM CO.: bad (4.63/0.1)
|   |   |   |   |   |   registrar = TODAYNIC.COM INC.: bad (0.0)
|   |   |   |   |   |   registrar = LAUNCHPAD.COM INC.: bad (0.0)
|   |   |   |   |   |   registrar = ALPNAMES LIMITED: bad (0.0)
|   |   |   |   |   |   registrar = TLD REGISTRAR SOLUTIONS LTD: bad (1.16/0.02)
|   |   |   |   |   |   registrar = MELBOURNE IT LTD: bad (3.47/1.07)
|   |   |   |   |   |   registrar = HOSTING CONCEPTS B.V. D/B/A OPENPROVIDER: bad (0.0)
|   |   |   |   |   |   registrar = LIQUIDNET LTD.: bad (0.0)
|   |   |   |   |   |   registrar = XIN NET TECHNOLOGY CORPORATION: bad (0.0)
|   |   |   |   |   |   registrar = NAME.COM INC.: bad (15.05/3.32)
|   |   |   |   |   |   registrar = ENDURANCE DOMAINS TECHNOLOGY PVT. LTD. (R173-AFIN): bad (0.0)
|   |   |   |   |   |   registrar = TUCOWS INC. (R11-LROR): bad (0.0)
|   |   |   |   |   |   registrar = NAMESHIELD: bad (0.0)
|   |   |   |   |   |   registrar = BIZCN.COMINC.: bad (3.47/0.07)
|   |   |   |   |   |   registrar = DELUXE SMALL BUSINESS SALES INC. D/B/A APLUS.NET: bad (23.15/1.49)
|   |   |   |   |   |   registrar = OPEN CONTACT LTD: bad (0.0)
|   |   |   |   |   |   registrar = ARDIS-RU: bad (0.0)
|   |   |   |   |   |   registrar = TLD REGISTRAR SOLUTIONS LTD.: bad (0.0)
|   |   |   |   |   |   registrar = GRANSY S.R.O D/B/A SUBREG.CZ: bad (0.0)
|   |   |   |   |   |   registrar = TLDS LLC. D/B/A SRSPLUS: bad (18.52/0.39)
|   |   |   |   |   |   registrar = ICI - ROTLD: bad (0.0)
|   |   |   |   |   |   registrar = FASTDOMAIN INC. (R1455-LROR): bad (0.0)
|   |   |   |   |   |   registrar = ENOM INC: bad (15.05/0.32)
|   |   |   |   |   |   registrar = GMO INTERNET INC.: bad (2.32/0.05)
|   |   |   |   |   |   registrar = NAUNET-RU: bad (0.0)
|   |   |   |   |   |   registrar = HICHINA ZHICHENG TECHNOLOGY LTD.: bad (0.0)
|   |   |   |   |   |   registrar = ZHUHAI NAISINIKE INFORMATION TECHNOLOGY CO. LTD.: bad (0.0)
|   |   |   |   |   |   registrar = SHANGHAI MEICHENG TECHNOLOGY INFORMATION DEVELOPMENT CO. LTD.: bad (0.0)
|   |   |   |   |   |   registrar = 1 & 1 INTERNET AG: bad (17.37/2.37)
|   |   |   |   |   |   registrar = GODADDY.COM INC. (R91-LROR): bad (0.0)
|   |   |   |   |   |   registrar = ERANET INTERNATIONAL LIMITED: bad (0.0)
|   |   |   |   |   |   registrar = ONLINENIC INC: bad (3.47/0.07)
|   |   |   |   |   |   registrar = CHENGDU WEST DIMENSION DIGITAL TECHNOLOGY CO. LTD: bad (0.0)
|   |   |   |   |   |   registrar = NAMECHEAP: bad (0.0)
|   |   |   |   |   |   registrar = NICS TELEKOMUNIKASYON TICARET LTD.STI.: bad (1.16/0.02)
|   |   |   |   |   |   registrar = ARSYS INTERNET S.L. DBA NICLINE.COM: bad (5.79/0.12)
|   |   |   |   |   |   registrar = JIANGSU BANGNING SCIENCE & TECHNOLOGY CO. LTD: bad (0.0)
|   |   |   |   |   |   registrar = REGTIME LTD.: bad (0.0)
|   |   |   |   |   |   registrar = WEBNAMES.CA INC: bad (0.0)
|   |   |   |   |   |   registrar = INTERNET.BS CORP.: bad (0.0)
|   |   |   |   |   |   registrar = STICHTING REGISTRAR OF LAST RESORT FOUNDATION: bad (0.0)
|   |   |   |   |   |   registrar = DYNADOT LLC: bad (0.0)
|   |   |   |   |   |   registrar = ENDURANCE DOMAINS TECHNOLOGY LLP (R173-AFIN): bad (0.0)
|   |   |   |   |   |   registrar = DOMAINCONTEXT INC.: bad (0.0)
|   |   |   |   |   |   registrar = HOSTOPIA.COM INC. D/B/A APLUS.NET: bad (2.32/0.05)
|   |   |   |   |   |   registrar = REGTIME-RU: bad (0.0)
|   |   |   |   |   |   registrar = REALTIME REGISTER B.V.: bad (1.16/0.02)
|   |   |   |   |   |   registrar = WILD WEST DOMAINS INC.: bad (1.16/0.02)
|   |   |   |   |   |   registrar = LAUNCHPAD INC. (HOSTGATOR): bad (0.0)
|   |   |   |   |   |   registrar = SAFENAMES LTD: good (1.16/0.13)
|   |   |   |   |   |   registrar = REGISTER.IT SPA: bad (2.32/0.05)
|   |   |   |   |   |   registrar = RETHEM HOSTING LLC  SPECIALIZING IN DDOS MITIGATION AND ATTACK RESILIENCE: bad (0.0)
|   |   |   |   |   |   registrar = GOOGLE INC.
|   |   |   |   |   |   |   avg_host <= 15.5: good (3.68/0.57)
|   |   |   |   |   |   |   avg_host > 15.5: bad (2.11/0.0)
|   |   |   |   |   |   registrar = GO DADDY LLC: bad (0.0)
|   |   |   |   |   |   registrar = ENOM INC. (R126-LRMS): bad (0.0)
|   |   |   |   |   |   registrar = ENAME TECHNOLOGY CO. LTD.: bad (3.47/0.07)
|   |   |   |   |   |   registrar = PSI-USA INC. DBA DOMAIN ROBOT: bad (1.16/0.02)
|   |   |   |   |   |   registrar = UNIVERSO ONLINE S/A (UOL): bad (3.47/0.07)
|   |   |   |   |   |   registrar = ?????????????: bad (0.0)
|   |   |   |   |   |   registrar = CV. JOGJACAMP: bad (2.32/0.05)
|   |   |   |   |   |   registrar = 1 API GMBH: bad (0.0)
|   |   |   |   |   |   registrar = REGISTER.COM INC. (R71-LROR): bad (0.0)
|   |   |   |   |   |   registrar = GODADDY.COM LLC (R101-AFIN): bad (0.0)
|   |   |   |   |   |   registrar = SE DIREKT: bad (0.0)
|   |   |   |   |   |   registrar = REGISTER.IT S.P.A.: bad (4.63/0.1)
|   |   |   |   |   |   registrar = NETREGISTRY PTY. LTD.: bad (5.79/0.12)
|   |   |   |   |   |   registrar = MESH DIGITAL LIMITED: bad (0.0)
|   |   |   |   |   |   registrar = GANDI: bad (0.0)
|   |   |   |   |   |   registrar = CRONON AG: bad (0.0)
|   |   |   |   |   |   registrar = CRAZY DOMAINS FZ-LLC: bad (2.32/0.05)
|   |   |   |   |   |   registrar = DREAMHOST: bad (10.42/0.22)
|   |   |   |   |   |   registrar = INTERNET INVEST LTD. DBA IMENA.UA: bad (5.79/1.12)
|   |   |   |   |   |   registrar = IHS TELEKOM INC: bad (0.0)
|   |   |   |   |   |   registrar = REGISTRYGATE GMBH: bad (0.0)
|   |   |   |   |   |   registrar = IN2NET NETWORK INC.: bad (0.0)
|   |   |   |   |   |   registrar = WEB COMMERCE COMMUNICATIONS LIMITED DBA WEBNIC.CC: bad (1.16/0.02)
|   |   |   |   |   |   registrar = PLANETDOMAIN PTY LTD: bad (0.0)
|   |   |   |   |   |   registrar = GKG.NET INC.: bad (0.0)
|   |   |   |   |   |   registrar = BIGROCK SOLUTIONS LTD: bad (0.0)
|   |   |   |   |   |   registrar = NET 4 INDIA LIMITED: bad (1.16/0.02)
|   |   |   |   |   |   registrar = NAMESECURE.COM: bad (1.16/0.02)
|   |   |   |   |   |   registrar = EVOPLUS LTD: bad (1.16/0.02)
|   |   |   |   |   |   registrar = BEIJING INNOVATIVE LINKAGE TECHNOLOGY LTD.: bad (0.0)
|   |   |   |   |   |   registrar = NAMEBAY: bad (0.0)
|   |   |   |   |   |   registrar = EVOPLUS LTD.: bad (0.0)
|   |   |   |   |   |   registrar = FBS INC.: bad (1.16/0.02)
|   |   |   |   |   |   registrar = NAME.COM LLC: bad (0.0)
|   |   |   |   |   |   registrar = NETEARTH ONE INC.: bad (5.79/0.12)
|   |   |   |   |   |   registrar = AKKY (UNA DIVISION DE NIC MEXICO): bad (0.0)
|   |   |   |   |   |   registrar = SHINJIRU MSC SDN BHD: bad (0.0)
|   |   |   |   |   |   registrar = REG2C.COM INC.: bad (0.0)
|   |   |   |   |   |   registrar = REG-ACTIVE24: bad (0.0)
|   |   |   |   |   |   registrar = IP MIRROR PTE LTD: bad (0.0)
|   |   |   |   |   |   registrar = NEW DREAM NETWORK LLC DBA DREAMHOST WEB HOSTING: bad (0.0)
|   |   |   |   |   |   registrar = P.A. VIET NAM COMPANY LIMITED: bad (1.16/0.02)
|   |   |   |   |   |   registrar = GANDI SAS (R42-LROR): bad (0.0)
|   |   |   |   |   |   registrar = DATTATEC.COM SRL: bad (0.0)
|   |   |   |   |   |   registrar = PAKNIC PRIVATE LIMITED: bad (0.0)
|   |   |   |   |   |   registrar = ASCIO TECHNOLOGIES INC.: bad (1.16/0.02)
|   |   |   |   |   |   registrar = ENAME TECHNOLOGY CO.LTD.: bad (1.16/0.02)
|   |   |   |   |   |   registrar = PDR LTD: bad (0.0)
|   |   |   |   |   |   registrar = REALTIME REGISTER BV: bad (0.0)
|   |   |   |   |   |   registrar = GMO INTERNET INC. DBA ONAMAE.COM: bad (1.16/0.02)
|   |   |   |   |   |   registrar = KEY-SYSTEMS GMBH (R51-LROR): bad (0.0)
|   |   |   |   |   |   registrar = 1API GMBH: bad (0.0)
|   |   |   |   |   |   registrar = EASYSPACE LTD.: bad (0.0)
|   |   |   |   |   |   registrar = AMAZON REGISTRAR INC.: bad (0.0)
|   |   |   |   |   |   registrar = 10DENCEHISPAHARD S.L: bad (17.37/0.37)
|   |   |   |   |   |   registrar = INTERNET DOMAIN SERVICE BS CORP: bad (0.0)
|   |   |   |   |   |   registrar = CLOUD GROUP LIMITED: bad (0.0)
|   |   |   |   |   |   registrar = LEXSYNERGY LIMITED: bad (0.0)
|   |   |   |   |   |   registrar = GODADDY.COM LLC (R171-LRMS): bad (0.0)
|   |   |   |   |   |   registrar = JAPAN REGISTRY SERVICES CO.LTD.(JPRS): bad (0.0)
|   |   |   |   |   |   registrar = NOMINALIA: bad (0.0)
|   |   |   |   |   |   registrar = NATIONAL INFORMATICS CENTRE (R12-AFIN): bad (0.0)
|   |   |   |   |   |   registrar = GMO INTERNET INC. D/B/A ONAMAE.COM: bad (0.0)
|   |   |   |   |   |   registrar = UAB INTERNETO VIZIJA: bad (0.0)
|   |   |   |   |   |   registrar = ????????????: bad (0.0)
|   |   |   |   |   |   registrar = PDR LTD. D/B/A PUBLICDOMAINREGISTRY.COM (R27-LROR): bad (0.0)
|   |   |   |   |   |   registrar = IHS TELEKOM INC.: bad (0.0)
|   |   |   |   |   |   registrar = NETEARTH ONE INC. D/B/A NETEARTH: bad (1.16/0.02)
|   |   |   |   |   |   registrar = NAMECHEAP INC: bad (0.0)
|   |   |   |   |   |   registrar = NETWORK SOLUTIONS LLC (R122-LRMS): bad (0.0)
|   |   |   |   |   |   registrar = R01-REG-FID: bad (0.0)
|   |   |   |   |   |   registrar = NETREGISTRY PTY LTD: bad (0.0)
|   |   |   |   |   |   registrar = MAT BAO CORPORATION: bad (0.0)
|   |   |   |   |   |   registrar = 1 & 1 INTERNET AG (R73-LROR): bad (0.0)
|   |   |   |   |   |   registrar = ??????????????*: bad (0.0)
|   |   |   |   |   |   registrar = REG-INTERNET-CZ: bad (0.0)
|   |   |   |   |   |   registrar = BIGROCK SOLUTIONS LIMITED: bad (0.0)
|   |   |   |   |   |   registrar = TLDS LLC DBA SRSPLUS: bad (1.16/0.02)
|   |   |   |   |   |   registrar = CSL COMPUTER SERVICE LANGENBACH GMBH D/B/A JOKER.COM A GERMAN GMBH: bad (0.0)
|   |   |   |   |   |   registrar = NOMINALIA INTERNET S.L.: bad (0.0)
|   |   |   |   |   |   registrar = ENOM INC. (R46-AFIN): bad (0.0)
|   |   |   |   |   |   registrar = NIC .PE: bad (0.0)
|   |   |   |   |   |   registrar = ROSPOT SRL: bad (0.0)
|   |   |   |   |   |   registrar = ROMARG SRL: bad (0.0)
|   |   |   |   |   |   registrar = HOSTINGER UAB: bad (1.16/0.02)
|   |   |   |   |   |   registrar = HOSTEUR SARL: bad (0.0)
|   |   |   |   |   |   registrar = NEW DREAM NETWORK LLC: good (4.63/0.53)
|   |   |   |   |   |   registrar = MELBOURNE IT LTD (R52-LROR): bad (0.0)
|   |   |   |   |   |   registrar = ARSYS INTERNET S.L. D/B/A NICLINE.COM: bad (0.0)
|   |   |   |   |   |   registrar = WEBFUSION LTD.: bad (0.0)
|   |   |   |   |   |   registrar = ARDIS-SU: bad (0.0)
|   |   |   |   |   |   registrar = R01-SU: bad (0.0)
|   |   |   |   |   |   registrar = PT ARDH GLOBAL INDONESIA: bad (2.32/0.05)
|   |   |   |   |   |   registrar = NEUBOX INTERNET SA DE CV: bad (0.0)
|   |   |   |   |   |   registrar = DOTSERVE INC: bad (0.0)
|   |   |   |   |   |   registrar = 35 TECHNOLOGY CO. LTD.: bad (0.0)
|   |   |   |   |   |   registrar = ACENS TECHNOLOGIES S.L.U.: bad (0.0)
|   |   |   |   |   |   registrar = TUCOWS DOMAINS INC.TUCOWS DOMAINS INC.: bad (0.0)
|   |   |   |   |   |   registrar = GODADDY.COM LLCGODADDY.COM LLC: bad (0.0)
|   |   |   reg_time > 1326470400: bad (12112.53/148.61)
|   |   tld = org
|   |   |   reg_time <= 1255104000
|   |   |   |   num_ip <= 2
|   |   |   |   |   max_path <= 3
|   |   |   |   |   |   num_ip <= 1: bad (10.29/0.93)
|   |   |   |   |   |   num_ip > 1
|   |   |   |   |   |   |   reg_time <= 1240588800
|   |   |   |   |   |   |   |   max_path <= 1: good (48.41/13.41)
|   |   |   |   |   |   |   |   max_path > 1: bad (16.0/1.0)
|   |   |   |   |   |   |   reg_time > 1240588800: good (51.33/1.33)
|   |   |   |   |   max_path > 3
|   |   |   |   |   |   max_host <= 4
|   |   |   |   |   |   |   max_path <= 27: good (62.46/12.46)
|   |   |   |   |   |   |   max_path > 27: bad (8.0)
|   |   |   |   |   |   max_host > 4: bad (717.15/157.79)
|   |   |   |   num_ip > 2: good (147.45/27.45)
|   |   |   reg_time > 1255104000: bad (1222.91/106.28)
|   |   tld = gov: good (28.0)
|   |   tld = net
|   |   |   reg_time <= 1387728000
|   |   |   |   num_ip <= 2
|   |   |   |   |   reg_time <= 1387036800
|   |   |   |   |   |   num_ip <= 1: bad (157.82/5.54)
|   |   |   |   |   |   num_ip > 1
|   |   |   |   |   |   |   reg_time <= 1307030400: bad (752.39/74.4)
|   |   |   |   |   |   |   reg_time > 1307030400
|   |   |   |   |   |   |   |   reg_time <= 1308931200: good (23.8/8.79)
|   |   |   |   |   |   |   |   reg_time > 1308931200: bad (237.0/6.13)
|   |   |   |   |   reg_time > 1387036800
|   |   |   |   |   |   num_ip <= 1: bad (5.07/0.02)
|   |   |   |   |   |   num_ip > 1: good (36.21/1.19)
|   |   |   |   num_ip > 2
|   |   |   |   |   reg_time <= 848937600: good (52.82/0.82)
|   |   |   |   |   reg_time > 848937600
|   |   |   |   |   |   avg_host <= 10.5: bad (109.38/19.0)
|   |   |   |   |   |   avg_host > 10.5
|   |   |   |   |   |   |   reg_time <= 1207929600: good (46.92/7.92)
|   |   |   |   |   |   |   reg_time > 1207929600
|   |   |   |   |   |   |   |   num_ip <= 5: bad (26.6/3.0)
|   |   |   |   |   |   |   |   num_ip > 5: good (5.01/0.01)
|   |   |   reg_time > 1387728000: bad (1127.97/8.87)
|   |   tld = edu
|   |   |   avg_host <= 10: good (2.0)
|   |   |   avg_host > 10: bad (2.0)
|   |   tld = bg: bad (23.0/2.0)
|   |   tld = com.mx: bad (189.0/1.0)
|   |   tld = ly: bad (0.0)
|   |   tld = ca
|   |   |   max_host <= 4
|   |   |   |   max_path <= 5: good (7.0/2.0)
|   |   |   |   max_path > 5
|   |   |   |   |   max_path <= 14: bad (24.0/2.0)
|   |   |   |   |   max_path > 14: good (2.0)
|   |   |   max_host > 4: bad (381.0/9.0)
|   |   tld = us
|   |   |   max_host <= 4
|   |   |   |   registrar = PDR LTD. D/B/A PUBLICDOMAINREGISTRY.COM: good (0.0)
|   |   |   |   registrar = MARKMONITOR INC.: good (0.0)
|   |   |   |   registrar = GABIA INC.: good (0.0)
|   |   |   |   registrar = GODADDY.COM: good (0.0)
|   |   |   |   registrar = CSC CORPORATE DOMAINS INC.: good (0.0)
|   |   |   |   registrar = US LOCALITY: good (0.0)
|   |   |   |   registrar = GODADDY.COM LLC: good (0.0)
|   |   |   |   registrar = ASCIO TECHNOLOGIES INC: good (0.0)
|   |   |   |   registrar = WEBCC: good (0.0)
|   |   |   |   registrar = RELIABLE SOFTWARE LTD: good (0.0)
|   |   |   |   registrar = R01-RU: good (0.0)
|   |   |   |   registrar = 1&1 INTERNET SE: good (0.0)
|   |   |   |   registrar = NETWORK SOLUTIONS LLC.: good (0.0)
|   |   |   |   registrar = GODADDY.COM INC.: good (35.0)
|   |   |   |   registrar = GIP RENATER: good (0.0)
|   |   |   |   registrar = TUCOWS INC.: good (0.0)
|   |   |   |   registrar = ENOM INC.: good (0.0)
|   |   |   |   registrar = GANDI SAS: good (0.0)
|   |   |   |   registrar = DOMAIN.COM LLC: good (0.0)
|   |   |   |   registrar = FASTDOMAIN INC.: good (0.0)
|   |   |   |   registrar = GODADDY.COM INC. (R171-LRMS): good (0.0)
|   |   |   |   registrar = RU-CENTER-RU: good (0.0)
|   |   |   |   registrar = DNC HOLDINGS INC.: good (0.0)
|   |   |   |   registrar = ENOM INC. (R39-LROR): good (0.0)
|   |   |   |   registrar = MONIKER ONLINE SERVICES LLC: good (0.0)
|   |   |   |   registrar = WILD WEST DOMAINS LLC: good (0.0)
|   |   |   |   registrar = NETWORK SOLUTIONS LLC: good (0.0)
|   |   |   |   registrar = EASYDNS TECHNOLOGIES INC.: good (0.0)
|   |   |   |   registrar = DANESCO TRADING LTD.: good (0.0)
|   |   |   |   registrar = OVH SAS: good (0.0)
|   |   |   |   registrar = CSL COMPUTER SERVICE LANGENBACH GMBH D/B/A JOKER.COM: good (0.0)
|   |   |   |   registrar = NOM-IQ LTD DBA COM LAUDE: good (0.0)
|   |   |   |   registrar = KEY-SYSTEMS GMBH: good (0.0)
|   |   |   |   registrar = REGISTRAR OF DOMAIN NAMES REG.RU LLC: good (0.0)
|   |   |   |   registrar = DIRECTI INTERNET SOLUTIONS PVT. LTD. D/B/A PUBLICDOMAINREGISTRY.COM (R27-LROR): good (0.0)
|   |   |   |   registrar = DYNAMIC NETWORK SERVICES INC: good (0.0)
|   |   |   |   registrar = PAIR NETWORKS INC.D/B/A PAIRNIC: good (0.0)
|   |   |   |   registrar = DIRECTI INTERNET SOLUTIONS PVT. LTD. D/B/A PUBLICDOMAINREGISTRY.COM: good (0.0)
|   |   |   |   registrar = OVH: good (0.0)
|   |   |   |   registrar = PAIRNIC INC: good (0.0)
|   |   |   |   registrar = REGRU-RU: good (0.0)
|   |   |   |   registrar = ASCIO TECHNOLOGIES INC. DANMARK - FILIAL AF ASCIO TECHNOLOGIES INC. USA: good (0.0)
|   |   |   |   registrar = TUCOWS DOMAINS INC.: good (0.0)
|   |   |   |   registrar = MELBOURNE IT LTD. D/B/A INTERNET NAMES WORLDWIDE: good (0.0)
|   |   |   |   registrar = NAMECHEAP INC.: good (0.0)
|   |   |   |   registrar = ONLINE SAS: good (0.0)
|   |   |   |   registrar = NETWORK SOLUTIONS LLC (R63-LROR): good (0.0)
|   |   |   |   registrar = EURODNS S.A.: good (0.0)
|   |   |   |   registrar = BIZCN.COM INC.: good (0.0)
|   |   |   |   registrar = ??????????????: good (0.0)
|   |   |   |   registrar = SOLUCIONES CORPORATIVAS IPSLU: good (0.0)
|   |   |   |   registrar = WEBIQ DOMAINS SOLUTIONS PVT. LTD. (R131-AFIN): good (0.0)
|   |   |   |   registrar = TIERRANET INC. DBA DOMAINDISCOVER: good (0.0)
|   |   |   |   registrar = ONLINENIC INC.: good (0.0)
|   |   |   |   registrar = NAMESILO LLC: good (0.0)
|   |   |   |   registrar = GODADDY.COM LLC (R91-LROR): good (0.0)
|   |   |   |   registrar = REGISTER.COM INC.: good (8.0)
|   |   |   |   registrar = INTERNET DOMAIN SERVICE BS CORP.: good (0.0)
|   |   |   |   registrar = REGIONAL NETWORK INFORMATION CENTER JSC DBA RU-CENTER: good (0.0)
|   |   |   |   registrar = DOMAINPEOPLE INC.: good (0.0)
|   |   |   |   registrar = XINNET TECHNOLOGY CORPORATION: good (0.0)
|   |   |   |   registrar = WEBFUSION LIMITED: good (0.0)
|   |   |   |   registrar = TUCOWS.COM CO.: good (0.0)
|   |   |   |   registrar = TODAYNIC.COM INC.: good (0.0)
|   |   |   |   registrar = LAUNCHPAD.COM INC.: good (0.0)
|   |   |   |   registrar = ALPNAMES LIMITED: good (0.0)
|   |   |   |   registrar = TLD REGISTRAR SOLUTIONS LTD: good (0.0)
|   |   |   |   registrar = MELBOURNE IT LTD: good (0.0)
|   |   |   |   registrar = HOSTING CONCEPTS B.V. D/B/A OPENPROVIDER: good (0.0)
|   |   |   |   registrar = LIQUIDNET LTD.: good (0.0)
|   |   |   |   registrar = XIN NET TECHNOLOGY CORPORATION: good (0.0)
|   |   |   |   registrar = NAME.COM INC.: good (0.0)
|   |   |   |   registrar = ENDURANCE DOMAINS TECHNOLOGY PVT. LTD. (R173-AFIN): good (0.0)
|   |   |   |   registrar = TUCOWS INC. (R11-LROR): good (0.0)
|   |   |   |   registrar = NAMESHIELD: good (0.0)
|   |   |   |   registrar = BIZCN.COMINC.: good (0.0)
|   |   |   |   registrar = DELUXE SMALL BUSINESS SALES INC. D/B/A APLUS.NET: good (0.0)
|   |   |   |   registrar = OPEN CONTACT LTD: good (0.0)
|   |   |   |   registrar = ARDIS-RU: good (0.0)
|   |   |   |   registrar = TLD REGISTRAR SOLUTIONS LTD.: good (0.0)
|   |   |   |   registrar = GRANSY S.R.O D/B/A SUBREG.CZ: good (0.0)
|   |   |   |   registrar = TLDS LLC. D/B/A SRSPLUS: good (0.0)
|   |   |   |   registrar = ICI - ROTLD: good (0.0)
|   |   |   |   registrar = FASTDOMAIN INC. (R1455-LROR): good (0.0)
|   |   |   |   registrar = ENOM INC: good (0.0)
|   |   |   |   registrar = GMO INTERNET INC.: good (0.0)
|   |   |   |   registrar = NAUNET-RU: good (0.0)
|   |   |   |   registrar = HICHINA ZHICHENG TECHNOLOGY LTD.: good (0.0)
|   |   |   |   registrar = ZHUHAI NAISINIKE INFORMATION TECHNOLOGY CO. LTD.: good (0.0)
|   |   |   |   registrar = SHANGHAI MEICHENG TECHNOLOGY INFORMATION DEVELOPMENT CO. LTD.: good (0.0)
|   |   |   |   registrar = 1 & 1 INTERNET AG: good (0.0)
|   |   |   |   registrar = GODADDY.COM INC. (R91-LROR): good (0.0)
|   |   |   |   registrar = ERANET INTERNATIONAL LIMITED: good (0.0)
|   |   |   |   registrar = ONLINENIC INC: good (0.0)
|   |   |   |   registrar = CHENGDU WEST DIMENSION DIGITAL TECHNOLOGY CO. LTD: good (0.0)
|   |   |   |   registrar = NAMECHEAP: good (0.0)
|   |   |   |   registrar = NICS TELEKOMUNIKASYON TICARET LTD.STI.: good (0.0)
|   |   |   |   registrar = ARSYS INTERNET S.L. DBA NICLINE.COM: good (0.0)
|   |   |   |   registrar = JIANGSU BANGNING SCIENCE & TECHNOLOGY CO. LTD: good (0.0)
|   |   |   |   registrar = REGTIME LTD.: good (0.0)
|   |   |   |   registrar = WEBNAMES.CA INC: good (0.0)
|   |   |   |   registrar = INTERNET.BS CORP.: good (0.0)
|   |   |   |   registrar = STICHTING REGISTRAR OF LAST RESORT FOUNDATION: good (0.0)
|   |   |   |   registrar = DYNADOT LLC: good (0.0)
|   |   |   |   registrar = ENDURANCE DOMAINS TECHNOLOGY LLP (R173-AFIN): good (0.0)
|   |   |   |   registrar = DOMAINCONTEXT INC.: good (0.0)
|   |   |   |   registrar = HOSTOPIA.COM INC. D/B/A APLUS.NET: good (0.0)
|   |   |   |   registrar = REGTIME-RU: good (0.0)
|   |   |   |   registrar = REALTIME REGISTER B.V.: good (0.0)
|   |   |   |   registrar = WILD WEST DOMAINS INC.: bad (2.0)
|   |   |   |   registrar = LAUNCHPAD INC. (HOSTGATOR): good (0.0)
|   |   |   |   registrar = SAFENAMES LTD: good (0.0)
|   |   |   |   registrar = REGISTER.IT SPA: good (0.0)
|   |   |   |   registrar = RETHEM HOSTING LLC  SPECIALIZING IN DDOS MITIGATION AND ATTACK RESILIENCE: good (0.0)
|   |   |   |   registrar = GOOGLE INC.: good (0.0)
|   |   |   |   registrar = GO DADDY LLC: good (0.0)
|   |   |   |   registrar = ENOM INC. (R126-LRMS): good (0.0)
|   |   |   |   registrar = ENAME TECHNOLOGY CO. LTD.: good (0.0)
|   |   |   |   registrar = PSI-USA INC. DBA DOMAIN ROBOT: good (0.0)
|   |   |   |   registrar = UNIVERSO ONLINE S/A (UOL): good (0.0)
|   |   |   |   registrar = ?????????????: good (0.0)
|   |   |   |   registrar = CV. JOGJACAMP: good (0.0)
|   |   |   |   registrar = 1 API GMBH: good (0.0)
|   |   |   |   registrar = REGISTER.COM INC. (R71-LROR): good (0.0)
|   |   |   |   registrar = GODADDY.COM LLC (R101-AFIN): good (0.0)
|   |   |   |   registrar = SE DIREKT: good (0.0)
|   |   |   |   registrar = REGISTER.IT S.P.A.: good (0.0)
|   |   |   |   registrar = NETREGISTRY PTY. LTD.: good (0.0)
|   |   |   |   registrar = MESH DIGITAL LIMITED: good (0.0)
|   |   |   |   registrar = GANDI: good (0.0)
|   |   |   |   registrar = CRONON AG: good (0.0)
|   |   |   |   registrar = CRAZY DOMAINS FZ-LLC: good (0.0)
|   |   |   |   registrar = DREAMHOST: good (0.0)
|   |   |   |   registrar = INTERNET INVEST LTD. DBA IMENA.UA: good (0.0)
|   |   |   |   registrar = IHS TELEKOM INC: good (0.0)
|   |   |   |   registrar = REGISTRYGATE GMBH: good (0.0)
|   |   |   |   registrar = IN2NET NETWORK INC.: good (0.0)
|   |   |   |   registrar = WEB COMMERCE COMMUNICATIONS LIMITED DBA WEBNIC.CC: good (0.0)
|   |   |   |   registrar = PLANETDOMAIN PTY LTD: good (0.0)
|   |   |   |   registrar = GKG.NET INC.: good (0.0)
|   |   |   |   registrar = BIGROCK SOLUTIONS LTD: good (0.0)
|   |   |   |   registrar = NET 4 INDIA LIMITED: good (0.0)
|   |   |   |   registrar = NAMESECURE.COM: good (0.0)
|   |   |   |   registrar = EVOPLUS LTD: good (0.0)
|   |   |   |   registrar = BEIJING INNOVATIVE LINKAGE TECHNOLOGY LTD.: good (0.0)
|   |   |   |   registrar = NAMEBAY: good (0.0)
|   |   |   |   registrar = EVOPLUS LTD.: good (0.0)
|   |   |   |   registrar = FBS INC.: good (0.0)
|   |   |   |   registrar = NAME.COM LLC: good (0.0)
|   |   |   |   registrar = NETEARTH ONE INC.: good (0.0)
|   |   |   |   registrar = AKKY (UNA DIVISION DE NIC MEXICO): good (0.0)
|   |   |   |   registrar = SHINJIRU MSC SDN BHD: good (0.0)
|   |   |   |   registrar = REG2C.COM INC.: good (0.0)
|   |   |   |   registrar = REG-ACTIVE24: good (0.0)
|   |   |   |   registrar = IP MIRROR PTE LTD: good (0.0)
|   |   |   |   registrar = NEW DREAM NETWORK LLC DBA DREAMHOST WEB HOSTING: good (0.0)
|   |   |   |   registrar = P.A. VIET NAM COMPANY LIMITED: good (0.0)
|   |   |   |   registrar = GANDI SAS (R42-LROR): good (0.0)
|   |   |   |   registrar = DATTATEC.COM SRL: good (0.0)
|   |   |   |   registrar = PAKNIC PRIVATE LIMITED: good (0.0)
|   |   |   |   registrar = ASCIO TECHNOLOGIES INC.: good (0.0)
|   |   |   |   registrar = ENAME TECHNOLOGY CO.LTD.: good (0.0)
|   |   |   |   registrar = PDR LTD: good (0.0)
|   |   |   |   registrar = REALTIME REGISTER BV: good (0.0)
|   |   |   |   registrar = GMO INTERNET INC. DBA ONAMAE.COM: good (0.0)
|   |   |   |   registrar = KEY-SYSTEMS GMBH (R51-LROR): good (0.0)
|   |   |   |   registrar = 1API GMBH: good (0.0)
|   |   |   |   registrar = EASYSPACE LTD.: good (0.0)
|   |   |   |   registrar = AMAZON REGISTRAR INC.: good (0.0)
|   |   |   |   registrar = 10DENCEHISPAHARD S.L: good (0.0)
|   |   |   |   registrar = INTERNET DOMAIN SERVICE BS CORP: good (0.0)
|   |   |   |   registrar = CLOUD GROUP LIMITED: good (0.0)
|   |   |   |   registrar = LEXSYNERGY LIMITED: good (0.0)
|   |   |   |   registrar = GODADDY.COM LLC (R171-LRMS): good (0.0)
|   |   |   |   registrar = JAPAN REGISTRY SERVICES CO.LTD.(JPRS): good (0.0)
|   |   |   |   registrar = NOMINALIA: good (0.0)
|   |   |   |   registrar = NATIONAL INFORMATICS CENTRE (R12-AFIN): good (0.0)
|   |   |   |   registrar = GMO INTERNET INC. D/B/A ONAMAE.COM: good (0.0)
|   |   |   |   registrar = UAB INTERNETO VIZIJA: good (0.0)
|   |   |   |   registrar = ????????????: good (0.0)
|   |   |   |   registrar = PDR LTD. D/B/A PUBLICDOMAINREGISTRY.COM (R27-LROR): good (0.0)
|   |   |   |   registrar = IHS TELEKOM INC.: good (0.0)
|   |   |   |   registrar = NETEARTH ONE INC. D/B/A NETEARTH: good (0.0)
|   |   |   |   registrar = NAMECHEAP INC: good (0.0)
|   |   |   |   registrar = NETWORK SOLUTIONS LLC (R122-LRMS): good (0.0)
|   |   |   |   registrar = R01-REG-FID: good (0.0)
|   |   |   |   registrar = NETREGISTRY PTY LTD: good (0.0)
|   |   |   |   registrar = MAT BAO CORPORATION: good (0.0)
|   |   |   |   registrar = 1 & 1 INTERNET AG (R73-LROR): good (0.0)
|   |   |   |   registrar = ??????????????*: good (0.0)
|   |   |   |   registrar = REG-INTERNET-CZ: good (0.0)
|   |   |   |   registrar = BIGROCK SOLUTIONS LIMITED: good (0.0)
|   |   |   |   registrar = TLDS LLC DBA SRSPLUS: good (0.0)
|   |   |   |   registrar = CSL COMPUTER SERVICE LANGENBACH GMBH D/B/A JOKER.COM A GERMAN GMBH: good (0.0)
|   |   |   |   registrar = NOMINALIA INTERNET S.L.: good (0.0)
|   |   |   |   registrar = ENOM INC. (R46-AFIN): good (0.0)
|   |   |   |   registrar = NIC .PE: good (0.0)
|   |   |   |   registrar = ROSPOT SRL: good (0.0)
|   |   |   |   registrar = ROMARG SRL: good (0.0)
|   |   |   |   registrar = HOSTINGER UAB: good (0.0)
|   |   |   |   registrar = HOSTEUR SARL: good (0.0)
|   |   |   |   registrar = NEW DREAM NETWORK LLC: good (0.0)
|   |   |   |   registrar = MELBOURNE IT LTD (R52-LROR): good (0.0)
|   |   |   |   registrar = ARSYS INTERNET S.L. D/B/A NICLINE.COM: good (0.0)
|   |   |   |   registrar = WEBFUSION LTD.: good (0.0)
|   |   |   |   registrar = ARDIS-SU: good (0.0)
|   |   |   |   registrar = R01-SU: good (0.0)
|   |   |   |   registrar = PT ARDH GLOBAL INDONESIA: good (0.0)
|   |   |   |   registrar = NEUBOX INTERNET SA DE CV: good (0.0)
|   |   |   |   registrar = DOTSERVE INC: good (0.0)
|   |   |   |   registrar = 35 TECHNOLOGY CO. LTD.: good (0.0)
|   |   |   |   registrar = ACENS TECHNOLOGIES S.L.U.: good (0.0)
|   |   |   |   registrar = TUCOWS DOMAINS INC.TUCOWS DOMAINS INC.: good (0.0)
|   |   |   |   registrar = GODADDY.COM LLCGODADDY.COM LLC: good (0.0)
|   |   |   max_host > 4: bad (196.0/9.0)
|   |   tld = uk: bad (12.0)
|   |   tld = hu: bad (146.0/4.0)
|   |   tld = so
|   |   |   avg_host <= 5.5: bad (5.0)
|   |   |   avg_host > 5.5: good (2.0)
|   |   tld = com.ar: bad (215.0)
|   |   tld = gov.br: bad (0.0)
|   |   tld = no: bad (66.0)
|   |   tld = by
|   |   |   reg_time <= 1220889600
|   |   |   |   avg_host <= 11: good (6.06/0.06)
|   |   |   |   avg_host > 11: bad (3.0)
|   |   |   reg_time > 1220889600: bad (146.94/3.0)
|   |   tld = org.zm: bad (0.0)
|   |   tld = ru: bad (2373.0/261.0)
|   |   tld = in: bad (616.0/3.0)
|   |   tld = org.br: bad (67.0)
|   |   tld = ir: bad (129.0/3.0)
|   |   tld = info: bad (991.0/36.0)
|   |   tld = fr: bad (226.0/2.0)
|   |   tld = pl: bad (565.0/6.0)
|   |   tld = edu.hk: bad (0.0)
|   |   tld = com.br: bad (1823.0/2.0)
|   |   tld = se: bad (128.0/2.0)
|   |   tld = nl: bad (256.0/5.0)
|   |   tld = com.uy: bad (28.0)
|   |   tld = at: bad (87.0/2.0)
|   |   tld = edu.my: bad (11.0)
|   |   tld = ae
|   |   |   max_path <= 2: good (3.0/1.0)
|   |   |   max_path > 2: bad (44.0/1.0)
|   |   tld = de
|   |   |   avg_path <= 10.894737: bad (407.0/5.0)
|   |   |   avg_path > 10.894737
|   |   |   |   avg_path <= 12.416667: bad (19.0)
|   |   |   |   avg_path > 12.416667: good (4.0)
|   |   tld = io
|   |   |   max_path <= 1: good (2.0)
|   |   |   max_path > 1: bad (5.0)
|   |   tld = biz
|   |   |   num_ip <= 3: bad (376.72/1.0)
|   |   |   num_ip > 3
|   |   |   |   reg_time <= 1129132800: good (3.04/0.04)
|   |   |   |   reg_time > 1129132800: bad (19.24)
|   |   tld = pt: bad (110.0/3.0)
|   |   tld = edu.au: bad (5.0)
|   |   tld = si: bad (43.0)
|   |   tld = gov.ua: bad (5.0)
|   |   tld = za: bad (0.0)
|   |   tld = cc: bad (26.0/2.0)
|   |   tld = net.au: bad (62.0/2.0)
|   |   tld = dk
|   |   |   max_host <= 16: bad (112.0/3.0)
|   |   |   max_host > 16
|   |   |   |   avg_host <= 20: bad (13.0/1.0)
|   |   |   |   avg_host > 20: good (6.0)
|   |   tld = tk: bad (141.0)
|   |   tld = jp: bad (33.0/4.0)
|   |   tld = org.np: bad (2.0)
|   |   tld = vn: bad (83.0)
|   |   tld = ua: good (7.0/3.0)
|   |   tld = net.uk: bad (0.0)
|   |   tld = it: bad (475.0/3.0)
|   |   tld = ie
|   |   |   max_path <= 4
|   |   |   |   avg_host <= 13.5: good (2.0)
|   |   |   |   avg_host > 13.5: bad (3.0)
|   |   |   max_path > 4: bad (70.0/2.0)
|   |   tld = gov.np: bad (0.0)
|   |   tld = fi
|   |   |   avg_host <= 5.5: good (2.0)
|   |   |   avg_host > 5.5: bad (10.0/1.0)
|   |   tld = be: bad (122.0/4.0)
|   |   tld = uz: bad (6.0/1.0)
|   |   tld = gov.uk: bad (0.0)
|   |   tld = ch: bad (53.0/3.0)
|   |   tld = es
|   |   |   avg_host <= 17.5: bad (108.0/1.0)
|   |   |   avg_host > 17.5
|   |   |   |   avg_host <= 20: bad (4.0)
|   |   |   |   avg_host > 20: good (4.0/1.0)
|   |   tld = gov.au: bad (0.0)
|   |   tld = cl: bad (384.0/2.0)
|   |   tld = ac: bad (17.0)
|   |   tld = rip: bad (1.0)
|   |   tld = cba.pl: bad (71.0)
|   |   tld = com.au: bad (932.0/11.0)
|   |   tld = int: bad (3.0/1.0)
|   |   tld = edu.ar: bad (4.0)
|   |   tld = com.cn: bad (44.0/2.0)
|   |   tld = mx: bad (63.0)
|   |   tld = lv: bad (18.0)
|   |   tld = cz: bad (155.0/5.0)
|   |   tld = gov.lv: bad (0.0)
|   |   tld = pk: bad (19.0)
|   |   tld = photo: bad (4.0)
|   |   tld = org.uk
|   |   |   max_path <= 7
|   |   |   |   max_path <= 4
|   |   |   |   |   max_path <= 2: good (4.0/1.0)
|   |   |   |   |   max_path > 2: bad (6.0/2.0)
|   |   |   |   max_path > 4: bad (17.0/1.0)
|   |   |   max_path > 7
|   |   |   |   avg_host <= 15
|   |   |   |   |   max_path <= 11
|   |   |   |   |   |   max_path <= 10: bad (3.0/1.0)
|   |   |   |   |   |   max_path > 10: good (3.0)
|   |   |   |   |   max_path > 11: bad (2.0)
|   |   |   |   avg_host > 15: good (3.0)
|   |   tld = com.ng: bad (24.0/1.0)
|   |   tld = top: bad (258.0)
|   |   tld = com.pk: bad (43.0)
|   |   tld = com.tw: bad (28.0)
|   |   tld = gov.tr: bad (1.0)
|   |   tld = mk: bad (6.0)
|   |   tld = eu
|   |   |   max_host <= 9
|   |   |   |   avg_host <= 6.666667: bad (86.0/1.0)
|   |   |   |   avg_host > 6.666667
|   |   |   |   |   avg_host <= 7.5
|   |   |   |   |   |   max_path <= 5
|   |   |   |   |   |   |   avg_path <= 3: bad (5.0)
|   |   |   |   |   |   |   avg_path > 3: good (7.0/1.0)
|   |   |   |   |   |   max_path > 5: bad (14.0/2.0)
|   |   |   |   |   avg_host > 7.5
|   |   |   |   |   |   avg_host <= 8.5: bad (15.0/1.0)
|   |   |   |   |   |   avg_host > 8.5
|   |   |   |   |   |   |   avg_path <= 6.75: bad (20.0/2.0)
|   |   |   |   |   |   |   avg_path > 6.75: good (11.0/1.0)
|   |   |   max_host > 9: bad (157.0/3.0)
|   |   tld = cn: bad (160.0/1.0)
|   |   tld = kr: bad (7.0)
|   |   tld = ro: bad (515.0/6.0)
|   |   tld = co: bad (133.0/2.0)
|   |   tld = gov.ru: good (3.0)
|   |   tld = tv: bad (50.0/4.0)
|   |   tld = mn: bad (30.0/3.0)
|   |   tld = equipment: bad (1.0)
|   |   tld = com.tr: bad (101.0)
|   |   tld = xyz: bad (238.0)
|   |   tld = ve: bad (0.0)
|   |   tld = su: bad (203.0/4.0)
|   |   tld = cymru: bad (0.0)
|   |   tld = nz: bad (0.0)
|   |   tld = org.ec: bad (0.0)
|   |   tld = lt: bad (35.0)
|   |   tld = is: bad (24.0/1.0)
|   |   tld = nf: bad (0.0)
|   |   tld = do: bad (6.0)
|   |   tld = org.ua: good (19.0/3.0)
|   |   tld = name: bad (28.0/1.0)
|   |   tld = com.co: bad (21.0)
|   |   tld = site: bad (16.0)
|   |   tld = org.nz
|   |   |   avg_host <= 4.5: bad (2.0)
|   |   |   avg_host > 4.5: good (7.0/1.0)
|   |   tld = mil: bad (0.0)
|   |   tld = id: bad (12.0)
|   |   tld = sa
|   |   |   avg_host <= 5.5: good (2.0)
|   |   |   avg_host > 5.5: bad (2.0)
|   |   tld = ke: bad (0.0)
|   |   tld = pw: bad (211.0)
|   |   tld = kz: bad (42.0/1.0)
|   |   tld = ga: bad (53.0)
|   |   tld = edu.tw: bad (0.0)
|   |   tld = to: bad (3.0/1.0)
|   |   tld = org.au
|   |   |   avg_host <= 3.5: good (16.0/3.0)
|   |   |   avg_host > 3.5
|   |   |   |   max_path <= 11: bad (31.0)
|   |   |   |   max_path > 11
|   |   |   |   |   max_path <= 16: good (4.0)
|   |   |   |   |   max_path > 16: bad (4.0)
|   |   tld = com.ua
|   |   |   max_path <= 4
|   |   |   |   max_path <= 3
|   |   |   |   |   max_path <= 1
|   |   |   |   |   |   avg_host <= 5.75: bad (2.0)
|   |   |   |   |   |   avg_host > 5.75: good (2.0)
|   |   |   |   |   max_path > 1: bad (4.0)
|   |   |   |   max_path > 3: good (2.0)
|   |   |   max_path > 4
|   |   |   |   max_host <= 3: good (4.0/1.0)
|   |   |   |   max_host > 3: bad (88.0/5.0)
|   |   tld = mu: bad (0.0)
|   |   tld = edu.ph: bad (0.0)
|   |   tld = cat: bad (14.0)
|   |   tld = org.pe: bad (19.0/1.0)
|   |   tld = gq: bad (28.0)
|   |   tld = edu.tt: bad (0.0)
|   |   tld = wang: bad (21.0)
|   |   tld = online: bad (115.0)
|   |   tld = org.in: bad (23.0/1.0)
|   |   tld = gr: bad (139.0)
|   |   tld = ee: bad (2.0)
|   |   tld = mz: bad (0.0)
|   |   tld = im: bad (1.0)
|   |   tld = br: bad (0.0)
|   |   tld = com.na: bad (2.0)
|   |   tld = abc.es: good (42.0)
|   |   tld = il: bad (0.0)
|   |   tld = ma: bad (22.0)
|   |   tld = scb.se: good (1.0)
|   |   tld = gov.mv: good (1.0)
|   |   tld = edu.bd: bad (50.0)
|   |   tld = mobi: bad (12.0/1.0)
|   |   tld = club: bad (44.0)
|   |   tld = ms: good (3.0)
|   |   tld = hr
|   |   |   avg_host <= 5.75: good (2.0)
|   |   |   avg_host > 5.75: bad (6.0/1.0)
|   |   tld = work: bad (118.0)
|   |   tld = host: bad (7.0)
|   |   tld = gov.sg: good (1.0)
|   |   tld = je: bad (3.0)
|   |   tld = sk: bad (73.0/1.0)
|   |   tld = edu.tr: bad (0.0)
|   |   tld = ba: bad (21.0)
|   |   tld = org.lb: bad (0.0)
|   |   tld = tt: bad (2.0)
|   |   tld = asia
|   |   |   max_host <= 14: bad (53.0/1.0)
|   |   |   max_host > 14
|   |   |   |   avg_host <= 16.5: good (2.0)
|   |   |   |   avg_host > 16.5: bad (5.0)
|   |   tld = website.pl: bad (25.0)
|   |   tld = legal: bad (19.0)
|   |   tld = com.tn: bad (4.0)
|   |   tld = gov.my: bad (0.0)
|   |   tld = edu.pk: bad (1.0)
|   |   tld = tj: bad (7.0)
|   |   tld = lk: bad (17.0)
|   |   tld = com.my: bad (65.0/2.0)
|   |   tld = org.mx: bad (4.0/1.0)
|   |   tld = org.cn: good (1.0)
|   |   tld = org.sy: good (2.0)
|   |   tld = link: bad (6.0)
|   |   tld = me: bad (90.0/8.0)
|   |   tld = gdn: bad (18.0)
|   |   tld = tn: bad (8.0)
|   |   tld = edu.pl: bad (11.0)
|   |   tld = gov.by: bad (0.0)
|   |   tld = date: bad (7.0)
|   |   tld = gov.tw: bad (0.0)
|   |   tld = th: bad (0.0)
|   |   tld = bd: bad (0.0)
|   |   tld = rs: bad (73.0)
|   |   tld = mp: bad (2.0)
|   |   tld = news: bad (0.0)
|   |   tld = bb: bad (1.0)
|   |   tld = com.pt: bad (6.0)
|   |   tld = org.za: bad (7.0)
|   |   tld = cr: bad (0.0)
|   |   tld = ao: bad (0.0)
|   |   tld = website: bad (7.0)
|   |   tld = gov.bd: bad (12.0)
|   |   tld = org.af: bad (0.0)
|   |   tld = gov.tn: bad (0.0)
|   |   tld = com.de: bad (10.0)
|   |   tld = com.np: bad (14.0/1.0)
|   |   tld = mg: bad (3.0)
|   |   tld = click: bad (90.0)
|   |   tld = org.pk: bad (8.0)
|   |   tld = al: bad (2.0/1.0)
|   |   tld = tech: bad (8.0)
|   |   tld = com.sg: bad (52.0)
|   |   tld = cf: bad (50.0)
|   |   tld = fm: bad (1.0)
|   |   tld = google.fr: good (49.0)
|   |   tld = nc: good (1.0)
|   |   tld = sg
|   |   |   max_path <= 8: bad (7.0)
|   |   |   max_path > 8: good (2.0)
|   |   tld = madrid.es: good (10.0)
|   |   tld = ec: bad (2.0)
|   |   tld = lu: bad (10.0)
|   |   tld = gov.il: good (1.0)
|   |   tld = gov.za: bad (3.0)
|   |   tld = zw: bad (0.0)
|   |   tld = org.rs: bad (6.0)
|   |   tld = nu
|   |   |   avg_host <= 4.5
|   |   |   |   avg_host <= 3.5: bad (2.0)
|   |   |   |   avg_host > 3.5: good (2.0)
|   |   |   avg_host > 4.5: bad (20.0)
|   |   tld = hk: bad (19.0)
|   |   tld = gov.kw: bad (0.0)
|   |   tld = ws: bad (51.0/1.0)
|   |   tld = mv: good (1.0)
|   |   tld = gov.in: good (1.0)
|   |   tld = com.do: bad (2.0)
|   |   tld = rocks: bad (1.0)
|   |   tld = yandex.ru: good (18.0)
|   |   tld = my: bad (20.0/2.0)
|   |   tld = space: bad (14.0)
|   |   tld = tools: bad (1.0)
|   |   tld = gov.lb: bad (0.0)
|   |   tld = com.py: bad (10.0)
|   |   tld = gov.ar: bad (0.0)
|   |   tld = gov.cn: bad (0.0)
|   |   tld = hn: bad (0.0)
|   |   tld = az: bad (11.0/2.0)
|   |   tld = am
|   |   |   max_path <= 6: good (3.0/1.0)
|   |   |   max_path > 6: bad (5.0)
|   |   tld = gov.sy: bad (2.0)
|   |   tld = edu.sd: bad (0.0)
|   |   tld = com.vn: bad (44.0)
|   |   tld = gov.jo: good (2.0)
|   |   tld = gov.bt: bad (0.0)
|   |   tld = gov.dz: bad (0.0)
|   |   tld = free.fr: bad (29.0/12.0)
|   |   tld = gov.pl: bad (0.0)
|   |   tld = gi: bad (0.0)
|   |   tld = party: bad (1.0)
|   |   tld = site.bz: bad (3.0)
|   |   tld = gov.gh: bad (0.0)
|   |   tld = cbre.cl: good (1.0)
|   |   tld = gov.it: bad (4.0)
|   |   tld = va: bad (0.0)
|   |   tld = com.cy: bad (7.0)
|   |   tld = spiegel.de: good (4.0)
|   |   tld = net.ve: bad (0.0)
|   |   tld = edu.sg: bad (1.0)
|   |   tld = com.pl: bad (59.0/1.0)
|   |   tld = edu.ba: bad (0.0)
|   |   tld = com.ve: bad (30.0)
|   |   tld = ml: bad (46.0)
|   |   tld = world: bad (1.0)
|   |   tld = trade: bad (3.0)
|   |   tld = kg: bad (2.0)
|   |   tld = tw: bad (7.0)
|   |   tld = edu.uy: bad (0.0)
|   |   tld = gov.eg: bad (0.0)
|   |   tld = com.hk: bad (20.0)
|   |   tld = edu.in: bad (5.0)
|   |   tld = au: bad (0.0)
|   |   tld = cab: bad (1.0)
|   |   tld = gov.sa: bad (0.0)
|   |   tld = org.pl: bad (3.0)
|   |   tld = bz: bad (4.0)
|   |   tld = travel: bad (8.0/1.0)
|   |   tld = bid: bad (31.0)
|   |   tld = museum: bad (0.0)
|   |   tld = gov.ma: bad (0.0)
|   |   tld = com.bn: bad (0.0)
|   |   tld = org.il
|   |   |   avg_path <= 7.6: good (4.0)
|   |   |   avg_path > 7.6: bad (10.0)
|   |   tld = org.ph: bad (2.0)
|   |   tld = com.ro: bad (5.0)
|   |   tld = cx: bad (7.0)
|   |   tld = edu.co: bad (6.0)
|   |   tld = com.bo: bad (39.0)
|   |   tld = gov.tl: good (6.0)
|   |   tld = com.pe: bad (12.0)
|   |   tld = gov.se: bad (0.0)
|   |   tld = cm: bad (4.0)
|   |   tld = com.pa: bad (0.0)
|   |   tld = gov.jm: good (1.0)
|   |   tld = ltd.ua: bad (1.0)
|   |   tld = edu.ua: bad (0.0)
|   |   tld = business.dk: good (2.0)
|   |   tld = art.br: bad (3.0)
|   |   tld = edu.pe: bad (5.0)
|   |   tld = li: bad (9.0)
|   |   tld = church: bad (3.0)
|   |   tld = pf: bad (1.0)
|   |   tld = com.ba: bad (8.0)
|   |   tld = com.lb: bad (15.0)
|   |   tld = gov.ph
|   |   |   avg_host <= 12.5: good (4.0)
|   |   |   avg_host > 12.5: bad (3.0)
|   |   tld = org.sz: bad (1.0)
|   |   tld = org.sv: bad (22.0/1.0)
|   |   tld = com.sa: bad (3.0)
|   |   tld = life: bad (2.0)
|   |   tld = gov.pn: bad (0.0)
|   |   tld = sd: bad (1.0)
|   |   tld = edu.qa: bad (0.0)
|   |   tld = pro: bad (28.0/2.0)
|   |   tld = com.bt: bad (0.0)
|   |   tld = gov.mk: bad (0.0)
|   |   tld = gov.pt: bad (0.0)
|   |   tld = ug: bad (0.0)
|   |   tld = gov.mo: bad (0.0)
|   |   tld = re: bad (2.0)
|   |   tld = md: bad (21.0/1.0)
|   |   tld = accountant: bad (2.0)
|   |   tld = ge: bad (28.0)
|   |   tld = gov.vn: bad (7.0/1.0)
|   |   tld = gov.ie: good (2.0)
|   |   tld = cg: bad (0.0)
|   |   tld = clinic: bad (3.0)
|   |   tld = gov.ky: bad (0.0)
|   |   tld = aq: good (1.0)
|   |   tld = gl: good (2.0)
|   |   tld = gov.co: bad (3.0)
|   |   tld = com.mt: bad (2.0)
|   |   tld = net.cn: bad (2.0)
|   |   tld = org.ru: bad (14.0)
|   |   tld = gm: bad (1.0)
|   |   tld = gov.cl: bad (0.0)
|   |   tld = com.ph: bad (14.0)
|   |   tld = gov.al: bad (8.0)
|   |   tld = org.mk: bad (4.0)
|   |   tld = af: bad (2.0/1.0)
|   |   tld = uy: bad (13.0)
|   |   tld = gov.sb: bad (0.0)
|   |   tld = gov.pk: good (1.0)
|   |   tld = ar: bad (0.0)
|   |   tld = pn: bad (0.0)
|   |   tld = net.pl: bad (3.0)
|   |   tld = international: bad (0.0)
|   |   tld = bt: good (2.0)
|   |   tld = org.tr: bad (4.0)
|   |   tld = tz: bad (0.0)
|   |   tld = edu.ru: good (1.0)
|   |   tld = org.my: bad (3.0)
|   |   tld = vacations: bad (1.0)
|   |   tld = blog.br: bad (2.0)
|   |   tld = gov.ve: bad (0.0)
|   |   tld = finance.ua: good (1.0)
|   |   tld = sfr.fr: bad (0.0)
|   |   tld = art.pl: bad (2.0)
|   |   tld = faith: bad (4.0)
|   |   tld = tr: bad (0.0)
|   |   tld = ph: bad (6.0/1.0)
|   |   tld = mil.by: bad (0.0)
|   |   tld = nr: bad (0.0)
|   |   tld = gov.ck: bad (0.0)
|   |   tld = net.in: bad (6.0)
|   |   tld = dz: bad (0.0)
|   |   tld = info.ve: bad (3.0)
|   |   tld = com.gr: bad (4.0)
|   |   tld = pe: bad (35.0)
|   |   tld = gov.kg: bad (0.0)
|   |   tld = catholic.by: good (1.0)
|   |   tld = aero: good (1.0)
|   |   tld = rw: bad (14.0)
|   |   tld = global: bad (4.0)
|   |   tld = sz: bad (0.0)
|   |   tld = com.kw: bad (0.0)
|   |   tld = ht: bad (0.0)
|   |   tld = edu.rs: bad (3.0)
|   |   tld = gov.mm: bad (0.0)
|   |   tld = gov.ge: bad (0.0)
|   |   tld = google.be: good (4.0)
|   |   tld = com.ru: bad (1.0)
|   |   tld = support: bad (7.0)
|   |   tld = gov.lk: bad (0.0)
|   |   tld = church.ua: good (1.0)
|   |   tld = org.lr: bad (0.0)
|   |   tld = bf: bad (0.0)
|   |   tld = edu.mo: bad (0.0)
|   |   tld = gov.lc: bad (0.0)
|   |   tld = gov.vg: bad (0.0)
|   |   tld = gov.sk: bad (0.0)
|   |   tld = la: bad (5.0)
|   |   tld = download: bad (3.0)
|   |   tld = gov.hk: bad (0.0)
|   |   tld = media: bad (3.0)
|   |   tld = lol: bad (4.0)
|   |   tld = net.nz: bad (0.0)
|   |   tld = ne: good (1.0)
|   |   tld = coop: bad (0.0)
|   |   tld = com.gt: bad (3.0)
|   |   tld = lacaixa.es: good (1.0)
|   |   tld = edu.ve: bad (0.0)
|   |   tld = gov.gu: good (2.0)
|   |   tld = org.ar: bad (1.0)
|   |   tld = vu: bad (0.0)
|   |   tld = money.pl: good (1.0)
|   |   tld = gs: bad (1.0)
|   |   tld = gov.qa: bad (0.0)
|   |   tld = org.hk: bad (0.0)
|   |   tld = gov.bs: bad (0.0)
|   |   tld = com.ec: bad (8.0)
|   |   tld = net.kw: bad (0.0)
|   |   tld = edu.cn: bad (0.0)
|   |   tld = net.ua
|   |   |   max_host <= 5
|   |   |   |   avg_host <= 3.5: bad (3.0)
|   |   |   |   avg_host > 3.5: good (3.0)
|   |   |   max_host > 5: bad (6.0)
|   |   tld = gov.ao: bad (0.0)
|   |   tld = mil.za: bad (0.0)
|   |   tld = org.tn: bad (0.0)
|   |   tld = vc: bad (0.0)
|   |   tld = google.ca: good (6.0)
|   |   tld = casa: bad (2.0)
|   |   tld = mint.ca: good (1.0)
|   |   tld = edu.mn: bad (0.0)
|   |   tld = gov.tp: bad (0.0)
|   |   tld = bo: bad (0.0)
|   |   tld = gov.zm: bad (0.0)
|   |   tld = press: bad (1.0)
|   |   tld = one: bad (2.0)
|   |   tld = coop.br: bad (0.0)
|   |   tld = com.mk: bad (3.0)
|   |   tld = gov.hr: good (3.0)
|   |   tld = org.eg: bad (0.0)
|   |   tld = yt: bad (5.0)
|   |   tld = com.eg: bad (2.0)
|   |   tld = gov.pg: bad (1.0)
|   |   tld = edu.ng: bad (0.0)
|   |   tld = mil.ru: bad (0.0)
|   |   tld = gov.ae: bad (0.0)
|   |   tld = org.sg: bad (1.0)
|   |   tld = qa: bad (1.0)
|   |   tld = microsoft.io: good (3.0)
|   |   tld = help: bad (1.0)
|   |   tld = net.my: bad (1.0)
|   |   tld = com.bz: bad (0.0)
|   |   tld = google.no: good (1.0)
|   |   tld = abudhabi.ae: bad (0.0)
|   |   tld = science: bad (5.0/1.0)
|   |   tld = gov.af: bad (0.0)
|   |   tld = gov.ly: bad (2.0/1.0)
|   |   tld = gt: bad (0.0)
|   |   tld = org.bh: bad (0.0)
|   |   tld = computer: bad (1.0)
|   |   tld = net.tr: bad (0.0)
|   |   tld = com.mo: bad (1.0)
|   |   tld = gov.ws: bad (0.0)
|   |   tld = edu.jm: bad (0.0)
|   |   tld = gov.rs: bad (0.0)
|   |   tld = city: bad (0.0)
|   |   tld = edu.so: bad (0.0)
|   |   tld = cu: bad (0.0)
|   |   tld = edu.gh: bad (0.0)
|   |   tld = jo: good (1.0)
|   |   tld = edu.lb: bad (0.0)
|   |   tld = tf: bad (2.0)
|   |   tld = edu.np: bad (2.0)
|   |   tld = net.vn: bad (2.0)
|   |   tld = org.ve: bad (1.0)
|   |   tld = gov.ng: bad (0.0)
|   |   tld = net.br: bad (18.0)
|   |   tld = win: bad (10.0)
|   |   tld = wiki: bad (0.0)
|   |   tld = gg: bad (0.0)
|   |   tld = center.cz: good (1.0)
|   |   tld = gov.gi: bad (0.0)
|   |   tld = com.ge: bad (4.0)
|   |   tld = edu.vn: bad (4.0)
|   |   tld = edu.ro: good (1.0)
|   |   tld = catering: bad (1.0)
|   |   tld = red: bad (1.0)
|   |   tld = tips: bad (0.0)
|   |   tld = bh: bad (1.0)
|   |   tld = ci: bad (2.0)
|   |   tld = sn: bad (7.0)
|   |   tld = cd: bad (1.0)
|   |   tld = sx: bad (2.0)
|   |   tld = com.hr: bad (1.0)
|   |   tld = chat.ru: bad (3.0/1.0)
|   |   tld = coffee: bad (1.0)
|   |   tld = sm: bad (0.0)
|   |   tld = edu.na: bad (0.0)
|   |   tld = gov.mn: bad (0.0)
|   |   tld = edu.mx: bad (3.0)
|   |   tld = com.fj: bad (2.0)
|   |   tld = works: bad (0.0)
|   |   tld = etisalat.ae: bad (1.0)
|   |   tld = today: bad (3.0)
|   |   tld = wales: bad (0.0)
|   |   tld = business.jo: good (1.0)
|   |   tld = org.hn: bad (0.0)
|   |   tld = st: bad (0.0)
|   |   tld = edu.ly: bad (0.0)
|   |   tld = gov.mz: bad (3.0)
|   |   tld = camera.it: good (1.0)
|   |   tld = services: bad (0.0)
|   |   tld = edu.gt: bad (0.0)
|   |   tld = review: bad (3.0)
|   |   tld = cloud: bad (2.0)
|   |   tld = paris.fr: good (1.0)
|   |   tld = gov.tt: bad (0.0)
|   |   tld = ps: bad (1.0)
|   |   tld = tg: bad (0.0)
|   |   tld = edu.br: bad (1.0)
|   |   tld = ink: bad (0.0)
|   |   tld = ad: bad (0.0)
|   |   tld = gov.ls: bad (0.0)
|   |   tld = gov.bh: good (1.0)
|   |   tld = com.es: bad (2.0)
|   |   tld = gov.sd: bad (0.0)
|   |   tld = gov.lr: bad (0.0)
|   |   tld = fo: bad (0.0)
|   |   tld = bio.br: bad (1.0)
|   |   tld = sy: bad (7.0)
|   |   tld = google.dk: good (1.0)
|   |   tld = edu.mk: bad (0.0)
|   |   tld = org.bz: bad (0.0)
|   |   tld = zm: bad (0.0)
|   |   tld = biz.pl: bad (5.0)
|   |   tld = gov.cy: good (1.0)
|   |   tld = sapo.ao: good (2.0)
|   |   tld = market: bad (1.0)
|   |   tld = gov.sh: bad (0.0)
|   |   tld = org.kw: good (4.0)
|   |   tld = edu.sa: bad (0.0)
|   |   tld = org.mt: bad (0.0)
|   |   tld = net.ma: bad (0.0)
|   |   tld = com.kh: bad (6.0)
|   |   tld = expert: bad (5.0)
|   |   tld = gallup.dk: good (1.0)
|   |   tld = gov.mt: bad (0.0)
|   |   tld = university: bad (1.0)
|   |   tld = dj: bad (1.0)
|   |   tld = org.by: good (1.0)
|   |   tld = org.im: bad (0.0)
|   |   tld = cy: bad (0.0)
|   |   tld = gov.na: bad (0.0)
|   |   tld = biz.ua: bad (1.0)
|   |   tld = gov.kz: good (2.0)
|   |   tld = na: bad (0.0)
|   |   tld = sapo.pt: good (2.0)
|   |   tld = om: bad (0.0)
|   |   tld = google.az: bad (0.0)
|   |   tld = fj: bad (0.0)
|   |   tld = webcam: bad (2.0)
|   |   tld = cv: bad (0.0)
|   |   tld = gov.az: bad (0.0)
|   |   tld = ng: bad (1.0)
|   |   tld = gov.fj: bad (0.0)
|   |   tld = law.ge: good (1.0)
|   |   tld = gov.gy: bad (0.0)
|   |   tld = edu.sv: bad (1.0)
|   |   tld = alsace: bad (0.0)
|   |   tld = blog: good (1.0)
|   |   tld = gov.im: bad (0.0)
|   |   tld = com.mv: bad (0.0)
|   |   tld = org.na: bad (0.0)
|   |   tld = gov.ag: good (1.0)
|   |   tld = org.bw: bad (0.0)
|   |   tld = gov.zw: bad (0.0)
|   |   tld = cal.pl: bad (2.0)
|   |   tld = guide: bad (0.0)
|   |   tld = pa: bad (0.0)
|   |   tld = radio.br: bad (1.0)
|   |   tld = gov.gr: bad (0.0)
|   |   tld = gov.dm: bad (0.0)
|   |   tld = mobile.de: bad (1.0)
|   |   tld = org.tw: bad (0.0)
|   |   tld = gov.ki: bad (0.0)
|   |   tld = taipei: bad (0.0)
|   |   tld = info.tr: bad (3.0)
|   |   tld = bm: bad (0.0)
|   |   tld = moe: bad (2.0)
|   |   tld = mil.kg: good (1.0)
|   |   tld = bs: bad (0.0)
|   |   tld = scot: bad (0.0)
|   |   tld = com.ly: bad (0.0)
|   |   tld = biz.id: bad (1.0)
|   |   tld = bzh: bad (0.0)
|   |   tld = sl: good (1.0)
|   |   tld = mc: bad (0.0)
|   |   tld = gov.py: bad (0.0)
|   |   tld = properties: bad (1.0)
|   |   tld = com.bd: bad (1.0)
|   |   tld = org.bd: bad (1.0)
|   |   tld = org.jo: bad (0.0)
|   |   tld = education.fr: good (1.0)
|   |   tld = mw: bad (0.0)
|   |   tld = org.cy: bad (0.0)
|   |   tld = gov.do: bad (0.0)
|   |   tld = london: bad (1.0)
|   |   tld = org.ng: bad (1.0)
|   |   tld = km: bad (0.0)
|   |   tld = club.tw: bad (0.0)
|   |   tld = google.es: good (1.0)
|   |   tld = net.ru: good (1.0)
|   |   tld = org.qa: bad (0.0)
|   |   tld = com.bb: bad (1.0)
|   |   tld = tl: bad (1.0)
|   |   tld = xxx: bad (0.0)
|   |   tld = edu.ec: bad (1.0)
|   |   tld = live: bad (2.0)
|   |   tld = vg: bad (1.0)
|   |   tld = buzz: bad (2.0)
|   |   tld = org.co: bad (0.0)
|   |   tld = guru.ru: good (2.0)
|   |   tld = report: bad (0.0)
|   |   tld = org.py: bad (2.0)
|   |   tld = sc: bad (0.0)
|   |   tld = berlin.de: good (1.0)
|   |   tld = cbs.dk: good (1.0)
|   |   tld = monster.fr: bad (0.0)
|   |   tld = restaurant: bad (0.0)
|   |   tld = org.kz: bad (0.0)
|   |   tld = tc: bad (1.0)
|   |   tld = gift: bad (1.0)
|   |   tld = net.ye: bad (0.0)
|   |   tld = gov.ba: good (1.0)
|   |   tld = intuit.ca: good (1.0)
|   |   tld = free.bg: bad (0.0)
|   |   tld = gov.bn: bad (0.0)
|   |   tld = map.by: good (1.0)
|   |   tld = edu.az: bad (0.0)
|   |   tld = online.de: bad (1.0)
|   |   tld = net.sa: bad (0.0)
|   |   tld = gov.kh: bad (0.0)
|   |   tld = helsinki.fi: good (1.0)
|   |   tld = com.er: bad (0.0)
|   |   tld = tax: bad (1.0)
|   |   tld = agency: bad (1.0)
|   |   tld = racing: bad (1.0)
|   |   tld = press.ma: bad (0.0)
|   |   tld = shaw.ca: bad (1.0)
|   |   tld = gov.mg: bad (0.0)
|   |   tld = pm: bad (0.0)
|   |   tld = gov.om: bad (0.0)
|   |   tld = loan: bad (2.0)
|   |   tld = info.pl: bad (1.0)
|   |   tld = yandex.ua: good (3.0)
|   |   tld = gov.cz: good (1.0)
|   |   tld = gd: bad (0.0)
|   |   tld = run: bad (1.0)
|   |   tld = edu.kh: bad (1.0)
|   |   tld = org.bt: bad (0.0)
|   |   tld = gov.lt: bad (0.0)
|   |   tld = org.ir: bad (0.0)
|   |   tld = ag: good (1.0)
|   |   tld = edu.jo: bad (0.0)
|   |   tld = as: bad (1.0)
|   |   tld = sh: bad (0.0)
|   |   tld = gov.bz: bad (0.0)
|   |   tld = jobs: bad (0.0)
|   |   tld = systems: bad (1.0)
|   |   tld = gov.ms: good (1.0)
|   |   tld = builders: bad (1.0)
|   |   tld = net.tw: bad (0.0)
|   |   tld = ni: bad (0.0)
|   |   tld = cbs.nl: good (2.0)
|   |   tld = gov.ac: bad (0.0)
|   |   tld = org.ls: bad (0.0)
|   |   tld = mil.ve: bad (0.0)
|   |   tld = com.jo: bad (0.0)
|   |   tld = news.sy: bad (0.0)
|   |   tld = institute: bad (0.0)
|   |   tld = edu.pt: bad (1.0)
|   |   tld = care: bad (1.0)
|   |   tld = biz.tr: bad (1.0)
|   |   tld = open.by: good (1.0)
|   dot_num > 0
|   |   dot_num <= 1
|   |   |   tld = com
|   |   |   |   reg_time <= 1185206400
|   |   |   |   |   registrar = PDR LTD. D/B/A PUBLICDOMAINREGISTRY.COM
|   |   |   |   |   |   max_host <= 11: good (28.99/6.41)
|   |   |   |   |   |   max_host > 11: bad (23.74/8.58)
|   |   |   |   |   registrar = MARKMONITOR INC.
|   |   |   |   |   |   num_ip <= 1: bad (17.92/2.51)
|   |   |   |   |   |   num_ip > 1
|   |   |   |   |   |   |   max_host <= 8
|   |   |   |   |   |   |   |   avg_host <= 5.625: good (51.49/3.53)
|   |   |   |   |   |   |   |   avg_host > 5.625: bad (3.63/0.15)
|   |   |   |   |   |   |   max_host > 8: good (102.69/8.78)
|   |   |   |   |   registrar = GABIA INC.: bad (3.77/1.23)
|   |   |   |   |   registrar = GODADDY.COM: good (0.0)
|   |   |   |   |   registrar = CSC CORPORATE DOMAINS INC.
|   |   |   |   |   |   num_ip <= 1: bad (21.39/1.91)
|   |   |   |   |   |   num_ip > 1: good (200.8/14.39)
|   |   |   |   |   registrar = US LOCALITY: good (0.0)
|   |   |   |   |   registrar = GODADDY.COM LLC
|   |   |   |   |   |   reg_time <= 851875200
|   |   |   |   |   |   |   avg_host <= 6.571429
|   |   |   |   |   |   |   |   num_ip <= 1: bad (7.99/1.43)
|   |   |   |   |   |   |   |   num_ip > 1
|   |   |   |   |   |   |   |   |   max_path <= 10: good (34.09/4.26)
|   |   |   |   |   |   |   |   |   max_path > 10: bad (3.96/1.34)
|   |   |   |   |   |   |   avg_host > 6.571429: bad (442.99/9.4)
|   |   |   |   |   |   reg_time > 851875200
|   |   |   |   |   |   |   num_ip <= 1: bad (74.71/7.75)
|   |   |   |   |   |   |   num_ip > 1
|   |   |   |   |   |   |   |   avg_host <= 12.75
|   |   |   |   |   |   |   |   |   num_ip <= 2
|   |   |   |   |   |   |   |   |   |   max_path <= 5
|   |   |   |   |   |   |   |   |   |   |   reg_time <= 971193600: good (29.86/4.42)
|   |   |   |   |   |   |   |   |   |   |   reg_time > 971193600
|   |   |   |   |   |   |   |   |   |   |   |   reg_time <= 1057593600
|   |   |   |   |   |   |   |   |   |   |   |   |   max_host <= 12
|   |   |   |   |   |   |   |   |   |   |   |   |   |   max_path <= 1
|   |   |   |   |   |   |   |   |   |   |   |   |   |   |   reg_time <= 1030377600: good (5.01/0.41)
|   |   |   |   |   |   |   |   |   |   |   |   |   |   |   reg_time > 1030377600: bad (6.6/1.06)
|   |   |   |   |   |   |   |   |   |   |   |   |   |   max_path > 1: bad (15.19/2.32)
|   |   |   |   |   |   |   |   |   |   |   |   |   max_host > 12: good (14.49/5.04)
|   |   |   |   |   |   |   |   |   |   |   |   reg_time > 1057593600: good (77.29/25.38)
|   |   |   |   |   |   |   |   |   |   max_path > 5: good (400.41/84.51)
|   |   |   |   |   |   |   |   |   num_ip > 2: good (109.49/7.24)
|   |   |   |   |   |   |   |   avg_host > 12.75
|   |   |   |   |   |   |   |   |   num_ip <= 2: bad (27.27/2.37)
|   |   |   |   |   |   |   |   |   num_ip > 2: good (2.19/0.19)
|   |   |   |   |   registrar = ASCIO TECHNOLOGIES INC: bad (43.94/6.63)
|   |   |   |   |   registrar = WEBCC: good (0.0)
|   |   |   |   |   registrar = RELIABLE SOFTWARE LTD: good (0.0)
|   |   |   |   |   registrar = R01-RU: good (0.0)
|   |   |   |   |   registrar = 1&1 INTERNET SE: good (18.83/3.7)
|   |   |   |   |   registrar = NETWORK SOLUTIONS LLC.
|   |   |   |   |   |   num_ip <= 1
|   |   |   |   |   |   |   avg_host <= 9
|   |   |   |   |   |   |   |   max_path <= 3: bad (9.32/2.1)
|   |   |   |   |   |   |   |   max_path > 3: good (51.52/17.86)
|   |   |   |   |   |   |   avg_host > 9: bad (46.05/4.79)
|   |   |   |   |   |   num_ip > 1
|   |   |   |   |   |   |   max_host <= 5
|   |   |   |   |   |   |   |   avg_host <= 4.4: good (53.84/4.08)
|   |   |   |   |   |   |   |   avg_host > 4.4: bad (16.66/0.33)
|   |   |   |   |   |   |   max_host > 5
|   |   |   |   |   |   |   |   max_host <= 16
|   |   |   |   |   |   |   |   |   num_ip <= 2
|   |   |   |   |   |   |   |   |   |   max_host <= 13
|   |   |   |   |   |   |   |   |   |   |   avg_host <= 8.25: good (291.41/36.01)
|   |   |   |   |   |   |   |   |   |   |   avg_host > 8.25: bad (13.13/3.0)
|   |   |   |   |   |   |   |   |   |   max_host > 13: good (84.26/6.23)
|   |   |   |   |   |   |   |   |   num_ip > 2: good (151.77/8.48)
|   |   |   |   |   |   |   |   max_host > 16
|   |   |   |   |   |   |   |   |   avg_host <= 13.25
|   |   |   |   |   |   |   |   |   |   avg_host <= 9.75: bad (2.67)
|   |   |   |   |   |   |   |   |   |   avg_host > 9.75: good (29.51/6.81)
|   |   |   |   |   |   |   |   |   avg_host > 13.25: bad (5.58/1.26)
|   |   |   |   |   registrar = GODADDY.COM INC.
|   |   |   |   |   |   avg_host <= 13.7
|   |   |   |   |   |   |   avg_host <= 9: good (108.72/16.27)
|   |   |   |   |   |   |   avg_host > 9
|   |   |   |   |   |   |   |   num_ip <= 1: bad (7.1/0.13)
|   |   |   |   |   |   |   |   num_ip > 1: good (16.35/2.58)
|   |   |   |   |   |   avg_host > 13.7: bad (8.42/0.07)
|   |   |   |   |   registrar = GIP RENATER: good (0.0)
|   |   |   |   |   registrar = TUCOWS INC.
|   |   |   |   |   |   num_ip <= 1: bad (31.27/11.0)
|   |   |   |   |   |   num_ip > 1: good (199.7/51.86)
|   |   |   |   |   registrar = ENOM INC.
|   |   |   |   |   |   num_ip <= 1: bad (36.64/9.66)
|   |   |   |   |   |   num_ip > 1
|   |   |   |   |   |   |   avg_host <= 4.5
|   |   |   |   |   |   |   |   max_host <= 6: good (34.47/7.76)
|   |   |   |   |   |   |   |   max_host > 6: bad (10.97)
|   |   |   |   |   |   |   avg_host > 4.5
|   |   |   |   |   |   |   |   reg_time <= 1112976000: good (155.22/22.68)
|   |   |   |   |   |   |   |   reg_time > 1112976000
|   |   |   |   |   |   |   |   |   max_path <= 7: bad (34.83/10.68)
|   |   |   |   |   |   |   |   |   max_path > 7: good (35.43/10.57)
|   |   |   |   |   registrar = GANDI SAS
|   |   |   |   |   |   avg_host <= 7.5: good (41.22/5.37)
|   |   |   |   |   |   avg_host > 7.5: bad (15.27/5.54)
|   |   |   |   |   registrar = DOMAIN.COM LLC
|   |   |   |   |   |   reg_time <= 1086192000
|   |   |   |   |   |   |   num_ip <= 1: bad (3.74/0.31)
|   |   |   |   |   |   |   num_ip > 1: good (35.33/3.12)
|   |   |   |   |   |   reg_time > 1086192000: bad (21.18/5.09)
|   |   |   |   |   registrar = FASTDOMAIN INC.
|   |   |   |   |   |   num_ip <= 3
|   |   |   |   |   |   |   num_ip <= 1: bad (8.21/3.47)
|   |   |   |   |   |   |   num_ip > 1: good (41.22/2.75)
|   |   |   |   |   |   num_ip > 3: bad (4.55/0.3)
|   |   |   |   |   registrar = GODADDY.COM INC. (R171-LRMS): good (0.0)
|   |   |   |   |   registrar = RU-CENTER-RU: good (0.0)
|   |   |   |   |   registrar = DNC HOLDINGS INC.
|   |   |   |   |   |   num_ip <= 1: bad (2.18/0.19)
|   |   |   |   |   |   num_ip > 1: good (20.42/1.26)
|   |   |   |   |   registrar = ENOM INC. (R39-LROR): good (0.0)
|   |   |   |   |   registrar = MONIKER ONLINE SERVICES LLC
|   |   |   |   |   |   max_host <= 8: bad (7.59/1.23)
|   |   |   |   |   |   max_host > 8: good (8.73/1.98)
|   |   |   |   |   registrar = WILD WEST DOMAINS LLC
|   |   |   |   |   |   num_ip <= 1: bad (4.47/0.4)
|   |   |   |   |   |   num_ip > 1
|   |   |   |   |   |   |   max_path <= 5
|   |   |   |   |   |   |   |   max_path <= 1: good (8.12/1.46)
|   |   |   |   |   |   |   |   max_path > 1: bad (7.77/1.19)
|   |   |   |   |   |   |   max_path > 5: good (26.08/2.54)
|   |   |   |   |   registrar = NETWORK SOLUTIONS LLC: good (0.0)
|   |   |   |   |   registrar = EASYDNS TECHNOLOGIES INC.: good (11.3/1.62)
|   |   |   |   |   registrar = DANESCO TRADING LTD.: good (0.0)
|   |   |   |   |   registrar = OVH SAS
|   |   |   |   |   |   country = AU: good (0.05/0.01)
|   |   |   |   |   |   country = US: good (0.09/0.02)
|   |   |   |   |   |   country = CN: good (0.04/0.01)
|   |   |   |   |   |   country = UNITED STATES: good (0.0)
|   |   |   |   |   |   country = PK: good (0.0/0.0)
|   |   |   |   |   |   country = UK: bad (0.01/0.0)
|   |   |   |   |   |   country = IN: good (0.02/0.01)
|   |   |   |   |   |   country = UA: good (0.0)
|   |   |   |   |   |   country = HK: good (0.02/0.0)
|   |   |   |   |   |   country = TR: good (0.02/0.0)
|   |   |   |   |   |   country = PR: good (0.0)
|   |   |   |   |   |   country = JP: good (0.01/0.0)
|   |   |   |   |   |   country = FR: good (14.41/3.96)
|   |   |   |   |   |   country = GB: bad (0.06/0.02)
|   |   |   |   |   |   country = EC: good (0.0)
|   |   |   |   |   |   country = CA: good (0.04/0.0)
|   |   |   |   |   |   country = IT: good (0.01/0.0)
|   |   |   |   |   |   country = DK: good (0.0)
|   |   |   |   |   |   country = IL: good (0.01/0.0)
|   |   |   |   |   |   country = DE: good (0.04/0.02)
|   |   |   |   |   |   country = CY: bad (0.03/0.0)
|   |   |   |   |   |   country = MALAYSIA: good (0.0)
|   |   |   |   |   |   country = PA: good (0.0)
|   |   |   |   |   |   country = KR: good (0.02/0.0)
|   |   |   |   |   |   country = AE: good (0.0)
|   |   |   |   |   |   country = SG: good (0.0)
|   |   |   |   |   |   country = ES: bad (2.64/0.28)
|   |   |   |   |   |   country = GERMANY: good (0.0)
|   |   |   |   |   |   country = PH: good (0.0)
|   |   |   |   |   |   country = NL: good (0.01/0.0)
|   |   |   |   |   |   country = NG: good (0.0)
|   |   |   |   |   |   country = RU: good (0.0)
|   |   |   |   |   |   country = LU: good (0.02/0.0)
|   |   |   |   |   |   country = CL: good (0.0)
|   |   |   |   |   |   country = CZ: good (0.0)
|   |   |   |   |   |   country = BS: good (0.0)
|   |   |   |   |   |   country = KE: good (0.0)
|   |   |   |   |   |   country = BE: good (0.01/0.0)
|   |   |   |   |   |   country = BH: good (0.0)
|   |   |   |   |   |   country = CH: good (0.0)
|   |   |   |   |   |   country = NA: good (0.0)
|   |   |   |   |   |   country = BD: good (0.0)
|   |   |   |   |   |   country = PL: good (0.0)
|   |   |   |   |   |   country = PT: good (0.0)
|   |   |   |   |   |   country = TH: good (0.0)
|   |   |   |   |   |   country = NZ: good (0.0)
|   |   |   |   |   |   country = HR: good (0.0)
|   |   |   |   |   |   country = CO: good (0.0)
|   |   |   |   |   |   country = ML: good (0.0)
|   |   |   |   |   |   country = IRAN: good (0.0)
|   |   |   |   |   |   country = ID: good (0.0)
|   |   |   |   |   |   country = COLOMBIA: good (0.0)
|   |   |   |   |   |   country = JO: good (0.0)
|   |   |   |   |   |   country = TZ: good (0.0)
|   |   |   |   |   |   country = IE: good (0.0)
|   |   |   |   |   |   country = AR: good (0.0)
|   |   |   |   |   |   country = IS: good (0.0)
|   |   |   |   |   |   country = BOSNIA AND HERZEGOVINA: good (0.0)
|   |   |   |   |   |   country = ET: good (0.0)
|   |   |   |   |   |   country = IR: good (0.0)
|   |   |   |   |   |   country = MX: good (0.0)
|   |   |   |   |   |   country = BRASIL: good (0.0)
|   |   |   |   |   |   country = UNITED KINGDOM: good (0.0)
|   |   |   |   |   |   country = GR: good (0.0)
|   |   |   |   |   |   country = GQ: good (0.0)
|   |   |   |   |   |   country = CANADA: good (0.0)
|   |   |   |   |   |   country = MT: good (0.0)
|   |   |   |   |   |   country = GH: good (0.0)
|   |   |   |   |   |   country = NP: good (0.0)
|   |   |   |   |   |   country = EG: good (0.0)
|   |   |   |   |   |   country = CHINA: good (0.01/0.0)
|   |   |   |   |   |   country = SE: bad (0.05/0.0)
|   |   |   |   |   |   country = KOREA: good (0.0)
|   |   |   |   |   |   country = UG: good (0.0)
|   |   |   |   |   |   country = BR: good (0.0)
|   |   |   |   |   |   country = PE: good (0.0)
|   |   |   |   |   |   country = KY: good (0.02/0.0)
|   |   |   |   |   |   country = MN: good (0.0)
|   |   |   |   |   |   country = CR: good (0.0)
|   |   |   |   |   |   country = NO: good (0.01/0.0)
|   |   |   |   |   |   country = AUSTRALIA: good (0.0)
|   |   |   |   |   |   country = RO: good (0.0)
|   |   |   |   |   |   country = AM: good (0.0)
|   |   |   |   |   |   country = SOUTH AFRICA: good (0.0)
|   |   |   |   |   |   country = VN: good (0.0)
|   |   |   |   |   |   country = DZ: good (0.0)
|   |   |   |   |   |   country = AF: good (0.0)
|   |   |   |   |   |   country = MY: good (0.0)
|   |   |   |   |   |   country = ZA: good (0.0)
|   |   |   |   |   |   country = AT: good (0.0)
|   |   |   |   |   |   country = MA: good (0.0)
|   |   |   |   |   |   country = VE: good (0.0)
|   |   |   |   |   |   country = NI: good (0.0)
|   |   |   |   |   |   country = AL: good (0.0)
|   |   |   |   |   |   country = SI: good (0.0)
|   |   |   |   |   |   country = BO: good (0.0)
|   |   |   |   |   |   country = RUSSIAN FEDERATION: good (0.0)
|   |   |   |   |   |   country = LV: good (0.0)
|   |   |   |   |   |   country = SA: good (0.0)
|   |   |   |   |   |   country = KW: good (0.0)
|   |   |   |   |   |   country = CZECH REPUBLIC: good (0.0)
|   |   |   |   |   |   country = MG: good (0.0)
|   |   |   |   |   |   country = GE: good (0.0)
|   |   |   |   |   |   country = BG: good (0.0)
|   |   |   |   |   |   country = UKRAINE: good (0.0)
|   |   |   |   |   |   country = LB: good (0.0)
|   |   |   |   |   |   country = DO: good (0.0)
|   |   |   |   |   |   country = BA: good (0.0)
|   |   |   |   |   |   country = RS: good (0.0)
|   |   |   |   |   |   country = TW: good (0.01/0.0)
|   |   |   |   |   |   country = ITALY: good (0.0)
|   |   |   |   |   |   country = CAN: good (0.0)
|   |   |   |   |   |   country = BZ: good (0.0)
|   |   |   |   |   |   country = SO: good (0.0)
|   |   |   |   |   |   country = JAPAN: good (0.0)
|   |   |   |   |   |   country = YE: good (0.0)
|   |   |   |   |   |   country = PY: good (0.0)
|   |   |   |   |   |   country = HU: good (0.0)
|   |   |   |   |   |   country = INDONESIA: good (0.0)
|   |   |   |   |   |   country = ZW: good (0.0)
|   |   |   |   |   |   country = TL: good (0.0)
|   |   |   |   |   |   country = GM: good (0.0)
|   |   |   |   |   |   country = FI: good (0.0)
|   |   |   |   |   |   country = SD: good (0.0)
|   |   |   |   |   |   country = PANAMA: good (0.0)
|   |   |   |   |   |   country = JM: good (0.0)
|   |   |   |   |   |   country = QA: good (0.0)
|   |   |   |   |   |   country = TURKEY: good (0.0)
|   |   |   |   |   |   country = SV: good (0.0)
|   |   |   |   |   |   country = MD: good (0.0)
|   |   |   |   |   |   country = POLAND: good (0.0)
|   |   |   |   |   |   country = SC: good (0.0)
|   |   |   |   |   |   country = SWITZERLAND: good (0.0)
|   |   |   |   |   |   country = GT: good (0.0)
|   |   |   |   |   |   country = LT: good (0.0)
|   |   |   |   |   |   country = IQ: good (0.0)
|   |   |   |   |   |   country = AD: good (0.0)
|   |   |   |   |   |   country = BY: good (0.0)
|   |   |   |   |   |   country = VU: good (0.0)
|   |   |   |   |   |   country = THAILA: good (0.0)
|   |   |   |   |   |   country = VIET NAM: good (0.0)
|   |   |   |   |   |   country = BRAZIL: good (0.0)
|   |   |   |   |   |   country = GY: good (0.0)
|   |   |   |   |   |   country = CYPRUS: good (0.0)
|   |   |   |   |   |   country = SEYCHELLES: good (0.0)
|   |   |   |   |   |   country = GUATEMALA: good (0.0)
|   |   |   |   |   |   country = BT: good (0.0)
|   |   |   |   |   |   country = LA: good (0.0)
|   |   |   |   |   |   country = SK: good (0.0)
|   |   |   |   |   |   country = HN: good (0.0)
|   |   |   |   |   |   country = VG: good (0.0)
|   |   |   |   |   |   country = UNITED: good (0.0)
|   |   |   |   |   |   country = MV: good (0.0)
|   |   |   |   |   |   country = TN: good (0.0)
|   |   |   |   |   |   country = MC: good (0.0)
|   |   |   |   |   |   country = LK: good (0.0)
|   |   |   |   |   |   country = FRANCE: good (0.0)
|   |   |   |   |   |   country = INDIA: good (0.0)
|   |   |   |   |   |   country = CU: good (0.0)
|   |   |   |   |   |   country = KZ: good (0.0)
|   |   |   |   |   |   country = YU: good (0.0)
|   |   |   |   |   |   country = OM: good (0.0)
|   |   |   |   |   |   country = UY: good (0.0)
|   |   |   |   |   |   country = ?????????????: good (0.0)
|   |   |   |   |   |   country = VIET N: good (0.0)
|   |   |   |   |   |   country = BW: good (0.0)
|   |   |   |   |   |   country = TC: good (0.0)
|   |   |   |   |   |   country = VI: good (0.0)
|   |   |   |   |   |   country = BB: good (0.01/0.0)
|   |   |   |   |   |   country = DM: good (0.0)
|   |   |   |   |   |   country = AO: good (0.0)
|   |   |   |   |   |   country = CG: good (0.0)
|   |   |   |   |   |   country = CM: good (0.0)
|   |   |   |   |   |   country = SINGAPORE: good (0.0)
|   |   |   |   |   |   country = NIGERIA: good (0.0)
|   |   |   |   |   |   country = MU: good (0.0)
|   |   |   |   |   |   country = ISRAEL: good (0.0)
|   |   |   |   |   |   country = SR: good (0.0)
|   |   |   |   |   |   country = ME: good (0.0)
|   |   |   |   |   |   country = ZM: good (0.0)
|   |   |   |   |   |   country = GI: good (0.0/0.0)
|   |   |   |   |   |   country = REPUBLIC OF KOREA: good (0.0)
|   |   |   |   |   |   country = AN: good (0.0)
|   |   |   |   |   |   country = TT: good (0.0)
|   |   |   |   |   |   country = EE: good (0.0)
|   |   |   |   |   |   country = MK: good (0.0)
|   |   |   |   |   |   country = ROMANIA: good (0.0)
|   |   |   |   |   |   country = AS: good (0.0)
|   |   |   |   |   |   country = MQ: good (0.0)
|   |   |   |   |   |   country = VENEZUELA: good (0.0)
|   |   |   |   |   |   country = CV: good (0.0)
|   |   |   |   |   |   country = PN: good (0.0)
|   |   |   |   |   |   country = GP: good (0.0)
|   |   |   |   |   |   country = BELGIUM: good (0.0)
|   |   |   |   |   |   country = JORDAN: good (0.0)
|   |   |   |   |   |   country = LY: good (0.0)
|   |   |   |   |   |   country = AZ: good (0.0)
|   |   |   |   |   |   country = GA: good (0.0)
|   |   |   |   |   |   country = VA: good (0.0)
|   |   |   |   |   |   country = CK: good (0.0)
|   |   |   |   |   |   country = CI: good (0.0)
|   |   |   |   |   |   country = ER: good (0.0)
|   |   |   |   |   |   country = KG: good (0.0)
|   |   |   |   |   |   country = PS: good (0.0)
|   |   |   |   |   |   country = BM: good (0.0)
|   |   |   |   |   |   country = KH: good (0.0)
|   |   |   |   |   |   country = PAKISTAN: good (0.0)
|   |   |   |   |   |   country = VC: good (0.0)
|   |   |   |   |   |   country = HONG KONG: good (0.0)
|   |   |   |   |   |   country = UNITEDSTATES: good (0.0)
|   |   |   |   |   |   country = KN: good (0.0)
|   |   |   |   |   |   country = KM: good (0.0)
|   |   |   |   |   |   country = UN: good (0.0)
|   |   |   |   |   |   country = AUSTRIA: good (0.0)
|   |   |   |   |   |   country = CD: good (0.0)
|   |   |   |   |   |   country = MZ: good (0.0)
|   |   |   |   |   |   country = SN: good (0.0)
|   |   |   |   |   |   country = EGYPT: good (0.0)
|   |   |   |   |   |   country = PF: good (0.0)
|   |   |   |   |   |   country = LITHUANIA: good (0.0)
|   |   |   |   |   |   country = AZERBAIJAN: good (0.0)
|   |   |   |   |   |   country = NETHERLANDS: good (0.0)
|   |   |   |   |   |   country = BN: good (0.0)
|   |   |   |   |   |   country = TG: good (0.0)
|   |   |   |   |   |   country = IRELAND: good (0.0)
|   |   |   |   |   |   country = -: good (0.0)
|   |   |   |   |   |   country = COSTA RICA: good (0.0)
|   |   |   |   |   |   country = SL: good (0.0)
|   |   |   |   |   |   country = PAKIST: good (0.0)
|   |   |   |   |   |   country = SPAIN: good (0.0)
|   |   |   |   |   |   country = AG: good (0.0)
|   |   |   |   |   |   country = SY: good (0.0)
|   |   |   |   |   |   country = FJ: good (0.0)
|   |   |   |   |   |   country = UGANDA: good (0.0)
|   |   |   |   |   |   country = TK: good (0.0)
|   |   |   |   |   |   country = BAHAMAS: good (0.0)
|   |   |   |   |   |   country = LUXEMBOURG: good (0.0)
|   |   |   |   |   |   country = UZ: good (0.0)
|   |   |   |   |   |   country = NC: good (0.0)
|   |   |   |   |   |   country = LR: good (0.0)
|   |   |   |   |   |   country = STATUS: good (0.0)
|   |   |   |   |   |   country = TAIWAN: good (0.0)
|   |   |   |   |   |   country = KV: good (0.0)
|   |   |   |   |   |   country = MM: good (0.0)
|   |   |   |   |   |   country = THAILAND: good (0.0)
|   |   |   |   |   |   country = ISTANB: good (0.0)
|   |   |   |   |   registrar = CSL COMPUTER SERVICE LANGENBACH GMBH D/B/A JOKER.COM: good (10.04/2.44)
|   |   |   |   |   registrar = NOM-IQ LTD DBA COM LAUDE: good (1.26/0.18)
|   |   |   |   |   registrar = KEY-SYSTEMS GMBH
|   |   |   |   |   |   num_ip <= 1: bad (3.7/0.15)
|   |   |   |   |   |   num_ip > 1: good (13.87/2.97)
|   |   |   |   |   registrar = REGISTRAR OF DOMAIN NAMES REG.RU LLC: good (0.0)
|   |   |   |   |   registrar = DIRECTI INTERNET SOLUTIONS PVT. LTD. D/B/A PUBLICDOMAINREGISTRY.COM (R27-LROR): good (0.0)
|   |   |   |   |   registrar = DYNAMIC NETWORK SERVICES INC: bad (31.38/1.88)
|   |   |   |   |   registrar = PAIR NETWORKS INC.D/B/A PAIRNIC: good (3.77/0.54)
|   |   |   |   |   registrar = DIRECTI INTERNET SOLUTIONS PVT. LTD. D/B/A PUBLICDOMAINREGISTRY.COM
|   |   |   |   |   |   max_host <= 10: good (5.49/1.28)
|   |   |   |   |   |   max_host > 10: bad (2.04/0.24)
|   |   |   |   |   registrar = OVH: good (16.32/6.34)
|   |   |   |   |   registrar = PAIRNIC INC: good (2.51/0.36)
|   |   |   |   |   registrar = REGRU-RU: good (0.0)
|   |   |   |   |   registrar = ASCIO TECHNOLOGIES INC. DANMARK - FILIAL AF ASCIO TECHNOLOGIES INC. USA: bad (18.83/2.13)
|   |   |   |   |   registrar = TUCOWS DOMAINS INC.
|   |   |   |   |   |   num_ip <= 1: bad (5.8/0.52)
|   |   |   |   |   |   num_ip > 1
|   |   |   |   |   |   |   max_path <= 7
|   |   |   |   |   |   |   |   max_host <= 10: bad (9.35/2.69)
|   |   |   |   |   |   |   |   max_host > 10: good (17.55/2.52)
|   |   |   |   |   |   |   max_path > 7: good (27.56/2.17)
|   |   |   |   |   registrar = MELBOURNE IT LTD. D/B/A INTERNET NAMES WORLDWIDE
|   |   |   |   |   |   num_ip <= 1: bad (11.16/1.91)
|   |   |   |   |   |   num_ip > 1: good (94.29/10.88)
|   |   |   |   |   registrar = NAMECHEAP INC.: good (0.0)
|   |   |   |   |   registrar = ONLINE SAS: good (2.51/0.36)
|   |   |   |   |   registrar = NETWORK SOLUTIONS LLC (R63-LROR): good (0.0)
|   |   |   |   |   registrar = EURODNS S.A.: good (3.77/0.54)
|   |   |   |   |   registrar = BIZCN.COM INC.: good (0.0)
|   |   |   |   |   registrar = ??????????????: good (0.0)
|   |   |   |   |   registrar = SOLUCIONES CORPORATIVAS IPSLU: good (0.0)
|   |   |   |   |   registrar = WEBIQ DOMAINS SOLUTIONS PVT. LTD. (R131-AFIN): good (0.0)
|   |   |   |   |   registrar = TIERRANET INC. DBA DOMAINDISCOVER: good (8.79/1.26)
|   |   |   |   |   registrar = ONLINENIC INC.: good (5.02/0.72)
|   |   |   |   |   registrar = NAMESILO LLC: good (15.06/3.16)
|   |   |   |   |   registrar = GODADDY.COM LLC (R91-LROR): good (0.0)
|   |   |   |   |   registrar = REGISTER.COM INC.
|   |   |   |   |   |   avg_host <= 11: good (80.5/10.83)
|   |   |   |   |   |   avg_host > 11
|   |   |   |   |   |   |   reg_time <= 972576000: good (4.29/1.56)
|   |   |   |   |   |   |   reg_time > 972576000: bad (8.1/0.16)
|   |   |   |   |   registrar = INTERNET DOMAIN SERVICE BS CORP.: good (3.77/0.54)
|   |   |   |   |   registrar = REGIONAL NETWORK INFORMATION CENTER JSC DBA RU-CENTER: good (13.81/1.98)
|   |   |   |   |   registrar = DOMAINPEOPLE INC.: good (8.79/2.26)
|   |   |   |   |   registrar = XINNET TECHNOLOGY CORPORATION: good (0.0)
|   |   |   |   |   registrar = WEBFUSION LIMITED: good (10.04/2.44)
|   |   |   |   |   registrar = TUCOWS.COM CO.
|   |   |   |   |   |   num_ip <= 1: bad (3.63/0.32)
|   |   |   |   |   |   num_ip > 1: good (34.03/6.1)
|   |   |   |   |   registrar = TODAYNIC.COM INC.: good (0.0)
|   |   |   |   |   registrar = LAUNCHPAD.COM INC.: good (0.0)
|   |   |   |   |   registrar = ALPNAMES LIMITED: good (0.0)
|   |   |   |   |   registrar = TLD REGISTRAR SOLUTIONS LTD: good (0.0)
|   |   |   |   |   registrar = MELBOURNE IT LTD
|   |   |   |   |   |   num_ip <= 1: bad (4.83/0.43)
|   |   |   |   |   |   num_ip > 1
|   |   |   |   |   |   |   max_path <= 4: good (37.67/0.88)
|   |   |   |   |   |   |   max_path > 4: bad (7.71/2.79)
|   |   |   |   |   registrar = HOSTING CONCEPTS B.V. D/B/A OPENPROVIDER: good (0.0)
|   |   |   |   |   registrar = LIQUIDNET LTD.: bad (2.51/0.15)
|   |   |   |   |   registrar = XIN NET TECHNOLOGY CORPORATION: good (0.0)
|   |   |   |   |   registrar = NAME.COM INC.: good (6.28/1.9)
|   |   |   |   |   registrar = ENDURANCE DOMAINS TECHNOLOGY PVT. LTD. (R173-AFIN): good (0.0)
|   |   |   |   |   registrar = TUCOWS INC. (R11-LROR): good (0.0)
|   |   |   |   |   registrar = NAMESHIELD: good (0.0)
|   |   |   |   |   registrar = BIZCN.COMINC.: good (0.0)
|   |   |   |   |   registrar = DELUXE SMALL BUSINESS SALES INC. D/B/A APLUS.NET: bad (10.04/3.6)
|   |   |   |   |   registrar = OPEN CONTACT LTD: good (0.0)
|   |   |   |   |   registrar = ARDIS-RU: good (0.0)
|   |   |   |   |   registrar = TLD REGISTRAR SOLUTIONS LTD.: good (0.0)
|   |   |   |   |   registrar = GRANSY S.R.O D/B/A SUBREG.CZ: good (0.0)
|   |   |   |   |   registrar = TLDS LLC. D/B/A SRSPLUS: bad (5.02/1.3)
|   |   |   |   |   registrar = ICI - ROTLD: good (0.0)
|   |   |   |   |   registrar = FASTDOMAIN INC. (R1455-LROR): good (0.0)
|   |   |   |   |   registrar = ENOM INC
|   |   |   |   |   |   avg_host <= 5.714286: good (6.39/0.2)
|   |   |   |   |   |   avg_host > 5.714286: bad (6.17/0.57)
|   |   |   |   |   registrar = GMO INTERNET INC.
|   |   |   |   |   |   num_ip <= 2
|   |   |   |   |   |   |   max_path <= 5: good (3.75/0.63)
|   |   |   |   |   |   |   max_path > 5: bad (5.28/0.36)
|   |   |   |   |   |   num_ip > 2: good (2.27/1.07)
|   |   |   |   |   registrar = NAUNET-RU: good (0.0)
|   |   |   |   |   registrar = HICHINA ZHICHENG TECHNOLOGY LTD.: good (10.04/3.44)
|   |   |   |   |   registrar = ZHUHAI NAISINIKE INFORMATION TECHNOLOGY CO. LTD.: good (0.0)
|   |   |   |   |   registrar = SHANGHAI MEICHENG TECHNOLOGY INFORMATION DEVELOPMENT CO. LTD.: bad (0.69/0.04)
|   |   |   |   |   registrar = 1 & 1 INTERNET AG
|   |   |   |   |   |   num_ip <= 1: bad (2.78/0.25)
|   |   |   |   |   |   num_ip > 1: good (26.09/3.61)
|   |   |   |   |   registrar = GODADDY.COM INC. (R91-LROR): good (0.0)
|   |   |   |   |   registrar = ERANET INTERNATIONAL LIMITED: good (0.0)
|   |   |   |   |   registrar = ONLINENIC INC: good (12.55/2.8)
|   |   |   |   |   registrar = CHENGDU WEST DIMENSION DIGITAL TECHNOLOGY CO. LTD: good (0.0)
|   |   |   |   |   registrar = NAMECHEAP: good (0.0)
|   |   |   |   |   registrar = NICS TELEKOMUNIKASYON TICARET LTD.STI.: bad (1.26/0.08)
|   |   |   |   |   registrar = ARSYS INTERNET S.L. DBA NICLINE.COM
|   |   |   |   |   |   max_path <= 11: bad (13.67/1.87)
|   |   |   |   |   |   max_path > 11: good (2.65/0.54)
|   |   |   |   |   registrar = JIANGSU BANGNING SCIENCE & TECHNOLOGY CO. LTD: good (0.0)
|   |   |   |   |   registrar = REGTIME LTD.: good (0.0)
|   |   |   |   |   registrar = WEBNAMES.CA INC: good (12.55/1.8)
|   |   |   |   |   registrar = INTERNET.BS CORP.: good (0.0)
|   |   |   |   |   registrar = STICHTING REGISTRAR OF LAST RESORT FOUNDATION: good (0.0)
|   |   |   |   |   registrar = DYNADOT LLC
|   |   |   |   |   |   max_path <= 7: bad (3.72/0.21)
|   |   |   |   |   |   max_path > 7: good (2.55/0.38)
|   |   |   |   |   registrar = ENDURANCE DOMAINS TECHNOLOGY LLP (R173-AFIN): good (0.0)
|   |   |   |   |   registrar = DOMAINCONTEXT INC.: good (0.0)
|   |   |   |   |   registrar = HOSTOPIA.COM INC. D/B/A APLUS.NET: good (0.0)
|   |   |   |   |   registrar = REGTIME-RU: good (0.0)
|   |   |   |   |   registrar = REALTIME REGISTER B.V.: good (0.0)
|   |   |   |   |   registrar = WILD WEST DOMAINS INC.: good (12.55/2.8)
|   |   |   |   |   registrar = LAUNCHPAD INC. (HOSTGATOR): bad (1.26/0.08)
|   |   |   |   |   registrar = SAFENAMES LTD: good (13.81/1.98)
|   |   |   |   |   registrar = REGISTER.IT SPA
|   |   |   |   |   |   max_host <= 15: good (2.92/0.59)
|   |   |   |   |   |   max_host > 15: bad (3.35/0.04)
|   |   |   |   |   registrar = RETHEM HOSTING LLC  SPECIALIZING IN DDOS MITIGATION AND ATTACK RESILIENCE: bad (112.98/6.77)
|   |   |   |   |   registrar = GOOGLE INC.: good (5.02/0.72)
|   |   |   |   |   registrar = GO DADDY LLC: good (0.0)
|   |   |   |   |   registrar = ENOM INC. (R126-LRMS): good (0.0)
|   |   |   |   |   registrar = ENAME TECHNOLOGY CO. LTD.: bad (2.51/0.15)
|   |   |   |   |   registrar = PSI-USA INC. DBA DOMAIN ROBOT
|   |   |   |   |   |   max_path <= 5: bad (2.28/0.35)
|   |   |   |   |   |   max_path > 5: good (14.04/1.41)
|   |   |   |   |   registrar = UNIVERSO ONLINE S/A (UOL): good (0.0)
|   |   |   |   |   registrar = ?????????????: good (0.0)
|   |   |   |   |   registrar = CV. JOGJACAMP: good (0.0)
|   |   |   |   |   registrar = 1 API GMBH: good (0.0)
|   |   |   |   |   registrar = REGISTER.COM INC. (R71-LROR): good (0.0)
|   |   |   |   |   registrar = GODADDY.COM LLC (R101-AFIN): good (0.0)
|   |   |   |   |   registrar = SE DIREKT: good (0.0)
|   |   |   |   |   registrar = REGISTER.IT S.P.A.: good (3.77/0.54)
|   |   |   |   |   registrar = NETREGISTRY PTY. LTD.: good (0.0)
|   |   |   |   |   registrar = MESH DIGITAL LIMITED: good (8.79/3.26)
|   |   |   |   |   registrar = GANDI: good (0.0)
|   |   |   |   |   registrar = CRONON AG: good (1.26/0.18)
|   |   |   |   |   registrar = CRAZY DOMAINS FZ-LLC: bad (2.51/0.15)
|   |   |   |   |   registrar = DREAMHOST: good (7.53/1.08)
|   |   |   |   |   registrar = INTERNET INVEST LTD. DBA IMENA.UA: good (1.26/0.18)
|   |   |   |   |   registrar = IHS TELEKOM INC: good (0.0)
|   |   |   |   |   registrar = REGISTRYGATE GMBH: good (1.26/0.18)
|   |   |   |   |   registrar = IN2NET NETWORK INC.: good (0.0)
|   |   |   |   |   registrar = WEB COMMERCE COMMUNICATIONS LIMITED DBA WEBNIC.CC: good (0.0)
|   |   |   |   |   registrar = PLANETDOMAIN PTY LTD: good (0.0)
|   |   |   |   |   registrar = GKG.NET INC.: good (7.53/1.08)
|   |   |   |   |   registrar = BIGROCK SOLUTIONS LTD: good (0.0)
|   |   |   |   |   registrar = NET 4 INDIA LIMITED: good (0.0)
|   |   |   |   |   registrar = NAMESECURE.COM: good (5.02/0.72)
|   |   |   |   |   registrar = EVOPLUS LTD: good (0.0)
|   |   |   |   |   registrar = BEIJING INNOVATIVE LINKAGE TECHNOLOGY LTD.: good (0.0)
|   |   |   |   |   registrar = NAMEBAY
|   |   |   |   |   |   num_ip <= 1: bad (2.3/0.21)
|   |   |   |   |   |   num_ip > 1: good (21.55/3.33)
|   |   |   |   |   registrar = EVOPLUS LTD.: good (0.0)
|   |   |   |   |   registrar = FBS INC.: bad (15.06/0.9)
|   |   |   |   |   registrar = NAME.COM LLC: bad (3.77/0.23)
|   |   |   |   |   registrar = NETEARTH ONE INC.: bad (2.51/0.15)
|   |   |   |   |   registrar = AKKY (UNA DIVISION DE NIC MEXICO): good (0.0)
|   |   |   |   |   registrar = SHINJIRU MSC SDN BHD: good (0.0)
|   |   |   |   |   registrar = REG2C.COM INC.: good (0.0)
|   |   |   |   |   registrar = REG-ACTIVE24: good (0.0)
|   |   |   |   |   registrar = IP MIRROR PTE LTD: bad (3.77/0.23)
|   |   |   |   |   registrar = NEW DREAM NETWORK LLC DBA DREAMHOST WEB HOSTING: good (0.0)
|   |   |   |   |   registrar = P.A. VIET NAM COMPANY LIMITED: good (0.0)
|   |   |   |   |   registrar = GANDI SAS (R42-LROR): good (0.0)
|   |   |   |   |   registrar = DATTATEC.COM SRL: good (0.0)
|   |   |   |   |   registrar = PAKNIC PRIVATE LIMITED: good (0.0)
|   |   |   |   |   registrar = ASCIO TECHNOLOGIES INC.: bad (23.85/1.43)
|   |   |   |   |   registrar = ENAME TECHNOLOGY CO.LTD.: good (0.0)
|   |   |   |   |   registrar = PDR LTD: good (0.0)
|   |   |   |   |   registrar = REALTIME REGISTER BV: good (0.0)
|   |   |   |   |   registrar = GMO INTERNET INC. DBA ONAMAE.COM: bad (7.53/0.45)
|   |   |   |   |   registrar = KEY-SYSTEMS GMBH (R51-LROR): good (0.0)
|   |   |   |   |   registrar = 1API GMBH: good (0.0)
|   |   |   |   |   registrar = EASYSPACE LTD.: good (10.04/1.44)
|   |   |   |   |   registrar = AMAZON REGISTRAR INC.: good (2.51/0.36)
|   |   |   |   |   registrar = 10DENCEHISPAHARD S.L: good (0.0)
|   |   |   |   |   registrar = INTERNET DOMAIN SERVICE BS CORP: good (0.0)
|   |   |   |   |   registrar = CLOUD GROUP LIMITED: good (0.0)
|   |   |   |   |   registrar = LEXSYNERGY LIMITED
|   |   |   |   |   |   num_ip <= 1: bad (6.16/0.55)
|   |   |   |   |   |   num_ip > 1: good (57.86/3.57)
|   |   |   |   |   registrar = GODADDY.COM LLC (R171-LRMS): good (0.0)
|   |   |   |   |   registrar = JAPAN REGISTRY SERVICES CO.LTD.(JPRS): good (0.0)
|   |   |   |   |   registrar = NOMINALIA: good (0.0)
|   |   |   |   |   registrar = NATIONAL INFORMATICS CENTRE (R12-AFIN): good (0.0)
|   |   |   |   |   registrar = GMO INTERNET INC. D/B/A ONAMAE.COM: good (0.0)
|   |   |   |   |   registrar = UAB INTERNETO VIZIJA: good (0.0)
|   |   |   |   |   registrar = ????????????: good (0.0)
|   |   |   |   |   registrar = PDR LTD. D/B/A PUBLICDOMAINREGISTRY.COM (R27-LROR): good (0.0)
|   |   |   |   |   registrar = IHS TELEKOM INC.: good (0.0)
|   |   |   |   |   registrar = NETEARTH ONE INC. D/B/A NETEARTH: good (0.0)
|   |   |   |   |   registrar = NAMECHEAP INC: good (0.0)
|   |   |   |   |   registrar = NETWORK SOLUTIONS LLC (R122-LRMS): good (0.0)
|   |   |   |   |   registrar = R01-REG-FID: good (0.0)
|   |   |   |   |   registrar = NETREGISTRY PTY LTD: good (0.0)
|   |   |   |   |   registrar = MAT BAO CORPORATION: good (0.0)
|   |   |   |   |   registrar = 1 & 1 INTERNET AG (R73-LROR): good (0.0)
|   |   |   |   |   registrar = ??????????????*: good (0.0)
|   |   |   |   |   registrar = REG-INTERNET-CZ: good (0.0)
|   |   |   |   |   registrar = BIGROCK SOLUTIONS LIMITED: good (0.0)
|   |   |   |   |   registrar = TLDS LLC DBA SRSPLUS: bad (7.53/0.45)
|   |   |   |   |   registrar = CSL COMPUTER SERVICE LANGENBACH GMBH D/B/A JOKER.COM A GERMAN GMBH: good (0.0)
|   |   |   |   |   registrar = NOMINALIA INTERNET S.L.: bad (1.26/0.08)
|   |   |   |   |   registrar = ENOM INC. (R46-AFIN): good (0.0)
|   |   |   |   |   registrar = NIC .PE: good (0.0)
|   |   |   |   |   registrar = ROSPOT SRL: good (0.0)
|   |   |   |   |   registrar = ROMARG SRL: good (0.0)
|   |   |   |   |   registrar = HOSTINGER UAB: good (0.0)
|   |   |   |   |   registrar = HOSTEUR SARL: bad (1.26/0.08)
|   |   |   |   |   registrar = NEW DREAM NETWORK LLC: good (10.04/1.44)
|   |   |   |   |   registrar = MELBOURNE IT LTD (R52-LROR): good (0.0)
|   |   |   |   |   registrar = ARSYS INTERNET S.L. D/B/A NICLINE.COM: good (0.0)
|   |   |   |   |   registrar = WEBFUSION LTD.: good (0.0)
|   |   |   |   |   registrar = ARDIS-SU: good (0.0)
|   |   |   |   |   registrar = R01-SU: good (0.0)
|   |   |   |   |   registrar = PT ARDH GLOBAL INDONESIA: good (0.0)
|   |   |   |   |   registrar = NEUBOX INTERNET SA DE CV: good (0.0)
|   |   |   |   |   registrar = DOTSERVE INC: good (0.0)
|   |   |   |   |   registrar = 35 TECHNOLOGY CO. LTD.: good (0.0)
|   |   |   |   |   registrar = ACENS TECHNOLOGIES S.L.U.: good (3.77/0.54)
|   |   |   |   |   registrar = TUCOWS DOMAINS INC.TUCOWS DOMAINS INC.: good (0.0)
|   |   |   |   |   registrar = GODADDY.COM LLCGODADDY.COM LLC: good (0.0)
|   |   |   |   reg_time > 1185206400
|   |   |   |   |   avg_host <= 11
|   |   |   |   |   |   reg_time <= 1310400000
|   |   |   |   |   |   |   num_ip <= 2
|   |   |   |   |   |   |   |   max_host <= 15: bad (636.48/242.33)
|   |   |   |   |   |   |   |   max_host > 15: good (125.54/45.64)
|   |   |   |   |   |   |   num_ip > 2
|   |   |   |   |   |   |   |   reg_time <= 1199980800: bad (89.66/10.45)
|   |   |   |   |   |   |   |   reg_time > 1199980800: good (120.22/46.62)
|   |   |   |   |   |   reg_time > 1310400000
|   |   |   |   |   |   |   max_path <= 14
|   |   |   |   |   |   |   |   max_host <= 10: bad (889.37/139.87)
|   |   |   |   |   |   |   |   max_host > 10
|   |   |   |   |   |   |   |   |   avg_host <= 10
|   |   |   |   |   |   |   |   |   |   max_host <= 14: bad (390.17/84.81)
|   |   |   |   |   |   |   |   |   |   max_host > 14
|   |   |   |   |   |   |   |   |   |   |   max_host <= 17
|   |   |   |   |   |   |   |   |   |   |   |   max_path <= 4
|   |   |   |   |   |   |   |   |   |   |   |   |   avg_host <= 9.75: bad (43.89/12.19)
|   |   |   |   |   |   |   |   |   |   |   |   |   avg_host > 9.75: good (10.0/2.0)
|   |   |   |   |   |   |   |   |   |   |   |   max_path > 4
|   |   |   |   |   |   |   |   |   |   |   |   |   avg_host <= 9.75
|   |   |   |   |   |   |   |   |   |   |   |   |   |   reg_time <= 1345478400: bad (19.23/4.18)
|   |   |   |   |   |   |   |   |   |   |   |   |   |   reg_time > 1345478400: good (78.07/29.29)
|   |   |   |   |   |   |   |   |   |   |   |   |   avg_host > 9.75: bad (26.27/8.59)
|   |   |   |   |   |   |   |   |   |   |   max_host > 17: bad (14.52)
|   |   |   |   |   |   |   |   |   avg_host > 10: bad (136.14/22.89)
|   |   |   |   |   |   |   max_path > 14: bad (316.71/7.89)
|   |   |   |   |   avg_host > 11: bad (783.36/110.24)
|   |   |   tld = org
|   |   |   |   reg_time <= 1294761600
|   |   |   |   |   num_ip <= 1
|   |   |   |   |   |   max_path <= 15
|   |   |   |   |   |   |   max_host <= 19: good (38.52/12.31)
|   |   |   |   |   |   |   max_host > 19: bad (5.13)
|   |   |   |   |   |   max_path > 15: bad (19.67)
|   |   |   |   |   num_ip > 1
|   |   |   |   |   |   num_ip <= 3: good (1783.22/118.41)
|   |   |   |   |   |   num_ip > 3
|   |   |   |   |   |   |   max_path <= 2
|   |   |   |   |   |   |   |   avg_host <= 6.4
|   |   |   |   |   |   |   |   |   num_ip <= 4
|   |   |   |   |   |   |   |   |   |   reg_time <= 941126400: good (2.02/0.01)
|   |   |   |   |   |   |   |   |   |   reg_time > 941126400
|   |   |   |   |   |   |   |   |   |   |   avg_host <= 4.4: bad (16.0/2.0)
|   |   |   |   |   |   |   |   |   |   |   avg_host > 4.4
|   |   |   |   |   |   |   |   |   |   |   |   max_host <= 9
|   |   |   |   |   |   |   |   |   |   |   |   |   reg_time <= 950803200: bad (3.09/0.06)
|   |   |   |   |   |   |   |   |   |   |   |   |   reg_time > 950803200: good (6.18/1.06)
|   |   |   |   |   |   |   |   |   |   |   |   max_host > 9: bad (4.0)
|   |   |   |   |   |   |   |   |   num_ip > 4: good (10.09/2.03)
|   |   |   |   |   |   |   |   avg_host > 6.4: good (18.0/1.0)
|   |   |   |   |   |   |   max_path > 2: good (260.38/21.13)
|   |   |   |   reg_time > 1294761600
|   |   |   |   |   registrar = PDR LTD. D/B/A PUBLICDOMAINREGISTRY.COM: bad (9.49/3.0)
|   |   |   |   |   registrar = MARKMONITOR INC.: good (0.0)
|   |   |   |   |   registrar = GABIA INC.: good (0.0)
|   |   |   |   |   registrar = GODADDY.COM: good (0.0)
|   |   |   |   |   registrar = CSC CORPORATE DOMAINS INC.: good (0.0)
|   |   |   |   |   registrar = US LOCALITY: good (0.0)
|   |   |   |   |   registrar = GODADDY.COM LLC: bad (67.64/23.1)
|   |   |   |   |   registrar = ASCIO TECHNOLOGIES INC: good (0.0)
|   |   |   |   |   registrar = WEBCC: good (0.0)
|   |   |   |   |   registrar = RELIABLE SOFTWARE LTD: good (0.0)
|   |   |   |   |   registrar = R01-RU: good (0.0)
|   |   |   |   |   registrar = 1&1 INTERNET SE: good (0.0)
|   |   |   |   |   registrar = NETWORK SOLUTIONS LLC.: good (0.0)
|   |   |   |   |   registrar = GODADDY.COM INC.: good (0.0)
|   |   |   |   |   registrar = GIP RENATER: good (0.0)
|   |   |   |   |   registrar = TUCOWS INC.
|   |   |   |   |   |   max_host <= 9: good (4.51/0.23)
|   |   |   |   |   |   max_host > 9: bad (2.62/0.47)
|   |   |   |   |   registrar = ENOM INC.: good (27.29/7.43)
|   |   |   |   |   registrar = GANDI SAS: good (1.19/0.06)
|   |   |   |   |   registrar = DOMAIN.COM LLC: good (1.19/0.06)
|   |   |   |   |   registrar = FASTDOMAIN INC.: good (43.91/3.3)
|   |   |   |   |   registrar = GODADDY.COM INC. (R171-LRMS): good (0.0)
|   |   |   |   |   registrar = RU-CENTER-RU: good (0.0)
|   |   |   |   |   registrar = DNC HOLDINGS INC.: good (0.0)
|   |   |   |   |   registrar = ENOM INC. (R39-LROR): good (2.37/1.12)
|   |   |   |   |   registrar = MONIKER ONLINE SERVICES LLC: good (0.0)
|   |   |   |   |   registrar = WILD WEST DOMAINS LLC: good (3.56/0.19)
|   |   |   |   |   registrar = NETWORK SOLUTIONS LLC
|   |   |   |   |   |   max_host <= 6: bad (2.9/0.67)
|   |   |   |   |   |   max_host > 6: good (41.01/1.07)
|   |   |   |   |   registrar = EASYDNS TECHNOLOGIES INC.: good (0.0)
|   |   |   |   |   registrar = DANESCO TRADING LTD.: good (0.0)
|   |   |   |   |   registrar = OVH SAS: good (0.0)
|   |   |   |   |   registrar = CSL COMPUTER SERVICE LANGENBACH GMBH D/B/A JOKER.COM: good (0.0)
|   |   |   |   |   registrar = NOM-IQ LTD DBA COM LAUDE: good (0.0)
|   |   |   |   |   registrar = KEY-SYSTEMS GMBH: good (8.31/2.44)
|   |   |   |   |   registrar = REGISTRAR OF DOMAIN NAMES REG.RU LLC: bad (35.6/3.74)
|   |   |   |   |   registrar = DIRECTI INTERNET SOLUTIONS PVT. LTD. D/B/A PUBLICDOMAINREGISTRY.COM (R27-LROR): good (0.0)
|   |   |   |   |   registrar = DYNAMIC NETWORK SERVICES INC: good (0.0)
|   |   |   |   |   registrar = PAIR NETWORKS INC.D/B/A PAIRNIC: good (0.0)
|   |   |   |   |   registrar = DIRECTI INTERNET SOLUTIONS PVT. LTD. D/B/A PUBLICDOMAINREGISTRY.COM: good (0.0)
|   |   |   |   |   registrar = OVH: good (1.19/0.06)
|   |   |   |   |   registrar = PAIRNIC INC: good (0.0)
|   |   |   |   |   registrar = REGRU-RU: good (0.0)
|   |   |   |   |   registrar = ASCIO TECHNOLOGIES INC. DANMARK - FILIAL AF ASCIO TECHNOLOGIES INC. USA: good (0.0)
|   |   |   |   |   registrar = TUCOWS DOMAINS INC.: good (0.0)
|   |   |   |   |   registrar = MELBOURNE IT LTD. D/B/A INTERNET NAMES WORLDWIDE: good (0.0)
|   |   |   |   |   registrar = NAMECHEAP INC.: good (0.0)
|   |   |   |   |   registrar = ONLINE SAS: good (0.0)
|   |   |   |   |   registrar = NETWORK SOLUTIONS LLC (R63-LROR): good (1.19/0.06)
|   |   |   |   |   registrar = EURODNS S.A.: good (0.0)
|   |   |   |   |   registrar = BIZCN.COM INC.: good (0.0)
|   |   |   |   |   registrar = ??????????????: good (0.0)
|   |   |   |   |   registrar = SOLUCIONES CORPORATIVAS IPSLU: good (0.0)
|   |   |   |   |   registrar = WEBIQ DOMAINS SOLUTIONS PVT. LTD. (R131-AFIN): good (0.0)
|   |   |   |   |   registrar = TIERRANET INC. DBA DOMAINDISCOVER: good (0.0)
