=== Run information ===

Scheme:       weka.classifiers.trees.J48 -C 0.25 -M 2
Relation:     host+lexical+whitelist_training
Instances:    159658
Attributes:   7
              tld
              dot_num
              avg_host
              max_host
              avg_path
              max_path
              class
Test mode:    10-fold cross-validation

=== Classifier model (full training set) ===

J48 pruned tree
------------------

dot_num <= 0
|   tld = com
|   |   max_host <= 6
|   |   |   max_host <= 2
|   |   |   |   max_host <= 1: bad (6.0/1.0)
|   |   |   |   max_host > 1
|   |   |   |   |   max_path <= 17: good (108.0/20.0)
|   |   |   |   |   max_path > 17: bad (5.0/1.0)
|   |   |   max_host > 2
|   |   |   |   max_path <= 31
|   |   |   |   |   avg_host <= 2.833333: bad (121.0/7.0)
|   |   |   |   |   avg_host > 2.833333
|   |   |   |   |   |   max_host <= 4
|   |   |   |   |   |   |   avg_host <= 3.833333
|   |   |   |   |   |   |   |   max_host <= 3: good (98.0/41.0)
|   |   |   |   |   |   |   |   max_host > 3: bad (89.0/2.0)
|   |   |   |   |   |   |   avg_host > 3.833333
|   |   |   |   |   |   |   |   avg_path <= 4.05
|   |   |   |   |   |   |   |   |   avg_path <= 3.708333
|   |   |   |   |   |   |   |   |   |   max_path <= 5: bad (56.0/24.0)
|   |   |   |   |   |   |   |   |   |   max_path > 5: good (16.0/4.0)
|   |   |   |   |   |   |   |   |   avg_path > 3.708333
|   |   |   |   |   |   |   |   |   |   max_path <= 7: bad (34.0/5.0)
|   |   |   |   |   |   |   |   |   |   max_path > 7: good (8.0/3.0)
|   |   |   |   |   |   |   |   avg_path > 4.05
|   |   |   |   |   |   |   |   |   max_path <= 11
|   |   |   |   |   |   |   |   |   |   max_path <= 7
|   |   |   |   |   |   |   |   |   |   |   avg_path <= 5.75
|   |   |   |   |   |   |   |   |   |   |   |   max_path <= 5: bad (6.0/1.0)
|   |   |   |   |   |   |   |   |   |   |   |   max_path > 5: good (58.0/7.0)
|   |   |   |   |   |   |   |   |   |   |   avg_path > 5.75: bad (22.0/5.0)
|   |   |   |   |   |   |   |   |   |   max_path > 7
|   |   |   |   |   |   |   |   |   |   |   avg_path <= 7.75: good (100.0/11.0)
|   |   |   |   |   |   |   |   |   |   |   avg_path > 7.75: bad (6.0/2.0)
|   |   |   |   |   |   |   |   |   max_path > 11: bad (42.0/12.0)
|   |   |   |   |   |   max_host > 4
|   |   |   |   |   |   |   avg_host <= 4.833333: bad (263.0/13.0)
|   |   |   |   |   |   |   avg_host > 4.833333
|   |   |   |   |   |   |   |   avg_path <= 4.65
|   |   |   |   |   |   |   |   |   avg_host <= 5.75
|   |   |   |   |   |   |   |   |   |   max_host <= 5
|   |   |   |   |   |   |   |   |   |   |   max_path <= 4
|   |   |   |   |   |   |   |   |   |   |   |   avg_path <= 3.75
|   |   |   |   |   |   |   |   |   |   |   |   |   max_path <= 3
|   |   |   |   |   |   |   |   |   |   |   |   |   |   avg_path <= 2.833333: bad (66.0/14.0)
|   |   |   |   |   |   |   |   |   |   |   |   |   |   avg_path > 2.833333: good (5.0/1.0)
|   |   |   |   |   |   |   |   |   |   |   |   |   max_path > 3: bad (14.0/2.0)
|   |   |   |   |   |   |   |   |   |   |   |   avg_path > 3.75: good (11.0/2.0)
|   |   |   |   |   |   |   |   |   |   |   max_path > 4: bad (158.0/37.0)
|   |   |   |   |   |   |   |   |   |   max_host > 5: bad (52.0/2.0)
|   |   |   |   |   |   |   |   |   avg_host > 5.75
|   |   |   |   |   |   |   |   |   |   max_path <= 6
|   |   |   |   |   |   |   |   |   |   |   avg_path <= 4.291667: bad (371.0/99.0)
|   |   |   |   |   |   |   |   |   |   |   avg_path > 4.291667
|   |   |   |   |   |   |   |   |   |   |   |   avg_path <= 4.363636: good (56.0/10.0)
|   |   |   |   |   |   |   |   |   |   |   |   avg_path > 4.363636: bad (14.0/3.0)
|   |   |   |   |   |   |   |   |   |   max_path > 6
|   |   |   |   |   |   |   |   |   |   |   max_path <= 7
|   |   |   |   |   |   |   |   |   |   |   |   avg_path <= 4.363636: good (61.0/20.0)
|   |   |   |   |   |   |   |   |   |   |   |   avg_path > 4.363636
|   |   |   |   |   |   |   |   |   |   |   |   |   avg_path <= 4.607143: bad (16.0/3.0)
|   |   |   |   |   |   |   |   |   |   |   |   |   avg_path > 4.607143: good (2.0)
|   |   |   |   |   |   |   |   |   |   |   max_path > 7: good (124.0/37.0)
|   |   |   |   |   |   |   |   avg_path > 4.65
|   |   |   |   |   |   |   |   |   max_host <= 5
|   |   |   |   |   |   |   |   |   |   max_path <= 13
|   |   |   |   |   |   |   |   |   |   |   max_path <= 12: bad (234.0/73.0)
|   |   |   |   |   |   |   |   |   |   |   max_path > 12
|   |   |   |   |   |   |   |   |   |   |   |   avg_path <= 10: good (8.0)
|   |   |   |   |   |   |   |   |   |   |   |   avg_path > 10: bad (3.0/1.0)
|   |   |   |   |   |   |   |   |   |   max_path > 13
|   |   |   |   |   |   |   |   |   |   |   avg_path <= 8.636364: bad (34.0/5.0)
|   |   |   |   |   |   |   |   |   |   |   avg_path > 8.636364
|   |   |   |   |   |   |   |   |   |   |   |   max_path <= 14: bad (3.0/1.0)
|   |   |   |   |   |   |   |   |   |   |   |   max_path > 14: good (5.0/1.0)
|   |   |   |   |   |   |   |   |   max_host > 5: bad (758.0/193.0)
|   |   |   |   max_path > 31: bad (121.0/2.0)
|   |   max_host > 6
|   |   |   max_path <= 8
|   |   |   |   avg_path <= 6.533333
|   |   |   |   |   max_path <= 6: bad (8396.0/712.0)
|   |   |   |   |   max_path > 6
|   |   |   |   |   |   avg_path <= 6.291667
|   |   |   |   |   |   |   max_host <= 8
|   |   |   |   |   |   |   |   max_path <= 7
|   |   |   |   |   |   |   |   |   max_host <= 7
|   |   |   |   |   |   |   |   |   |   avg_path <= 5.291667
|   |   |   |   |   |   |   |   |   |   |   avg_path <= 5.117647: bad (156.0/27.0)
|   |   |   |   |   |   |   |   |   |   |   avg_path > 5.117647
|   |   |   |   |   |   |   |   |   |   |   |   avg_path <= 5.133333: good (10.0)
|   |   |   |   |   |   |   |   |   |   |   |   avg_path > 5.133333
|   |   |   |   |   |   |   |   |   |   |   |   |   avg_path <= 5.222222: bad (3.0)
|   |   |   |   |   |   |   |   |   |   |   |   |   avg_path > 5.222222: good (3.0/1.0)
|   |   |   |   |   |   |   |   |   |   avg_path > 5.291667
|   |   |   |   |   |   |   |   |   |   |   avg_path <= 5.611111: bad (16.0)
|   |   |   |   |   |   |   |   |   |   |   avg_path > 5.611111
|   |   |   |   |   |   |   |   |   |   |   |   avg_path <= 5.705882: good (5.0/1.0)
|   |   |   |   |   |   |   |   |   |   |   |   avg_path > 5.705882: bad (5.0/1.0)
|   |   |   |   |   |   |   |   |   max_host > 7: bad (248.0/46.0)
|   |   |   |   |   |   |   |   max_path > 7: bad (384.0/90.0)
|   |   |   |   |   |   |   max_host > 8
|   |   |   |   |   |   |   |   avg_path <= 4.368421
|   |   |   |   |   |   |   |   |   avg_path <= 4.2: bad (1413.0/173.0)
|   |   |   |   |   |   |   |   |   avg_path > 4.2
|   |   |   |   |   |   |   |   |   |   avg_path <= 4.26087
|   |   |   |   |   |   |   |   |   |   |   avg_host <= 10.5: bad (17.0/3.0)
|   |   |   |   |   |   |   |   |   |   |   avg_host > 10.5
|   |   |   |   |   |   |   |   |   |   |   |   avg_host <= 11.5: good (65.0/12.0)
|   |   |   |   |   |   |   |   |   |   |   |   avg_host > 11.5: bad (65.0/7.0)
|   |   |   |   |   |   |   |   |   |   avg_path > 4.26087
|   |   |   |   |   |   |   |   |   |   |   avg_path <= 4.347826: bad (168.0/21.0)
|   |   |   |   |   |   |   |   |   |   |   avg_path > 4.347826
|   |   |   |   |   |   |   |   |   |   |   |   max_path <= 7: bad (2.0)
|   |   |   |   |   |   |   |   |   |   |   |   max_path > 7: good (6.0)
|   |   |   |   |   |   |   |   avg_path > 4.368421
|   |   |   |   |   |   |   |   |   max_host <= 9
|   |   |   |   |   |   |   |   |   |   avg_path <= 5.411765: bad (172.0/11.0)
|   |   |   |   |   |   |   |   |   |   avg_path > 5.411765
|   |   |   |   |   |   |   |   |   |   |   max_path <= 7
|   |   |   |   |   |   |   |   |   |   |   |   avg_path <= 5.705882: good (14.0/3.0)
|   |   |   |   |   |   |   |   |   |   |   |   avg_path > 5.705882: bad (8.0/2.0)
|   |   |   |   |   |   |   |   |   |   |   max_path > 7: bad (21.0/4.0)
|   |   |   |   |   |   |   |   |   max_host > 9: bad (1906.0/187.0)
|   |   |   |   |   |   avg_path > 6.291667
|   |   |   |   |   |   |   max_host <= 7
|   |   |   |   |   |   |   |   max_path <= 7: good (9.0/2.0)
|   |   |   |   |   |   |   |   max_path > 7
|   |   |   |   |   |   |   |   |   avg_path <= 6.363636: bad (2.0)
|   |   |   |   |   |   |   |   |   avg_path > 6.363636: good (5.0)
|   |   |   |   |   |   |   max_host > 7: bad (57.0/13.0)
|   |   |   |   avg_path > 6.533333: bad (1846.0/30.0)
|   |   |   max_path > 8
|   |   |   |   avg_path <= 4.935484
|   |   |   |   |   max_host <= 14
|   |   |   |   |   |   max_path <= 9
|   |   |   |   |   |   |   max_host <= 13: bad (345.0/98.0)
|   |   |   |   |   |   |   max_host > 13: good (46.0/21.0)
|   |   |   |   |   |   max_path > 9
|   |   |   |   |   |   |   max_host <= 11
|   |   |   |   |   |   |   |   avg_host <= 10.5
|   |   |   |   |   |   |   |   |   max_host <= 8
|   |   |   |   |   |   |   |   |   |   max_path <= 10: good (56.0/16.0)
|   |   |   |   |   |   |   |   |   |   max_path > 10
|   |   |   |   |   |   |   |   |   |   |   avg_host <= 6.5: bad (2.0)
|   |   |   |   |   |   |   |   |   |   |   avg_host > 6.5
|   |   |   |   |   |   |   |   |   |   |   |   avg_host <= 7.5
|   |   |   |   |   |   |   |   |   |   |   |   |   avg_path <= 4.266667: bad (4.0)
|   |   |   |   |   |   |   |   |   |   |   |   |   avg_path > 4.266667: good (6.0/1.0)
|   |   |   |   |   |   |   |   |   |   |   |   avg_host > 7.5: good (22.0/10.0)
|   |   |   |   |   |   |   |   |   max_host > 8: bad (78.0/29.0)
|   |   |   |   |   |   |   |   avg_host > 10.5
|   |   |   |   |   |   |   |   |   max_path <= 10: good (66.0/13.0)
|   |   |   |   |   |   |   |   |   max_path > 10
|   |   |   |   |   |   |   |   |   |   max_path <= 11
|   |   |   |   |   |   |   |   |   |   |   avg_path <= 4.45
|   |   |   |   |   |   |   |   |   |   |   |   avg_path <= 4.083333: bad (4.0)
|   |   |   |   |   |   |   |   |   |   |   |   avg_path > 4.083333
|   |   |   |   |   |   |   |   |   |   |   |   |   avg_path <= 4.384615: good (5.0)
|   |   |   |   |   |   |   |   |   |   |   |   |   avg_path > 4.384615: bad (4.0)
|   |   |   |   |   |   |   |   |   |   |   avg_path > 4.45: good (17.0/1.0)
|   |   |   |   |   |   |   |   |   |   max_path > 11
|   |   |   |   |   |   |   |   |   |   |   avg_path <= 4.375: good (6.0)
|   |   |   |   |   |   |   |   |   |   |   avg_path > 4.375: bad (14.0/4.0)
|   |   |   |   |   |   |   max_host > 11: bad (116.0/32.0)
|   |   |   |   |   max_host > 14: bad (335.0/47.0)
|   |   |   |   avg_path > 4.935484
|   |   |   |   |   max_host <= 8
|   |   |   |   |   |   avg_host <= 6.75: bad (141.0/6.0)
|   |   |   |   |   |   avg_host > 6.75
|   |   |   |   |   |   |   avg_path <= 7.291667
|   |   |   |   |   |   |   |   avg_path <= 7.090909
|   |   |   |   |   |   |   |   |   max_host <= 7
|   |   |   |   |   |   |   |   |   |   max_path <= 10
|   |   |   |   |   |   |   |   |   |   |   max_path <= 9
|   |   |   |   |   |   |   |   |   |   |   |   avg_path <= 5.352941: good (11.0/2.0)
|   |   |   |   |   |   |   |   |   |   |   |   avg_path > 5.352941: bad (19.0/5.0)
|   |   |   |   |   |   |   |   |   |   |   max_path > 9: good (84.0/28.0)
|   |   |   |   |   |   |   |   |   |   max_path > 10
|   |   |   |   |   |   |   |   |   |   |   max_path <= 13
|   |   |   |   |   |   |   |   |   |   |   |   max_path <= 12: bad (69.0/15.0)
|   |   |   |   |   |   |   |   |   |   |   |   max_path > 12
|   |   |   |   |   |   |   |   |   |   |   |   |   avg_path <= 6.619048: bad (28.0/6.0)
|   |   |   |   |   |   |   |   |   |   |   |   |   avg_path > 6.619048: good (12.0/1.0)
|   |   |   |   |   |   |   |   |   |   |   max_path > 13: bad (18.0/1.0)
|   |   |   |   |   |   |   |   |   max_host > 7
|   |   |   |   |   |   |   |   |   |   max_path <= 13
|   |   |   |   |   |   |   |   |   |   |   max_path <= 12: bad (243.0/63.0)
|   |   |   |   |   |   |   |   |   |   |   max_path > 12
|   |   |   |   |   |   |   |   |   |   |   |   avg_path <= 6.032258: bad (13.0/4.0)
|   |   |   |   |   |   |   |   |   |   |   |   avg_path > 6.032258
|   |   |   |   |   |   |   |   |   |   |   |   |   avg_path <= 6.75: good (10.0/2.0)
|   |   |   |   |   |   |   |   |   |   |   |   |   avg_path > 6.75: bad (2.0)
|   |   |   |   |   |   |   |   |   |   max_path > 13: bad (20.0/2.0)
|   |   |   |   |   |   |   |   avg_path > 7.090909
|   |   |   |   |   |   |   |   |   avg_path <= 7.181818: good (19.0/2.0)
|   |   |   |   |   |   |   |   |   avg_path > 7.181818
|   |   |   |   |   |   |   |   |   |   avg_host <= 7.5: bad (4.0/1.0)
|   |   |   |   |   |   |   |   |   |   avg_host > 7.5: good (4.0/1.0)
|   |   |   |   |   |   |   avg_path > 7.291667
|   |   |   |   |   |   |   |   max_host <= 7
|   |   |   |   |   |   |   |   |   max_path <= 12: bad (187.0/14.0)
|   |   |   |   |   |   |   |   |   max_path > 12
|   |   |   |   |   |   |   |   |   |   max_path <= 18: good (52.0/18.0)
|   |   |   |   |   |   |   |   |   |   max_path > 18: bad (121.0/2.0)
|   |   |   |   |   |   |   |   max_host > 7: bad (186.0/10.0)
|   |   |   |   |   max_host > 8
|   |   |   |   |   |   max_path <= 13
|   |   |   |   |   |   |   avg_path <= 7.545455: bad (2472.0/336.0)
|   |   |   |   |   |   |   avg_path > 7.545455
|   |   |   |   |   |   |   |   avg_host <= 9.5
|   |   |   |   |   |   |   |   |   max_path <= 11: bad (64.0/7.0)
|   |   |   |   |   |   |   |   |   max_path > 11
|   |   |   |   |   |   |   |   |   |   avg_path <= 8.1: good (32.0/6.0)
|   |   |   |   |   |   |   |   |   |   avg_path > 8.1: bad (17.0/4.0)
|   |   |   |   |   |   |   |   avg_host > 9.5
|   |   |   |   |   |   |   |   |   avg_path <= 7.928571: bad (44.0/3.0)
|   |   |   |   |   |   |   |   |   avg_path > 7.928571
|   |   |   |   |   |   |   |   |   |   avg_path <= 8.222222
|   |   |   |   |   |   |   |   |   |   |   max_path <= 12: bad (31.0/8.0)
|   |   |   |   |   |   |   |   |   |   |   max_path > 12
|   |   |   |   |   |   |   |   |   |   |   |   avg_host <= 15.5: good (14.0/1.0)
|   |   |   |   |   |   |   |   |   |   |   |   avg_host > 15.5: bad (3.0)
|   |   |   |   |   |   |   |   |   |   avg_path > 8.222222: bad (342.0/10.0)
|   |   |   |   |   |   max_path > 13: bad (2855.0/75.0)
|   tld = ca
|   |   avg_host <= 4.75
|   |   |   avg_host <= 3.5
|   |   |   |   max_path <= 6: bad (2.0)
|   |   |   |   max_path > 6: good (7.0/2.0)
|   |   |   avg_host > 3.5
|   |   |   |   max_path <= 6: good (6.0/1.0)
|   |   |   |   max_path > 6: bad (21.0/2.0)
|   |   avg_host > 4.75: bad (403.0/29.0)
|   tld = us
|   |   max_host <= 4
|   |   |   max_path <= 2: good (35.0)
|   |   |   max_path > 2
|   |   |   |   avg_host <= 3.5: good (8.0)
|   |   |   |   avg_host > 3.5: bad (2.0)
|   |   max_host > 4
|   |   |   max_host <= 12: bad (158.0/5.0)
|   |   |   max_host > 12
|   |   |   |   avg_host <= 14.5
|   |   |   |   |   avg_host <= 13.5: bad (9.0/2.0)
|   |   |   |   |   avg_host > 13.5
|   |   |   |   |   |   max_path <= 4: bad (3.0)
|   |   |   |   |   |   max_path > 4
|   |   |   |   |   |   |   avg_path <= 4.95: good (22.0/2.0)
|   |   |   |   |   |   |   avg_path > 4.95: bad (3.0)
|   |   |   |   avg_host > 14.5: bad (21.0/1.0)
|   tld = com.au: bad (936.0/15.0)
|   tld = org
|   |   max_path <= 29
|   |   |   max_host <= 4
|   |   |   |   max_path <= 5
|   |   |   |   |   max_host <= 3
|   |   |   |   |   |   avg_host <= 2.75: bad (4.0/1.0)
|   |   |   |   |   |   avg_host > 2.75: good (11.0)
|   |   |   |   |   max_host > 3
|   |   |   |   |   |   avg_path <= 3.166667
|   |   |   |   |   |   |   avg_path <= 2.166667: bad (24.0/8.0)
|   |   |   |   |   |   |   avg_path > 2.166667: good (8.0/1.0)
|   |   |   |   |   |   avg_path > 3.166667: bad (12.0/1.0)
|   |   |   |   max_path > 5
|   |   |   |   |   max_host <= 3
|   |   |   |   |   |   avg_host <= 2.75
|   |   |   |   |   |   |   max_path <= 11
|   |   |   |   |   |   |   |   avg_path <= 4.785714: good (3.0/1.0)
|   |   |   |   |   |   |   |   avg_path > 4.785714: bad (4.0)
|   |   |   |   |   |   |   max_path > 11: good (2.0)
|   |   |   |   |   |   avg_host > 2.75: good (159.0/3.0)
|   |   |   |   |   max_host > 3
|   |   |   |   |   |   avg_path <= 4.631579
|   |   |   |   |   |   |   max_path <= 6: good (4.0)
|   |   |   |   |   |   |   max_path > 6
|   |   |   |   |   |   |   |   max_path <= 8: bad (11.0/3.0)
|   |   |   |   |   |   |   |   max_path > 8: good (5.0/1.0)
|   |   |   |   |   |   avg_path > 4.631579: good (207.0/19.0)
|   |   |   max_host > 4
|   |   |   |   max_path <= 8
|   |   |   |   |   avg_path <= 6.9
|   |   |   |   |   |   max_host <= 22
|   |   |   |   |   |   |   avg_path <= 6.291667
|   |   |   |   |   |   |   |   max_path <= 0
|   |   |   |   |   |   |   |   |   max_host <= 13
|   |   |   |   |   |   |   |   |   |   max_host <= 11
|   |   |   |   |   |   |   |   |   |   |   avg_host <= 4.75: bad (8.0/2.0)
|   |   |   |   |   |   |   |   |   |   |   avg_host > 4.75: good (131.0/39.0)
|   |   |   |   |   |   |   |   |   |   max_host > 11: bad (31.0/14.0)
|   |   |   |   |   |   |   |   |   max_host > 13: good (79.0/16.0)
|   |   |   |   |   |   |   |   max_path > 0
|   |   |   |   |   |   |   |   |   avg_path <= 1.666667: bad (34.0)
|   |   |   |   |   |   |   |   |   avg_path > 1.666667
|   |   |   |   |   |   |   |   |   |   max_path <= 3
|   |   |   |   |   |   |   |   |   |   |   avg_host <= 8.5: bad (14.0/4.0)
|   |   |   |   |   |   |   |   |   |   |   avg_host > 8.5
|   |   |   |   |   |   |   |   |   |   |   |   avg_host <= 9.5: good (48.0/1.0)
|   |   |   |   |   |   |   |   |   |   |   |   avg_host > 9.5
|   |   |   |   |   |   |   |   |   |   |   |   |   avg_path <= 2.75: bad (3.0)
|   |   |   |   |   |   |   |   |   |   |   |   |   avg_path > 2.75: good (8.0/2.0)
|   |   |   |   |   |   |   |   |   |   max_path > 3
|   |   |   |   |   |   |   |   |   |   |   max_host <= 12
|   |   |   |   |   |   |   |   |   |   |   |   avg_path <= 3.45
|   |   |   |   |   |   |   |   |   |   |   |   |   max_path <= 4
|   |   |   |   |   |   |   |   |   |   |   |   |   |   avg_host <= 10.5
|   |   |   |   |   |   |   |   |   |   |   |   |   |   |   avg_host <= 5.5: bad (5.0)
|   |   |   |   |   |   |   |   |   |   |   |   |   |   |   avg_host > 5.5: good (24.0/8.0)
|   |   |   |   |   |   |   |   |   |   |   |   |   |   avg_host > 10.5: bad (17.0/1.0)
|   |   |   |   |   |   |   |   |   |   |   |   |   max_path > 4: bad (96.0/20.0)
|   |   |   |   |   |   |   |   |   |   |   |   avg_path > 3.45
|   |   |   |   |   |   |   |   |   |   |   |   |   avg_host <= 10.5
|   |   |   |   |   |   |   |   |   |   |   |   |   |   max_path <= 4
|   |   |   |   |   |   |   |   |   |   |   |   |   |   |   max_host <= 7: good (24.0/1.0)
|   |   |   |   |   |   |   |   |   |   |   |   |   |   |   max_host > 7
|   |   |   |   |   |   |   |   |   |   |   |   |   |   |   |   avg_host <= 9.5
|   |   |   |   |   |   |   |   |   |   |   |   |   |   |   |   |   avg_path <= 3.833333: bad (6.0)
|   |   |   |   |   |   |   |   |   |   |   |   |   |   |   |   |   avg_path > 3.833333
|   |   |   |   |   |   |   |   |   |   |   |   |   |   |   |   |   |   max_host <= 8: good (6.0)
|   |   |   |   |   |   |   |   |   |   |   |   |   |   |   |   |   |   max_host > 8: bad (2.0)
|   |   |   |   |   |   |   |   |   |   |   |   |   |   |   |   avg_host > 9.5: good (14.0/2.0)
|   |   |   |   |   |   |   |   |   |   |   |   |   |   max_path > 4
|   |   |   |   |   |   |   |   |   |   |   |   |   |   |   avg_path <= 4.307692
|   |   |   |   |   |   |   |   |   |   |   |   |   |   |   |   max_host <= 8
|   |   |   |   |   |   |   |   |   |   |   |   |   |   |   |   |   avg_host <= 7.5
|   |   |   |   |   |   |   |   |   |   |   |   |   |   |   |   |   |   avg_host <= 6.25: bad (82.0/26.0)
|   |   |   |   |   |   |   |   |   |   |   |   |   |   |   |   |   |   avg_host > 6.25
|   |   |   |   |   |   |   |   |   |   |   |   |   |   |   |   |   |   |   max_path <= 6: good (11.0/1.0)
|   |   |   |   |   |   |   |   |   |   |   |   |   |   |   |   |   |   |   max_path > 6
|   |   |   |   |   |   |   |   |   |   |   |   |   |   |   |   |   |   |   |   avg_path <= 4.083333: bad (9.0/3.0)
|   |   |   |   |   |   |   |   |   |   |   |   |   |   |   |   |   |   |   |   avg_path > 4.083333: good (2.0)
|   |   |   |   |   |   |   |   |   |   |   |   |   |   |   |   |   avg_host > 7.5: bad (44.0/7.0)
|   |   |   |   |   |   |   |   |   |   |   |   |   |   |   |   max_host > 8
|   |   |   |   |   |   |   |   |   |   |   |   |   |   |   |   |   avg_host <= 9.5
|   |   |   |   |   |   |   |   |   |   |   |   |   |   |   |   |   |   avg_path <= 3.55: good (6.0)
|   |   |   |   |   |   |   |   |   |   |   |   |   |   |   |   |   |   avg_path > 3.55
|   |   |   |   |   |   |   |   |   |   |   |   |   |   |   |   |   |   |   avg_path <= 3.8125: bad (4.0)
|   |   |   |   |   |   |   |   |   |   |   |   |   |   |   |   |   |   |   avg_path > 3.8125
|   |   |   |   |   |   |   |   |   |   |   |   |   |   |   |   |   |   |   |   avg_path <= 4.194444
|   |   |   |   |   |   |   |   |   |   |   |   |   |   |   |   |   |   |   |   |   max_path <= 5: good (2.0)
|   |   |   |   |   |   |   |   |   |   |   |   |   |   |   |   |   |   |   |   |   max_path > 5
|   |   |   |   |   |   |   |   |   |   |   |   |   |   |   |   |   |   |   |   |   |   max_path <= 6: bad (2.0)
|   |   |   |   |   |   |   |   |   |   |   |   |   |   |   |   |   |   |   |   |   |   max_path > 6: good (12.0/4.0)
|   |   |   |   |   |   |   |   |   |   |   |   |   |   |   |   |   |   |   |   avg_path > 4.194444: bad (3.0)
|   |   |   |   |   |   |   |   |   |   |   |   |   |   |   |   |   avg_host > 9.5: bad (34.0/16.0)
|   |   |   |   |   |   |   |   |   |   |   |   |   |   |   avg_path > 4.307692
|   |   |   |   |   |   |   |   |   |   |   |   |   |   |   |   avg_path <= 4.363636
|   |   |   |   |   |   |   |   |   |   |   |   |   |   |   |   |   max_path <= 6: bad (12.0/4.0)
|   |   |   |   |   |   |   |   |   |   |   |   |   |   |   |   |   max_path > 6
|   |   |   |   |   |   |   |   |   |   |   |   |   |   |   |   |   |   max_host <= 7
|   |   |   |   |   |   |   |   |   |   |   |   |   |   |   |   |   |   |   avg_host <= 6.5
|   |   |   |   |   |   |   |   |   |   |   |   |   |   |   |   |   |   |   |   max_host <= 5: good (8.0/1.0)
|   |   |   |   |   |   |   |   |   |   |   |   |   |   |   |   |   |   |   |   max_host > 5: bad (2.0)
|   |   |   |   |   |   |   |   |   |   |   |   |   |   |   |   |   |   |   avg_host > 6.5: good (42.0)
|   |   |   |   |   |   |   |   |   |   |   |   |   |   |   |   |   |   max_host > 7: bad (3.0)
|   |   |   |   |   |   |   |   |   |   |   |   |   |   |   |   avg_path > 4.363636
|   |   |   |   |   |   |   |   |   |   |   |   |   |   |   |   |   max_host <= 9
|   |   |   |   |   |   |   |   |   |   |   |   |   |   |   |   |   |   max_path <= 7
|   |   |   |   |   |   |   |   |   |   |   |   |   |   |   |   |   |   |   avg_host <= 8.75
|   |   |   |   |   |   |   |   |   |   |   |   |   |   |   |   |   |   |   |   max_path <= 6
|   |   |   |   |   |   |   |   |   |   |   |   |   |   |   |   |   |   |   |   |   max_path <= 5
|   |   |   |   |   |   |   |   |   |   |   |   |   |   |   |   |   |   |   |   |   |   max_host <= 6: good (16.0/4.0)
|   |   |   |   |   |   |   |   |   |   |   |   |   |   |   |   |   |   |   |   |   |   max_host > 6: bad (8.0)
|   |   |   |   |   |   |   |   |   |   |   |   |   |   |   |   |   |   |   |   |   max_path > 5
|   |   |   |   |   |   |   |   |   |   |   |   |   |   |   |   |   |   |   |   |   |   avg_host <= 7.5: bad (25.0/11.0)
|   |   |   |   |   |   |   |   |   |   |   |   |   |   |   |   |   |   |   |   |   |   avg_host > 7.5: good (32.0/7.0)
|   |   |   |   |   |   |   |   |   |   |   |   |   |   |   |   |   |   |   |   max_path > 6
|   |   |   |   |   |   |   |   |   |   |   |   |   |   |   |   |   |   |   |   |   max_host <= 7
|   |   |   |   |   |   |   |   |   |   |   |   |   |   |   |   |   |   |   |   |   |   avg_path <= 5.583333
|   |   |   |   |   |   |   |   |   |   |   |   |   |   |   |   |   |   |   |   |   |   |   avg_path <= 4.9
|   |   |   |   |   |   |   |   |   |   |   |   |   |   |   |   |   |   |   |   |   |   |   |   avg_host <= 6.5
|   |   |   |   |   |   |   |   |   |   |   |   |   |   |   |   |   |   |   |   |   |   |   |   |   avg_path <= 4.642857: bad (8.0/2.0)
|   |   |   |   |   |   |   |   |   |   |   |   |   |   |   |   |   |   |   |   |   |   |   |   |   avg_path > 4.642857: good (10.0/2.0)
|   |   |   |   |   |   |   |   |   |   |   |   |   |   |   |   |   |   |   |   |   |   |   |   avg_host > 6.5: good (10.0/1.0)
|   |   |   |   |   |   |   |   |   |   |   |   |   |   |   |   |   |   |   |   |   |   |   avg_path > 4.9
|   |   |   |   |   |   |   |   |   |   |   |   |   |   |   |   |   |   |   |   |   |   |   |   avg_host <= 5.5
|   |   |   |   |   |   |   |   |   |   |   |   |   |   |   |   |   |   |   |   |   |   |   |   |   avg_path <= 5.375: bad (2.0)
|   |   |   |   |   |   |   |   |   |   |   |   |   |   |   |   |   |   |   |   |   |   |   |   |   avg_path > 5.375: good (4.0)
|   |   |   |   |   |   |   |   |   |   |   |   |   |   |   |   |   |   |   |   |   |   |   |   avg_host > 5.5: bad (21.0/3.0)
|   |   |   |   |   |   |   |   |   |   |   |   |   |   |   |   |   |   |   |   |   |   avg_path > 5.583333: good (11.0/1.0)
|   |   |   |   |   |   |   |   |   |   |   |   |   |   |   |   |   |   |   |   |   max_host > 7: bad (19.0/4.0)
|   |   |   |   |   |   |   |   |   |   |   |   |   |   |   |   |   |   |   avg_host > 8.75
|   |   |   |   |   |   |   |   |   |   |   |   |   |   |   |   |   |   |   |   max_path <= 6: bad (14.0/2.0)
|   |   |   |   |   |   |   |   |   |   |   |   |   |   |   |   |   |   |   |   max_path > 6
|   |   |   |   |   |   |   |   |   |   |   |   |   |   |   |   |   |   |   |   |   avg_path <= 4.583333: bad (4.0)
|   |   |   |   |   |   |   |   |   |   |   |   |   |   |   |   |   |   |   |   |   avg_path > 4.583333: good (5.0/1.0)
|   |   |   |   |   |   |   |   |   |   |   |   |   |   |   |   |   |   max_path > 7
|   |   |   |   |   |   |   |   |   |   |   |   |   |   |   |   |   |   |   avg_host <= 7.25
|   |   |   |   |   |   |   |   |   |   |   |   |   |   |   |   |   |   |   |   avg_host <= 4.75: bad (3.0)
|   |   |   |   |   |   |   |   |   |   |   |   |   |   |   |   |   |   |   |   avg_host > 4.75
|   |   |   |   |   |   |   |   |   |   |   |   |   |   |   |   |   |   |   |   |   avg_host <= 5.25: good (7.0/1.0)
|   |   |   |   |   |   |   |   |   |   |   |   |   |   |   |   |   |   |   |   |   avg_host > 5.25
|   |   |   |   |   |   |   |   |   |   |   |   |   |   |   |   |   |   |   |   |   |   avg_host <= 5.75: bad (3.0)
|   |   |   |   |   |   |   |   |   |   |   |   |   |   |   |   |   |   |   |   |   |   avg_host > 5.75
|   |   |   |   |   |   |   |   |   |   |   |   |   |   |   |   |   |   |   |   |   |   |   avg_path <= 4.708333: good (5.0)
|   |   |   |   |   |   |   |   |   |   |   |   |   |   |   |   |   |   |   |   |   |   |   avg_path > 4.708333
|   |   |   |   |   |   |   |   |   |   |   |   |   |   |   |   |   |   |   |   |   |   |   |   avg_path <= 4.8125: bad (7.0)
|   |   |   |   |   |   |   |   |   |   |   |   |   |   |   |   |   |   |   |   |   |   |   |   avg_path > 4.8125: good (18.0/7.0)
|   |   |   |   |   |   |   |   |   |   |   |   |   |   |   |   |   |   |   avg_host > 7.25: good (51.0/12.0)
|   |   |   |   |   |   |   |   |   |   |   |   |   |   |   |   |   max_host > 9: bad (81.0/28.0)
|   |   |   |   |   |   |   |   |   |   |   |   |   avg_host > 10.5
|   |   |   |   |   |   |   |   |   |   |   |   |   |   max_path <= 6
|   |   |   |   |   |   |   |   |   |   |   |   |   |   |   max_path <= 5: bad (11.0/2.0)
|   |   |   |   |   |   |   |   |   |   |   |   |   |   |   max_path > 5
|   |   |   |   |   |   |   |   |   |   |   |   |   |   |   |   avg_path <= 3.55: good (35.0)
|   |   |   |   |   |   |   |   |   |   |   |   |   |   |   |   avg_path > 3.55
|   |   |   |   |   |   |   |   |   |   |   |   |   |   |   |   |   avg_host <= 11.5: good (64.0/7.0)
|   |   |   |   |   |   |   |   |   |   |   |   |   |   |   |   |   avg_host > 11.5: bad (6.0)
|   |   |   |   |   |   |   |   |   |   |   |   |   |   max_path > 6
|   |   |   |   |   |   |   |   |   |   |   |   |   |   |   avg_host <= 11.5
|   |   |   |   |   |   |   |   |   |   |   |   |   |   |   |   avg_path <= 4.125: good (8.0/2.0)
|   |   |   |   |   |   |   |   |   |   |   |   |   |   |   |   avg_path > 4.125: bad (25.0/6.0)
|   |   |   |   |   |   |   |   |   |   |   |   |   |   |   avg_host > 11.5
|   |   |   |   |   |   |   |   |   |   |   |   |   |   |   |   avg_path <= 3.8: bad (6.0/1.0)
|   |   |   |   |   |   |   |   |   |   |   |   |   |   |   |   avg_path > 3.8: good (73.0/20.0)
|   |   |   |   |   |   |   |   |   |   |   max_host > 12
|   |   |   |   |   |   |   |   |   |   |   |   max_host <= 13: bad (58.0/7.0)
|   |   |   |   |   |   |   |   |   |   |   |   max_host > 13
|   |   |   |   |   |   |   |   |   |   |   |   |   avg_path <= 3.083333
|   |   |   |   |   |   |   |   |   |   |   |   |   |   max_path <= 7: bad (38.0/17.0)
|   |   |   |   |   |   |   |   |   |   |   |   |   |   max_path > 7: good (42.0)
|   |   |   |   |   |   |   |   |   |   |   |   |   avg_path > 3.083333
|   |   |   |   |   |   |   |   |   |   |   |   |   |   avg_host <= 17.5
|   |   |   |   |   |   |   |   |   |   |   |   |   |   |   max_path <= 7
|   |   |   |   |   |   |   |   |   |   |   |   |   |   |   |   avg_host <= 15.5
|   |   |   |   |   |   |   |   |   |   |   |   |   |   |   |   |   max_path <= 6: bad (54.0/20.0)
|   |   |   |   |   |   |   |   |   |   |   |   |   |   |   |   |   max_path > 6
|   |   |   |   |   |   |   |   |   |   |   |   |   |   |   |   |   |   max_host <= 14
|   |   |   |   |   |   |   |   |   |   |   |   |   |   |   |   |   |   |   avg_path <= 4.708333: bad (6.0/1.0)
|   |   |   |   |   |   |   |   |   |   |   |   |   |   |   |   |   |   |   avg_path > 4.708333: good (8.0/2.0)
|   |   |   |   |   |   |   |   |   |   |   |   |   |   |   |   |   |   max_host > 14: good (21.0/4.0)
|   |   |   |   |   |   |   |   |   |   |   |   |   |   |   |   avg_host > 15.5
|   |   |   |   |   |   |   |   |   |   |   |   |   |   |   |   |   avg_host <= 16.5: bad (26.0/1.0)
|   |   |   |   |   |   |   |   |   |   |   |   |   |   |   |   |   avg_host > 16.5
|   |   |   |   |   |   |   |   |   |   |   |   |   |   |   |   |   |   max_path <= 6
|   |   |   |   |   |   |   |   |   |   |   |   |   |   |   |   |   |   |   max_path <= 5: bad (6.0)
|   |   |   |   |   |   |   |   |   |   |   |   |   |   |   |   |   |   |   max_path > 5
|   |   |   |   |   |   |   |   |   |   |   |   |   |   |   |   |   |   |   |   avg_path <= 4.25: bad (4.0/1.0)
|   |   |   |   |   |   |   |   |   |   |   |   |   |   |   |   |   |   |   |   avg_path > 4.25: good (10.0/2.0)
|   |   |   |   |   |   |   |   |   |   |   |   |   |   |   |   |   |   max_path > 6: bad (23.0/3.0)
|   |   |   |   |   |   |   |   |   |   |   |   |   |   |   max_path > 7: bad (97.0/13.0)
|   |   |   |   |   |   |   |   |   |   |   |   |   |   avg_host > 17.5
|   |   |   |   |   |   |   |   |   |   |   |   |   |   |   avg_host <= 19.5
|   |   |   |   |   |   |   |   |   |   |   |   |   |   |   |   max_path <= 7
|   |   |   |   |   |   |   |   |   |   |   |   |   |   |   |   |   avg_path <= 4.083333
|   |   |   |   |   |   |   |   |   |   |   |   |   |   |   |   |   |   avg_path <= 3.9
|   |   |   |   |   |   |   |   |   |   |   |   |   |   |   |   |   |   |   max_path <= 4: good (2.0)
|   |   |   |   |   |   |   |   |   |   |   |   |   |   |   |   |   |   |   max_path > 4
|   |   |   |   |   |   |   |   |   |   |   |   |   |   |   |   |   |   |   |   avg_path <= 3.631579: bad (7.0/1.0)
|   |   |   |   |   |   |   |   |   |   |   |   |   |   |   |   |   |   |   |   avg_path > 3.631579: good (5.0/2.0)
|   |   |   |   |   |   |   |   |   |   |   |   |   |   |   |   |   |   avg_path > 3.9: good (20.0/1.0)
|   |   |   |   |   |   |   |   |   |   |   |   |   |   |   |   |   avg_path > 4.083333
|   |   |   |   |   |   |   |   |   |   |   |   |   |   |   |   |   |   avg_path <= 5.8: bad (38.0/12.0)
|   |   |   |   |   |   |   |   |   |   |   |   |   |   |   |   |   |   avg_path > 5.8: good (4.0/1.0)
|   |   |   |   |   |   |   |   |   |   |   |   |   |   |   |   max_path > 7
|   |   |   |   |   |   |   |   |   |   |   |   |   |   |   |   |   avg_host <= 18.5
|   |   |   |   |   |   |   |   |   |   |   |   |   |   |   |   |   |   avg_path <= 5.166667: bad (4.0/1.0)
|   |   |   |   |   |   |   |   |   |   |   |   |   |   |   |   |   |   avg_path > 5.166667: good (7.0)
|   |   |   |   |   |   |   |   |   |   |   |   |   |   |   |   |   avg_host > 18.5
|   |   |   |   |   |   |   |   |   |   |   |   |   |   |   |   |   |   avg_path <= 4.571429: bad (2.0)
|   |   |   |   |   |   |   |   |   |   |   |   |   |   |   |   |   |   avg_path > 4.571429: good (14.0/2.0)
|   |   |   |   |   |   |   |   |   |   |   |   |   |   |   avg_host > 19.5: bad (22.0/7.0)
|   |   |   |   |   |   |   avg_path > 6.291667: good (53.0/6.0)
|   |   |   |   |   |   max_host > 22
|   |   |   |   |   |   |   avg_host <= 23.5: good (40.0/2.0)
|   |   |   |   |   |   |   avg_host > 23.5: bad (32.0/2.0)
|   |   |   |   |   avg_path > 6.9
|   |   |   |   |   |   max_path <= 7
|   |   |   |   |   |   |   max_host <= 6
|   |   |   |   |   |   |   |   avg_host <= 5.5: bad (5.0/1.0)
|   |   |   |   |   |   |   |   avg_host > 5.5: good (10.0/3.0)
|   |   |   |   |   |   |   max_host > 6: bad (60.0/7.0)
|   |   |   |   |   |   max_path > 7
|   |   |   |   |   |   |   avg_path <= 7.75: good (10.0/1.0)
|   |   |   |   |   |   |   avg_path > 7.75
|   |   |   |   |   |   |   |   max_host <= 10
|   |   |   |   |   |   |   |   |   max_host <= 9: bad (24.0/6.0)
|   |   |   |   |   |   |   |   |   max_host > 9: good (5.0/1.0)
|   |   |   |   |   |   |   |   max_host > 10: bad (36.0/1.0)
|   |   |   |   max_path > 8
|   |   |   |   |   avg_path <= 6.266667
|   |   |   |   |   |   avg_path <= 4.583333
|   |   |   |   |   |   |   avg_path <= 3.583333: bad (12.0)
|   |   |   |   |   |   |   avg_path > 3.583333
|   |   |   |   |   |   |   |   avg_path <= 3.714286: good (6.0/1.0)
|   |   |   |   |   |   |   |   avg_path > 3.714286: bad (93.0/33.0)
|   |   |   |   |   |   avg_path > 4.583333
|   |   |   |   |   |   |   max_path <= 10
|   |   |   |   |   |   |   |   max_path <= 9
|   |   |   |   |   |   |   |   |   max_host <= 12
|   |   |   |   |   |   |   |   |   |   avg_host <= 6.75
|   |   |   |   |   |   |   |   |   |   |   max_host <= 5: good (4.0/1.0)
|   |   |   |   |   |   |   |   |   |   |   max_host > 5: bad (12.0/4.0)
|   |   |   |   |   |   |   |   |   |   avg_host > 6.75: good (77.0/10.0)
|   |   |   |   |   |   |   |   |   max_host > 12
|   |   |   |   |   |   |   |   |   |   avg_host <= 20: bad (29.0/9.0)
|   |   |   |   |   |   |   |   |   |   avg_host > 20: good (9.0/1.0)
|   |   |   |   |   |   |   |   max_path > 9
|   |   |   |   |   |   |   |   |   max_host <= 16
|   |   |   |   |   |   |   |   |   |   avg_path <= 6.133333: good (82.0/32.0)
|   |   |   |   |   |   |   |   |   |   avg_path > 6.133333
|   |   |   |   |   |   |   |   |   |   |   avg_host <= 9.25: good (3.0/1.0)
|   |   |   |   |   |   |   |   |   |   |   avg_host > 9.25: bad (8.0)
|   |   |   |   |   |   |   |   |   max_host > 16: good (22.0/2.0)
|   |   |   |   |   |   |   max_path > 10
|   |   |   |   |   |   |   |   max_path <= 15
|   |   |   |   |   |   |   |   |   max_path <= 11
|   |   |   |   |   |   |   |   |   |   avg_host <= 17.5: bad (43.0/12.0)
|   |   |   |   |   |   |   |   |   |   avg_host > 17.5: good (11.0/3.0)
|   |   |   |   |   |   |   |   |   max_path > 11: good (80.0/39.0)
|   |   |   |   |   |   |   |   max_path > 15
|   |   |   |   |   |   |   |   |   avg_host <= 15.5
|   |   |   |   |   |   |   |   |   |   avg_host <= 11: bad (4.0/1.0)
|   |   |   |   |   |   |   |   |   |   avg_host > 11: good (3.0)
|   |   |   |   |   |   |   |   |   avg_host > 15.5: bad (12.0)
|   |   |   |   |   avg_path > 6.266667
|   |   |   |   |   |   avg_host <= 11.5
|   |   |   |   |   |   |   avg_host <= 8.25
|   |   |   |   |   |   |   |   avg_host <= 7.25
|   |   |   |   |   |   |   |   |   avg_path <= 6.363636: bad (8.0/1.0)
|   |   |   |   |   |   |   |   |   avg_path > 6.363636
|   |   |   |   |   |   |   |   |   |   avg_host <= 5.75
|   |   |   |   |   |   |   |   |   |   |   avg_host <= 5.25: good (18.0/4.0)
|   |   |   |   |   |   |   |   |   |   |   avg_host > 5.25: bad (6.0)
|   |   |   |   |   |   |   |   |   |   avg_host > 5.75: good (109.0/16.0)
|   |   |   |   |   |   |   |   avg_host > 7.25
|   |   |   |   |   |   |   |   |   avg_path <= 9.571429
|   |   |   |   |   |   |   |   |   |   max_path <= 18
|   |   |   |   |   |   |   |   |   |   |   max_path <= 13
|   |   |   |   |   |   |   |   |   |   |   |   avg_path <= 7.857143: bad (20.0/5.0)
|   |   |   |   |   |   |   |   |   |   |   |   avg_path > 7.857143: good (12.0/1.0)
|   |   |   |   |   |   |   |   |   |   |   max_path > 13: good (11.0)
|   |   |   |   |   |   |   |   |   |   max_path > 18: bad (4.0)
|   |   |   |   |   |   |   |   |   avg_path > 9.571429: bad (16.0/1.0)
|   |   |   |   |   |   |   avg_host > 8.25
|   |   |   |   |   |   |   |   max_path <= 11
|   |   |   |   |   |   |   |   |   avg_host <= 10.5: good (66.0/9.0)
|   |   |   |   |   |   |   |   |   avg_host > 10.5
|   |   |   |   |   |   |   |   |   |   avg_path <= 7.444444: bad (10.0/3.0)
|   |   |   |   |   |   |   |   |   |   avg_path > 7.444444: good (11.0/1.0)
|   |   |   |   |   |   |   |   max_path > 11
|   |   |   |   |   |   |   |   |   max_path <= 13: good (109.0/2.0)
|   |   |   |   |   |   |   |   |   max_path > 13
|   |   |   |   |   |   |   |   |   |   avg_path <= 8.052632
|   |   |   |   |   |   |   |   |   |   |   max_path <= 16: good (4.0/1.0)
|   |   |   |   |   |   |   |   |   |   |   max_path > 16: bad (4.0)
|   |   |   |   |   |   |   |   |   |   avg_path > 8.052632: good (19.0/1.0)
|   |   |   |   |   |   avg_host > 11.5
|   |   |   |   |   |   |   avg_host <= 16.5
|   |   |   |   |   |   |   |   avg_path <= 10.875
|   |   |   |   |   |   |   |   |   avg_host <= 14.5
|   |   |   |   |   |   |   |   |   |   max_path <= 9: good (13.0/1.0)
|   |   |   |   |   |   |   |   |   |   max_path > 9
|   |   |   |   |   |   |   |   |   |   |   avg_path <= 7.291667
|   |   |   |   |   |   |   |   |   |   |   |   max_path <= 10
|   |   |   |   |   |   |   |   |   |   |   |   |   avg_path <= 6.545455: bad (7.0/1.0)
|   |   |   |   |   |   |   |   |   |   |   |   |   avg_path > 6.545455: good (9.0/1.0)
|   |   |   |   |   |   |   |   |   |   |   |   max_path > 10: bad (31.0/4.0)
|   |   |   |   |   |   |   |   |   |   |   avg_path > 7.291667
|   |   |   |   |   |   |   |   |   |   |   |   avg_host <= 13.5
|   |   |   |   |   |   |   |   |   |   |   |   |   avg_host <= 12.5
|   |   |   |   |   |   |   |   |   |   |   |   |   |   max_path <= 15: bad (8.0/2.0)
|   |   |   |   |   |   |   |   |   |   |   |   |   |   max_path > 15: good (21.0/2.0)
|   |   |   |   |   |   |   |   |   |   |   |   |   avg_host > 12.5
|   |   |   |   |   |   |   |   |   |   |   |   |   |   avg_path <= 9.25: good (15.0/2.0)
|   |   |   |   |   |   |   |   |   |   |   |   |   |   avg_path > 9.25: bad (2.0)
|   |   |   |   |   |   |   |   |   |   |   |   avg_host > 13.5
|   |   |   |   |   |   |   |   |   |   |   |   |   avg_path <= 9.5
|   |   |   |   |   |   |   |   |   |   |   |   |   |   max_path <= 10: bad (5.0)
|   |   |   |   |   |   |   |   |   |   |   |   |   |   max_path > 10
|   |   |   |   |   |   |   |   |   |   |   |   |   |   |   max_path <= 13: good (6.0)
|   |   |   |   |   |   |   |   |   |   |   |   |   |   |   max_path > 13: bad (5.0)
|   |   |   |   |   |   |   |   |   |   |   |   |   avg_path > 9.5: good (4.0)
|   |   |   |   |   |   |   |   |   avg_host > 14.5
|   |   |   |   |   |   |   |   |   |   avg_path <= 8.833333
|   |   |   |   |   |   |   |   |   |   |   avg_host <= 15.5: bad (12.0/3.0)
|   |   |   |   |   |   |   |   |   |   |   avg_host > 15.5
|   |   |   |   |   |   |   |   |   |   |   |   avg_path <= 7.2
|   |   |   |   |   |   |   |   |   |   |   |   |   max_path <= 10: good (3.0/1.0)
|   |   |   |   |   |   |   |   |   |   |   |   |   max_path > 10: bad (3.0)
|   |   |   |   |   |   |   |   |   |   |   |   avg_path > 7.2: good (6.0)
|   |   |   |   |   |   |   |   |   |   avg_path > 8.833333: bad (8.0)
|   |   |   |   |   |   |   |   avg_path > 10.875: bad (16.0/1.0)
|   |   |   |   |   |   |   avg_host > 16.5
|   |   |   |   |   |   |   |   max_path <= 13: good (80.0/10.0)
|   |   |   |   |   |   |   |   max_path > 13
|   |   |   |   |   |   |   |   |   max_path <= 15: bad (9.0/2.0)
|   |   |   |   |   |   |   |   |   max_path > 15
|   |   |   |   |   |   |   |   |   |   avg_host <= 18.5
|   |   |   |   |   |   |   |   |   |   |   max_path <= 17: bad (2.0)
|   |   |   |   |   |   |   |   |   |   |   max_path > 17: good (4.0/1.0)
|   |   |   |   |   |   |   |   |   |   avg_host > 18.5: good (6.0)
|   |   max_path > 29
|   |   |   avg_path <= 14.111111: bad (163.0/4.0)
|   |   |   avg_path > 14.111111
|   |   |   |   max_path <= 136: good (15.0/2.0)
|   |   |   |   max_path > 136: bad (4.0)
|   tld = edu
|   |   max_path <= 18: good (16.0/1.0)
|   |   max_path > 18: bad (3.0/1.0)
|   tld = net
|   |   max_path <= 21
|   |   |   max_path <= 7
|   |   |   |   avg_path <= 5.733333
|   |   |   |   |   max_host <= 6
|   |   |   |   |   |   avg_path <= 3.1
|   |   |   |   |   |   |   max_path <= 5: bad (50.0/13.0)
|   |   |   |   |   |   |   max_path > 5
|   |   |   |   |   |   |   |   avg_host <= 5.5: bad (3.0)
|   |   |   |   |   |   |   |   avg_host > 5.5: good (36.0/1.0)
|   |   |   |   |   |   avg_path > 3.1: bad (134.0/13.0)
|   |   |   |   |   max_host > 6
|   |   |   |   |   |   avg_host <= 10.5: bad (575.0/42.0)
|   |   |   |   |   |   avg_host > 10.5
|   |   |   |   |   |   |   max_path <= 6
|   |   |   |   |   |   |   |   avg_host <= 13.5
|   |   |   |   |   |   |   |   |   max_path <= 4
|   |   |   |   |   |   |   |   |   |   avg_path <= 3.833333
|   |   |   |   |   |   |   |   |   |   |   avg_path <= 1.666667
|   |   |   |   |   |   |   |   |   |   |   |   avg_path <= 1.571429: bad (49.0/13.0)
|   |   |   |   |   |   |   |   |   |   |   |   avg_path > 1.571429: good (9.0/1.0)
|   |   |   |   |   |   |   |   |   |   |   avg_path > 1.666667: bad (19.0/1.0)
|   |   |   |   |   |   |   |   |   |   avg_path > 3.833333
|   |   |   |   |   |   |   |   |   |   |   avg_host <= 12.5: good (6.0/1.0)
|   |   |   |   |   |   |   |   |   |   |   avg_host > 12.5: bad (3.0/1.0)
|   |   |   |   |   |   |   |   |   max_path > 4
|   |   |   |   |   |   |   |   |   |   avg_host <= 12.5
|   |   |   |   |   |   |   |   |   |   |   max_path <= 5: bad (40.0/4.0)
|   |   |   |   |   |   |   |   |   |   |   max_path > 5
|   |   |   |   |   |   |   |   |   |   |   |   avg_path <= 3.083333: good (4.0)
|   |   |   |   |   |   |   |   |   |   |   |   avg_path > 3.083333
|   |   |   |   |   |   |   |   |   |   |   |   |   avg_host <= 11.5: bad (6.0)
|   |   |   |   |   |   |   |   |   |   |   |   |   avg_host > 11.5
|   |   |   |   |   |   |   |   |   |   |   |   |   |   avg_path <= 3.714286: bad (3.0)
|   |   |   |   |   |   |   |   |   |   |   |   |   |   avg_path > 3.714286: good (2.0)
|   |   |   |   |   |   |   |   |   |   avg_host > 12.5: bad (13.0)
|   |   |   |   |   |   |   |   avg_host > 13.5
|   |   |   |   |   |   |   |   |   avg_host <= 20.5: bad (127.0/8.0)
|   |   |   |   |   |   |   |   |   avg_host > 20.5
|   |   |   |   |   |   |   |   |   |   avg_host <= 21.5: good (8.0/1.0)
|   |   |   |   |   |   |   |   |   |   avg_host > 21.5: bad (20.0/1.0)
|   |   |   |   |   |   |   max_path > 6: bad (73.0/25.0)
|   |   |   |   avg_path > 5.733333: bad (328.0/6.0)
|   |   |   max_path > 7
|   |   |   |   avg_path <= 7.666667
|   |   |   |   |   max_host <= 13
|   |   |   |   |   |   max_path <= 8
|   |   |   |   |   |   |   avg_path <= 5.84375: bad (122.0/38.0)
|   |   |   |   |   |   |   avg_path > 5.84375
|   |   |   |   |   |   |   |   max_host <= 5
|   |   |   |   |   |   |   |   |   avg_host <= 4.5: good (2.0)
|   |   |   |   |   |   |   |   |   avg_host > 4.5: bad (3.0)
|   |   |   |   |   |   |   |   max_host > 5: good (58.0/10.0)
|   |   |   |   |   |   max_path > 8
|   |   |   |   |   |   |   max_host <= 8: bad (217.0/32.0)
|   |   |   |   |   |   |   max_host > 8
|   |   |   |   |   |   |   |   max_host <= 9
|   |   |   |   |   |   |   |   |   avg_path <= 4.708333: bad (11.0)
|   |   |   |   |   |   |   |   |   avg_path > 4.708333: good (51.0/17.0)
|   |   |   |   |   |   |   |   max_host > 9
|   |   |   |   |   |   |   |   |   avg_path <= 4.846154
|   |   |   |   |   |   |   |   |   |   avg_host <= 11.5
|   |   |   |   |   |   |   |   |   |   |   max_path <= 9
|   |   |   |   |   |   |   |   |   |   |   |   avg_path <= 4.521739: bad (2.0)
|   |   |   |   |   |   |   |   |   |   |   |   avg_path > 4.521739: good (3.0/1.0)
|   |   |   |   |   |   |   |   |   |   |   max_path > 9: good (9.0)
|   |   |   |   |   |   |   |   |   |   avg_host > 11.5
|   |   |   |   |   |   |   |   |   |   |   max_path <= 11
|   |   |   |   |   |   |   |   |   |   |   |   avg_host <= 12.5: bad (6.0)
|   |   |   |   |   |   |   |   |   |   |   |   avg_host > 12.5: good (2.0)
|   |   |   |   |   |   |   |   |   |   |   max_path > 11: good (5.0/1.0)
|   |   |   |   |   |   |   |   |   avg_path > 4.846154: bad (91.0/26.0)
|   |   |   |   |   max_host > 13
|   |   |   |   |   |   max_path <= 8: bad (79.0/3.0)
|   |   |   |   |   |   max_path > 8
|   |   |   |   |   |   |   avg_host <= 25: bad (76.0/19.0)
|   |   |   |   |   |   |   avg_host > 25: good (6.0)
|   |   |   |   avg_path > 7.666667
|   |   |   |   |   max_path <= 14: bad (240.0/19.0)
|   |   |   |   |   max_path > 14
|   |   |   |   |   |   max_host <= 13
|   |   |   |   |   |   |   avg_host <= 12.5: bad (26.0/3.0)
|   |   |   |   |   |   |   avg_host > 12.5: good (5.0)
|   |   |   |   |   |   max_host > 13: bad (12.0)
|   |   max_path > 21: bad (258.0/5.0)
|   tld = pw: bad (212.0/1.0)
|   tld = uk: bad (12.0)
|   tld = gov: good (217.0)
|   tld = fr: bad (237.0/11.0)
|   tld = de
|   |   max_path <= 10: bad (335.0/7.0)
|   |   max_path > 10
|   |   |   avg_path <= 12.416667: bad (103.0/8.0)
|   |   |   avg_path > 12.416667: good (4.0)
|   tld = se
|   |   max_host <= 3
|   |   |   max_path <= 8: bad (2.0)
|   |   |   max_path > 8: good (5.0/1.0)
|   |   max_host > 3: bad (137.0/13.0)
|   tld = com.mx: bad (202.0/3.0)
|   tld = at
|   |   max_path <= 8: bad (72.0/1.0)
|   |   max_path > 8
|   |   |   avg_host <= 6.75: bad (8.0)
|   |   |   avg_host > 6.75
|   |   |   |   max_path <= 11: bad (8.0/2.0)
|   |   |   |   max_path > 11: good (4.0)
|   tld = be
|   |   avg_path <= 10.769231
|   |   |   max_host <= 5
|   |   |   |   avg_path <= 5.1
|   |   |   |   |   max_path <= 7
|   |   |   |   |   |   max_path <= 6
|   |   |   |   |   |   |   max_path <= 5
|   |   |   |   |   |   |   |   max_path <= 2: good (3.0/1.0)
|   |   |   |   |   |   |   |   max_path > 2: bad (5.0/1.0)
|   |   |   |   |   |   |   max_path > 5: good (2.0)
|   |   |   |   |   |   max_path > 6: bad (5.0)
|   |   |   |   |   max_path > 7: good (6.0/1.0)
|   |   |   |   avg_path > 5.1: bad (10.0)
|   |   |   max_host > 5: bad (100.0/3.0)
|   |   avg_path > 10.769231: good (14.0)
|   tld = me: bad (101.0/12.0)
|   tld = com.br: bad (1834.0/6.0)
|   tld = as: bad (1.0)
|   tld = net.au: bad (63.0/3.0)
|   tld = eu
|   |   max_host <= 9
|   |   |   avg_host <= 5.833333: bad (57.0/1.0)
|   |   |   avg_host > 5.833333
|   |   |   |   avg_host <= 8.5
|   |   |   |   |   avg_host <= 6.5
|   |   |   |   |   |   max_path <= 10
|   |   |   |   |   |   |   avg_path <= 5.611111
|   |   |   |   |   |   |   |   max_path <= 8
|   |   |   |   |   |   |   |   |   avg_path <= 4.333333
|   |   |   |   |   |   |   |   |   |   max_path <= 4: bad (8.0/1.0)
|   |   |   |   |   |   |   |   |   |   max_path > 4: good (11.0/4.0)
|   |   |   |   |   |   |   |   |   avg_path > 4.333333: bad (7.0)
|   |   |   |   |   |   |   |   max_path > 8: good (3.0)
|   |   |   |   |   |   |   avg_path > 5.611111: bad (17.0)
|   |   |   |   |   |   max_path > 10: good (7.0/1.0)
|   |   |   |   |   avg_host > 6.5
|   |   |   |   |   |   avg_path <= 3.375: bad (10.0)
|   |   |   |   |   |   avg_path > 3.375
|   |   |   |   |   |   |   max_path <= 4: good (6.0/1.0)
|   |   |   |   |   |   |   max_path > 4: bad (30.0/5.0)
|   |   |   |   avg_host > 8.5
|   |   |   |   |   max_path <= 3: bad (3.0)
|   |   |   |   |   max_path > 3
|   |   |   |   |   |   avg_path <= 6.333333
|   |   |   |   |   |   |   max_path <= 7: good (22.0/6.0)
|   |   |   |   |   |   |   max_path > 7: bad (8.0)
|   |   |   |   |   |   avg_path > 6.333333: good (12.0/2.0)
|   |   max_host > 9: bad (165.0/5.0)
|   tld = za: bad (0.0)
|   tld = ru
|   |   max_host <= 5
|   |   |   max_host <= 2: good (168.0/5.0)
|   |   |   max_host > 2
|   |   |   |   avg_path <= 4.611111
|   |   |   |   |   avg_host <= 4.75
|   |   |   |   |   |   avg_host <= 4.25
|   |   |   |   |   |   |   max_path <= 6
|   |   |   |   |   |   |   |   max_path <= 5: good (45.0/21.0)
|   |   |   |   |   |   |   |   max_path > 5
|   |   |   |   |   |   |   |   |   max_host <= 3
|   |   |   |   |   |   |   |   |   |   avg_path <= 4: bad (2.0)
|   |   |   |   |   |   |   |   |   |   avg_path > 4: good (2.0)
|   |   |   |   |   |   |   |   |   max_host > 3: bad (8.0)
|   |   |   |   |   |   |   max_path > 6
|   |   |   |   |   |   |   |   avg_host <= 2.75: bad (2.0)
|   |   |   |   |   |   |   |   avg_host > 2.75: good (28.0/4.0)
|   |   |   |   |   |   avg_host > 4.25: bad (7.0)
|   |   |   |   |   avg_host > 4.75: good (196.0/42.0)
|   |   |   |   avg_path > 4.611111
|   |   |   |   |   max_path <= 6: bad (32.0)
|   |   |   |   |   max_path > 6
|   |   |   |   |   |   max_host <= 3
|   |   |   |   |   |   |   max_path <= 15
|   |   |   |   |   |   |   |   max_path <= 7
|   |   |   |   |   |   |   |   |   avg_path <= 6.333333: good (6.0/1.0)
|   |   |   |   |   |   |   |   |   avg_path > 6.333333: bad (4.0)
|   |   |   |   |   |   |   |   max_path > 7: good (44.0/2.0)
|   |   |   |   |   |   |   max_path > 15: bad (5.0)
|   |   |   |   |   |   max_host > 3
|   |   |   |   |   |   |   max_host <= 4
|   |   |   |   |   |   |   |   max_path <= 9: bad (34.0/14.0)
|   |   |   |   |   |   |   |   max_path > 9
|   |   |   |   |   |   |   |   |   avg_host <= 3.75
|   |   |   |   |   |   |   |   |   |   avg_path <= 6.705882: good (2.0)
|   |   |   |   |   |   |   |   |   |   avg_path > 6.705882: bad (6.0/1.0)
|   |   |   |   |   |   |   |   |   avg_host > 3.75: good (12.0)
|   |   |   |   |   |   |   max_host > 4
|   |   |   |   |   |   |   |   avg_host <= 4.25: bad (21.0/1.0)
|   |   |   |   |   |   |   |   avg_host > 4.25
|   |   |   |   |   |   |   |   |   avg_path <= 6.333333
|   |   |   |   |   |   |   |   |   |   avg_host <= 4.75
|   |   |   |   |   |   |   |   |   |   |   max_path <= 9: good (3.0/1.0)
|   |   |   |   |   |   |   |   |   |   |   max_path > 9: bad (3.0)
|   |   |   |   |   |   |   |   |   |   avg_host > 4.75
|   |   |   |   |   |   |   |   |   |   |   max_path <= 10
|   |   |   |   |   |   |   |   |   |   |   |   avg_path <= 5.583333: bad (27.0/10.0)
|   |   |   |   |   |   |   |   |   |   |   |   avg_path > 5.583333: good (3.0)
|   |   |   |   |   |   |   |   |   |   |   max_path > 10: good (10.0/1.0)
|   |   |   |   |   |   |   |   |   avg_path > 6.333333
|   |   |   |   |   |   |   |   |   |   max_path <= 43
|   |   |   |   |   |   |   |   |   |   |   max_path <= 23
|   |   |   |   |   |   |   |   |   |   |   |   avg_path <= 6.944444: good (3.0)
|   |   |   |   |   |   |   |   |   |   |   |   avg_path > 6.944444: bad (20.0/2.0)
|   |   |   |   |   |   |   |   |   |   |   max_path > 23: bad (13.0)
|   |   |   |   |   |   |   |   |   |   max_path > 43: good (2.0)
|   |   max_host > 5
|   |   |   avg_host <= 10.5
|   |   |   |   avg_path <= 3.45
|   |   |   |   |   max_path <= 5
|   |   |   |   |   |   avg_host <= 6.571429
|   |   |   |   |   |   |   avg_host <= 5.4: bad (16.0/6.0)
|   |   |   |   |   |   |   avg_host > 5.4
|   |   |   |   |   |   |   |   avg_host <= 6.25
|   |   |   |   |   |   |   |   |   max_host <= 6
|   |   |   |   |   |   |   |   |   |   max_path <= 4: good (26.0/8.0)
|   |   |   |   |   |   |   |   |   |   max_path > 4: bad (6.0)
|   |   |   |   |   |   |   |   |   max_host > 6: good (18.0/2.0)
|   |   |   |   |   |   |   |   avg_host > 6.25
|   |   |   |   |   |   |   |   |   max_host <= 7: good (5.0/1.0)
|   |   |   |   |   |   |   |   |   max_host > 7: bad (3.0)
|   |   |   |   |   |   avg_host > 6.571429: bad (167.0/53.0)
|   |   |   |   |   max_path > 5: good (42.0/11.0)
|   |   |   |   avg_path > 3.45
|   |   |   |   |   max_path <= 5
|   |   |   |   |   |   avg_path <= 4.291667: bad (344.0/16.0)
|   |   |   |   |   |   avg_path > 4.291667
|   |   |   |   |   |   |   avg_path <= 4.75
|   |   |   |   |   |   |   |   avg_path <= 4.416667
|   |   |   |   |   |   |   |   |   max_host <= 7: good (5.0/2.0)
|   |   |   |   |   |   |   |   |   max_host > 7: bad (11.0)
|   |   |   |   |   |   |   |   avg_path > 4.416667: good (8.0)
|   |   |   |   |   |   |   avg_path > 4.75: bad (46.0)
|   |   |   |   |   max_path > 5
|   |   |   |   |   |   avg_path <= 5.956522
|   |   |   |   |   |   |   max_path <= 9
|   |   |   |   |   |   |   |   max_host <= 7
|   |   |   |   |   |   |   |   |   avg_host <= 5.75: bad (35.0/4.0)
|   |   |   |   |   |   |   |   |   avg_host > 5.75
|   |   |   |   |   |   |   |   |   |   avg_path <= 4.363636
|   |   |   |   |   |   |   |   |   |   |   avg_path <= 3.9375: bad (11.0/2.0)
|   |   |   |   |   |   |   |   |   |   |   avg_path > 3.9375: good (51.0/12.0)
|   |   |   |   |   |   |   |   |   |   avg_path > 4.363636
|   |   |   |   |   |   |   |   |   |   |   avg_host <= 6.75
|   |   |   |   |   |   |   |   |   |   |   |   max_path <= 7
|   |   |   |   |   |   |   |   |   |   |   |   |   max_path <= 6: good (6.0/2.0)
|   |   |   |   |   |   |   |   |   |   |   |   |   max_path > 6
|   |   |   |   |   |   |   |   |   |   |   |   |   |   avg_path <= 5.291667: bad (25.0/3.0)
|   |   |   |   |   |   |   |   |   |   |   |   |   |   avg_path > 5.291667: good (13.0/1.0)
|   |   |   |   |   |   |   |   |   |   |   |   max_path > 7: good (31.0/5.0)
|   |   |   |   |   |   |   |   |   |   |   avg_host > 6.75
|   |   |   |   |   |   |   |   |   |   |   |   max_path <= 8: bad (17.0/1.0)
|   |   |   |   |   |   |   |   |   |   |   |   max_path > 8
|   |   |   |   |   |   |   |   |   |   |   |   |   avg_path <= 4.821429: good (2.0)
|   |   |   |   |   |   |   |   |   |   |   |   |   avg_path > 4.821429: bad (4.0/1.0)
|   |   |   |   |   |   |   |   max_host > 7
|   |   |   |   |   |   |   |   |   avg_path <= 5.631579
|   |   |   |   |   |   |   |   |   |   max_host <= 9
|   |   |   |   |   |   |   |   |   |   |   avg_host <= 7.25
|   |   |   |   |   |   |   |   |   |   |   |   avg_path <= 5.416667: bad (23.0)
|   |   |   |   |   |   |   |   |   |   |   |   avg_path > 5.416667: good (5.0/2.0)
|   |   |   |   |   |   |   |   |   |   |   avg_host > 7.25
|   |   |   |   |   |   |   |   |   |   |   |   max_path <= 7
|   |   |   |   |   |   |   |   |   |   |   |   |   avg_host <= 8.5: good (35.0/16.0)
|   |   |   |   |   |   |   |   |   |   |   |   |   avg_host > 8.5
|   |   |   |   |   |   |   |   |   |   |   |   |   |   avg_path <= 3.875: bad (10.0/2.0)
|   |   |   |   |   |   |   |   |   |   |   |   |   |   avg_path > 3.875
|   |   |   |   |   |   |   |   |   |   |   |   |   |   |   avg_path <= 4.45: good (19.0/5.0)
|   |   |   |   |   |   |   |   |   |   |   |   |   |   |   avg_path > 4.45: bad (15.0/4.0)
|   |   |   |   |   |   |   |   |   |   |   |   max_path > 7: bad (35.0/10.0)
|   |   |   |   |   |   |   |   |   |   max_host > 9
|   |   |   |   |   |   |   |   |   |   |   max_path <= 8: bad (58.0/9.0)
|   |   |   |   |   |   |   |   |   |   |   max_path > 8
|   |   |   |   |   |   |   |   |   |   |   |   avg_path <= 4.642857: good (3.0)
|   |   |   |   |   |   |   |   |   |   |   |   avg_path > 4.642857: bad (4.0/1.0)
|   |   |   |   |   |   |   |   |   avg_path > 5.631579: bad (23.0)
|   |   |   |   |   |   |   max_path > 9
|   |   |   |   |   |   |   |   max_path <= 18
|   |   |   |   |   |   |   |   |   avg_host <= 6.75: good (30.0/5.0)
|   |   |   |   |   |   |   |   |   avg_host > 6.75
|   |   |   |   |   |   |   |   |   |   avg_host <= 9.5
|   |   |   |   |   |   |   |   |   |   |   avg_host <= 7.5: bad (9.0/1.0)
|   |   |   |   |   |   |   |   |   |   |   avg_host > 7.5
|   |   |   |   |   |   |   |   |   |   |   |   max_host <= 8: good (9.0/2.0)
|   |   |   |   |   |   |   |   |   |   |   |   max_host > 8
|   |   |   |   |   |   |   |   |   |   |   |   |   max_path <= 14: bad (11.0/3.0)
|   |   |   |   |   |   |   |   |   |   |   |   |   max_path > 14: good (2.0)
|   |   |   |   |   |   |   |   |   |   avg_host > 9.5: good (18.0/2.0)
|   |   |   |   |   |   |   |   max_path > 18: bad (8.0)
|   |   |   |   |   |   avg_path > 5.956522: bad (415.0/74.0)
|   |   |   avg_host > 10.5
|   |   |   |   max_path <= 5: bad (513.0/31.0)
|   |   |   |   max_path > 5
|   |   |   |   |   max_path <= 11: bad (227.0/27.0)
|   |   |   |   |   max_path > 11
|   |   |   |   |   |   avg_path <= 6.764706
|   |   |   |   |   |   |   avg_host <= 15: good (10.0/1.0)
|   |   |   |   |   |   |   avg_host > 15: bad (2.0)
|   |   |   |   |   |   avg_path > 6.764706
|   |   |   |   |   |   |   max_path <= 63: bad (30.0/2.0)
|   |   |   |   |   |   |   max_path > 63: good (2.0)
|   tld = hu: bad (151.0/7.0)
|   tld = pl: bad (579.0/10.0)
|   tld = work: bad (118.0)
|   tld = jp
|   |   avg_host <= 6.5
|   |   |   avg_path <= 6.875
|   |   |   |   max_path <= 10: bad (11.0/3.0)
|   |   |   |   max_path > 10: good (2.0)
|   |   |   avg_path > 6.875: bad (14.0)
|   |   avg_host > 6.5
|   |   |   max_path <= 7
|   |   |   |   avg_path <= 4.428571: good (3.0)
|   |   |   |   avg_path > 4.428571: bad (5.0)
|   |   |   max_path > 7
|   |   |   |   avg_host <= 8.5: good (24.0/1.0)
|   |   |   |   avg_host > 8.5
|   |   |   |   |   avg_path <= 6.791667: good (3.0)
|   |   |   |   |   avg_path > 6.791667: bad (2.0)
|   tld = ch: bad (58.0/7.0)
|   tld = com.vn: bad (45.0/1.0)
|   tld = dk
|   |   avg_path <= 2.9375
|   |   |   max_path <= 2: good (4.0)
|   |   |   max_path > 2: bad (3.0/1.0)
|   |   avg_path > 2.9375
|   |   |   max_path <= 9: bad (85.0/10.0)
|   |   |   max_path > 9
|   |   |   |   max_host <= 13: bad (51.0/7.0)
|   |   |   |   max_host > 13: good (6.0)
|   tld = edu.au: bad (5.0)
|   tld = tk: bad (141.0)
|   tld = info
|   |   max_host <= 2: good (52.0/1.0)
|   |   max_host > 2
|   |   |   max_host <= 6
|   |   |   |   avg_host <= 5.75: bad (69.0/10.0)
|   |   |   |   avg_host > 5.75
|   |   |   |   |   max_path <= 32
|   |   |   |   |   |   max_path <= 8
|   |   |   |   |   |   |   max_path <= 3: bad (11.0/2.0)
|   |   |   |   |   |   |   max_path > 3
|   |   |   |   |   |   |   |   avg_path <= 4.083333: good (7.0)
|   |   |   |   |   |   |   |   avg_path > 4.083333
|   |   |   |   |   |   |   |   |   avg_path <= 4.45: bad (3.0)
|   |   |   |   |   |   |   |   |   avg_path > 4.45
|   |   |   |   |   |   |   |   |   |   avg_path <= 4.75: good (3.0)
|   |   |   |   |   |   |   |   |   |   avg_path > 4.75: bad (11.0/1.0)
|   |   |   |   |   |   max_path > 8: good (15.0/2.0)
|   |   |   |   |   max_path > 32: bad (8.0)
|   |   |   max_host > 6: bad (931.0/67.0)
|   tld = cc: bad (43.0/2.0)
|   tld = cn: bad (167.0/2.0)
|   tld = ir
|   |   max_path <= 2: good (8.0/2.0)
|   |   max_path > 2: bad (134.0/3.0)
|   tld = pk: bad (20.0)
|   tld = xyz: bad (238.0)
|   tld = gov.tl: good (6.0)
|   tld = es
|   |   avg_host <= 17.5: bad (111.0/2.0)
|   |   avg_host > 17.5
|   |   |   avg_host <= 20: bad (4.0)
|   |   |   avg_host > 20: good (4.0/1.0)
|   tld = ua: good (29.0/4.0)
|   tld = fi
|   |   avg_host <= 5.5: good (11.0)
|   |   avg_host > 5.5: bad (14.0/5.0)
|   tld = ml: bad (46.0)
|   tld = abc.es: good (42.0)
|   tld = org.in: bad (23.0/1.0)
|   tld = cz: bad (157.0/7.0)
|   tld = com.pk
|   |   max_host <= 6: bad (27.0/1.0)
|   |   max_host > 6
|   |   |   avg_host <= 7.5
|   |   |   |   max_path <= 6: bad (3.0)
|   |   |   |   max_path > 6: good (20.0)
|   |   |   avg_host > 7.5: bad (14.0)
|   tld = gov.au: good (55.0)
|   tld = kr
|   |   avg_host <= 5.5
|   |   |   avg_host <= 4.5: bad (2.0)
|   |   |   avg_host > 4.5: good (4.0/1.0)
|   |   avg_host > 5.5: bad (4.0)
|   tld = edu.tr: bad (0.0)
|   tld = com.ar: bad (221.0)
|   tld = it: bad (500.0/7.0)
|   tld = com.sg: bad (52.0)
|   tld = asia
|   |   max_host <= 14: bad (53.0/1.0)
|   |   max_host > 14
|   |   |   avg_host <= 16.5: good (2.0)
|   |   |   avg_host > 16.5: bad (5.0)
|   tld = edu.ph: bad (0.0)
|   tld = th: bad (0.0)
|   tld = com.de: bad (10.0)
|   tld = in: bad (627.0/5.0)
|   tld = ga: bad (53.0)
|   tld = biz: bad (404.0/6.0)
|   tld = edu.tw: good (1.0)
|   tld = lk: bad (18.0)
|   tld = ie: bad (76.0/5.0)
|   tld = google.ca: good (6.0)
|   tld = nl
|   |   max_host <= 4
|   |   |   max_host <= 3: good (8.0)
|   |   |   max_host > 3: bad (14.0)
|   |   max_host > 4: bad (250.0/10.0)
|   tld = com.pl: bad (60.0/2.0)
|   tld = name: bad (30.0/3.0)
|   tld = ly: bad (121.0/11.0)
|   tld = mz: bad (0.0)
|   tld = to
|   |   max_path <= 6: bad (5.0)
|   |   max_path > 6: good (5.0/1.0)
|   tld = club: bad (44.0)
|   tld = report: good (1.0)
|   tld = si: bad (43.0)
|   tld = gov.in: good (11.0/1.0)
|   tld = br: good (1.0)
|   tld = ba: bad (21.0)
|   tld = cba.pl: bad (71.0)
|   tld = gov.mm: bad (0.0)
|   tld = id
|   |   max_path <= 8: bad (11.0)
|   |   max_path > 8: good (3.0/1.0)
|   tld = mx: bad (80.0/2.0)
|   tld = edu.my: bad (12.0)
|   tld = ro: bad (534.0/14.0)
|   tld = my
|   |   avg_host <= 6.5: good (2.0)
|   |   avg_host > 6.5: bad (21.0/3.0)
|   tld = nz: bad (0.0)
|   tld = ee: bad (4.0/1.0)
|   tld = com.es: bad (2.0)
|   tld = biz.ua: bad (1.0)
|   tld = cl: bad (387.0/5.0)
|   tld = il: bad (0.0)
|   tld = gov.cn: good (2.0)
|   tld = no: bad (71.0/4.0)
|   tld = com.gt: bad (3.0)
|   tld = int
|   |   avg_host <= 7.5: bad (3.0/1.0)
|   |   avg_host > 7.5: good (9.0)
|   tld = mil: bad (0.0)
|   tld = mobi: bad (12.0/1.0)
|   tld = org.ua: good (44.0/3.0)
|   tld = gov.jo: good (3.0)
|   tld = org.au
|   |   avg_host <= 3.5: good (17.0/3.0)
|   |   avg_host > 3.5
|   |   |   max_path <= 11: bad (31.0)
|   |   |   max_path > 11
|   |   |   |   max_path <= 16: good (4.0)
|   |   |   |   max_path > 16: bad (4.0)
|   tld = edu.hk: bad (0.0)
|   tld = free.fr: bad (38.0/16.0)
|   tld = sa
|   |   avg_host <= 5.5: good (2.0)
|   |   avg_host > 5.5: bad (2.0)
|   tld = edu.pl: bad (11.0)
|   tld = top: bad (258.0)
|   tld = org.uk
|   |   max_path <= 7
|   |   |   max_path <= 3: good (5.0/1.0)
|   |   |   max_path > 3: bad (24.0/4.0)
|   |   max_path > 7: good (19.0/4.0)
|   tld = com.mo: bad (1.0)
|   tld = com.my: bad (66.0/3.0)
|   tld = gov.ru: good (45.0)
|   tld = zw: bad (0.0)
|   tld = rs: bad (73.0)
|   tld = pt
|   |   avg_host <= 3.5: good (6.0/1.0)
|   |   avg_host > 3.5: bad (110.0/3.0)
|   tld = com.na: bad (2.0)
|   tld = gov.tw: bad (0.0)
|   tld = pe
|   |   avg_host <= 9.5: bad (28.0/1.0)
|   |   avg_host > 9.5
|   |   |   avg_host <= 15: good (4.0)
|   |   |   avg_host > 15: bad (8.0)
|   tld = gdn: bad (18.0)
|   tld = gov.it: bad (4.0)
|   tld = gov.uk: good (13.0)
|   tld = org.cn: good (2.0)
|   tld = is
|   |   avg_host <= 8: good (21.0/1.0)
|   |   avg_host > 8
|   |   |   avg_host <= 11.5
|   |   |   |   max_path <= 8: bad (21.0/1.0)
|   |   |   |   max_path > 8: good (3.0/1.0)
|   |   |   avg_host > 11.5: good (4.0/1.0)
|   tld = kz
|   |   max_host <= 7
|   |   |   avg_host <= 5.75
|   |   |   |   avg_host <= 3.5: good (4.0)
|   |   |   |   avg_host > 3.5: bad (21.0/2.0)
|   |   |   avg_host > 5.75
|   |   |   |   avg_host <= 6.5: good (52.0)
|   |   |   |   avg_host > 6.5
|   |   |   |   |   avg_path <= 5.25: good (4.0/1.0)
|   |   |   |   |   avg_path > 5.25: bad (3.0)
|   |   max_host > 7: bad (18.0)
|   tld = gov.tr: bad (1.0)
|   tld = buzz: bad (2.0)
|   tld = org.pl: bad (3.0)
|   tld = li: bad (9.0)
|   tld = gov.vn: bad (8.0/2.0)
|   tld = hk: bad (20.0/1.0)
|   tld = gov.np: good (3.0)
|   tld = gq: bad (28.0)
|   tld = com.fj: bad (2.0)
|   tld = gov.pt: bad (0.0)
|   tld = gov.bd: bad (14.0)
|   tld = co
|   |   max_host <= 2: good (77.0/14.0)
|   |   max_host > 2: bad (138.0/6.0)
|   tld = org.br: bad (67.0)
|   tld = gov.sg: good (2.0)
|   tld = edu.co: bad (7.0)
|   tld = gr: bad (144.0/1.0)
|   tld = com.ua
|   |   avg_path <= 3.181818
|   |   |   max_path <= 4
|   |   |   |   avg_path <= 1.75
|   |   |   |   |   avg_host <= 5.25: bad (3.0/1.0)
|   |   |   |   |   avg_host > 5.25: good (4.0)
|   |   |   |   avg_path > 1.75: bad (4.0)
|   |   |   max_path > 4: good (12.0)
|   |   avg_path > 3.181818
|   |   |   avg_host <= 7.25
|   |   |   |   max_path <= 7: bad (22.0/2.0)
|   |   |   |   max_path > 7
|   |   |   |   |   max_path <= 8: good (10.0/3.0)
|   |   |   |   |   max_path > 8
|   |   |   |   |   |   max_host <= 3: good (2.0)
|   |   |   |   |   |   max_host > 3: bad (25.0/3.0)
|   |   |   avg_host > 7.25: bad (42.0/1.0)
|   tld = org.pe: bad (19.0/1.0)
|   tld = google.be: good (4.0)
|   tld = tj: bad (8.0/1.0)
|   tld = vn: bad (89.0/5.0)
|   tld = by
|   |   avg_path <= 4.133333
|   |   |   max_path <= 6
|   |   |   |   max_path <= 1: good (7.0/2.0)
|   |   |   |   max_path > 1: bad (25.0/5.0)
|   |   |   max_path > 6: good (18.0/2.0)
|   |   avg_path > 4.133333
|   |   |   max_path <= 23
|   |   |   |   max_path <= 6: bad (19.0)
|   |   |   |   max_path > 6
|   |   |   |   |   max_path <= 7
|   |   |   |   |   |   avg_host <= 7: good (6.0)
|   |   |   |   |   |   avg_host > 7: bad (4.0)
|   |   |   |   |   max_path > 7
|   |   |   |   |   |   max_path <= 14: bad (62.0/6.0)
|   |   |   |   |   |   max_path > 14: good (2.0)
|   |   |   max_path > 23: bad (44.0)
|   tld = org.pk: bad (8.0)
|   tld = gov.za: bad (3.0)
|   tld = rw: bad (14.0)
|   tld = gov.by: good (9.0)
|   tld = com.cn: bad (44.0/2.0)
|   tld = gov.br: bad (0.0)
|   tld = cymru: bad (0.0)
|   tld = com.ve: bad (32.0)
|   tld = biz.pl: bad (5.0)
|   tld = gov.hr: good (3.0)
|   tld = gov.tn: bad (0.0)
|   tld = gov.pg: bad (1.0)
|   tld = ae
|   |   max_path <= 2: good (3.0/1.0)
|   |   max_path > 2: bad (50.0/4.0)
|   tld = com.bo: bad (39.0)
|   tld = tv
|   |   max_path <= 5
|   |   |   avg_host <= 9.5: good (9.0/1.0)
|   |   |   avg_host > 9.5: bad (3.0/1.0)
|   |   max_path > 5: bad (54.0/10.0)
|   tld = su: bad (208.0/6.0)
|   tld = com.py: bad (11.0/1.0)
|   tld = click: bad (90.0)
|   tld = org.ph: bad (2.0)
|   tld = com.tr
|   |   max_host <= 5
|   |   |   avg_host <= 3.5: good (2.0)
|   |   |   avg_host > 3.5: bad (5.0)
|   |   max_host > 5: bad (96.0)
|   tld = af: good (2.0/1.0)
|   tld = madrid.es: good (10.0)
|   tld = org.ru
|   |   avg_host <= 6: bad (14.0)
|   |   avg_host > 6: good (2.0)
|   tld = gov.mk: bad (0.0)
|   tld = pf: bad (1.0)
|   tld = online: bad (115.0)
|   tld = cf: bad (50.0)
|   tld = gov.bt: bad (0.0)
|   tld = ge: bad (29.0/1.0)
|   tld = net.kw: bad (0.0)
|   tld = org.ar: bad (11.0)
|   tld = ke: bad (0.0)
|   tld = com.uy: bad (28.0)
|   tld = com.tw: bad (28.0)
|   tld = gov.hk: good (1.0)
|   tld = io
|   |   avg_host <= 4: bad (4.0)
|   |   avg_host > 4
|   |   |   avg_host <= 8.5: good (5.0/1.0)
|   |   |   avg_host > 8.5: bad (4.0)
|   tld = org.za: bad (7.0)
|   tld = edu.in: bad (5.0)
|   tld = gov.ly: good (2.0/1.0)
|   tld = vacations: bad (1.0)
|   tld = hr
|   |   avg_host <= 6.25: good (8.0)
|   |   avg_host > 6.25
|   |   |   avg_host <= 6.75: bad (2.0)
|   |   |   avg_host > 6.75
|   |   |   |   avg_path <= 5.058824: bad (4.0/1.0)
|   |   |   |   avg_path > 5.058824: good (3.0)
|   tld = kg: bad (2.0)
|   tld = gov.ph
|   |   avg_host <= 12.5: good (7.0)
|   |   avg_host > 12.5: bad (3.0)
|   tld = am
|   |   avg_host <= 6
|   |   |   avg_path <= 4.4375: good (3.0/1.0)
|   |   |   avg_path > 4.4375: bad (5.0)
|   |   avg_host > 6: good (2.0)
|   tld = dz: good (3.0)
|   tld = google.fr: good (49.0)
|   tld = com.ph: bad (14.0)
|   tld = net.uk: bad (0.0)
|   tld = cbs.nl: good (2.0)
|   tld = cbs.dk: good (1.0)
|   tld = mn
|   |   max_path <= 4: good (4.0/1.0)
|   |   max_path > 4: bad (27.0/1.0)
|   tld = edu.pk: bad (1.0)
|   tld = com.ec: bad (8.0)
|   tld = gov.ua
|   |   avg_host <= 3.5: bad (3.0)
|   |   avg_host > 3.5
|   |   |   avg_host <= 5: good (3.0)
|   |   |   avg_host > 5: bad (3.0/1.0)
|   tld = fm: bad (4.0/1.0)
|   tld = edu.ar: bad (4.0)
|   tld = sd: bad (1.0)
|   tld = ug: bad (0.0)
|   tld = blog.br: bad (2.0)
|   tld = org.tn: bad (0.0)
|   tld = lu: bad (10.0)
|   tld = la: bad (6.0/1.0)
|   tld = ws: bad (52.0/2.0)
|   tld = lt: bad (35.0)
|   tld = gov.pl: bad (1.0)
|   tld = gov.my: bad (0.0)
|   tld = microsoft.io: good (3.0)
|   tld = cat
|   |   avg_host <= 6.5
|   |   |   max_path <= 8: bad (4.0)
|   |   |   max_path > 8: good (3.0)
|   |   avg_host > 6.5: bad (10.0)
|   tld = com.ro: bad (5.0)
|   tld = fo: good (1.0)
|   tld = wang: bad (21.0)
|   tld = org.mx: bad (4.0/1.0)
|   tld = yandex.ru: good (18.0)
|   tld = az: bad (19.0/7.0)
|   tld = edu.ru: good (5.0)
|   tld = vg: bad (1.0)
|   tld = website.pl: bad (25.0)
|   tld = ar: bad (0.0)
|   tld = md: bad (21.0/1.0)
|   tld = gov.pk: good (2.0)
|   tld = com.sa: bad (3.0)
|   tld = ao: bad (0.0)
|   tld = ma: bad (23.0/1.0)
|   tld = edu.pe: bad (6.0)
|   tld = com.eg: bad (2.0)
|   tld = sk: bad (73.0/1.0)
|   tld = tech: bad (8.0)
|   tld = om: good (2.0/1.0)
|   tld = cm: bad (4.0)
|   tld = tr: bad (0.0)
|   tld = uy: bad (13.0)
|   tld = net.ua
|   |   max_host <= 3: bad (3.0)
|   |   max_host > 3
|   |   |   avg_host <= 4.75: good (3.0)
|   |   |   avg_host > 4.75
|   |   |   |   max_path <= 10: bad (7.0)
|   |   |   |   max_path > 10: good (2.0)
|   tld = com.hk: bad (20.0)
|   tld = one: bad (2.0)
|   tld = com.ru: bad (1.0)
|   tld = bg
|   |   max_host <= 3: good (2.0)
|   |   max_host > 3: bad (22.0/1.0)
|   tld = legal: bad (19.0)
|   tld = org.nz
|   |   avg_host <= 4.5: bad (2.0)
|   |   avg_host > 4.5: good (7.0/1.0)
|   tld = gov.bz: bad (0.0)
|   tld = church.ua: good (1.0)
|   tld = com.er: bad (0.0)
|   tld = gov.dm: bad (0.0)
|   tld = news: good (1.0)
|   tld = mu: bad (0.0)
|   tld = edu.cn: bad (0.0)
|   tld = nu
|   |   avg_host <= 4.5
|   |   |   avg_host <= 3.5: bad (2.0)
|   |   |   avg_host > 3.5: good (2.0)
|   |   avg_host > 4.5: bad (20.0)
|   tld = sc: bad (2.0)
|   tld = lv: bad (20.0/1.0)
|   tld = world: bad (1.0)
|   tld = gov.ms: good (1.0)
|   tld = gov.co: bad (3.0)
|   tld = edu.sg: bad (1.0)
|   tld = com.lb: bad (15.0)
|   tld = edu.tt: bad (0.0)
|   tld = com.ng: bad (24.0/1.0)
|   tld = clinic: bad (3.0)
|   tld = pro: bad (28.0/2.0)
|   tld = science: bad (5.0/1.0)
|   tld = edu.rs: bad (3.0)
|   tld = ve: bad (0.0)
|   tld = pn: bad (0.0)
|   tld = gov.gi: bad (0.0)
|   tld = gov.mv: good (1.0)
|   tld = faith: bad (4.0)
|   tld = com.bn: bad (0.0)
|   tld = edu.sd: bad (0.0)
|   tld = com.tn: bad (4.0)
|   tld = org.kw: good (4.0)
|   tld = gov.sy: bad (2.0)
|   tld = gov.lr: bad (0.0)
|   tld = tn: bad (8.0)
|   tld = site: bad (16.0)
|   tld = business.dk: good (2.0)
|   tld = edu.uy: bad (0.0)
|   tld = bf: bad (0.0)
|   tld = com.ba: bad (8.0)
|   tld = com.np: bad (14.0/1.0)
|   tld = gov.ws: bad (0.0)
|   tld = com.mk: bad (3.0)
|   tld = org.sv: bad (22.0/1.0)
|   tld = vc: bad (7.0)
|   tld = org.bw: bad (0.0)
|   tld = mil.za: bad (0.0)
|   tld = net.in: bad (6.0)
|   tld = hn: bad (0.0)
|   tld = edu.bd: bad (50.0)
|   tld = gov.mo: bad (0.0)
|   tld = ph: bad (6.0/1.0)
|   tld = gt: bad (0.0)
|   tld = tz: bad (0.0)
|   tld = gift: bad (1.0)
|   tld = gov.qa: bad (0.0)
|   tld = mg: bad (3.0)
|   tld = gov.bs: bad (0.0)
|   tld = gov.ge: good (1.0)
|   tld = art.pl: bad (2.0)
|   tld = tl: bad (1.0)
|   tld = edu.br: bad (2.0)
|   tld = gov.bh: good (1.0)
|   tld = org.rs: bad (6.0)
|   tld = gov.ma: bad (0.0)
|   tld = online.de: bad (1.0)
|   tld = ps: bad (1.0)
|   tld = ms
|   |   avg_host <= 3.5: good (41.0/1.0)
|   |   avg_host > 3.5: bad (10.0/3.0)
|   tld = sm: bad (0.0)
|   tld = sn: bad (7.0)
|   tld = gov.il: good (1.0)
|   tld = net.br: bad (18.0)
|   tld = gov.gh: bad (0.0)
|   tld = net.sa: bad (0.0)
|   tld = lol: bad (4.0)
|   tld = tw: bad (8.0/1.0)
|   tld = vu: bad (0.0)
|   tld = org.il
|   |   max_host <= 3: bad (10.0/1.0)
|   |   max_host > 3: good (11.0/1.0)
|   tld = net.vn: bad (2.0)
|   tld = gallup.dk: good (1.0)
|   tld = com.co: bad (22.0/1.0)
|   tld = mk: bad (6.0)
|   tld = gm: bad (1.0)
|   tld = website: bad (7.0)
|   tld = so
|   |   avg_host <= 5.5: bad (5.0)
|   |   avg_host > 5.5: good (2.0)
|   tld = gov.eg: bad (0.0)
|   tld = date: bad (7.0)
|   tld = party: bad (1.0)
|   tld = gov.ve: bad (0.0)
|   tld = com.gr: bad (4.0)
|   tld = gov.ar: bad (0.0)
|   tld = gov.al: bad (8.0)
|   tld = expert: bad (5.0)
|   tld = nc: good (1.0)
|   tld = link: bad (6.0)
|   tld = bd: bad (0.0)
|   tld = org.ir: bad (0.0)
|   tld = com.pe: bad (12.0)
|   tld = support: bad (7.0)
|   tld = ad: bad (0.0)
|   tld = net.ma: bad (0.0)
|   tld = org.my: bad (3.0)
|   tld = yt: bad (5.0)
|   tld = com.do: bad (2.0)
|   tld = com.cy: bad (7.0)
|   tld = cloud: bad (2.0)
|   tld = tt
|   |   avg_path <= 6.833333: good (20.0)
|   |   avg_path > 6.833333: bad (2.0)
|   tld = bt: good (2.0)
|   tld = gov.ae: bad (0.0)
|   tld = cr: bad (0.0)
|   tld = photo: bad (4.0)
|   tld = jo: good (1.0)
|   tld = re: bad (2.0)
|   tld = org.mk: bad (4.0)
|   tld = yandex.ua: good (3.0)
|   tld = org.ve: bad (1.0)
|   tld = st: bad (0.0)
|   tld = ac: bad (18.0/1.0)
|   tld = org.np: bad (2.0)
|   tld = press: bad (1.0)
|   tld = trade: bad (3.0)
|   tld = host: bad (7.0)
|   tld = edu.mo: bad (0.0)
|   tld = wales: good (1.0)
|   tld = equipment: bad (1.0)
|   tld = gov.sa: bad (0.0)
|   tld = gov.lv: bad (0.0)
|   tld = net.tw: bad (0.0)
|   tld = gov.kw: good (1.0)
|   tld = edu.mn: bad (0.0)
|   tld = gov.mn: good (1.0)
|   tld = mw: bad (0.0)
|   tld = ht: bad (0.0)
|   tld = org.af: bad (0.0)
|   tld = im: bad (7.0/1.0)
|   tld = nf: bad (0.0)
|   tld = review: bad (3.0)
|   tld = gov.af: good (3.0/1.0)
|   tld = edu.ro: good (1.0)
|   tld = net.ve: bad (0.0)
|   tld = cx: bad (9.0)
|   tld = space: bad (14.0)
|   tld = org.kz: bad (0.0)
|   tld = sg
|   |   max_path <= 8: bad (7.0)
|   |   max_path > 8: good (2.0)
|   tld = wiki: bad (0.0)
|   tld = org.tr: bad (4.0)
|   tld = life
|   |   avg_path <= 12.076923: good (2.0)
|   |   avg_path > 12.076923: bad (2.0)
|   tld = qa: good (3.0/1.0)
|   tld = mv: good (1.0)
|   tld = gov.gu: good (2.0)
|   tld = museum: good (2.0)
|   tld = gov.ng: bad (0.0)
|   tld = edu.ua: good (1.0)
|   tld = bid: bad (31.0)
|   tld = uz
|   |   avg_host <= 5.5: good (4.0/1.0)
|   |   avg_host > 5.5: bad (4.0)
|   tld = gov.mt: good (1.0)
|   tld = edu.ly: bad (0.0)
|   tld = gov.zm: bad (0.0)
|   tld = travel: bad (8.0/1.0)
|   tld = bz: bad (4.0)
|   tld = gov.lk: good (1.0)
|   tld = moe: bad (2.0)
|   tld = properties: bad (1.0)
|   tld = info.tr: bad (3.0)
|   tld = monster.fr: bad (0.0)
|   tld = bb: bad (1.0)
|   tld = bm: bad (0.0)
|   tld = gov.lb: bad (0.0)
|   tld = net.cn: bad (2.0)
|   tld = aero: good (1.0)
|   tld = org.eg: bad (0.0)
|   tld = ink: bad (2.0)
|   tld = com.kh: bad (6.0)
|   tld = com.ge: bad (4.0)
|   tld = casa: bad (2.0)
|   tld = org.bt: bad (0.0)
|   tld = net.tr: bad (0.0)
|   tld = gg: bad (0.0)
|   tld = sfr.fr: bad (0.0)
|   tld = services: bad (0.0)
|   tld = net.ru: good (1.0)
|   tld = ng: bad (1.0)
|   tld = mc: bad (0.0)
|   tld = sy: bad (7.0)
|   tld = edu.ng: bad (0.0)
|   tld = edu.pt: bad (1.0)
|   tld = je: bad (3.0)
|   tld = gi: bad (0.0)
|   tld = radio.br: bad (1.0)
|   tld = gov.fj: bad (0.0)
|   tld = mint.ca: good (1.0)
|   tld = ec: bad (2.0)
|   tld = edu.vn: bad (4.0)
|   tld = com.bb: bad (1.0)
|   tld = al: good (2.0/1.0)
|   tld = gov.cy: good (1.0)
|   tld = org.py: bad (2.0)
|   tld = com.pt: bad (6.0)
|   tld = au: bad (0.0)
|   tld = google.az: bad (0.0)
|   tld = red: bad (1.0)
|   tld = net.pl: bad (3.0)
|   tld = edu.gt: bad (0.0)
|   tld = org.bz: bad (0.0)
|   tld = va: bad (0.0)
|   tld = mil.ru: good (2.0)
|   tld = tc: bad (1.0)
|   tld = coop: bad (0.0)
|   tld = org.zm: bad (0.0)
|   tld = edu.lb: bad (0.0)
|   tld = mp
|   |   avg_host <= 4: bad (2.0)
|   |   avg_host > 4: good (10.0)
|   tld = gov.om: bad (0.0)
|   tld = art.br: bad (3.0)
|   tld = download: bad (3.0)
|   tld = org.jo: bad (0.0)
|   tld = org.co: bad (0.0)
|   tld = edu.mk: bad (0.0)
|   tld = global: bad (4.0)
|   tld = press.ma: bad (0.0)
|   tld = org.hn: bad (0.0)
|   tld = win: bad (10.0)
|   tld = com.hr: bad (1.0)
|   tld = cg: bad (0.0)
|   tld = live: bad (2.0)
|   tld = org.tw: bad (0.0)
|   tld = gov.zw: bad (0.0)
|   tld = org.sz: bad (1.0)
|   tld = sapo.pt: good (2.0)
|   tld = catering: bad (1.0)
|   tld = gov.sd: bad (0.0)
|   tld = org.qa: bad (0.0)
|   tld = org.sy: good (2.0)
|   tld = cu: bad (0.0)
|   tld = km: bad (0.0)
|   tld = gov.mg: bad (0.0)
|   tld = mil.by: bad (0.0)
|   tld = gl: good (2.0)
|   tld = gov.ie: good (2.0)
|   tld = gov.jm: good (3.0)
|   tld = com.kw: bad (0.0)
|   tld = tax: bad (1.0)
|   tld = accountant: bad (2.0)
|   tld = gov.sh: bad (0.0)
|   tld = gov.ao: bad (0.0)
|   tld = fj: bad (0.0)
|   tld = org.mt: bad (0.0)
|   tld = bo: bad (0.0)
|   tld = today: bad (3.0)
|   tld = scot: bad (0.0)
|   tld = market: bad (1.0)
|   tld = ne: good (1.0)
|   tld = loan: bad (2.0)
|   tld = gov.cl: bad (0.0)
|   tld = edu.np: bad (2.0)
|   tld = org.lb: bad (0.0)
|   tld = edu.kh: bad (1.0)
|   tld = cv: bad (0.0)
|   tld = business.jo: good (1.0)
|   tld = gov.tt: bad (0.0)
|   tld = edu.na: bad (0.0)
|   tld = gov.se: bad (0.0)
|   tld = bs: bad (0.0)
|   tld = gov.sk: bad (0.0)
|   tld = cd: bad (1.0)
|   tld = gov.mz: bad (3.0)
|   tld = ci: bad (2.0)
|   tld = gov.sb: bad (0.0)
|   tld = net.nz: bad (0.0)
|   tld = edu.ba: bad (0.0)
|   tld = gov.rs: bad (0.0)
|   tld = gov.az: bad (0.0)
|   tld = bh: bad (1.0)
|   tld = coop.br: bad (0.0)
|   tld = helsinki.fi: good (1.0)
|   tld = gov.tp: bad (0.0)
|   tld = media
|   |   avg_path <= 5: good (2.0)
|   |   avg_path > 5: bad (3.0)
|   tld = tips: bad (0.0)
|   tld = rocks: bad (1.0)
|   tld = gov.vg: bad (0.0)
|   tld = org.by: good (1.0)
|   tld = org.bh: bad (0.0)
|   tld = city: good (1.0)
|   tld = com.mt: bad (2.0)
|   tld = mil.kg: good (1.0)
|   tld = sz: bad (0.0)
|   tld = gov.ag: good (1.0)
|   tld = gs: bad (1.0)
|   tld = gov.cz: good (1.0)
|   tld = paris.fr: good (1.0)
|   tld = org.im: bad (0.0)
|   tld = racing: bad (1.0)
|   tld = restaurant: bad (0.0)
|   tld = site.bz: bad (3.0)
|   tld = gov.im: good (1.0)
|   tld = gov.kz: good (2.0)
|   tld = sapo.ao: good (2.0)
|   tld = blog: good (1.0)
|   tld = ltd.ua: bad (1.0)
|   tld = na: bad (0.0)
|   tld = edu.so: bad (0.0)
|   tld = gov.ls: bad (0.0)
|   tld = sx: bad (2.0)
|   tld = care: bad (1.0)
|   tld = edu.jm: bad (0.0)
|   tld = church: bad (3.0)
|   tld = institute: bad (0.0)
|   tld = edu.qa: bad (0.0)
|   tld = rip: bad (1.0)
|   tld = chat.ru: bad (3.0/1.0)
|   tld = cbre.cl: good (1.0)
|   tld = taipei: bad (0.0)
|   tld = guide: bad (0.0)
|   tld = gov.ki: bad (0.0)
|   tld = spiegel.de: good (4.0)
|   tld = intuit.ca: good (1.0)
|   tld = gov.dz: bad (0.0)
|   tld = shaw.ca: bad (1.0)
|   tld = do: bad (7.0)
|   tld = org.hk: bad (0.0)
|   tld = pa: bad (0.0)
|   tld = aq: good (1.0)
|   tld = etisalat.ae: bad (1.0)
|   tld = open.by: good (1.0)
|   tld = tg: bad (0.0)
|   tld = webcam: bad (2.0)
|   tld = cab: bad (1.0)
|   tld = google.dk: good (1.0)
|   tld = university: bad (1.0)
|   tld = free.bg: bad (0.0)
|   tld = net.my: bad (1.0)
|   tld = scb.se: good (1.0)
|   tld = org.na: bad (0.0)
|   tld = edu.mx: bad (4.0)
|   tld = gov.na: bad (0.0)
|   tld = bio.br: bad (1.0)
|   tld = gov.gy: bad (0.0)
|   tld = org.ec: bad (0.0)
|   tld = info.pl: bad (1.0)
|   tld = works: good (1.0)
|   tld = info.ve: bad (3.0)
|   tld = org.sg: bad (1.0)
|   tld = edu.az: bad (0.0)
|   tld = edu.sv: bad (1.0)
|   tld = gov.ac: bad (0.0)
|   tld = law.ge: good (1.0)
|   tld = catholic.by: good (1.0)
|   tld = mobile.de: bad (1.0)
|   tld = ni: bad (0.0)
|   tld = run: bad (1.0)
|   tld = nr: bad (0.0)
|   tld = jobs: bad (0.0)
|   tld = edu.ve: bad (0.0)
|   tld = gov.pn: bad (0.0)
|   tld = education.fr: good (1.0)
|   tld = com.mv: bad (0.0)
|   tld = org.bd: bad (1.0)
|   tld = com.jo: bad (0.0)
|   tld = org.lr: bad (0.0)
|   tld = gov.do: bad (0.0)
|   tld = gov.kh: bad (0.0)
|   tld = tf: bad (2.0)
|   tld = agency: bad (1.0)
|   tld = sl: good (1.0)
|   tld = center.cz: good (1.0)
|   tld = gov.kg: good (1.0)
|   tld = xxx: bad (0.0)
|   tld = help: bad (1.0)
|   tld = com.pa: bad (0.0)
|   tld = com.ly: bad (0.0)
|   tld = alsace: bad (0.0)
|   tld = com.bz: good (1.0)
|   tld = edu.sa: bad (0.0)
|   tld = com.bd: bad (1.0)
|   tld = map.by: good (1.0)
|   tld = org.ls: bad (0.0)
|   tld = guru.ru: good (2.0)
|   tld = edu.gh: bad (0.0)
|   tld = ag: good (1.0)
|   tld = gov.gr: bad (0.0)
|   tld = london: bad (1.0)
|   tld = gov.bn: bad (0.0)
|   tld = builders: bad (1.0)
|   tld = abudhabi.ae: bad (0.0)
|   tld = news.sy: bad (0.0)
|   tld = dj: bad (1.0)
|   tld = google.es: good (1.0)
|   tld = gov.py: bad (0.0)
|   tld = berlin.de: good (1.0)
|   tld = gov.ck: bad (0.0)
|   tld = cal.pl: bad (2.0)
|   tld = net.ye: bad (0.0)
|   tld = systems: bad (1.0)
|   tld = gov.ky: bad (0.0)
|   tld = google.no: good (1.0)
|   tld = mil.ve: bad (0.0)
|   tld = pm: bad (0.0)
|   tld = coffee: bad (1.0)
|   tld = zm: bad (0.0)
|   tld = finance.ua: good (1.0)
|   tld = club.tw: bad (0.0)
|   tld = cy: bad (0.0)
|   tld = gov.ba: good (1.0)
|   tld = org.ng: bad (1.0)
|   tld = gov.lt: bad (0.0)
|   tld = lacaixa.es: good (1.0)
|   tld = sh: bad (0.0)
|   tld = camera.it: good (1.0)
|   tld = edu.ec: bad (1.0)
|   tld = biz.id: bad (1.0)
|   tld = org.cy: bad (0.0)
|   tld = gd: bad (1.0)
|   tld = gov.lc: bad (0.0)
|   tld = com.bt: bad (0.0)
|   tld = biz.tr: bad (1.0)
|   tld = tools: bad (1.0)
|   tld = bzh: bad (0.0)
|   tld = money.pl: good (1.0)
|   tld = edu.jo: bad (0.0)
|   tld = international: bad (0.0)
|   tld = computer: bad (1.0)
dot_num > 0
|   tld = com
|   |   max_path <= 21
|   |   |   avg_host <= 11
|   |   |   |   avg_path <= 2.625
|   |   |   |   |   dot_num <= 1
|   |   |   |   |   |   max_host <= 19
|   |   |   |   |   |   |   avg_host <= 9
|   |   |   |   |   |   |   |   max_host <= 3: good (66.0/4.0)
|   |   |   |   |   |   |   |   max_host > 3
|   |   |   |   |   |   |   |   |   avg_host <= 3.857143
|   |   |   |   |   |   |   |   |   |   max_host <= 4
|   |   |   |   |   |   |   |   |   |   |   avg_host <= 3.4: bad (22.0/4.0)
|   |   |   |   |   |   |   |   |   |   |   avg_host > 3.4: good (114.0/9.0)
|   |   |   |   |   |   |   |   |   |   max_host > 4: bad (95.0/12.0)
|   |   |   |   |   |   |   |   |   avg_host > 3.857143
|   |   |   |   |   |   |   |   |   |   avg_host <= 4.1: good (158.0/19.0)
|   |   |   |   |   |   |   |   |   |   avg_host > 4.1
|   |   |   |   |   |   |   |   |   |   |   max_host <= 9
|   |   |   |   |   |   |   |   |   |   |   |   avg_path <= 2.285714
|   |   |   |   |   |   |   |   |   |   |   |   |   max_path <= 1
|   |   |   |   |   |   |   |   |   |   |   |   |   |   max_host <= 6
|   |   |   |   |   |   |   |   |   |   |   |   |   |   |   max_host <= 5: bad (24.0/11.0)
|   |   |   |   |   |   |   |   |   |   |   |   |   |   |   max_host > 5
|   |   |   |   |   |   |   |   |   |   |   |   |   |   |   |   avg_host <= 4.4: bad (10.0/3.0)
|   |   |   |   |   |   |   |   |   |   |   |   |   |   |   |   avg_host > 4.4: good (146.0/45.0)
|   |   |   |   |   |   |   |   |   |   |   |   |   |   max_host > 6
|   |   |   |   |   |   |   |   |   |   |   |   |   |   |   avg_host <= 5
|   |   |   |   |   |   |   |   |   |   |   |   |   |   |   |   max_host <= 7: good (208.0/24.0)
|   |   |   |   |   |   |   |   |   |   |   |   |   |   |   |   max_host > 7: bad (15.0/6.0)
|   |   |   |   |   |   |   |   |   |   |   |   |   |   |   avg_host > 5
|   |   |   |   |   |   |   |   |   |   |   |   |   |   |   |   avg_host <= 6.571429
|   |   |   |   |   |   |   |   |   |   |   |   |   |   |   |   |   avg_host <= 5.4: bad (19.0/7.0)
|   |   |   |   |   |   |   |   |   |   |   |   |   |   |   |   |   avg_host > 5.4
|   |   |   |   |   |   |   |   |   |   |   |   |   |   |   |   |   |   avg_host <= 5.571429
|   |   |   |   |   |   |   |   |   |   |   |   |   |   |   |   |   |   |   max_host <= 8: good (98.0/23.0)
|   |   |   |   |   |   |   |   |   |   |   |   |   |   |   |   |   |   |   max_host > 8: bad (6.0/1.0)
|   |   |   |   |   |   |   |   |   |   |   |   |   |   |   |   |   |   avg_host > 5.571429
|   |   |   |   |   |   |   |   |   |   |   |   |   |   |   |   |   |   |   max_host <= 8
|   |   |   |   |   |   |   |   |   |   |   |   |   |   |   |   |   |   |   |   avg_host <= 6.4: bad (59.0/27.0)
|   |   |   |   |   |   |   |   |   |   |   |   |   |   |   |   |   |   |   |   avg_host > 6.4: good (23.0/5.0)
|   |   |   |   |   |   |   |   |   |   |   |   |   |   |   |   |   |   |   max_host > 8
|   |   |   |   |   |   |   |   |   |   |   |   |   |   |   |   |   |   |   |   avg_host <= 6.125: good (96.0/28.0)
|   |   |   |   |   |   |   |   |   |   |   |   |   |   |   |   |   |   |   |   avg_host > 6.125: bad (24.0/10.0)
|   |   |   |   |   |   |   |   |   |   |   |   |   |   |   |   avg_host > 6.571429: good (232.0/50.0)
|   |   |   |   |   |   |   |   |   |   |   |   |   max_path > 1
|   |   |   |   |   |   |   |   |   |   |   |   |   |   max_host <= 6
|   |   |   |   |   |   |   |   |   |   |   |   |   |   |   max_host <= 5: good (25.0)
|   |   |   |   |   |   |   |   |   |   |   |   |   |   |   max_host > 5
|   |   |   |   |   |   |   |   |   |   |   |   |   |   |   |   avg_host <= 4.75: good (12.0)
|   |   |   |   |   |   |   |   |   |   |   |   |   |   |   |   avg_host > 4.75
|   |   |   |   |   |   |   |   |   |   |   |   |   |   |   |   |   max_path <= 3: bad (18.0/2.0)
|   |   |   |   |   |   |   |   |   |   |   |   |   |   |   |   |   max_path > 3
|   |   |   |   |   |   |   |   |   |   |   |   |   |   |   |   |   |   avg_host <= 5.25: good (2.0)
|   |   |   |   |   |   |   |   |   |   |   |   |   |   |   |   |   |   avg_host > 5.25: bad (3.0/1.0)
|   |   |   |   |   |   |   |   |   |   |   |   |   |   max_host > 6: good (274.0/18.0)
|   |   |   |   |   |   |   |   |   |   |   |   avg_path > 2.285714
|   |   |   |   |   |   |   |   |   |   |   |   |   avg_host <= 4.5
|   |   |   |   |   |   |   |   |   |   |   |   |   |   max_host <= 6: good (11.0/1.0)
|   |   |   |   |   |   |   |   |   |   |   |   |   |   max_host > 6: bad (16.0)
|   |   |   |   |   |   |   |   |   |   |   |   |   avg_host > 4.5
|   |   |   |   |   |   |   |   |   |   |   |   |   |   max_host <= 6: bad (12.0/4.0)
|   |   |   |   |   |   |   |   |   |   |   |   |   |   max_host > 6
|   |   |   |   |   |   |   |   |   |   |   |   |   |   |   max_host <= 7
|   |   |   |   |   |   |   |   |   |   |   |   |   |   |   |   avg_host <= 5.25: good (34.0/1.0)
|   |   |   |   |   |   |   |   |   |   |   |   |   |   |   |   avg_host > 5.25
|   |   |   |   |   |   |   |   |   |   |   |   |   |   |   |   |   avg_path <= 2.428571: bad (3.0)
|   |   |   |   |   |   |   |   |   |   |   |   |   |   |   |   |   avg_path > 2.428571: good (9.0/3.0)
|   |   |   |   |   |   |   |   |   |   |   |   |   |   |   max_host > 7
|   |   |   |   |   |   |   |   |   |   |   |   |   |   |   |   max_host <= 8
|   |   |   |   |   |   |   |   |   |   |   |   |   |   |   |   |   avg_host <= 6.666667: bad (17.0/3.0)
|   |   |   |   |   |   |   |   |   |   |   |   |   |   |   |   |   avg_host > 6.666667
|   |   |   |   |   |   |   |   |   |   |   |   |   |   |   |   |   |   avg_path <= 2.428571: bad (2.0)
|   |   |   |   |   |   |   |   |   |   |   |   |   |   |   |   |   |   avg_path > 2.428571: good (10.0/2.0)
|   |   |   |   |   |   |   |   |   |   |   |   |   |   |   |   max_host > 8
|   |   |   |   |   |   |   |   |   |   |   |   |   |   |   |   |   avg_path <= 2.444444: good (12.0/1.0)
|   |   |   |   |   |   |   |   |   |   |   |   |   |   |   |   |   avg_path > 2.444444
|   |   |   |   |   |   |   |   |   |   |   |   |   |   |   |   |   |   avg_host <= 7.125
|   |   |   |   |   |   |   |   |   |   |   |   |   |   |   |   |   |   |   avg_host <= 6.125: good (15.0/3.0)
|   |   |   |   |   |   |   |   |   |   |   |   |   |   |   |   |   |   |   avg_host > 6.125: bad (5.0)
|   |   |   |   |   |   |   |   |   |   |   |   |   |   |   |   |   |   avg_host > 7.125: good (2.0)
|   |   |   |   |   |   |   |   |   |   |   max_host > 9
|   |   |   |   |   |   |   |   |   |   |   |   max_host <= 10
|   |   |   |   |   |   |   |   |   |   |   |   |   avg_host <= 6.727273
|   |   |   |   |   |   |   |   |   |   |   |   |   |   avg_host <= 6.4: bad (13.0/4.0)
|   |   |   |   |   |   |   |   |   |   |   |   |   |   avg_host > 6.4: good (112.0/27.0)
|   |   |   |   |   |   |   |   |   |   |   |   |   avg_host > 6.727273: bad (86.0/19.0)
|   |   |   |   |   |   |   |   |   |   |   |   max_host > 10
|   |   |   |   |   |   |   |   |   |   |   |   |   max_host <= 13
|   |   |   |   |   |   |   |   |   |   |   |   |   |   avg_host <= 8.166667: good (367.0/100.0)
|   |   |   |   |   |   |   |   |   |   |   |   |   |   avg_host > 8.166667
|   |   |   |   |   |   |   |   |   |   |   |   |   |   |   max_path <= 3
|   |   |   |   |   |   |   |   |   |   |   |   |   |   |   |   avg_host <= 8.75: bad (26.0/9.0)
|   |   |   |   |   |   |   |   |   |   |   |   |   |   |   |   avg_host > 8.75
|   |   |   |   |   |   |   |   |   |   |   |   |   |   |   |   |   max_host <= 11: good (14.0/4.0)
|   |   |   |   |   |   |   |   |   |   |   |   |   |   |   |   |   max_host > 11: bad (14.0/6.0)
|   |   |   |   |   |   |   |   |   |   |   |   |   |   |   max_path > 3: good (10.0/1.0)
|   |   |   |   |   |   |   |   |   |   |   |   |   max_host > 13
|   |   |   |   |   |   |   |   |   |   |   |   |   |   avg_host <= 8.25: bad (5.0/1.0)
|   |   |   |   |   |   |   |   |   |   |   |   |   |   avg_host > 8.25: good (162.0/26.0)
|   |   |   |   |   |   |   avg_host > 9
|   |   |   |   |   |   |   |   max_path <= 1
|   |   |   |   |   |   |   |   |   max_host <= 16
|   |   |   |   |   |   |   |   |   |   max_host <= 12
|   |   |   |   |   |   |   |   |   |   |   avg_host <= 10.25: good (41.0/10.0)
|   |   |   |   |   |   |   |   |   |   |   avg_host > 10.25: bad (8.0/3.0)
|   |   |   |   |   |   |   |   |   |   max_host > 12
|   |   |   |   |   |   |   |   |   |   |   max_host <= 15
|   |   |   |   |   |   |   |   |   |   |   |   avg_host <= 10.25: bad (25.0/4.0)
|   |   |   |   |   |   |   |   |   |   |   |   avg_host > 10.25: good (30.0/10.0)
|   |   |   |   |   |   |   |   |   |   |   max_host > 15
|   |   |   |   |   |   |   |   |   |   |   |   avg_host <= 9.75: good (38.0/12.0)
|   |   |   |   |   |   |   |   |   |   |   |   avg_host > 9.75: bad (10.0/2.0)
|   |   |   |   |   |   |   |   |   max_host > 16: good (107.0/16.0)
|   |   |   |   |   |   |   |   max_path > 1
|   |   |   |   |   |   |   |   |   avg_path <= 1.75
|   |   |   |   |   |   |   |   |   |   avg_path <= 1.4
|   |   |   |   |   |   |   |   |   |   |   avg_host <= 10.25
|   |   |   |   |   |   |   |   |   |   |   |   avg_host <= 9.75
|   |   |   |   |   |   |   |   |   |   |   |   |   max_host <= 11: good (2.0)
|   |   |   |   |   |   |   |   |   |   |   |   |   max_host > 11: bad (3.0)
|   |   |   |   |   |   |   |   |   |   |   |   avg_host > 9.75: good (2.0)
|   |   |   |   |   |   |   |   |   |   |   avg_host > 10.25: bad (3.0)
|   |   |   |   |   |   |   |   |   |   avg_path > 1.4: bad (42.0)
|   |   |   |   |   |   |   |   |   avg_path > 1.75
|   |   |   |   |   |   |   |   |   |   avg_path <= 2.333333
|   |   |   |   |   |   |   |   |   |   |   max_path <= 2: good (2.0)
|   |   |   |   |   |   |   |   |   |   |   max_path > 2
|   |   |   |   |   |   |   |   |   |   |   |   max_path <= 4: bad (23.0/5.0)
|   |   |   |   |   |   |   |   |   |   |   |   max_path > 4: good (2.0)
|   |   |   |   |   |   |   |   |   |   avg_path > 2.333333: good (15.0/4.0)
|   |   |   |   |   |   max_host > 19: bad (36.0)
|   |   |   |   |   dot_num > 1
|   |   |   |   |   |   max_host <= 6: bad (166.0/2.0)
|   |   |   |   |   |   max_host > 6
|   |   |   |   |   |   |   dot_num <= 3
|   |   |   |   |   |   |   |   avg_host <= 8.25
|   |   |   |   |   |   |   |   |   max_host <= 10
|   |   |   |   |   |   |   |   |   |   avg_path <= 2.1
|   |   |   |   |   |   |   |   |   |   |   max_host <= 8
|   |   |   |   |   |   |   |   |   |   |   |   avg_path <= 0.666667: good (13.0/3.0)
|   |   |   |   |   |   |   |   |   |   |   |   avg_path > 0.666667: bad (3.0)
|   |   |   |   |   |   |   |   |   |   |   max_host > 8: good (44.0/6.0)
|   |   |   |   |   |   |   |   |   |   avg_path > 2.1: bad (8.0/2.0)
|   |   |   |   |   |   |   |   |   max_host > 10: bad (27.0/4.0)
|   |   |   |   |   |   |   |   avg_host > 8.25: good (42.0)
|   |   |   |   |   |   |   dot_num > 3: bad (21.0/1.0)
|   |   |   |   avg_path > 2.625
|   |   |   |   |   dot_num <= 2
|   |   |   |   |   |   max_path <= 7
|   |   |   |   |   |   |   avg_path <= 6.833333
|   |   |   |   |   |   |   |   avg_host <= 6.571429
|   |   |   |   |   |   |   |   |   max_host <= 10
|   |   |   |   |   |   |   |   |   |   dot_num <= 1
|   |   |   |   |   |   |   |   |   |   |   avg_path <= 6.071429
|   |   |   |   |   |   |   |   |   |   |   |   max_path <= 5
|   |   |   |   |   |   |   |   |   |   |   |   |   avg_host <= 5.857143: good (1061.0/110.0)
|   |   |   |   |   |   |   |   |   |   |   |   |   avg_host > 5.857143
|   |   |   |   |   |   |   |   |   |   |   |   |   |   max_host <= 8
|   |   |   |   |   |   |   |   |   |   |   |   |   |   |   avg_host <= 6.25: good (64.0/27.0)
|   |   |   |   |   |   |   |   |   |   |   |   |   |   |   avg_host > 6.25: bad (26.0/7.0)
|   |   |   |   |   |   |   |   |   |   |   |   |   |   max_host > 8
|   |   |   |   |   |   |   |   |   |   |   |   |   |   |   avg_path <= 4.833333: good (257.0/20.0)
|   |   |   |   |   |   |   |   |   |   |   |   |   |   |   avg_path > 4.833333
|   |   |   |   |   |   |   |   |   |   |   |   |   |   |   |   avg_host <= 6.4: bad (13.0/1.0)
|   |   |   |   |   |   |   |   |   |   |   |   |   |   |   |   avg_host > 6.4: good (8.0/2.0)
|   |   |   |   |   |   |   |   |   |   |   |   max_path > 5
|   |   |   |   |   |   |   |   |   |   |   |   |   avg_path <= 2.9
|   |   |   |   |   |   |   |   |   |   |   |   |   |   max_path <= 6: good (14.0/3.0)
|   |   |   |   |   |   |   |   |   |   |   |   |   |   max_path > 6
|   |   |   |   |   |   |   |   |   |   |   |   |   |   |   max_host <= 7: good (7.0/1.0)
|   |   |   |   |   |   |   |   |   |   |   |   |   |   |   max_host > 7
|   |   |   |   |   |   |   |   |   |   |   |   |   |   |   |   avg_host <= 5.5: bad (6.0)
|   |   |   |   |   |   |   |   |   |   |   |   |   |   |   |   avg_host > 5.5: good (3.0/1.0)
|   |   |   |   |   |   |   |   |   |   |   |   |   avg_path > 2.9
|   |   |   |   |   |   |   |   |   |   |   |   |   |   avg_host <= 3.4
|   |   |   |   |   |   |   |   |   |   |   |   |   |   |   avg_host <= 3.166667: good (267.0/10.0)
|   |   |   |   |   |   |   |   |   |   |   |   |   |   |   avg_host > 3.166667
|   |   |   |   |   |   |   |   |   |   |   |   |   |   |   |   max_path <= 6: bad (8.0)
|   |   |   |   |   |   |   |   |   |   |   |   |   |   |   |   max_path > 6: good (5.0/1.0)
|   |   |   |   |   |   |   |   |   |   |   |   |   |   avg_host > 3.4
|   |   |   |   |   |   |   |   |   |   |   |   |   |   |   max_host <= 8
|   |   |   |   |   |   |   |   |   |   |   |   |   |   |   |   avg_host <= 5.571429
|   |   |   |   |   |   |   |   |   |   |   |   |   |   |   |   |   max_path <= 6: good (813.0/74.0)
|   |   |   |   |   |   |   |   |   |   |   |   |   |   |   |   |   max_path > 6
|   |   |   |   |   |   |   |   |   |   |   |   |   |   |   |   |   |   avg_path <= 5.533333
|   |   |   |   |   |   |   |   |   |   |   |   |   |   |   |   |   |   |   avg_host <= 4.5
|   |   |   |   |   |   |   |   |   |   |   |   |   |   |   |   |   |   |   |   max_host <= 6
|   |   |   |   |   |   |   |   |   |   |   |   |   |   |   |   |   |   |   |   |   max_host <= 5
|   |   |   |   |   |   |   |   |   |   |   |   |   |   |   |   |   |   |   |   |   |   avg_host <= 4.166667: good (251.0/4.0)
|   |   |   |   |   |   |   |   |   |   |   |   |   |   |   |   |   |   |   |   |   |   avg_host > 4.166667
|   |   |   |   |   |   |   |   |   |   |   |   |   |   |   |   |   |   |   |   |   |   |   avg_path <= 4.875: good (16.0)
|   |   |   |   |   |   |   |   |   |   |   |   |   |   |   |   |   |   |   |   |   |   |   avg_path > 4.875: bad (14.0/2.0)
|   |   |   |   |   |   |   |   |   |   |   |   |   |   |   |   |   |   |   |   |   max_host > 5: good (195.0/9.0)
|   |   |   |   |   |   |   |   |   |   |   |   |   |   |   |   |   |   |   |   max_host > 6
|   |   |   |   |   |   |   |   |   |   |   |   |   |   |   |   |   |   |   |   |   avg_host <= 4.166667: bad (9.0/2.0)
|   |   |   |   |   |   |   |   |   |   |   |   |   |   |   |   |   |   |   |   |   avg_host > 4.166667
|   |   |   |   |   |   |   |   |   |   |   |   |   |   |   |   |   |   |   |   |   |   avg_path <= 4.266667
|   |   |   |   |   |   |   |   |   |   |   |   |   |   |   |   |   |   |   |   |   |   |   max_host <= 7
|   |   |   |   |   |   |   |   |   |   |   |   |   |   |   |   |   |   |   |   |   |   |   |   avg_path <= 4: bad (3.0/1.0)
|   |   |   |   |   |   |   |   |   |   |   |   |   |   |   |   |   |   |   |   |   |   |   |   avg_path > 4: good (3.0)
|   |   |   |   |   |   |   |   |   |   |   |   |   |   |   |   |   |   |   |   |   |   |   max_host > 7: bad (5.0)
|   |   |   |   |   |   |   |   |   |   |   |   |   |   |   |   |   |   |   |   |   |   avg_path > 4.266667: good (9.0)
|   |   |   |   |   |   |   |   |   |   |   |   |   |   |   |   |   |   |   avg_host > 4.5: good (587.0/35.0)
|   |   |   |   |   |   |   |   |   |   |   |   |   |   |   |   |   |   avg_path > 5.533333: good (126.0)
|   |   |   |   |   |   |   |   |   |   |   |   |   |   |   |   avg_host > 5.571429
|   |   |   |   |   |   |   |   |   |   |   |   |   |   |   |   |   avg_path <= 5.875
|   |   |   |   |   |   |   |   |   |   |   |   |   |   |   |   |   |   max_host <= 6
|   |   |   |   |   |   |   |   |   |   |   |   |   |   |   |   |   |   |   max_path <= 6: good (9.0/1.0)
|   |   |   |   |   |   |   |   |   |   |   |   |   |   |   |   |   |   |   max_path > 6: bad (7.0/2.0)
|   |   |   |   |   |   |   |   |   |   |   |   |   |   |   |   |   |   max_host > 6
|   |   |   |   |   |   |   |   |   |   |   |   |   |   |   |   |   |   |   avg_path <= 3.111111
|   |   |   |   |   |   |   |   |   |   |   |   |   |   |   |   |   |   |   |   max_path <= 6
|   |   |   |   |   |   |   |   |   |   |   |   |   |   |   |   |   |   |   |   |   avg_host <= 6.166667: good (2.0)
|   |   |   |   |   |   |   |   |   |   |   |   |   |   |   |   |   |   |   |   |   avg_host > 6.166667: bad (6.0)
