=== Run information ===

Scheme:       weka.classifiers.trees.REPTree -M 2 -V 0.001 -N 3 -S 1 -L -1 -I 0.0
Relation:     host+lexical+whitelist_training-weka.filters.unsupervised.attribute.Remove-R1
Instances:    159658
Attributes:   11
              num_ip
              reg_time
              country
              registrar
              tld
              dot_num
              avg_host
              max_host
              avg_path
              max_path
              class
Test mode:    10-fold cross-validation

=== Classifier model (full training set) ===


REPTree
============

dot_num < 0.5
|   tld = com
|   |   registrar = CSC CORPORATE DOMAINS INC.
|   |   |   reg_time < 947347200
|   |   |   |   num_ip < 1 : bad (69.13/4.47) [34.37/2.37]
|   |   |   |   num_ip >= 1
|   |   |   |   |   num_ip < 4.5
|   |   |   |   |   |   num_ip < 3.5
|   |   |   |   |   |   |   avg_path < 6.58
|   |   |   |   |   |   |   |   max_host < 11.5 : good (30.28/2.92) [10.62/1.47]
|   |   |   |   |   |   |   |   max_host >= 11.5
|   |   |   |   |   |   |   |   |   avg_path < 3.23 : good (4.74/0.56) [0.45/0.32]
|   |   |   |   |   |   |   |   |   avg_path >= 3.23 : bad (4.72/2.21) [4.01/1.08]
|   |   |   |   |   |   |   avg_path >= 6.58 : bad (3.87/0.04) [5.05/1.03]
|   |   |   |   |   |   num_ip >= 3.5 : good (79.34/0.74) [33.62/0.33]
|   |   |   |   |   num_ip >= 4.5
|   |   |   |   |   |   num_ip < 5.5 : bad (14.17/0) [14.04/1]
|   |   |   |   |   |   num_ip >= 5.5
|   |   |   |   |   |   |   avg_path < 2.42
|   |   |   |   |   |   |   |   avg_host < 6.5 : bad (2.02/0) [0.02/0]
|   |   |   |   |   |   |   |   avg_host >= 6.5 : good (3.04/0.04) [2.02/0.02]
|   |   |   |   |   |   |   avg_path >= 2.42 : good (29.03/0.94) [12.59/0.56]
|   |   |   reg_time >= 947347200
|   |   |   |   num_ip < 7.5
|   |   |   |   |   avg_path < 6.73
|   |   |   |   |   |   num_ip < 2.5
|   |   |   |   |   |   |   max_path < 7.5 : bad (63.39/2.9) [31.7/1.68]
|   |   |   |   |   |   |   max_path >= 7.5 : bad (35.42/3.79) [15.93/1.74]
|   |   |   |   |   |   num_ip >= 2.5 : good (31.31/6.99) [11.17/2.29]
|   |   |   |   |   avg_path >= 6.73 : bad (177.93/7.38) [80.46/1.77]
|   |   |   |   num_ip >= 7.5 : good (14.1/1.04) [3.59/0.57]
|   |   registrar = DYNAMIC NETWORK SERVICES INC
|   |   |   reg_time < 947347200
|   |   |   |   num_ip < 1 : bad (3.89/0.25) [1.93/0.13]
|   |   |   |   num_ip >= 1
|   |   |   |   |   num_ip < 3.5 : good (2.49/0.44) [3.23/0.21]
|   |   |   |   |   num_ip >= 3.5 : good (7.15/0.11) [2.07/0.05]
|   |   |   reg_time >= 947347200 : bad (18.81/1.55) [9.89/1.3]
|   |   registrar = ENOM INC.
|   |   |   reg_time < 1020873600
|   |   |   |   num_ip < 2.5
|   |   |   |   |   num_ip < 1 : bad (66/5.15) [32.47/2.76]
|   |   |   |   |   num_ip >= 1
|   |   |   |   |   |   avg_path < 6.58
|   |   |   |   |   |   |   country = US : good (16.31/4.17) [16.38/6.1]
|   |   |   |   |   |   |   country = UNITED STATES : good (0/0) [0/0]
|   |   |   |   |   |   |   country = PE : good (0/0) [0/0]
|   |   |   |   |   |   |   country = NO : good (0.1/0.02) [0.02/0.02]
|   |   |   |   |   |   |   country = UK : good (0/0) [0/0]
|   |   |   |   |   |   |   country = KR : bad (0.66/0.11) [0.37/0.13]
|   |   |   |   |   |   |   country = GB : bad (0/0) [1.16/0.08]
|   |   |   |   |   |   |   country = AU : bad (0.12/0.08) [1.03/0.01]
|   |   |   |   |   |   |   country = CA : bad (0.1/0) [1.02/0.01]
|   |   |   |   |   |   |   country = AUSTRALIA : good (0/0) [0/0]
|   |   |   |   |   |   |   country = IN : bad (0.15/0.09) [0.06/0.01]
|   |   |   |   |   |   |   country = MY : good (0/0) [0/0]
|   |   |   |   |   |   |   country = CN : good (0/0) [0/0]
|   |   |   |   |   |   |   country = JP : good (0.1/0.02) [0.02/0.02]
|   |   |   |   |   |   |   country = HU : good (0/0) [0/0]
|   |   |   |   |   |   |   country = GH : good (0/0) [0/0]
|   |   |   |   |   |   |   country = NL : good (0/0) [0/0]
|   |   |   |   |   |   |   country = ES : bad (0.2/0.09) [0.13/0.01]
|   |   |   |   |   |   |   country = DE : good (0/0) [0/0]
|   |   |   |   |   |   |   country = PA
|   |   |   |   |   |   |   |   reg_time < 970286400 : bad (4.89/0.07) [1.88/0.02]
|   |   |   |   |   |   |   |   reg_time >= 970286400 : good (2.67/0.4) [1/0.5]
|   |   |   |   |   |   |   country = TR : good (0/0) [0/0]
|   |   |   |   |   |   |   country = FR : bad (0.3/0.01) [0.15/0.1]
|   |   |   |   |   |   |   country = ID : bad (0.02/0) [0/0]
|   |   |   |   |   |   |   country = LT : good (0/0) [0/0]
|   |   |   |   |   |   |   country = DK : good (0/0) [0/0]
|   |   |   |   |   |   |   country = PL : good (0/0) [0/0]
|   |   |   |   |   |   |   country = SG : good (0/0) [0/0]
|   |   |   |   |   |   |   country = MX : bad (0/0) [0.08/0]
|   |   |   |   |   |   |   country = DZ : good (0/0) [0/0]
|   |   |   |   |   |   |   country = UKRAINE : good (0/0) [0/0]
|   |   |   |   |   |   |   country = KH : good (0/0) [0/0]
|   |   |   |   |   |   |   country = BR : good (0/0) [0/0]
|   |   |   |   |   |   |   country = CY : good (0/0) [0/0]
|   |   |   |   |   |   |   country = COLOMBIA : good (0/0) [0/0]
|   |   |   |   |   |   |   country = CZ : good (0/0) [0/0]
|   |   |   |   |   |   |   country = RUSSIAN FEDERATION : good (0/0) [0/0]
|   |   |   |   |   |   |   country = UA : good (0/0) [0/0]
|   |   |   |   |   |   |   country = MN : good (0/0) [0/0]
|   |   |   |   |   |   |   country = BRAZIL : good (0/0) [0/0]
|   |   |   |   |   |   |   country = CZECH REPUBLIC : good (0/0) [0/0]
|   |   |   |   |   |   |   country = IL : good (0/0) [0/0]
|   |   |   |   |   |   |   country = SE : good (0/0) [0/0]
|   |   |   |   |   |   |   country = AR : good (0/0) [0/0]
|   |   |   |   |   |   |   country = RU : bad (0.02/0) [0/0]
|   |   |   |   |   |   |   country = BG : good (0/0) [0/0]
|   |   |   |   |   |   |   country = HK : good (0/0) [0/0]
|   |   |   |   |   |   |   country = PH : good (0/0) [0/0]
|   |   |   |   |   |   |   country = AT : good (0/0) [0/0]
|   |   |   |   |   |   |   country = ZA : good (0/0) [0/0]
|   |   |   |   |   |   |   country = BS : good (0/0) [0/0]
|   |   |   |   |   |   |   country = LU : good (0/0) [0/0]
|   |   |   |   |   |   |   country = CO : good (0/0) [0/0]
|   |   |   |   |   |   |   country = TH : bad (1.26/0.06) [0.31/0.09]
|   |   |   |   |   |   |   country = TW : good (0/0) [0/0]
|   |   |   |   |   |   |   country = NG : good (0/0) [0/0]
|   |   |   |   |   |   |   country = YE : good (0/0) [0/0]
|   |   |   |   |   |   |   country = LB : good (0/0) [0/0]
|   |   |   |   |   |   |   country = KE : good (0/0) [0/0]
|   |   |   |   |   |   |   country = BD : good (0/0) [0/0]
|   |   |   |   |   |   |   country = CR : good (0/0) [0/0]
|   |   |   |   |   |   |   country = EG : good (0/0) [0/0]
|   |   |   |   |   |   |   country = CH : good (0/0) [0/0]
|   |   |   |   |   |   |   country = BE : good (0/0) [0/0]
|   |   |   |   |   |   |   country = PT : good (0/0) [0/0]
|   |   |   |   |   |   |   country = FI : good (0/0) [0/0]
|   |   |   |   |   |   |   country = THAILAND : good (0/0) [0/0]
|   |   |   |   |   |   |   country = IT : good (0/0) [0/0]
|   |   |   |   |   |   |   country = PK : good (0/0) [0/0]
|   |   |   |   |   |   |   country = AZ : good (0/0) [0/0]
|   |   |   |   |   |   |   country = SA : good (0/0) [0/0]
|   |   |   |   |   |   |   country = AE : good (0/0) [0/0]
|   |   |   |   |   |   |   country = AF : good (0/0) [0/0]
|   |   |   |   |   |   |   country = IE : good (0/0) [0/0]
|   |   |   |   |   |   |   country = GQ : good (0/0) [0/0]
|   |   |   |   |   |   |   country = BRASIL : good (0/0) [0/0]
|   |   |   |   |   |   |   country = TL : good (0/0) [0/0]
|   |   |   |   |   |   |   country = BOSNIA AND HERZEGOVINA : good (0/0) [0/0]
|   |   |   |   |   |   |   country = SI : good (0/0) [0/0]
|   |   |   |   |   |   |   country = DO : good (0/0) [0/0]
|   |   |   |   |   |   |   country = YU : good (0/0) [0/0]
|   |   |   |   |   |   |   country = BT : good (1.26/0.2) [1.31/0.23]
|   |   |   |   |   |   |   country = CAN : good (0/0) [0/0]
|   |   |   |   |   |   |   country = NZ : bad (0.02/0) [0/0]
|   |   |   |   |   |   |   country = VE : good (0/0) [0/0]
|   |   |   |   |   |   |   country = GUATEMALA : good (0/0) [0/0]
|   |   |   |   |   |   |   country = MALAYSIA : good (0/0) [0/0]
|   |   |   |   |   |   |   country = UNITED KINGDOM : good (0/0) [0/0]
|   |   |   |   |   |   |   country = JO : good (0/0) [0/0]
|   |   |   |   |   |   |   country = SOUTH AFRICA : good (0/0) [0/0]
|   |   |   |   |   |   |   country = LV : good (0/0) [0/0]
|   |   |   |   |   |   |   country = NA : good (0/0) [0/0]
|   |   |   |   |   |   |   country = AM : good (0/0) [0/0]
|   |   |   |   |   |   |   country = AL : good (0/0) [0/0]
|   |   |   |   |   |   |   country = IR : good (0/0) [0/0]
|   |   |   |   |   |   |   country = BY : good (0/0) [0/0]
|   |   |   |   |   |   |   country = GR : good (0/0) [0/0]
|   |   |   |   |   |   |   country = VN : good (0/0) [0/0]
|   |   |   |   |   |   |   country = JM : good (0/0) [0/0]
|   |   |   |   |   |   |   country = GA : good (0/0) [0/0]
|   |   |   |   |   |   |   country = VG : good (1.26/0.2) [0.31/0.23]
|   |   |   |   |   |   |   country = JAPAN : good (0/0) [0/0]
|   |   |   |   |   |   |   country = PR : good (0/0) [0/0]
|   |   |   |   |   |   |   country = AZERBAIJAN : good (0/0) [0/0]
|   |   |   |   |   |   |   country = UY : good (0/0) [0/0]
|   |   |   |   |   |   |   country = IRAN : good (0/0) [0/0]
|   |   |   |   |   |   |   country = ROMANIA : good (0/0) [0/0]
|   |   |   |   |   |   |   country = SD : good (0/0) [0/0]
|   |   |   |   |   |   |   country = TZ : good (0/0) [0/0]
|   |   |   |   |   |   |   country = EC : good (0/0) [0/0]
|   |   |   |   |   |   |   country = MK : good (0/0) [0/0]
|   |   |   |   |   |   |   country = SO : good (0/0) [0/0]
|   |   |   |   |   |   |   country = SK : good (0/0) [0/0]
|   |   |   |   |   |   |   country = UNITED : good (0/0) [0/0]
|   |   |   |   |   |   |   country = ER : good (0/0) [0/0]
|   |   |   |   |   |   |   country = RO : good (0/0) [0/0]
|   |   |   |   |   |   |   country = QA : good (0/0) [0/0]
|   |   |   |   |   |   |   country = OM : good (0/0) [0/0]
|   |   |   |   |   |   |   country = CL : good (0/0) [0/0]
|   |   |   |   |   |   |   country = SC : good (0/0) [0/0]
|   |   |   |   |   |   |   country = BZ : good (0/0) [0/0]
|   |   |   |   |   |   |   country = GI : good (0/0) [0/0]
|   |   |   |   |   |   |   country = MZ : good (0/0) [0/0]
|   |   |   |   |   |   |   country = SV : good (0/0) [0/0]
|   |   |   |   |   |   |   country = CG : good (0/0) [0/0]
|   |   |   |   |   |   |   country = TURKEY : good (0/0) [0/0]
|   |   |   |   |   |   |   country = BA : good (0/0) [0/0]
|   |   |   |   |   |   |   country = MU : good (0/0) [0/0]
|   |   |   |   |   |   |   country = ITALY : good (0/0) [0/0]
|   |   |   |   |   |   |   country = GT : good (0/0) [0/0]
|   |   |   |   |   |   |   country = LA : good (0/0) [0/0]
|   |   |   |   |   |   |   country = TG : good (0/0) [0/0]
|   |   |   |   |   |   |   country = BH : good (0/0) [0/0]
|   |   |   |   |   |   |   country = GM : good (0/0) [0/0]
|   |   |   |   |   |   |   country = NI : good (0/0) [0/0]
|   |   |   |   |   |   |   country = AD : good (0/0) [0/0]
|   |   |   |   |   |   |   country = TN : good (0/0) [0/0]
|   |   |   |   |   |   |   country = IQ : good (0/0) [0/0]
|   |   |   |   |   |   |   country = BB : good (0/0) [0/0]
|   |   |   |   |   |   |   country = CYPRUS : good (0/0) [0/0]
|   |   |   |   |   |   |   country = KOREA : good (0/0) [0/0]
|   |   |   |   |   |   |   country = NP : good (0/0) [0/0]
|   |   |   |   |   |   |   country = MD : good (0/0) [0/0]
|   |   |   |   |   |   |   country = GERMANY : good (0/0) [0/0]
|   |   |   |   |   |   |   country = FJ : good (0/0) [0/0]
|   |   |   |   |   |   |   country = IS : good (0/0) [0/0]
|   |   |   |   |   |   |   country = RS : good (0/0) [0/0]
|   |   |   |   |   |   |   country = KN : good (0/0) [0/0]
|   |   |   |   |   |   |   country = SWITZERLAND : good (0/0) [0/0]
|   |   |   |   |   |   |   country = MA : good (0/0) [0/0]
|   |   |   |   |   |   |   country = LY : good (0/0) [0/0]
|   |   |   |   |   |   |   country = NETHERLANDS : good (0/0) [0/0]
|   |   |   |   |   |   |   country = MG : good (0/0) [0/0]
|   |   |   |   |   |   |   country = PAKIST : good (0/0) [0/0]
|   |   |   |   |   |   |   country = NIGERIA : good (0/0) [0/0]
|   |   |   |   |   |   |   country = THAILA : good (0/0) [0/0]
|   |   |   |   |   |   |   country = KY : good (0/0) [0/0]
|   |   |   |   |   |   |   country = VC : good (0/0) [0/0]
|   |   |   |   |   |   |   country = PY : good (0/0) [0/0]
|   |   |   |   |   |   |   country = INDONESIA : good (0/0) [0/0]
|   |   |   |   |   |   |   country = KW : good (0/0) [0/0]
|   |   |   |   |   |   |   country = MT : good (0/0) [0/0]
|   |   |   |   |   |   |   country = CHINA : good (0/0) [0/0]
|   |   |   |   |   |   |   country = ML : good (0/0) [0/0]
|   |   |   |   |   |   |   country = SINGAPORE : good (0/0) [0/0]
|   |   |   |   |   |   |   country = CD : good (0/0) [0/0]
|   |   |   |   |   |   |   country = LK : good (0/0) [0/0]
|   |   |   |   |   |   |   country = ISTANB : good (0/0) [0/0]
|   |   |   |   |   |   |   country = COSTA RICA : good (0/0) [0/0]
|   |   |   |   |   |   |   country = GY : good (0/0) [0/0]
|   |   |   |   |   |   |   country = BW : good (0/0) [0/0]
|   |   |   |   |   |   |   country = PN : good (0/0) [0/0]
|   |   |   |   |   |   |   country = PAKISTAN : good (0/0) [0/0]
|   |   |   |   |   |   |   country = LITHUANIA : good (0/0) [0/0]
|   |   |   |   |   |   |   country = KZ : good (0/0) [0/0]
|   |   |   |   |   |   |   country = PS : good (0/0) [0/0]
|   |   |   |   |   |   |   country = POLAND : good (0/0) [0/0]
|   |   |   |   |   |   |   country = INDIA : good (0/0) [0/0]
|   |   |   |   |   |   |   country = AUSTRIA : good (0/0) [0/0]
|   |   |   |   |   |   |   country = SPAIN : good (0/0) [0/0]
|   |   |   |   |   |   |   country = ME : good (0/0) [0/0]
|   |   |   |   |   |   |   country = LR : good (0/0) [0/0]
|   |   |   |   |   |   |   country = UG : good (0/0) [0/0]
|   |   |   |   |   |   |   country = ZW : good (0/0) [0/0]
|   |   |   |   |   |   |   country = STATUS : good (0/0) [0/0]
|   |   |   |   |   |   |   country = UNITEDSTATES : good (0/0) [0/0]
|   |   |   |   |   |   |   country = EE : good (0/0) [0/0]
|   |   |   |   |   |   |   country = VIET N : good (0/0) [0/0]
|   |   |   |   |   |   |   country = CANADA : good (0/0) [0/0]
|   |   |   |   |   |   |   country = HR : good (0/0) [0/0]
|   |   |   |   |   |   |   country = TT : good (0/0) [0/0]
|   |   |   |   |   |   |   country = PANAMA : good (0/0) [0/0]
|   |   |   |   |   |   |   country = ZM : good (0/0) [0/0]
|   |   |   |   |   |   |   country = CM : good (0/0) [0/0]
|   |   |   |   |   |   |   country = ISRAEL : good (0/0) [0/0]
|   |   |   |   |   |   |   country = HN : bad (1.26/0.06) [1.31/0.09]
|   |   |   |   |   |   |   country = SN : good (0/0) [0/0]
|   |   |   |   |   |   |   country = BO : good (0/0) [0/0]
|   |   |   |   |   |   |   country = VU : good (0/0) [0/0]
|   |   |   |   |   |   |   country = DM : good (0/0) [0/0]
|   |   |   |   |   |   |   country = CU : good (0/0) [0/0]
|   |   |   |   |   |   |   country = BM : good (0/0) [0/0]
|   |   |   |   |   |   |   country = CI : good (0/0) [0/0]
|   |   |   |   |   |   |   country = GP : good (0/0) [0/0]
|   |   |   |   |   |   |   country = AS : good (0/0) [0/0]
|   |   |   |   |   |   |   country = SEYCHELLES : good (0/0) [0/0]
|   |   |   |   |   |   |   country = AN : good (0/0) [0/0]
|   |   |   |   |   |   |   country = SL : good (0/0) [0/0]
|   |   |   |   |   |   |   country = NC : good (0/0) [0/0]
|   |   |   |   |   |   |   country = MQ : good (0/0) [0/0]
|   |   |   |   |   |   |   country = UN : good (0/0) [0/0]
|   |   |   |   |   |   |   country = VENEZUELA : good (0/0) [0/0]
|   |   |   |   |   |   |   country = KM : good (0/0) [0/0]
|   |   |   |   |   |   |   country = BN : good (0/0) [0/0]
|   |   |   |   |   |   |   country = TAIWAN : good (0/0) [0/0]
|   |   |   |   |   |   |   country = GE : good (0/0) [0/0]
|   |   |   |   |   |   |   country = JORDAN : good (0/0) [0/0]
|   |   |   |   |   |   |   country = TC : good (0/0) [0/0]
|   |   |   |   |   |   |   country = - : good (0/0) [0/0]
|   |   |   |   |   |   |   country = REPUBLIC OF KOREA : good (0/0) [0/0]
|   |   |   |   |   |   |   country = FRANCE : good (0/0) [0/0]
|   |   |   |   |   |   |   country = MV : good (0/0) [0/0]
|   |   |   |   |   |   |   country = AG : good (0/0) [0/0]
|   |   |   |   |   |   |   country = VIET NAM : good (0/0) [0/0]
|   |   |   |   |   |   |   country = VA : good (0/0) [0/0]
|   |   |   |   |   |   |   country = AO : good (0/0) [0/0]
|   |   |   |   |   |   |   country = LUXEMBOURG : good (0/0) [0/0]
|   |   |   |   |   |   |   country = TK : good (0/0) [0/0]
|   |   |   |   |   |   |   country = MC : good (0/0) [0/0]
|   |   |   |   |   |   |   country = VI : good (0/0) [0/0]
|   |   |   |   |   |   |   country = BAHAMAS : good (0/0) [0/0]
|   |   |   |   |   |   |   country = IRELAND : good (0/0) [0/0]
|   |   |   |   |   |   |   country = CV : good (0/0) [0/0]
|   |   |   |   |   |   |   country = ET : good (0/0) [0/0]
|   |   |   |   |   |   |   country = SY : good (0/0) [0/0]
|   |   |   |   |   |   |   country = CK : good (0/0) [0/0]
|   |   |   |   |   |   |   country = KG : good (0/0) [0/0]
|   |   |   |   |   |   |   country = SR : good (0/0) [0/0]
|   |   |   |   |   |   |   country = ????????????? : good (0/0) [0/0]
|   |   |   |   |   |   |   country = BELGIUM : good (0/0) [0/0]
|   |   |   |   |   |   |   country = KV : good (0/0) [0/0]
|   |   |   |   |   |   |   country = MM : good (0/0) [0/0]
|   |   |   |   |   |   |   country = HONG KONG : good (0/0) [0/0]
|   |   |   |   |   |   |   country = PF : good (0/0) [0/0]
|   |   |   |   |   |   |   country = EGYPT : good (0/0) [0/0]
|   |   |   |   |   |   |   country = UGANDA : good (0/0) [0/0]
|   |   |   |   |   |   |   country = UZ : good (0/0) [0/0]
|   |   |   |   |   |   avg_path >= 6.58 : bad (10.47/0.19) [6.32/2.03]
|   |   |   |   num_ip >= 2.5
|   |   |   |   |   num_ip < 4.5 : good (110.77/2.64) [55.62/2.14]
|   |   |   |   |   num_ip >= 4.5 : bad (5.26/1.13) [7.74/3.11]
|   |   |   reg_time >= 1020873600
|   |   |   |   reg_time < 1186502400
|   |   |   |   |   num_ip < 2.5
|   |   |   |   |   |   country = US
|   |   |   |   |   |   |   avg_host < 14.5 : bad (71.91/4.66) [36.17/4.22]
|   |   |   |   |   |   |   avg_host >= 14.5
|   |   |   |   |   |   |   |   reg_time < 1104681600 : bad (11.61/0.19) [4.3/0.07]
|   |   |   |   |   |   |   |   reg_time >= 1104681600
|   |   |   |   |   |   |   |   |   num_ip < 1 : bad (4.82/0.23) [2.13/0.12]
|   |   |   |   |   |   |   |   |   num_ip >= 1
|   |   |   |   |   |   |   |   |   |   reg_time < 1106884800 : good (7.41/0.39) [5.19/0.18]
|   |   |   |   |   |   |   |   |   |   reg_time >= 1106884800 : bad (3.28/1.01) [2.42/0]
|   |   |   |   |   |   country = UNITED STATES : bad (0/0) [0/0]
|   |   |   |   |   |   country = PE : bad (0/0) [0/0]
|   |   |   |   |   |   country = NO : bad (0/0) [0/0]
|   |   |   |   |   |   country = UK : good (0/0) [1/0]
|   |   |   |   |   |   country = KR : bad (2.36/0.15) [1.23/0.03]
|   |   |   |   |   |   country = GB : bad (6.82/1.45) [2.07/0.1]
|   |   |   |   |   |   country = AU : bad (0.19/0.01) [0.14/0]
|   |   |   |   |   |   country = CA : bad (2.17/0.07) [3.71/2.03]
|   |   |   |   |   |   country = AUSTRALIA : bad (0/0) [0/0]
|   |   |   |   |   |   country = IN : bad (0.2/0.01) [0.11/0]
|   |   |   |   |   |   country = MY : good (0/0) [0.08/0]
|   |   |   |   |   |   country = CN : bad (0.32/0.01) [0.25/0]
|   |   |   |   |   |   country = JP : bad (2.01/0.06) [0.59/0.03]
|   |   |   |   |   |   country = HU : bad (0/0) [0/0]
|   |   |   |   |   |   country = GH : bad (0/0) [0/0]
|   |   |   |   |   |   country = NL : bad (0/0) [0/0]
|   |   |   |   |   |   country = ES : good (2.01/0.95) [1.67/0.64]
|   |   |   |   |   |   country = DE : bad (6.18/0.19) [2.81/0.09]
|   |   |   |   |   |   country = PA : bad (68.22/4.08) [31.96/0.98]
|   |   |   |   |   |   country = TR : bad (8.03/0.24) [4.43/0.19]
|   |   |   |   |   |   country = FR : bad (0.16/0.08) [0.05/0]
|   |   |   |   |   |   country = ID : bad (6.05/0.18) [1.77/0.09]
|   |   |   |   |   |   country = LT : bad (0/0) [0/0]
|   |   |   |   |   |   country = DK : bad (0/0) [0/0]
|   |   |   |   |   |   country = PL : bad (0/0) [0/0]
|   |   |   |   |   |   country = SG : bad (0/0) [0/0]
|   |   |   |   |   |   country = MX : bad (2.01/0.06) [0.59/0.03]
|   |   |   |   |   |   country = DZ : bad (0/0) [0/0]
|   |   |   |   |   |   country = UKRAINE : bad (0/0) [0/0]
|   |   |   |   |   |   country = KH : bad (0/0) [0/0]
|   |   |   |   |   |   country = BR : bad (4.01/0.12) [2.17/0.06]
|   |   |   |   |   |   country = CY : bad (3.6/0.11) [1.29/0.05]
|   |   |   |   |   |   country = COLOMBIA : bad (0/0) [0/0]
|   |   |   |   |   |   country = CZ : bad (0/0) [0.08/0]
|   |   |   |   |   |   country = RUSSIAN FEDERATION : bad (0/0) [0/0]
|   |   |   |   |   |   country = UA : bad (0.16/0.08) [0.05/0]
|   |   |   |   |   |   country = MN : bad (0/0) [0/0]
|   |   |   |   |   |   country = BRAZIL : bad (0/0) [0/0]
|   |   |   |   |   |   country = CZECH REPUBLIC : bad (0/0) [0/0]
|   |   |   |   |   |   country = IL : bad (0/0) [0/0]
|   |   |   |   |   |   country = SE : bad (0/0) [0.08/0]
|   |   |   |   |   |   country = AR : good (0/0) [1/0]
|   |   |   |   |   |   country = RU : bad (0.03/0) [0.01/0]
|   |   |   |   |   |   country = BG : bad (0/0) [0/0]
|   |   |   |   |   |   country = HK : bad (4.01/0.12) [2.17/0.06]
|   |   |   |   |   |   country = PH : bad (0/0) [0/0]
|   |   |   |   |   |   country = AT : bad (0.32/0.17) [0.09/0]
|   |   |   |   |   |   country = ZA : bad (2.01/0.06) [1.59/0.03]
|   |   |   |   |   |   country = BS : bad (0/0) [0/0]
|   |   |   |   |   |   country = LU : bad (0/0) [0/0]
|   |   |   |   |   |   country = CO : bad (0/0) [0/0]
|   |   |   |   |   |   country = TH : bad (4.17/0.13) [3.22/0.06]
|   |   |   |   |   |   country = TW : bad (2.49/0.08) [0.89/0.04]
|   |   |   |   |   |   country = NG : bad (2.01/0.06) [0.59/0.03]
|   |   |   |   |   |   country = YE : bad (0/0) [0/0]
|   |   |   |   |   |   country = LB : bad (0/0) [0/0]
|   |   |   |   |   |   country = KE : bad (2.01/0.06) [3.59/0.03]
|   |   |   |   |   |   country = BD : bad (1.12/0.03) [0.49/0.02]
|   |   |   |   |   |   country = CR : bad (0/0) [0/0]
|   |   |   |   |   |   country = EG : bad (0/0) [0/0]
|   |   |   |   |   |   country = CH : bad (0/0) [0/0]
|   |   |   |   |   |   country = BE : bad (0/0) [0/0]
|   |   |   |   |   |   country = PT : bad (0/0) [0/0]
|   |   |   |   |   |   country = FI : bad (0/0) [0/0]
|   |   |   |   |   |   country = THAILAND : bad (0/0) [0/0]
|   |   |   |   |   |   country = IT : bad (0/0) [0/0]
|   |   |   |   |   |   country = PK : bad (0/0) [1/0]
|   |   |   |   |   |   country = AZ : bad (0/0) [0/0]
|   |   |   |   |   |   country = SA : bad (0/0) [0/0]
|   |   |   |   |   |   country = AE : bad (2.01/1.06) [0.59/0.03]
|   |   |   |   |   |   country = AF : bad (0/0) [0/0]
|   |   |   |   |   |   country = IE : bad (0/0) [0/0]
|   |   |   |   |   |   country = GQ : bad (0/0) [0/0]
|   |   |   |   |   |   country = BRASIL : bad (0/0) [0/0]
|   |   |   |   |   |   country = TL : bad (0/0) [0/0]
|   |   |   |   |   |   country = BOSNIA AND HERZEGOVINA : bad (0/0) [0/0]
|   |   |   |   |   |   country = SI : bad (0/0) [0/0]
|   |   |   |   |   |   country = DO : bad (0/0) [0/0]
|   |   |   |   |   |   country = YU : bad (0/0) [0/0]
|   |   |   |   |   |   country = BT : bad (0/0) [0/0]
|   |   |   |   |   |   country = CAN : bad (0/0) [0/0]
|   |   |   |   |   |   country = NZ : bad (0.03/0) [0.01/0]
|   |   |   |   |   |   country = VE : bad (0/0) [0/0]
|   |   |   |   |   |   country = GUATEMALA : bad (0/0) [0/0]
|   |   |   |   |   |   country = MALAYSIA : bad (0/0) [0/0]
|   |   |   |   |   |   country = UNITED KINGDOM : bad (0/0) [0/0]
|   |   |   |   |   |   country = JO : bad (0/0) [0/0]
|   |   |   |   |   |   country = SOUTH AFRICA : bad (0/0) [0/0]
|   |   |   |   |   |   country = LV : bad (0/0) [0/0]
|   |   |   |   |   |   country = NA : bad (0/0) [0/0]
|   |   |   |   |   |   country = AM : bad (0/0) [0/0]
|   |   |   |   |   |   country = AL : bad (0/0) [0/0]
|   |   |   |   |   |   country = IR : bad (0/0) [0/0]
|   |   |   |   |   |   country = BY : bad (0/0) [0/0]
|   |   |   |   |   |   country = GR : bad (0/0) [0/0]
|   |   |   |   |   |   country = VN : bad (0/0) [0/0]
|   |   |   |   |   |   country = JM : bad (0/0) [0/0]
|   |   |   |   |   |   country = GA : bad (0/0) [0/0]
|   |   |   |   |   |   country = VG : bad (0/0) [0/0]
|   |   |   |   |   |   country = JAPAN : bad (0/0) [0/0]
|   |   |   |   |   |   country = PR : bad (0/0) [0/0]
|   |   |   |   |   |   country = AZERBAIJAN : bad (0/0) [0/0]
|   |   |   |   |   |   country = UY : bad (0/0) [0/0]
|   |   |   |   |   |   country = IRAN : bad (0/0) [0/0]
|   |   |   |   |   |   country = ROMANIA : bad (0/0) [0/0]
|   |   |   |   |   |   country = SD : bad (0/0) [0/0]
|   |   |   |   |   |   country = TZ : bad (0/0) [0/0]
|   |   |   |   |   |   country = EC : bad (0/0) [0/0]
|   |   |   |   |   |   country = MK : bad (0/0) [0/0]
|   |   |   |   |   |   country = SO : bad (0/0) [0/0]
|   |   |   |   |   |   country = SK : bad (0/0) [0/0]
|   |   |   |   |   |   country = UNITED : bad (0/0) [0/0]
|   |   |   |   |   |   country = ER : bad (0/0) [0/0]
|   |   |   |   |   |   country = RO : bad (0/0) [0/0]
|   |   |   |   |   |   country = QA : bad (0/0) [0/0]
|   |   |   |   |   |   country = OM : bad (0/0) [0/0]
|   |   |   |   |   |   country = CL : bad (0/0) [0/0]
|   |   |   |   |   |   country = SC : bad (0/0) [0/0]
|   |   |   |   |   |   country = BZ : bad (0/0) [0/0]
|   |   |   |   |   |   country = GI : bad (0/0) [0/0]
|   |   |   |   |   |   country = MZ : bad (0/0) [0/0]
|   |   |   |   |   |   country = SV : bad (0/0) [0/0]
|   |   |   |   |   |   country = CG : bad (0/0) [0/0]
|   |   |   |   |   |   country = TURKEY : bad (0/0) [0/0]
|   |   |   |   |   |   country = BA : bad (0/0) [0/0]
|   |   |   |   |   |   country = MU : bad (0/0) [0/0]
|   |   |   |   |   |   country = ITALY : bad (0/0) [0/0]
|   |   |   |   |   |   country = GT : bad (0/0) [0/0]
|   |   |   |   |   |   country = LA : bad (0/0) [0/0]
|   |   |   |   |   |   country = TG : bad (0/0) [0/0]
|   |   |   |   |   |   country = BH : bad (0/0) [0/0]
|   |   |   |   |   |   country = GM : bad (0/0) [0/0]
|   |   |   |   |   |   country = NI : bad (0/0) [0/0]
|   |   |   |   |   |   country = AD : bad (0/0) [0/0]
|   |   |   |   |   |   country = TN : bad (0/0) [0/0]
|   |   |   |   |   |   country = IQ : bad (0/0) [0/0]
|   |   |   |   |   |   country = BB : bad (0/0) [0/0]
|   |   |   |   |   |   country = CYPRUS : bad (0/0) [0/0]
|   |   |   |   |   |   country = KOREA : bad (0/0) [0/0]
|   |   |   |   |   |   country = NP : bad (0/0) [0/0]
|   |   |   |   |   |   country = MD : bad (0/0) [0/0]
|   |   |   |   |   |   country = GERMANY : bad (0/0) [0/0]
|   |   |   |   |   |   country = FJ : bad (0/0) [0/0]
|   |   |   |   |   |   country = IS : bad (0/0) [0/0]
|   |   |   |   |   |   country = RS : bad (0/0) [0/0]
|   |   |   |   |   |   country = KN : bad (0/0) [0/0]
|   |   |   |   |   |   country = SWITZERLAND : bad (0/0) [0/0]
|   |   |   |   |   |   country = MA : bad (0/0) [0/0]
|   |   |   |   |   |   country = LY : bad (0/0) [0/0]
|   |   |   |   |   |   country = NETHERLANDS : bad (0/0) [0/0]
|   |   |   |   |   |   country = MG : bad (0/0) [0/0]
|   |   |   |   |   |   country = PAKIST : bad (0/0) [0/0]
|   |   |   |   |   |   country = NIGERIA : bad (0/0) [0/0]
|   |   |   |   |   |   country = THAILA : bad (0/0) [0/0]
|   |   |   |   |   |   country = KY : bad (0/0) [0/0]
|   |   |   |   |   |   country = VC : bad (0/0) [0/0]
|   |   |   |   |   |   country = PY : bad (0/0) [0/0]
|   |   |   |   |   |   country = INDONESIA : bad (0/0) [0/0]
|   |   |   |   |   |   country = KW : bad (0/0) [0/0]
|   |   |   |   |   |   country = MT : bad (0/0) [0/0]
|   |   |   |   |   |   country = CHINA : bad (0/0) [0/0]
|   |   |   |   |   |   country = ML : bad (0/0) [0/0]
|   |   |   |   |   |   country = SINGAPORE : bad (0/0) [0/0]
|   |   |   |   |   |   country = CD : bad (0/0) [0/0]
|   |   |   |   |   |   country = LK : bad (0/0) [0/0]
|   |   |   |   |   |   country = ISTANB : bad (0/0) [0/0]
|   |   |   |   |   |   country = COSTA RICA : bad (0/0) [0.08/0]
|   |   |   |   |   |   country = GY : bad (0/0) [0/0]
|   |   |   |   |   |   country = BW : bad (0/0) [0/0]
|   |   |   |   |   |   country = PN : bad (0/0) [0/0]
|   |   |   |   |   |   country = PAKISTAN : bad (0/0) [0/0]
|   |   |   |   |   |   country = LITHUANIA : bad (0/0) [0/0]
|   |   |   |   |   |   country = KZ : bad (0/0) [0/0]
|   |   |   |   |   |   country = PS : bad (0/0) [0/0]
|   |   |   |   |   |   country = POLAND : bad (0/0) [0/0]
|   |   |   |   |   |   country = INDIA : bad (0/0) [0/0]
|   |   |   |   |   |   country = AUSTRIA : bad (0/0) [0/0]
|   |   |   |   |   |   country = SPAIN : bad (0/0) [0/0]
|   |   |   |   |   |   country = ME : bad (0/0) [0/0]
|   |   |   |   |   |   country = LR : bad (0/0) [0/0]
|   |   |   |   |   |   country = UG : bad (0/0) [0/0]
|   |   |   |   |   |   country = ZW : bad (0/0) [0/0]
|   |   |   |   |   |   country = STATUS : bad (0/0) [0/0]
|   |   |   |   |   |   country = UNITEDSTATES : bad (0/0) [0/0]
|   |   |   |   |   |   country = EE : bad (0/0) [0/0]
|   |   |   |   |   |   country = VIET N : bad (0/0) [0/0]
|   |   |   |   |   |   country = CANADA : bad (0/0) [0/0]
|   |   |   |   |   |   country = HR : bad (0/0) [0/0]
|   |   |   |   |   |   country = TT : bad (0/0) [0/0]
|   |   |   |   |   |   country = PANAMA : bad (0/0) [0/0]
|   |   |   |   |   |   country = ZM : bad (0/0) [0/0]
|   |   |   |   |   |   country = CM : bad (0/0) [0/0]
|   |   |   |   |   |   country = ISRAEL : bad (0/0) [0/0]
|   |   |   |   |   |   country = HN : bad (0/0) [0/0]
|   |   |   |   |   |   country = SN : bad (0/0) [0/0]
|   |   |   |   |   |   country = BO : bad (0/0) [0/0]
|   |   |   |   |   |   country = VU : bad (0/0) [0/0]
|   |   |   |   |   |   country = DM : bad (0/0) [0/0]
|   |   |   |   |   |   country = CU : bad (0/0) [0/0]
|   |   |   |   |   |   country = BM : bad (0/0) [0/0]
|   |   |   |   |   |   country = CI : bad (0/0) [0/0]
|   |   |   |   |   |   country = GP : bad (0/0) [0/0]
|   |   |   |   |   |   country = AS : bad (0/0) [0/0]
|   |   |   |   |   |   country = SEYCHELLES : bad (0/0) [0/0]
|   |   |   |   |   |   country = AN : bad (0/0) [0/0]
|   |   |   |   |   |   country = SL : bad (0/0) [0/0]
|   |   |   |   |   |   country = NC : bad (0/0) [0/0]
|   |   |   |   |   |   country = MQ : bad (0/0) [0/0]
|   |   |   |   |   |   country = UN : bad (0/0) [0/0]
|   |   |   |   |   |   country = VENEZUELA : bad (0/0) [0/0]
|   |   |   |   |   |   country = KM : bad (0/0) [0/0]
|   |   |   |   |   |   country = BN : bad (0/0) [0/0]
|   |   |   |   |   |   country = TAIWAN : bad (0/0) [0/0]
|   |   |   |   |   |   country = GE : bad (0/0) [0/0]
|   |   |   |   |   |   country = JORDAN : bad (0/0) [0/0]
|   |   |   |   |   |   country = TC : bad (0/0) [0/0]
|   |   |   |   |   |   country = - : bad (0/0) [0/0]
|   |   |   |   |   |   country = REPUBLIC OF KOREA : bad (0/0) [0/0]
|   |   |   |   |   |   country = FRANCE : bad (0/0) [0/0]
|   |   |   |   |   |   country = MV : bad (0/0) [0/0]
|   |   |   |   |   |   country = AG : bad (0/0) [0/0]
|   |   |   |   |   |   country = VIET NAM : bad (0/0) [0/0]
|   |   |   |   |   |   country = VA : bad (0/0) [0/0]
|   |   |   |   |   |   country = AO : bad (0/0) [0/0]
|   |   |   |   |   |   country = LUXEMBOURG : bad (0/0) [0/0]
|   |   |   |   |   |   country = TK : bad (0/0) [0/0]
|   |   |   |   |   |   country = MC : bad (0/0) [0/0]
|   |   |   |   |   |   country = VI : bad (0/0) [0/0]
|   |   |   |   |   |   country = BAHAMAS : bad (0/0) [0/0]
|   |   |   |   |   |   country = IRELAND : bad (0/0) [0/0]
|   |   |   |   |   |   country = CV : bad (0/0) [0/0]
|   |   |   |   |   |   country = ET : bad (0/0) [0/0]
|   |   |   |   |   |   country = SY : bad (0/0) [0/0]
|   |   |   |   |   |   country = CK : bad (0/0) [0/0]
|   |   |   |   |   |   country = KG : bad (0/0) [0/0]
|   |   |   |   |   |   country = SR : bad (0/0) [0/0]
|   |   |   |   |   |   country = ????????????? : bad (0/0) [0/0]
|   |   |   |   |   |   country = BELGIUM : bad (0/0) [0/0]
|   |   |   |   |   |   country = KV : bad (0/0) [0/0]
|   |   |   |   |   |   country = MM : bad (0/0) [0/0]
|   |   |   |   |   |   country = HONG KONG : bad (0/0) [0/0]
|   |   |   |   |   |   country = PF : bad (0/0) [0/0]
|   |   |   |   |   |   country = EGYPT : bad (0/0) [0/0]
|   |   |   |   |   |   country = UGANDA : bad (0/0) [0/0]
|   |   |   |   |   |   country = UZ : bad (0/0) [0/0]
|   |   |   |   |   num_ip >= 2.5
|   |   |   |   |   |   country = US
|   |   |   |   |   |   |   num_ip < 3.5
|   |   |   |   |   |   |   |   avg_path < 5.42 : good (20.95/0.53) [15.27/0.15]
|   |   |   |   |   |   |   |   avg_path >= 5.42 : bad (2.32/0.04) [1.13/0.01]
|   |   |   |   |   |   |   num_ip >= 3.5
|   |   |   |   |   |   |   |   reg_time < 1182312000 : bad (15.92/3.42) [9.51/0.43]
|   |   |   |   |   |   |   |   reg_time >= 1182312000 : good (4.24/0.15) [1.13/0.07]
|   |   |   |   |   |   country = UNITED STATES : good (0/0) [0/0]
|   |   |   |   |   |   country = PE : good (0/0) [0/0]
|   |   |   |   |   |   country = NO : bad (0.1/0) [0.01/0]
|   |   |   |   |   |   country = UK : good (0/0) [0/0]
|   |   |   |   |   |   country = KR : bad (0/0) [0.08/0]
|   |   |   |   |   |   country = GB : good (2.65/0.6) [0.3/0.28]
|   |   |   |   |   |   country = AU : good (0/0) [0/0]
|   |   |   |   |   |   country = CA : bad (2.84/0.05) [1.86/0.02]
|   |   |   |   |   |   country = AUSTRALIA : good (0/0) [0/0]
|   |   |   |   |   |   country = IN : bad (1.98/0.05) [2.5/1.02]
|   |   |   |   |   |   country = MY : good (0/0) [0/0]
|   |   |   |   |   |   country = CN : bad (0/0) [0.02/0]
|   |   |   |   |   |   country = JP : good (0/0) [0/0]
|   |   |   |   |   |   country = HU : good (0/0) [0/0]
|   |   |   |   |   |   country = GH : good (0/0) [0/0]
|   |   |   |   |   |   country = NL : good (0/0) [0/0]
|   |   |   |   |   |   country = ES : bad (1.42/0.11) [0.31/0.01]
|   |   |   |   |   |   country = DE : bad (0.1/0) [0.09/0.08]
|   |   |   |   |   |   country = PA : good (0/0) [0/0]
|   |   |   |   |   |   country = TR : good (0/0) [0/0]
|   |   |   |   |   |   country = FR : good (0/0) [0/0]
|   |   |   |   |   |   country = ID : good (0/0) [0/0]
|   |   |   |   |   |   country = LT : good (0/0) [0/0]
|   |   |   |   |   |   country = DK : good (0/0) [0/0]
|   |   |   |   |   |   country = PL : bad (0/0) [0.08/0]
|   |   |   |   |   |   country = SG : good (0/0) [0/0]
|   |   |   |   |   |   country = MX : good (0/0) [0/0]
|   |   |   |   |   |   country = DZ : good (0/0) [0/0]
|   |   |   |   |   |   country = UKRAINE : good (0/0) [0/0]
|   |   |   |   |   |   country = KH : good (0/0) [0/0]
|   |   |   |   |   |   country = BR : good (0/0) [0/0]
|   |   |   |   |   |   country = CY : bad (0.02/0) [0/0]
|   |   |   |   |   |   country = COLOMBIA : good (0/0) [0/0]
|   |   |   |   |   |   country = CZ : good (0/0) [0/0]
|   |   |   |   |   |   country = RUSSIAN FEDERATION : good (0/0) [0/0]
|   |   |   |   |   |   country = UA : good (1.23/0.2) [0.13/0.12]
|   |   |   |   |   |   country = MN : good (0/0) [0/0]
|   |   |   |   |   |   country = BRAZIL : good (0/0) [0/0]
|   |   |   |   |   |   country = CZECH REPUBLIC : good (0/0) [0/0]
|   |   |   |   |   |   country = IL : good (0/0) [0/0]
|   |   |   |   |   |   country = SE : good (0/0) [0/0]
|   |   |   |   |   |   country = AR : good (0/0) [0/0]
|   |   |   |   |   |   country = RU : good (0/0) [0/0]
|   |   |   |   |   |   country = BG : good (0/0) [0/0]
|   |   |   |   |   |   country = HK : good (0/0) [0/0]
|   |   |   |   |   |   country = PH : good (0/0) [0/0]
|   |   |   |   |   |   country = AT : good (0/0) [0/0]
|   |   |   |   |   |   country = ZA : good (0/0) [0/0]
|   |   |   |   |   |   country = BS : good (0/0) [0/0]
|   |   |   |   |   |   country = LU : good (0/0) [0/0]
|   |   |   |   |   |   country = CO : good (0/0) [0/0]
|   |   |   |   |   |   country = TH : good (0/0) [0/0]
|   |   |   |   |   |   country = TW : bad (1.23/0.02) [0.13/0.01]
|   |   |   |   |   |   country = NG : good (0/0) [0/0]
|   |   |   |   |   |   country = YE : good (0/0) [0/0]
|   |   |   |   |   |   country = LB : good (0/0) [0/0]
|   |   |   |   |   |   country = KE : good (0/0) [0/0]
|   |   |   |   |   |   country = BD : good (0/0) [0/0]
|   |   |   |   |   |   country = CR : good (0/0) [0/0]
|   |   |   |   |   |   country = EG : good (0/0) [0/0]
|   |   |   |   |   |   country = CH : good (0/0) [0/0]
|   |   |   |   |   |   country = BE : good (0/0) [0/0]
|   |   |   |   |   |   country = PT : good (0/0) [0/0]
|   |   |   |   |   |   country = FI : good (0/0) [0/0]
|   |   |   |   |   |   country = THAILAND : good (0/0) [0/0]
|   |   |   |   |   |   country = IT : good (0/0) [0/0]
|   |   |   |   |   |   country = PK : good (0/0) [0/0]
|   |   |   |   |   |   country = AZ : good (0/0) [0/0]
|   |   |   |   |   |   country = SA : good (0/0) [0/0]
|   |   |   |   |   |   country = AE : good (0/0) [0/0]
|   |   |   |   |   |   country = AF : good (0/0) [0/0]
|   |   |   |   |   |   country = IE : good (0/0) [0/0]
|   |   |   |   |   |   country = GQ : good (0/0) [0/0]
|   |   |   |   |   |   country = BRASIL : good (0/0) [0/0]
|   |   |   |   |   |   country = TL : good (0/0) [0/0]
|   |   |   |   |   |   country = BOSNIA AND HERZEGOVINA : good (0/0) [0/0]
|   |   |   |   |   |   country = SI : good (0/0) [0/0]
|   |   |   |   |   |   country = DO : good (0/0) [0/0]
|   |   |   |   |   |   country = YU : good (0/0) [0/0]
|   |   |   |   |   |   country = BT : good (0/0) [0/0]
|   |   |   |   |   |   country = CAN : bad (6.13/0.11) [3.66/0.05]
|   |   |   |   |   |   country = NZ : good (0/0) [0/0]
|   |   |   |   |   |   country = VE : good (0/0) [0/0]
|   |   |   |   |   |   country = GUATEMALA : good (0/0) [0/0]
|   |   |   |   |   |   country = MALAYSIA : good (0/0) [0/0]
|   |   |   |   |   |   country = UNITED KINGDOM : good (0/0) [0/0]
|   |   |   |   |   |   country = JO : good (0/0) [0/0]
|   |   |   |   |   |   country = SOUTH AFRICA : good (0/0) [0/0]
|   |   |   |   |   |   country = LV : good (0/0) [0/0]
|   |   |   |   |   |   country = NA : good (0/0) [0/0]
|   |   |   |   |   |   country = AM : good (0/0) [0/0]
|   |   |   |   |   |   country = AL : good (0/0) [0/0]
|   |   |   |   |   |   country = IR : good (0/0) [0/0]
|   |   |   |   |   |   country = BY : good (0/0) [0/0]
|   |   |   |   |   |   country = GR : good (0/0) [0/0]
|   |   |   |   |   |   country = VN : good (0/0) [0/0]
|   |   |   |   |   |   country = JM : good (0/0) [0/0]
|   |   |   |   |   |   country = GA : good (0/0) [0/0]
|   |   |   |   |   |   country = VG : good (0/0) [0/0]
|   |   |   |   |   |   country = JAPAN : good (0/0) [0/0]
|   |   |   |   |   |   country = PR : good (0/0) [0/0]
|   |   |   |   |   |   country = AZERBAIJAN : good (0/0) [0/0]
|   |   |   |   |   |   country = UY : good (0/0) [0/0]
|   |   |   |   |   |   country = IRAN : good (0/0) [0/0]
|   |   |   |   |   |   country = ROMANIA : good (0/0) [0/0]
|   |   |   |   |   |   country = SD : good (0/0) [0/0]
|   |   |   |   |   |   country = TZ : good (0/0) [0/0]
|   |   |   |   |   |   country = EC : good (0/0) [0/0]
|   |   |   |   |   |   country = MK : good (0/0) [0/0]
|   |   |   |   |   |   country = SO : good (0/0) [0/0]
|   |   |   |   |   |   country = SK : good (0/0) [0/0]
|   |   |   |   |   |   country = UNITED : good (0/0) [0/0]
|   |   |   |   |   |   country = ER : good (0/0) [0/0]
|   |   |   |   |   |   country = RO : good (0/0) [0/0]
|   |   |   |   |   |   country = QA : good (0/0) [0/0]
|   |   |   |   |   |   country = OM : good (0/0) [0/0]
|   |   |   |   |   |   country = CL : good (0/0) [0/0]
|   |   |   |   |   |   country = SC : good (0/0) [0/0]
|   |   |   |   |   |   country = BZ : good (0/0) [0/0]
|   |   |   |   |   |   country = GI : good (0/0) [0/0]
|   |   |   |   |   |   country = MZ : good (0/0) [0/0]
|   |   |   |   |   |   country = SV : good (0/0) [0/0]
|   |   |   |   |   |   country = CG : good (0/0) [0/0]
|   |   |   |   |   |   country = TURKEY : good (0/0) [0/0]
|   |   |   |   |   |   country = BA : good (0/0) [0/0]
|   |   |   |   |   |   country = MU : good (0/0) [0/0]
|   |   |   |   |   |   country = ITALY : good (0/0) [0/0]
|   |   |   |   |   |   country = GT : good (0/0) [0/0]
|   |   |   |   |   |   country = LA : good (0/0) [0/0]
|   |   |   |   |   |   country = TG : good (0/0) [0/0]
|   |   |   |   |   |   country = BH : good (0/0) [0/0]
|   |   |   |   |   |   country = GM : good (0/0) [0/0]
|   |   |   |   |   |   country = NI : good (0/0) [0/0]
|   |   |   |   |   |   country = AD : good (0/0) [0/0]
|   |   |   |   |   |   country = TN : good (0/0) [0/0]
|   |   |   |   |   |   country = IQ : good (0/0) [0/0]
|   |   |   |   |   |   country = BB : good (0/0) [0/0]
|   |   |   |   |   |   country = CYPRUS : good (0/0) [0/0]
|   |   |   |   |   |   country = KOREA : good (0/0) [0/0]
|   |   |   |   |   |   country = NP : good (0/0) [0/0]
|   |   |   |   |   |   country = MD : good (0/0) [0/0]
|   |   |   |   |   |   country = GERMANY : good (0/0) [0/0]
|   |   |   |   |   |   country = FJ : good (0/0) [0/0]
|   |   |   |   |   |   country = IS : good (0/0) [0/0]
|   |   |   |   |   |   country = RS : good (0/0) [0/0]
|   |   |   |   |   |   country = KN : good (0/0) [0/0]
|   |   |   |   |   |   country = SWITZERLAND : good (0/0) [0/0]
|   |   |   |   |   |   country = MA : good (0/0) [0/0]
|   |   |   |   |   |   country = LY : good (0/0) [0/0]
|   |   |   |   |   |   country = NETHERLANDS : good (0/0) [0/0]
|   |   |   |   |   |   country = MG : good (0/0) [0/0]
|   |   |   |   |   |   country = PAKIST : good (0/0) [0/0]
|   |   |   |   |   |   country = NIGERIA : good (0/0) [0/0]
|   |   |   |   |   |   country = THAILA : good (0/0) [0/0]
|   |   |   |   |   |   country = KY : good (0/0) [0.02/0]
|   |   |   |   |   |   country = VC : good (0/0) [0/0]
|   |   |   |   |   |   country = PY : good (0/0) [0/0]
|   |   |   |   |   |   country = INDONESIA : good (0/0) [0/0]
|   |   |   |   |   |   country = KW : good (0/0) [0/0]
|   |   |   |   |   |   country = MT : good (0/0) [0/0]
|   |   |   |   |   |   country = CHINA : good (0/0) [0/0]
|   |   |   |   |   |   country = ML : good (0/0) [0/0]
|   |   |   |   |   |   country = SINGAPORE : good (0/0) [0/0]
|   |   |   |   |   |   country = CD : good (0/0) [0/0]
|   |   |   |   |   |   country = LK : good (0/0) [0/0]
|   |   |   |   |   |   country = ISTANB : good (0/0) [0/0]
|   |   |   |   |   |   country = COSTA RICA : good (0/0) [0/0]
|   |   |   |   |   |   country = GY : good (0/0) [0/0]
|   |   |   |   |   |   country = BW : good (0/0) [0/0]
|   |   |   |   |   |   country = PN : good (0/0) [0/0]
|   |   |   |   |   |   country = PAKISTAN : good (0/0) [0/0]
|   |   |   |   |   |   country = LITHUANIA : good (0/0) [0/0]
|   |   |   |   |   |   country = KZ : good (0/0) [0/0]
|   |   |   |   |   |   country = PS : good (0/0) [0/0]
|   |   |   |   |   |   country = POLAND : good (0/0) [0/0]
|   |   |   |   |   |   country = INDIA : good (0/0) [0/0]
|   |   |   |   |   |   country = AUSTRIA : good (0/0) [0/0]
|   |   |   |   |   |   country = SPAIN : good (0/0) [0/0]
|   |   |   |   |   |   country = ME : good (0/0) [0/0]
|   |   |   |   |   |   country = LR : good (0/0) [0/0]
|   |   |   |   |   |   country = UG : good (0/0) [0/0]
|   |   |   |   |   |   country = ZW : good (0/0) [0/0]
|   |   |   |   |   |   country = STATUS : good (0/0) [0/0]
|   |   |   |   |   |   country = UNITEDSTATES : good (0/0) [0/0]
|   |   |   |   |   |   country = EE : good (0/0) [0/0]
|   |   |   |   |   |   country = VIET N : good (0/0) [0/0]
|   |   |   |   |   |   country = CANADA : good (0/0) [0/0]
|   |   |   |   |   |   country = HR : good (0/0) [0/0]
|   |   |   |   |   |   country = TT : good (0/0) [0/0]
|   |   |   |   |   |   country = PANAMA : good (0/0) [0/0]
|   |   |   |   |   |   country = ZM : good (0/0) [0/0]
|   |   |   |   |   |   country = CM : good (0/0) [0/0]
|   |   |   |   |   |   country = ISRAEL : good (0/0) [0/0]
|   |   |   |   |   |   country = HN : good (0/0) [0/0]
|   |   |   |   |   |   country = SN : good (0/0) [0/0]
|   |   |   |   |   |   country = BO : good (0/0) [0/0]
|   |   |   |   |   |   country = VU : good (0/0) [0/0]
|   |   |   |   |   |   country = DM : good (0/0) [0/0]
|   |   |   |   |   |   country = CU : good (0/0) [0/0]
|   |   |   |   |   |   country = BM : good (0/0) [0/0]
|   |   |   |   |   |   country = CI : good (0/0) [0/0]
|   |   |   |   |   |   country = GP : good (0/0) [0/0]
|   |   |   |   |   |   country = AS : good (0/0) [0/0]
|   |   |   |   |   |   country = SEYCHELLES : good (0/0) [0/0]
|   |   |   |   |   |   country = AN : good (0/0) [0/0]
|   |   |   |   |   |   country = SL : good (0/0) [0/0]
|   |   |   |   |   |   country = NC : good (0/0) [0/0]
|   |   |   |   |   |   country = MQ : good (0/0) [0/0]
|   |   |   |   |   |   country = UN : good (0/0) [0/0]
|   |   |   |   |   |   country = VENEZUELA : good (0/0) [0/0]
|   |   |   |   |   |   country = KM : good (0/0) [0/0]
|   |   |   |   |   |   country = BN : good (0/0) [0/0]
|   |   |   |   |   |   country = TAIWAN : good (0/0) [0/0]
|   |   |   |   |   |   country = GE : good (0/0) [0/0]
|   |   |   |   |   |   country = JORDAN : good (0/0) [0/0]
|   |   |   |   |   |   country = TC : good (0/0) [0/0]
|   |   |   |   |   |   country = - : good (0/0) [0/0]
|   |   |   |   |   |   country = REPUBLIC OF KOREA : good (0/0) [0/0]
|   |   |   |   |   |   country = FRANCE : good (0/0) [0/0]
|   |   |   |   |   |   country = MV : good (0/0) [0/0]
|   |   |   |   |   |   country = AG : good (0/0) [0/0]
|   |   |   |   |   |   country = VIET NAM : good (0/0) [0/0]
|   |   |   |   |   |   country = VA : good (0/0) [0/0]
|   |   |   |   |   |   country = AO : good (0/0) [0/0]
|   |   |   |   |   |   country = LUXEMBOURG : good (0/0) [0/0]
|   |   |   |   |   |   country = TK : good (0/0) [0/0]
|   |   |   |   |   |   country = MC : good (0/0) [0/0]
|   |   |   |   |   |   country = VI : good (0/0) [0/0]
|   |   |   |   |   |   country = BAHAMAS : good (0/0) [0/0]
|   |   |   |   |   |   country = IRELAND : good (0/0) [0/0]
|   |   |   |   |   |   country = CV : good (0/0) [0/0]
|   |   |   |   |   |   country = ET : good (0/0) [0/0]
|   |   |   |   |   |   country = SY : good (0/0) [0/0]
|   |   |   |   |   |   country = CK : good (0/0) [0/0]
|   |   |   |   |   |   country = KG : good (0/0) [0/0]
|   |   |   |   |   |   country = SR : good (0/0) [0/0]
|   |   |   |   |   |   country = ????????????? : good (0/0) [0/0]
|   |   |   |   |   |   country = BELGIUM : good (0/0) [0/0]
|   |   |   |   |   |   country = KV : good (0/0) [0/0]
|   |   |   |   |   |   country = MM : good (0/0) [0/0]
|   |   |   |   |   |   country = HONG KONG : good (0/0) [0/0]
|   |   |   |   |   |   country = PF : good (0/0) [0/0]
|   |   |   |   |   |   country = EGYPT : good (0/0) [0/0]
|   |   |   |   |   |   country = UGANDA : good (0/0) [0/0]
|   |   |   |   |   |   country = UZ : good (0/0) [0/0]
|   |   |   |   reg_time >= 1186502400
|   |   |   |   |   country = US
|   |   |   |   |   |   max_host < 4.5 : bad (5.65/1.7) [3.28/0.34]
|   |   |   |   |   |   max_host >= 4.5
|   |   |   |   |   |   |   num_ip < 4.5
|   |   |   |   |   |   |   |   num_ip < 3.5
|   |   |   |   |   |   |   |   |   num_ip < 0.5 : bad (105.47/6.18) [52.09/3.33]
|   |   |   |   |   |   |   |   |   num_ip >= 0.5
|   |   |   |   |   |   |   |   |   |   avg_path < 0.25 : bad (8.81/1.25) [1.52/0.04]
|   |   |   |   |   |   |   |   |   |   avg_path >= 0.25
|   |   |   |   |   |   |   |   |   |   |   avg_host < 14.5
|   |   |   |   |   |   |   |   |   |   |   |   reg_time < 1301803200 : bad (38.52/1.6) [19.65/2.54]
|   |   |   |   |   |   |   |   |   |   |   |   reg_time >= 1301803200 : bad (126/0.66) [70.98/1.83]
|   |   |   |   |   |   |   |   |   |   |   avg_host >= 14.5 : bad (37.7/2.09) [21.48/2.03]
|   |   |   |   |   |   |   |   num_ip >= 3.5
|   |   |   |   |   |   |   |   |   avg_path < 5.07 : good (2.33/0.4) [3.35/1]
|   |   |   |   |   |   |   |   |   avg_path >= 5.07 : bad (2.45/0.17) [1.15/0.02]
|   |   |   |   |   |   |   num_ip >= 4.5 : bad (37.98/0.07) [18.66/0.27]
|   |   |   |   |   country = UNITED STATES : bad (5.93/0.41) [2.45/0.17]
|   |   |   |   |   country = PE : bad (0.54/0.02) [0.15/0.01]
|   |   |   |   |   country = NO : bad (0.36/0.09) [0.18/0.08]
|   |   |   |   |   country = UK : bad (0.72/0.02) [0.2/0.01]
|   |   |   |   |   country = KR : bad (5.42/0.23) [2.4/0.08]
|   |   |   |   |   country = GB : bad (21.14/0.6) [8.25/1.32]
|   |   |   |   |   country = AU : bad (6.83/0.35) [2.78/0.1]
|   |   |   |   |   country = CA
|   |   |   |   |   |   num_ip < 1 : bad (3.34/0.21) [1.65/0.11]
|   |   |   |   |   |   num_ip >= 1
|   |   |   |   |   |   |   avg_path < 5.06 : bad (2.46/0.1) [1.94/1.05]
|   |   |   |   |   |   |   avg_path >= 5.06 : bad (5.53/0.02) [3.64/0.01]
|   |   |   |   |   country = AUSTRALIA : bad (0/0) [0.08/0]
|   |   |   |   |   country = IN : bad (9.42/0.32) [5.74/0.14]
|   |   |   |   |   country = MY : bad (0.36/0.01) [2.34/0.01]
|   |   |   |   |   country = CN
|   |   |   |   |   |   num_ip < 1 : bad (2.04/0.12) [1.01/0.06]
|   |   |   |   |   |   num_ip >= 1 : bad (4.33/0.06) [2.77/0.03]
|   |   |   |   |   country = JP : bad (10.07/0.37) [3.04/0.15]
|   |   |   |   |   country = HU : bad (0/0) [0/0]
|   |   |   |   |   country = GH : good (0/0) [1/0]
|   |   |   |   |   country = NL : bad (5.75/0.16) [2.6/0.09]
|   |   |   |   |   country = ES : bad (5.65/0.16) [4.53/0.16]
|   |   |   |   |   country = DE : bad (13.04/0.37) [8.03/0.19]
|   |   |   |   |   country = PA : bad (148.66/6.24) [63.47/3.22]
|   |   |   |   |   country = TR : bad (27.71/0.79) [12.87/0.41]
|   |   |   |   |   country = FR : bad (5.39/0.15) [2.9/0.08]
|   |   |   |   |   country = ID : bad (25.4/0.8) [9.23/0.38]
|   |   |   |   |   country = LT : bad (0/0) [0/0]
|   |   |   |   |   country = DK : bad (0.18/0.01) [2.05/0]
|   |   |   |   |   country = PL : bad (2.43/0.07) [0.76/0.04]
|   |   |   |   |   country = SG : bad (4.86/0.14) [3.43/0.15]
|   |   |   |   |   country = MX : bad (1.25/0.04) [0.9/0.02]
|   |   |   |   |   country = DZ : bad (0/0) [0/0]
|   |   |   |   |   country = UKRAINE : bad (0.18/0.01) [0.05/0]
|   |   |   |   |   country = KH : bad (0/0) [0/0]
|   |   |   |   |   country = BR
|   |   |   |   |   |   num_ip < 1 : bad (5.97/0.38) [2.95/0.2]
|   |   |   |   |   |   num_ip >= 1 : bad (14.27/0.2) [7.69/0.1]
|   |   |   |   |   country = CY : bad (0.11/0) [0.03/0]
|   |   |   |   |   country = COLOMBIA : bad (0/0) [0/0]
|   |   |   |   |   country = CZ : bad (0.36/0.01) [1.1/0.01]
|   |   |   |   |   country = RUSSIAN FEDERATION : bad (0/0) [0/0]
|   |   |   |   |   country = UA : bad (0.72/0.02) [0.36/0.01]
|   |   |   |   |   country = MN : bad (0.54/0.02) [0.39/0.01]
|   |   |   |   |   country = BRAZIL : bad (0/0) [0/0]
|   |   |   |   |   country = CZECH REPUBLIC : bad (0/0) [0/0]
|   |   |   |   |   country = IL : bad (0.18/0.01) [2.21/0]
|   |   |   |   |   country = SE : bad (0.18/0.01) [0.05/0]
|   |   |   |   |   country = AR : bad (0.36/0.01) [0.18/0.01]
|   |   |   |   |   country = RU
|   |   |   |   |   |   num_ip < 1 : bad (3.88/0.25) [1.91/0.13]
|   |   |   |   |   |   num_ip >= 1 : bad (9.27/0.13) [1.83/0.07]
|   |   |   |   |   country = BG : bad (2.25/0.06) [1.63/0.03]
|   |   |   |   |   country = HK
|   |   |   |   |   |   num_ip < 0.5 : bad (2.07/0.13) [1.02/0.07]
|   |   |   |   |   |   num_ip >= 0.5 : bad (4.94/0.07) [2.88/0.04]
|   |   |   |   |   country = PH : bad (0/0) [1/0]
|   |   |   |   |   country = AT : bad (0.89/0.11) [0.33/0.09]
|   |   |   |   |   country = ZA : bad (0/0) [1.08/0]
|   |   |   |   |   country = BS : bad (0/0) [0/0]
|   |   |   |   |   country = LU : bad (0.18/0.01) [0.05/0]
|   |   |   |   |   country = CO : bad (1.43/0.04) [1.8/0.02]
|   |   |   |   |   country = TH
|   |   |   |   |   |   num_ip < 1 : bad (2.2/0.14) [1.09/0.07]
|   |   |   |   |   |   num_ip >= 1
|   |   |   |   |   |   |   avg_path < 5.68 : bad (2.29/0.07) [1.66/0.03]
|   |   |   |   |   |   |   avg_path >= 5.68 : bad (2.97/0.01) [0.41/0]
|   |   |   |   |   country = TW : bad (0/0) [0/0]
|   |   |   |   |   country = NG : bad (12.68/0.36) [5.77/0.19]
|   |   |   |   |   country = YE : bad (0/0) [1/0]
|   |   |   |   |   country = LB : bad (0/0) [0/0]
|   |   |   |   |   country = KE
|   |   |   |   |   |   avg_path < 6.76 : bad (3.99/0.23) [1.95/0.12]
|   |   |   |   |   |   avg_path >= 6.76 : bad (5.01/0.03) [0.55/0.02]
|   |   |   |   |   country = BD : bad (0.18/0.01) [1.05/0]
|   |   |   |   |   country = CR : bad (0/0) [0/0]
|   |   |   |   |   country = EG : bad (0/0) [0/0]
|   |   |   |   |   country = CH : bad (2.25/0.06) [1.63/0.03]
|   |   |   |   |   country = BE : bad (0/0) [0/0]
|   |   |   |   |   country = PT : bad (1.43/0.04) [0.56/0.02]
|   |   |   |   |   country = FI : bad (0/0) [0/0]
|   |   |   |   |   country = THAILAND : bad (0/0) [0/0]
|   |   |   |   |   country = IT : bad (2.43/0.07) [0.68/0.04]
|   |   |   |   |   country = PK
|   |   |   |   |   |   num_ip < 1 : bad (4.7/0.3) [2.32/0.16]
|   |   |   |   |   |   num_ip >= 1 : bad (11.23/0.16) [4.12/0.08]
|   |   |   |   |   country = AZ : bad (0/0) [0/0]
|   |   |   |   |   country = SA : bad (2.43/0.07) [2.68/0.04]
|   |   |   |   |   country = AE
|   |   |   |   |   |   max_path < 6.5 : bad (4.67/0.05) [0.84/0.03]
|   |   |   |   |   |   max_path >= 6.5 : bad (2.44/0.16) [2.14/0.08]
|   |   |   |   |   country = AF : bad (0/0) [0/0]
|   |   |   |   |   country = IE
|   |   |   |   |   |   num_ip < 1 : bad (5.97/0.38) [2.95/0.2]
|   |   |   |   |   |   num_ip >= 1 : bad (14.27/0.2) [4.77/0.1]
|   |   |   |   |   country = GQ : bad (0/0) [0/0]
|   |   |   |   |   country = BRASIL : bad (0/0) [0/0]
|   |   |   |   |   country = TL : good (0/0) [0.08/0]
|   |   |   |   |   country = BOSNIA AND HERZEGOVINA : bad (0/0) [0/0]
|   |   |   |   |   country = SI : bad (0.36/0.01) [0.1/0.01]
|   |   |   |   |   country = DO : bad (0/0) [0/0]
|   |   |   |   |   country = YU : bad (0/0) [0/0]
|   |   |   |   |   country = BT : bad (0/0) [0/0]
|   |   |   |   |   country = CAN : bad (0/0) [0/0]
|   |   |   |   |   country = NZ : bad (0.11/0) [0.11/0.08]
|   |   |   |   |   country = VE : bad (0/0) [0/0]
|   |   |   |   |   country = GUATEMALA : bad (0/0) [0/0]
|   |   |   |   |   country = MALAYSIA : bad (0/0) [0/0]
|   |   |   |   |   country = UNITED KINGDOM : bad (0/0) [0/0]
|   |   |   |   |   country = JO : bad (0/0) [0/0]
|   |   |   |   |   country = SOUTH AFRICA : bad (0/0) [0/0]
|   |   |   |   |   country = LV : bad (0/0) [0/0]
|   |   |   |   |   country = NA : bad (0/0) [0/0]
|   |   |   |   |   country = AM : bad (0/0) [2/0]
|   |   |   |   |   country = AL : bad (0/0) [0/0]
|   |   |   |   |   country = IR : bad (0/0) [0/0]
|   |   |   |   |   country = BY : bad (0/0) [0/0]
|   |   |   |   |   country = GR : bad (2.25/0.06) [0.71/0.03]
|   |   |   |   |   country = VN : bad (9.89/0.28) [5.83/0.15]
|   |   |   |   |   country = JM : bad (13.5/0.39) [7.76/0.2]
|   |   |   |   |   country = GA : bad (0/0) [0/0]
|   |   |   |   |   country = VG : bad (2.25/1.06) [0.63/0.03]
|   |   |   |   |   country = JAPAN : bad (0/0) [0/0]
|   |   |   |   |   country = PR : bad (0/0) [0/0]
|   |   |   |   |   country = AZERBAIJAN : bad (0/0) [0/0]
|   |   |   |   |   country = UY : bad (0/0) [0.08/0]
|   |   |   |   |   country = IRAN : bad (0.36/0.01) [0.1/0.01]
|   |   |   |   |   country = ROMANIA : bad (0/0) [0/0]
|   |   |   |   |   country = SD : bad (0/0) [0/0]
|   |   |   |   |   country = TZ : bad (0/0) [0/0]
|   |   |   |   |   country = EC : bad (0/0) [0/0]
|   |   |   |   |   country = MK : bad (0/0) [0/0]
|   |   |   |   |   country = SO : bad (0/0) [0/0]
|   |   |   |   |   country = SK : bad (0/0) [0/0]
|   |   |   |   |   country = UNITED : bad (0/0) [0/0]
|   |   |   |   |   country = ER : bad (0/0) [0/0]
|   |   |   |   |   country = RO : bad (0/0) [1/0]
|   |   |   |   |   country = QA : bad (0/0) [0/0]
|   |   |   |   |   country = OM : bad (0/0) [0/0]
|   |   |   |   |   country = CL : bad (0/0) [0/0]
|   |   |   |   |   country = SC : bad (0/0) [0/0]
|   |   |   |   |   country = BZ : bad (2.25/0.06) [1.63/0.03]
|   |   |   |   |   country = GI : bad (0/0) [0/0]
|   |   |   |   |   country = MZ : bad (0/0) [0/0]
|   |   |   |   |   country = SV : bad (0/0) [0/0]
|   |   |   |   |   country = CG : bad (0/0) [0/0]
|   |   |   |   |   country = TURKEY : bad (0.36/0.01) [0.26/0.01]
|   |   |   |   |   country = BA : bad (0/0) [0/0]
|   |   |   |   |   country = MU : bad (0/0) [0/0]
|   |   |   |   |   country = ITALY : bad (0/0) [0/0]
|   |   |   |   |   country = GT : bad (0/0) [1/0]
|   |   |   |   |   country = LA : bad (0/0) [0/0]
|   |   |   |   |   country = TG : bad (0/0) [0/0]
|   |   |   |   |   country = BH : bad (0/0) [0/0]
|   |   |   |   |   country = GM : bad (0/0) [0/0]
|   |   |   |   |   country = NI : bad (2.25/0.06) [0.63/0.03]
|   |   |   |   |   country = AD : bad (0.36/0.01) [0.1/0.01]
|   |   |   |   |   country = TN : bad (0/0) [0.08/0]
|   |   |   |   |   country = IQ : bad (0/0) [0/0]
|   |   |   |   |   country = BB : bad (0/0) [0/0]
|   |   |   |   |   country = CYPRUS : bad (0/0) [0/0]
|   |   |   |   |   country = KOREA : bad (0/0) [0/0]
|   |   |   |   |   country = NP : bad (0/0) [0/0]
|   |   |   |   |   country = MD : bad (0/0) [0/0]
|   |   |   |   |   country = GERMANY : bad (0.18/0.01) [0.05/0]
|   |   |   |   |   country = FJ : bad (0/0) [0/0]
|   |   |   |   |   country = IS : bad (0/0) [0/0]
|   |   |   |   |   country = RS
|   |   |   |   |   |   num_ip < 1 : bad (2.66/0.17) [1.31/0.09]
|   |   |   |   |   |   num_ip >= 1 : bad (6.34/0.09) [2.2/0.05]
|   |   |   |   |   country = KN : bad (0/0) [0/0]
|   |   |   |   |   country = SWITZERLAND : bad (0/0) [0/0]
|   |   |   |   |   country = MA : bad (2.25/0.06) [0.63/0.03]
|   |   |   |   |   country = LY : bad (0/0) [0/0]
|   |   |   |   |   country = NETHERLANDS : bad (0/0) [0/0]
|   |   |   |   |   country = MG : bad (0.18/0.01) [0.05/0]
|   |   |   |   |   country = PAKIST : bad (0/0) [0/0]
|   |   |   |   |   country = NIGERIA : bad (0/0) [0/0]
|   |   |   |   |   country = THAILA : bad (0/0) [0/0]
|   |   |   |   |   country = KY : good (0/0) [0.05/0]
|   |   |   |   |   country = VC : bad (0.18/0.01) [0.05/0]
|   |   |   |   |   country = PY : bad (0/0) [0/0]
|   |   |   |   |   country = INDONESIA : bad (0/0) [0/0]
|   |   |   |   |   country = KW : bad (0/0) [1/0]
|   |   |   |   |   country = MT : bad (0/0) [0/0]
|   |   |   |   |   country = CHINA : bad (1.25/0.04) [0.51/0.02]
|   |   |   |   |   country = ML : bad (0/0) [0/0]
|   |   |   |   |   country = SINGAPORE : bad (0/0) [0/0]
|   |   |   |   |   country = CD : bad (0/0) [0/0]
|   |   |   |   |   country = LK : bad (0/0) [0/0]
|   |   |   |   |   country = ISTANB : bad (0/0) [0/0]
|   |   |   |   |   country = COSTA RICA : bad (0/0) [0/0]
|   |   |   |   |   country = GY : bad (0/0) [0/0]
|   |   |   |   |   country = BW : bad (0/0) [0/0]
|   |   |   |   |   country = PN : bad (0/0) [0/0]
|   |   |   |   |   country = PAKISTAN : bad (0/0) [0/0]
|   |   |   |   |   country = LITHUANIA : bad (0/0) [0/0]
|   |   |   |   |   country = KZ : bad (0/0) [0.08/0]
|   |   |   |   |   country = PS : bad (0/0) [0/0]
|   |   |   |   |   country = POLAND : bad (0/0) [0/0]
|   |   |   |   |   country = INDIA : bad (0.36/0.01) [0.1/0.01]
|   |   |   |   |   country = AUSTRIA : bad (0/0) [0/0]
|   |   |   |   |   country = SPAIN : bad (0.18/0.01) [0.05/0]
|   |   |   |   |   country = ME : bad (0/0) [0/0]
|   |   |   |   |   country = LR : bad (0/0) [0/0]
|   |   |   |   |   country = UG : bad (4.5/0.13) [2.25/0.07]
|   |   |   |   |   country = ZW : bad (0/0) [0/0]
|   |   |   |   |   country = STATUS : bad (0/0) [0/0]
|   |   |   |   |   country = UNITEDSTATES : bad (0/0) [0/0]
|   |   |   |   |   country = EE : bad (0.18/0.01) [0.05/0]
|   |   |   |   |   country = VIET N : bad (0/0) [0/0]
|   |   |   |   |   country = CANADA : bad (0/0) [0/0]
|   |   |   |   |   country = HR : bad (0.36/0.01) [0.18/0.01]
|   |   |   |   |   country = TT : bad (0/0) [0/0]
|   |   |   |   |   country = PANAMA : bad (0/0) [0/0]
|   |   |   |   |   country = ZM : bad (0/0) [0/0]
|   |   |   |   |   country = CM
|   |   |   |   |   |   num_ip < 3.5 : bad (2.21/0.11) [1.13/0.06]
|   |   |   |   |   |   num_ip >= 3.5 : bad (2.29/0.01) [1.12/0.01]
|   |   |   |   |   country = ISRAEL : bad (0/0) [0/0]
|   |   |   |   |   country = HN : bad (0/0) [0/0]
|   |   |   |   |   country = SN : bad (11.25/0.32) [3.13/0.17]
|   |   |   |   |   country = BO : bad (0/0) [0/0]
|   |   |   |   |   country = VU : bad (0/0) [0/0]
|   |   |   |   |   country = DM : bad (0/0) [0/0]
|   |   |   |   |   country = CU : bad (0/0) [0/0]
|   |   |   |   |   country = BM : bad (0/0) [0/0]
|   |   |   |   |   country = CI : bad (0/0) [0.08/0]
|   |   |   |   |   country = GP : bad (0/0) [0/0]
|   |   |   |   |   country = AS : bad (0/0) [0/0]
|   |   |   |   |   country = SEYCHELLES : bad (0.18/0.01) [0.05/0]
|   |   |   |   |   country = AN : bad (0/0) [0/0]
|   |   |   |   |   country = SL : bad (0/0) [0/0]
|   |   |   |   |   country = NC : bad (0/0) [0/0]
|   |   |   |   |   country = MQ : bad (0/0) [0/0]
|   |   |   |   |   country = UN : bad (0/0) [0/0]
|   |   |   |   |   country = VENEZUELA : bad (0/0) [0/0]
|   |   |   |   |   country = KM : bad (0/0) [0/0]
|   |   |   |   |   country = BN : bad (0/0) [0/0]
|   |   |   |   |   country = TAIWAN : bad (0/0) [0/0]
|   |   |   |   |   country = GE : bad (0/0) [0/0]
|   |   |   |   |   country = JORDAN : bad (0/0) [0/0]
|   |   |   |   |   country = TC : bad (0/0) [0/0]
|   |   |   |   |   country = - : bad (0/0) [0/0]
|   |   |   |   |   country = REPUBLIC OF KOREA : bad (0/0) [0/0]
|   |   |   |   |   country = FRANCE : bad (0/0) [0/0]
|   |   |   |   |   country = MV : bad (0/0) [0/0]
|   |   |   |   |   country = AG : bad (0/0) [0/0]
|   |   |   |   |   country = VIET NAM : bad (2.25/0.06) [0.63/0.03]
|   |   |   |   |   country = VA : bad (0/0) [0/0]
|   |   |   |   |   country = AO : bad (0/0) [1/0]
|   |   |   |   |   country = LUXEMBOURG : bad (0/0) [0/0]
|   |   |   |   |   country = TK : bad (0/0) [0/0]
|   |   |   |   |   country = MC : bad (0/0) [0/0]
|   |   |   |   |   country = VI : bad (0/0) [0/0]
|   |   |   |   |   country = BAHAMAS : bad (0/0) [0/0]
|   |   |   |   |   country = IRELAND : bad (0/0) [0/0]
|   |   |   |   |   country = CV : bad (0/0) [0/0]
|   |   |   |   |   country = ET : bad (0/0) [0/0]
|   |   |   |   |   country = SY : bad (0/0) [0/0]
|   |   |   |   |   country = CK : bad (0/0) [0/0]
|   |   |   |   |   country = KG : bad (0/0) [0/0]
|   |   |   |   |   country = SR : bad (0/0) [0/0]
|   |   |   |   |   country = ????????????? : bad (0/0) [0/0]
|   |   |   |   |   country = BELGIUM : bad (0/0) [0/0]
|   |   |   |   |   country = KV : bad (0/0) [0/0]
|   |   |   |   |   country = MM : bad (0/0) [0/0]
|   |   |   |   |   country = HONG KONG : bad (0/0) [0.08/0]
|   |   |   |   |   country = PF : bad (0/0) [0/0]
|   |   |   |   |   country = EGYPT : bad (0/0) [0/0]
|   |   |   |   |   country = UGANDA : bad (0/0) [0/0]
|   |   |   |   |   country = UZ : bad (0/0) [0/0]
|   |   registrar = US LOCALITY : good (6.47/2.29) [10.23/1.13]
|   |   registrar = MARKMONITOR INC.
|   |   |   num_ip < 2.5
|   |   |   |   num_ip < 1.5 : bad (267.06/17.59) [133.59/10.37]
|   |   |   |   num_ip >= 1.5
|   |   |   |   |   reg_time < 1126627200
|   |   |   |   |   |   max_host < 11.5 : good (46.64/10.36) [13.34/4.83]
|   |   |   |   |   |   max_host >= 11.5 : bad (11.67/1.5) [7.83/2.2]
|   |   |   |   |   reg_time >= 1126627200 : bad (39.83/1.49) [18.74/0.49]
|   |   |   num_ip >= 2.5
|   |   |   |   max_host < 6.5
|   |   |   |   |   reg_time < 856670400 : good (115.56/0.43) [53.27/1.19]
|   |   |   |   |   reg_time >= 856670400
|   |   |   |   |   |   reg_time < 874900800 : bad (8.04/4.01) [3.02/1.01]
|   |   |   |   |   |   reg_time >= 874900800 : good (106.24/3.91) [47.76/1.38]
|   |   |   |   max_host >= 6.5
|   |   |   |   |   max_path < 26.5
|   |   |   |   |   |   reg_time < 861724800 : good (80/4.14) [49.47/2.99]
|   |   |   |   |   |   reg_time >= 861724800
|   |   |   |   |   |   |   reg_time < 874900800
|   |   |   |   |   |   |   |   reg_time < 864446400 : bad (9.31/0.09) [4.16/0.05]
|   |   |   |   |   |   |   |   reg_time >= 864446400
|   |   |   |   |   |   |   |   |   reg_time < 873864000 : good (6.26/0.2) [3.11/0.07]
|   |   |   |   |   |   |   |   |   reg_time >= 873864000
|   |   |   |   |   |   |   |   |   |   max_host < 9.5 : bad (14.36/7.17) [8.17/2.08]
|   |   |   |   |   |   |   |   |   |   max_host >= 9.5 : bad (17.72/4.16) [6.38/1.09]
|   |   |   |   |   |   |   reg_time >= 874900800
|   |   |   |   |   |   |   |   reg_time < 1119499200
|   |   |   |   |   |   |   |   |   avg_host < 14.5 : good (99.13/6.83) [60.12/3.49]
|   |   |   |   |   |   |   |   |   avg_host >= 14.5
|   |   |   |   |   |   |   |   |   |   num_ip < 3.5 : good (5.29/0.23) [3.14/0.14]
|   |   |   |   |   |   |   |   |   |   num_ip >= 3.5
|   |   |   |   |   |   |   |   |   |   |   reg_time < 963115200 : good (8.6/2.55) [3.31/0.29]
|   |   |   |   |   |   |   |   |   |   |   reg_time >= 963115200 : bad (2.25/0.01) [2.27/1.11]
|   |   |   |   |   |   |   |   reg_time >= 1119499200
|   |   |   |   |   |   |   |   |   reg_time < 1124337600 : bad (7.24/0.07) [1.12/0.04]
|   |   |   |   |   |   |   |   |   reg_time >= 1124337600
|   |   |   |   |   |   |   |   |   |   reg_time < 1183867200 : good (17.86/0.63) [9.56/0.42]
|   |   |   |   |   |   |   |   |   |   reg_time >= 1183867200
|   |   |   |   |   |   |   |   |   |   |   max_host < 11.5 : good (19.48/3.25) [7.79/5.5]
|   |   |   |   |   |   |   |   |   |   |   max_host >= 11.5 : bad (12.51/4.24) [2.69/0.18]
|   |   |   |   |   max_path >= 26.5 : bad (13.31/1) [2.37/0]
|   |   registrar = NETWORK SOLUTIONS LLC
|   |   |   num_ip < 1.5 : bad (40.39/2.66) [20.05/1.42]
|   |   |   num_ip >= 1.5
|   |   |   |   reg_time < 1042128000
|   |   |   |   |   num_ip < 2.5
|   |   |   |   |   |   reg_time < 897883200 : good (27.36/3.26) [9.16/2.11]
|   |   |   |   |   |   reg_time >= 897883200
|   |   |   |   |   |   |   max_path < 6.5
|   |   |   |   |   |   |   |   max_host < 8.5 : good (2.14/0.12) [1.08/0.08]
|   |   |   |   |   |   |   |   max_host >= 8.5 : bad (3.33/1.02) [1.19/0.02]
|   |   |   |   |   |   |   max_path >= 6.5 : bad (9.13/1.11) [6.53/3.04]
|   |   |   |   |   num_ip >= 2.5
|   |   |   |   |   |   num_ip < 5.5
|   |   |   |   |   |   |   country = US : good (25.79/0.44) [6.32/0.15]
|   |   |   |   |   |   |   country = UNITED STATES : bad (0.01/0) [0.01/0]
|   |   |   |   |   |   |   country = PE : good (0/0) [0/0]
|   |   |   |   |   |   |   country = NO : good (0/0) [0/0]
|   |   |   |   |   |   |   country = UK : good (0/0) [0/0]
|   |   |   |   |   |   |   country = KR : bad (0/0) [0.01/0]
|   |   |   |   |   |   |   country = GB : good (2.09/0.06) [1.07/0.06]
|   |   |   |   |   |   |   country = AU : bad (0.02/0) [0.01/0.01]
|   |   |   |   |   |   |   country = CA : bad (0.01/0) [0/0]
|   |   |   |   |   |   |   country = AUSTRALIA : good (0/0) [0/0]
|   |   |   |   |   |   |   country = IN : bad (0.07/0) [0.01/0]
|   |   |   |   |   |   |   country = MY : good (0/0) [0/0]
|   |   |   |   |   |   |   country = CN : bad (0/0) [0.01/0]
|   |   |   |   |   |   |   country = JP : good (0/0) [0/0]
|   |   |   |   |   |   |   country = HU : good (0/0) [0/0]
|   |   |   |   |   |   |   country = GH : good (0/0) [0/0]
|   |   |   |   |   |   |   country = NL : good (0/0) [0/0]
|   |   |   |   |   |   |   country = ES : good (0/0) [0/0]
|   |   |   |   |   |   |   country = DE : bad (0.02/0.01) [0/0]
|   |   |   |   |   |   |   country = PA : good (0/0) [0/0]
|   |   |   |   |   |   |   country = TR : good (0/0) [0/0]
|   |   |   |   |   |   |   country = FR : good (1.03/0.02) [3.02/0.01]
|   |   |   |   |   |   |   country = ID : good (0/0) [0/0]
|   |   |   |   |   |   |   country = LT : good (0/0) [0/0]
|   |   |   |   |   |   |   country = DK : good (0/0) [0/0]
|   |   |   |   |   |   |   country = PL : good (0/0) [0/0]
|   |   |   |   |   |   |   country = SG : good (0/0) [0/0]
|   |   |   |   |   |   |   country = MX : good (0/0) [0/0]
|   |   |   |   |   |   |   country = DZ : good (0/0) [0/0]
|   |   |   |   |   |   |   country = UKRAINE : good (0/0) [0/0]
|   |   |   |   |   |   |   country = KH : good (0/0) [0/0]
|   |   |   |   |   |   |   country = BR : good (0/0) [0/0]
|   |   |   |   |   |   |   country = CY : bad (0.01/0) [0/0]
|   |   |   |   |   |   |   country = COLOMBIA : good (0/0) [0/0]
|   |   |   |   |   |   |   country = CZ : good (0/0) [0/0]
|   |   |   |   |   |   |   country = RUSSIAN FEDERATION : good (0/0) [0/0]
|   |   |   |   |   |   |   country = UA : good (0/0) [0/0]
|   |   |   |   |   |   |   country = MN : good (0/0) [0/0]
|   |   |   |   |   |   |   country = BRAZIL : good (0/0) [0/0]
|   |   |   |   |   |   |   country = CZECH REPUBLIC : good (0/0) [0/0]
|   |   |   |   |   |   |   country = IL : good (0/0) [0/0]
|   |   |   |   |   |   |   country = SE : good (0/0) [0/0]
|   |   |   |   |   |   |   country = AR : good (0/0) [0/0]
|   |   |   |   |   |   |   country = RU : good (0/0) [0/0]
|   |   |   |   |   |   |   country = BG : good (0/0) [0/0]
|   |   |   |   |   |   |   country = HK : good (0/0) [0/0]
|   |   |   |   |   |   |   country = PH : good (0/0) [0/0]
|   |   |   |   |   |   |   country = AT : good (0/0) [0/0]
|   |   |   |   |   |   |   country = ZA : good (0/0) [1/0]
|   |   |   |   |   |   |   country = BS : good (0/0) [0/0]
|   |   |   |   |   |   |   country = LU : good (0/0) [0/0]
|   |   |   |   |   |   |   country = CO : good (0/0) [0/0]
|   |   |   |   |   |   |   country = TH : good (0/0) [0/0]
|   |   |   |   |   |   |   country = TW : good (0/0) [0/0]
|   |   |   |   |   |   |   country = NG : good (0/0) [0/0]
|   |   |   |   |   |   |   country = YE : good (0/0) [0/0]
|   |   |   |   |   |   |   country = LB : good (0/0) [0/0]
|   |   |   |   |   |   |   country = KE : good (0/0) [0/0]
|   |   |   |   |   |   |   country = BD : good (0/0) [0/0]
|   |   |   |   |   |   |   country = CR : good (0/0) [0/0]
|   |   |   |   |   |   |   country = EG : good (0/0) [0/0]
|   |   |   |   |   |   |   country = CH : good (0.01/0) [0/0]
|   |   |   |   |   |   |   country = BE : good (0/0) [0/0]
|   |   |   |   |   |   |   country = PT : good (0/0) [0/0]
|   |   |   |   |   |   |   country = FI : good (0/0) [0/0]
|   |   |   |   |   |   |   country = THAILAND : good (0/0) [0/0]
|   |   |   |   |   |   |   country = IT : good (0/0) [0/0]
|   |   |   |   |   |   |   country = PK : good (0/0) [0/0]
|   |   |   |   |   |   |   country = AZ : good (0/0) [0/0]
|   |   |   |   |   |   |   country = SA : good (0/0) [0/0]
|   |   |   |   |   |   |   country = AE : good (0/0) [0.01/0]
|   |   |   |   |   |   |   country = AF : good (0/0) [0/0]
|   |   |   |   |   |   |   country = IE : bad (0.02/0) [0/0]
|   |   |   |   |   |   |   country = GQ : good (0/0) [0/0]
|   |   |   |   |   |   |   country = BRASIL : good (0/0) [0/0]
|   |   |   |   |   |   |   country = TL : good (0/0) [0/0]
|   |   |   |   |   |   |   country = BOSNIA AND HERZEGOVINA : good (0/0) [0/0]
|   |   |   |   |   |   |   country = SI : good (0/0) [0/0]
|   |   |   |   |   |   |   country = DO : good (0/0) [0/0]
|   |   |   |   |   |   |   country = YU : good (0/0) [0/0]
|   |   |   |   |   |   |   country = BT : good (0/0) [0/0]
|   |   |   |   |   |   |   country = CAN : good (0/0) [0/0]
|   |   |   |   |   |   |   country = NZ : good (0/0) [0/0]
|   |   |   |   |   |   |   country = VE : good (0/0) [0/0]
|   |   |   |   |   |   |   country = GUATEMALA : good (0/0) [0/0]
|   |   |   |   |   |   |   country = MALAYSIA : good (0/0) [0/0]
|   |   |   |   |   |   |   country = UNITED KINGDOM : good (0/0) [0/0]
|   |   |   |   |   |   |   country = JO : good (0/0) [0/0]
|   |   |   |   |   |   |   country = SOUTH AFRICA : good (0/0) [0/0]
|   |   |   |   |   |   |   country = LV : good (0/0) [0/0]
|   |   |   |   |   |   |   country = NA : good (0/0) [0/0]
|   |   |   |   |   |   |   country = AM : good (0/0) [0/0]
|   |   |   |   |   |   |   country = AL : good (0/0) [0/0]
|   |   |   |   |   |   |   country = IR : good (0/0) [0/0]
|   |   |   |   |   |   |   country = BY : good (0/0) [0/0]
|   |   |   |   |   |   |   country = GR : good (0/0) [0/0]
|   |   |   |   |   |   |   country = VN : good (0/0) [0/0]
|   |   |   |   |   |   |   country = JM : good (0/0) [0/0]
|   |   |   |   |   |   |   country = GA : good (0/0) [0/0]
|   |   |   |   |   |   |   country = VG : good (0/0) [0/0]
|   |   |   |   |   |   |   country = JAPAN : good (0/0) [0/0]
|   |   |   |   |   |   |   country = PR : good (0/0) [0/0]
|   |   |   |   |   |   |   country = AZERBAIJAN : good (0/0) [0/0]
|   |   |   |   |   |   |   country = UY : good (0/0) [0/0]
|   |   |   |   |   |   |   country = IRAN : good (0/0) [0/0]
|   |   |   |   |   |   |   country = ROMANIA : good (0/0) [0/0]
|   |   |   |   |   |   |   country = SD : good (0/0) [0/0]
|   |   |   |   |   |   |   country = TZ : good (0/0) [0/0]
|   |   |   |   |   |   |   country = EC : good (0/0) [0/0]
|   |   |   |   |   |   |   country = MK : good (0/0) [0/0]
|   |   |   |   |   |   |   country = SO : good (0/0) [0/0]
|   |   |   |   |   |   |   country = SK : good (0/0) [0/0]
|   |   |   |   |   |   |   country = UNITED : good (0/0) [0/0]
|   |   |   |   |   |   |   country = ER : good (0/0) [0/0]
|   |   |   |   |   |   |   country = RO : good (0/0) [0/0]
|   |   |   |   |   |   |   country = QA : good (0/0) [0/0]
|   |   |   |   |   |   |   country = OM : good (0/0) [0/0]
|   |   |   |   |   |   |   country = CL : good (0/0) [0/0]
|   |   |   |   |   |   |   country = SC : good (0/0) [0/0]
|   |   |   |   |   |   |   country = BZ : good (0/0) [0/0]
|   |   |   |   |   |   |   country = GI : good (0/0) [0/0]
|   |   |   |   |   |   |   country = MZ : good (0/0) [0/0]
|   |   |   |   |   |   |   country = SV : good (0/0) [0/0]
|   |   |   |   |   |   |   country = CG : good (0/0) [0/0]
|   |   |   |   |   |   |   country = TURKEY : good (0/0) [0/0]
|   |   |   |   |   |   |   country = BA : good (0/0) [0/0]
|   |   |   |   |   |   |   country = MU : good (0/0) [0/0]
|   |   |   |   |   |   |   country = ITALY : good (0/0) [0/0]
|   |   |   |   |   |   |   country = GT : good (0/0) [0/0]
|   |   |   |   |   |   |   country = LA : good (0/0) [0/0]
|   |   |   |   |   |   |   country = TG : good (0/0) [0/0]
|   |   |   |   |   |   |   country = BH : good (0/0) [0/0]
|   |   |   |   |   |   |   country = GM : good (0/0) [0/0]
|   |   |   |   |   |   |   country = NI : good (0/0) [0/0]
|   |   |   |   |   |   |   country = AD : good (0/0) [0/0]
|   |   |   |   |   |   |   country = TN : good (0/0) [0/0]
|   |   |   |   |   |   |   country = IQ : good (0/0) [0/0]
|   |   |   |   |   |   |   country = BB : good (0/0) [0/0]
|   |   |   |   |   |   |   country = CYPRUS : good (0/0) [0/0]
|   |   |   |   |   |   |   country = KOREA : good (0/0) [0/0]
|   |   |   |   |   |   |   country = NP : good (0/0) [0/0]
|   |   |   |   |   |   |   country = MD : good (0/0) [0/0]
|   |   |   |   |   |   |   country = GERMANY : good (0/0) [0/0]
|   |   |   |   |   |   |   country = FJ : good (0/0) [0/0]
|   |   |   |   |   |   |   country = IS : good (0/0) [0/0]
|   |   |   |   |   |   |   country = RS : good (0/0) [0/0]
|   |   |   |   |   |   |   country = KN : good (0/0) [0/0]
|   |   |   |   |   |   |   country = SWITZERLAND : good (0/0) [0/0]
|   |   |   |   |   |   |   country = MA : good (0/0) [0/0]
|   |   |   |   |   |   |   country = LY : good (0/0) [0/0]
|   |   |   |   |   |   |   country = NETHERLANDS : good (0/0) [0/0]
|   |   |   |   |   |   |   country = MG : good (0/0) [0/0]
|   |   |   |   |   |   |   country = PAKIST : good (0/0) [0/0]
|   |   |   |   |   |   |   country = NIGERIA : good (0/0) [0/0]
|   |   |   |   |   |   |   country = THAILA : good (0/0) [0/0]
|   |   |   |   |   |   |   country = KY : good (0/0) [0.01/0]
|   |   |   |   |   |   |   country = VC : good (0/0) [0/0]
|   |   |   |   |   |   |   country = PY : good (0/0) [0/0]
|   |   |   |   |   |   |   country = INDONESIA : good (0/0) [0/0]
|   |   |   |   |   |   |   country = KW : good (0/0) [0/0]
|   |   |   |   |   |   |   country = MT : good (0/0) [0/0]
|   |   |   |   |   |   |   country = CHINA : good (0/0) [0/0]
|   |   |   |   |   |   |   country = ML : good (0/0) [0/0]
|   |   |   |   |   |   |   country = SINGAPORE : good (0/0) [0/0]
|   |   |   |   |   |   |   country = CD : good (0/0) [0/0]
|   |   |   |   |   |   |   country = LK : good (0/0) [0/0]
|   |   |   |   |   |   |   country = ISTANB : good (0/0) [0/0]
|   |   |   |   |   |   |   country = COSTA RICA : good (0/0) [0/0]
|   |   |   |   |   |   |   country = GY : good (0/0) [0/0]
|   |   |   |   |   |   |   country = BW : good (0/0) [0/0]
|   |   |   |   |   |   |   country = PN : good (0/0) [0/0]
|   |   |   |   |   |   |   country = PAKISTAN : good (0/0) [0/0]
|   |   |   |   |   |   |   country = LITHUANIA : good (0/0) [0/0]
|   |   |   |   |   |   |   country = KZ : good (0/0) [0/0]
|   |   |   |   |   |   |   country = PS : good (0/0) [0/0]
|   |   |   |   |   |   |   country = POLAND : good (0/0) [0/0]
|   |   |   |   |   |   |   country = INDIA : good (0/0) [0/0]
|   |   |   |   |   |   |   country = AUSTRIA : good (0/0) [0/0]
|   |   |   |   |   |   |   country = SPAIN : good (0/0) [0/0]
|   |   |   |   |   |   |   country = ME : good (0/0) [0/0]
|   |   |   |   |   |   |   country = LR : good (0/0) [0/0]
|   |   |   |   |   |   |   country = UG : good (0/0) [0/0]
|   |   |   |   |   |   |   country = ZW : good (0/0) [0/0]
|   |   |   |   |   |   |   country = STATUS : good (0/0) [0/0]
|   |   |   |   |   |   |   country = UNITEDSTATES : good (0/0) [0/0]
|   |   |   |   |   |   |   country = EE : good (0/0) [0/0]
|   |   |   |   |   |   |   country = VIET N : good (0/0) [0/0]
|   |   |   |   |   |   |   country = CANADA : good (0/0) [0/0]
|   |   |   |   |   |   |   country = HR : good (0/0) [0/0]
|   |   |   |   |   |   |   country = TT : good (0/0) [0/0]
|   |   |   |   |   |   |   country = PANAMA : good (0/0) [0/0]
|   |   |   |   |   |   |   country = ZM : good (0/0) [0/0]
|   |   |   |   |   |   |   country = CM : good (0/0) [0/0]
|   |   |   |   |   |   |   country = ISRAEL : good (0/0) [0/0]
|   |   |   |   |   |   |   country = HN : good (0/0) [0/0]
|   |   |   |   |   |   |   country = SN : good (0/0) [0/0]
|   |   |   |   |   |   |   country = BO : good (0/0) [0/0]
|   |   |   |   |   |   |   country = VU : good (0/0) [0/0]
|   |   |   |   |   |   |   country = DM : good (0/0) [0/0]
|   |   |   |   |   |   |   country = CU : good (0/0) [0/0]
|   |   |   |   |   |   |   country = BM : good (0/0) [0/0]
|   |   |   |   |   |   |   country = CI : good (0/0) [0/0]
|   |   |   |   |   |   |   country = GP : good (0/0) [0/0]
|   |   |   |   |   |   |   country = AS : good (0/0) [0/0]
|   |   |   |   |   |   |   country = SEYCHELLES : good (0/0) [0/0]
|   |   |   |   |   |   |   country = AN : good (0/0) [0/0]
|   |   |   |   |   |   |   country = SL : good (0/0) [0/0]
|   |   |   |   |   |   |   country = NC : good (0/0) [0/0]
|   |   |   |   |   |   |   country = MQ : good (0/0) [0/0]
|   |   |   |   |   |   |   country = UN : good (0/0) [0/0]
|   |   |   |   |   |   |   country = VENEZUELA : good (0/0) [0/0]
|   |   |   |   |   |   |   country = KM : good (0/0) [0/0]
|   |   |   |   |   |   |   country = BN : good (0/0) [0/0]
|   |   |   |   |   |   |   country = TAIWAN : good (0/0) [0/0]
|   |   |   |   |   |   |   country = GE : good (0/0) [0/0]
|   |   |   |   |   |   |   country = JORDAN : good (0/0) [0/0]
|   |   |   |   |   |   |   country = TC : good (0/0) [0/0]
|   |   |   |   |   |   |   country = - : good (0/0) [0/0]
|   |   |   |   |   |   |   country = REPUBLIC OF KOREA : good (0/0) [0/0]
|   |   |   |   |   |   |   country = FRANCE : good (0/0) [0/0]
|   |   |   |   |   |   |   country = MV : good (0/0) [0/0]
|   |   |   |   |   |   |   country = AG : good (0/0) [0/0]
|   |   |   |   |   |   |   country = VIET NAM : good (0/0) [0/0]
|   |   |   |   |   |   |   country = VA : good (0/0) [0/0]
|   |   |   |   |   |   |   country = AO : good (0/0) [0/0]
|   |   |   |   |   |   |   country = LUXEMBOURG : good (0/0) [0/0]
|   |   |   |   |   |   |   country = TK : good (0/0) [0/0]
|   |   |   |   |   |   |   country = MC : good (0/0) [0/0]
|   |   |   |   |   |   |   country = VI : good (0/0) [0/0]
|   |   |   |   |   |   |   country = BAHAMAS : good (0/0) [0/0]
|   |   |   |   |   |   |   country = IRELAND : good (0/0) [0/0]
|   |   |   |   |   |   |   country = CV : good (0/0) [0/0]
|   |   |   |   |   |   |   country = ET : good (0/0) [0/0]
|   |   |   |   |   |   |   country = SY : good (0/0) [0/0]
|   |   |   |   |   |   |   country = CK : good (0/0) [0/0]
|   |   |   |   |   |   |   country = KG : good (0/0) [0/0]
|   |   |   |   |   |   |   country = SR : good (0/0) [0/0]
|   |   |   |   |   |   |   country = ????????????? : good (0/0) [0/0]
|   |   |   |   |   |   |   country = BELGIUM : good (0/0) [0/0]
|   |   |   |   |   |   |   country = KV : good (0/0) [0/0]
|   |   |   |   |   |   |   country = MM : good (0/0) [0/0]
|   |   |   |   |   |   |   country = HONG KONG : good (0/0) [0/0]
|   |   |   |   |   |   |   country = PF : good (0/0) [0/0]
|   |   |   |   |   |   |   country = EGYPT : good (0/0) [0/0]
|   |   |   |   |   |   |   country = UGANDA : good (0/0) [0/0]
|   |   |   |   |   |   |   country = UZ : good (0/0) [0/0]
|   |   |   |   |   |   num_ip >= 5.5 : good (8.46/1.43) [2.27/0.25]
|   |   |   |   reg_time >= 1042128000 : bad (17.5/0.41) [11.29/3.23]
|   |   registrar = GODADDY.COM LLC
|   |   |   reg_time < 1051891200
|   |   |   |   num_ip < 3.5
|   |   |   |   |   max_host < 6.5
|   |   |   |   |   |   num_ip < 1 : bad (16.55/2.84) [8.62/1.77]
|   |   |   |   |   |   num_ip >= 1
|   |   |   |   |   |   |   reg_time < 816148800 : good (34.38/1.05) [15.7/0.65]
|   |   |   |   |   |   |   reg_time >= 816148800
|   |   |   |   |   |   |   |   reg_time < 861292800 : bad (6.2/0.02) [4.13/2.01]
|   |   |   |   |   |   |   |   reg_time >= 861292800
|   |   |   |   |   |   |   |   |   reg_time < 948124800 : good (8.01/0.49) [4.16/1.15]
|   |   |   |   |   |   |   |   |   reg_time >= 948124800
|   |   |   |   |   |   |   |   |   |   avg_host < 5.75 : good (6.55/1.51) [8.44/4.43]
|   |   |   |   |   |   |   |   |   |   avg_host >= 5.75 : bad (8.44/2.75) [2.61/0.01]
|   |   |   |   |   max_host >= 6.5
|   |   |   |   |   |   country = US
|   |   |   |   |   |   |   max_path < 13.5
|   |   |   |   |   |   |   |   num_ip < 1.5
|   |   |   |   |   |   |   |   |   max_path < 10.5
|   |   |   |   |   |   |   |   |   |   avg_path < 5.82
|   |   |   |   |   |   |   |   |   |   |   max_path < 5.5 : bad (34.72/1.42) [18.15/0.85]
|   |   |   |   |   |   |   |   |   |   |   max_path >= 5.5 : bad (41.48/3.7) [17.96/1.54]
|   |   |   |   |   |   |   |   |   |   avg_path >= 5.82 : bad (18.29/0.42) [9.86/0.6]
|   |   |   |   |   |   |   |   |   max_path >= 10.5 : bad (9.62/2.3) [5/1.12]
|   |   |   |   |   |   |   |   num_ip >= 1.5
|   |   |   |   |   |   |   |   |   reg_time < 798998400 : good (2.16/0.15) [2.08/0.07]
|   |   |   |   |   |   |   |   |   reg_time >= 798998400 : bad (145.17/27.82) [75.29/14.59]
|   |   |   |   |   |   |   max_path >= 13.5 : bad (42.51/0.62) [17.7/0.25]
|   |   |   |   |   |   country = UNITED STATES : bad (0/0) [0/0]
|   |   |   |   |   |   country = PE : bad (2.44/0.12) [0.69/0.05]
|   |   |   |   |   |   country = NO : bad (0.61/0.03) [0.17/0.01]
|   |   |   |   |   |   country = UK : bad (14.67/6.74) [6.15/1.32]
|   |   |   |   |   |   country = KR : bad (4.56/0.23) [3.44/0.35]
|   |   |   |   |   |   country = GB : bad (9.78/0.49) [4.27/0.46]
|   |   |   |   |   |   country = AU : bad (2.52/1.13) [0.71/0.06]
|   |   |   |   |   |   country = CA : bad (11.6/1.58) [5.28/0.25]
|   |   |   |   |   |   country = AUSTRALIA : bad (0/0) [0/0]
|   |   |   |   |   |   country = IN : bad (1.67/0.33) [0.63/0.04]
|   |   |   |   |   |   country = MY : bad (0/0) [0/0]
|   |   |   |   |   |   country = CN : bad (0/0) [0.03/0]
|   |   |   |   |   |   country = JP : bad (0/0) [0/0]
|   |   |   |   |   |   country = HU : bad (0/0) [0/0]
|   |   |   |   |   |   country = GH : bad (0/0) [0/0]
|   |   |   |   |   |   country = NL : bad (0/0) [0/0]
|   |   |   |   |   |   country = ES : bad (2.44/0.12) [1.44/0.05]
|   |   |   |   |   |   country = DE : bad (0.61/0.03) [0.17/0.01]
|   |   |   |   |   |   country = PA : bad (0/0) [0/0]
|   |   |   |   |   |   country = TR : bad (0/0) [0/0]
|   |   |   |   |   |   country = FR : bad (3.04/0.15) [1.11/0.32]
|   |   |   |   |   |   country = ID : bad (0.08/0) [0.02/0]
|   |   |   |   |   |   country = LT : bad (0/0) [0/0]
|   |   |   |   |   |   country = DK : bad (0/0) [0/0]
|   |   |   |   |   |   country = PL : bad (0/0) [0/0]
|   |   |   |   |   |   country = SG : bad (0/0) [0/0]
|   |   |   |   |   |   country = MX : bad (0/0) [0/0]
|   |   |   |   |   |   country = DZ : bad (0/0) [0/0]
|   |   |   |   |   |   country = UKRAINE : bad (0/0) [0/0]
|   |   |   |   |   |   country = KH : bad (0/0) [0/0]
|   |   |   |   |   |   country = BR : bad (0/0) [0/0]
|   |   |   |   |   |   country = CY : bad (0.08/0) [0.02/0]
|   |   |   |   |   |   country = COLOMBIA : bad (0/0) [0/0]
|   |   |   |   |   |   country = CZ : bad (0/0) [0/0]
|   |   |   |   |   |   country = RUSSIAN FEDERATION : bad (0/0) [0/0]
|   |   |   |   |   |   country = UA : bad (0/0) [0/0]
|   |   |   |   |   |   country = MN : bad (0/0) [0/0]
|   |   |   |   |   |   country = BRAZIL : bad (0/0) [0/0]
|   |   |   |   |   |   country = CZECH REPUBLIC : bad (0/0) [0/0]
|   |   |   |   |   |   country = IL : bad (0/0) [0/0]
|   |   |   |   |   |   country = SE : bad (0/0) [0.25/0]
|   |   |   |   |   |   country = AR : bad (0/0) [0/0]
|   |   |   |   |   |   country = RU : bad (0.08/0) [0.02/0]
|   |   |   |   |   |   country = BG : bad (0/0) [0/0]
|   |   |   |   |   |   country = HK : bad (0/0) [0/0]
|   |   |   |   |   |   country = PH : bad (2.44/0.12) [1.69/0.05]
|   |   |   |   |   |   country = AT : bad (0/0) [0/0]
|   |   |   |   |   |   country = ZA : bad (0/0) [0/0]
|   |   |   |   |   |   country = BS : bad (0/0) [0/0]
|   |   |   |   |   |   country = LU : bad (0/0) [0/0]
|   |   |   |   |   |   country = CO : bad (0/0) [0/0]
|   |   |   |   |   |   country = TH : bad (4.89/0.25) [2.38/0.11]
|   |   |   |   |   |   country = TW : bad (1.22/0.06) [0.84/0.03]
|   |   |   |   |   |   country = NG : bad (0/0) [0/0]
|   |   |   |   |   |   country = YE : bad (0/0) [0/0]
|   |   |   |   |   |   country = LB : bad (0/0) [0/0]
|   |   |   |   |   |   country = KE : bad (0/0) [0/0]
|   |   |   |   |   |   country = BD : bad (2.44/1.12) [0.69/0.05]
|   |   |   |   |   |   country = CR : bad (0/0) [0/0]
|   |   |   |   |   |   country = EG : bad (0/0) [0/0]
|   |   |   |   |   |   country = CH : bad (0/0) [0/0]
|   |   |   |   |   |   country = BE : bad (0/0) [0/0]
|   |   |   |   |   |   country = PT : bad (0/0) [0/0]
|   |   |   |   |   |   country = FI : bad (0/0) [0/0]
|   |   |   |   |   |   country = THAILAND : bad (0/0) [0/0]
|   |   |   |   |   |   country = IT : bad (2.44/0.12) [0.69/0.05]
|   |   |   |   |   |   country = PK : bad (0/0) [0/0]
|   |   |   |   |   |   country = AZ : bad (0/0) [0/0]
|   |   |   |   |   |   country = SA : bad (0/0) [0/0]
|   |   |   |   |   |   country = AE : bad (0/0) [0/0]
|   |   |   |   |   |   country = AF : bad (0/0) [0/0]
|   |   |   |   |   |   country = IE : bad (0/0) [0/0]
|   |   |   |   |   |   country = GQ : bad (0/0) [0/0]
|   |   |   |   |   |   country = BRASIL : bad (0/0) [0/0]
|   |   |   |   |   |   country = TL : bad (0/0) [0/0]
|   |   |   |   |   |   country = BOSNIA AND HERZEGOVINA : bad (0/0) [0/0]
|   |   |   |   |   |   country = SI : bad (0/0) [0/0]
|   |   |   |   |   |   country = DO : bad (0/0) [0/0]
|   |   |   |   |   |   country = YU : bad (0/0) [0/0]
|   |   |   |   |   |   country = BT : bad (0/0) [0/0]
|   |   |   |   |   |   country = CAN : bad (0/0) [0/0]
|   |   |   |   |   |   country = NZ : bad (0.08/0) [0.02/0]
|   |   |   |   |   |   country = VE : bad (0/0) [0/0]
|   |   |   |   |   |   country = GUATEMALA : bad (0/0) [0/0]
|   |   |   |   |   |   country = MALAYSIA : bad (0/0) [0/0]
|   |   |   |   |   |   country = UNITED KINGDOM : bad (0/0) [0/0]
|   |   |   |   |   |   country = JO : bad (4.89/2.25) [1.38/0.11]
|   |   |   |   |   |   country = SOUTH AFRICA : bad (0/0) [0/0]
|   |   |   |   |   |   country = LV : bad (0/0) [0/0]
|   |   |   |   |   |   country = NA : bad (0/0) [0/0]
|   |   |   |   |   |   country = AM : bad (0/0) [0/0]
|   |   |   |   |   |   country = AL : bad (0/0) [0/0]
|   |   |   |   |   |   country = IR : bad (0/0) [0/0]
|   |   |   |   |   |   country = BY : bad (0/0) [0/0]
|   |   |   |   |   |   country = GR : bad (0/0) [0/0]
|   |   |   |   |   |   country = VN : bad (0/0) [0/0]
|   |   |   |   |   |   country = JM : bad (0/0) [0/0]
|   |   |   |   |   |   country = GA : bad (0/0) [0/0]
|   |   |   |   |   |   country = VG : bad (0/0) [0/0]
|   |   |   |   |   |   country = JAPAN : bad (0/0) [0/0]
|   |   |   |   |   |   country = PR : bad (0/0) [0/0]
|   |   |   |   |   |   country = AZERBAIJAN : bad (0/0) [0/0]
|   |   |   |   |   |   country = UY : bad (0/0) [0/0]
|   |   |   |   |   |   country = IRAN : bad (0/0) [0/0]
|   |   |   |   |   |   country = ROMANIA : bad (0/0) [0/0]
|   |   |   |   |   |   country = SD : bad (0/0) [0/0]
|   |   |   |   |   |   country = TZ : bad (0/0) [0/0]
|   |   |   |   |   |   country = EC : bad (0/0) [0/0]
|   |   |   |   |   |   country = MK : bad (0/0) [0/0]
|   |   |   |   |   |   country = SO : bad (0/0) [0/0]
|   |   |   |   |   |   country = SK : bad (0/0) [0/0]
|   |   |   |   |   |   country = UNITED : bad (0/0) [0/0]
|   |   |   |   |   |   country = ER : bad (0/0) [0/0]
|   |   |   |   |   |   country = RO : bad (0/0) [0/0]
|   |   |   |   |   |   country = QA : bad (0/0) [0/0]
|   |   |   |   |   |   country = OM : bad (0/0) [0/0]
|   |   |   |   |   |   country = CL : bad (0/0) [1/0]
|   |   |   |   |   |   country = SC : bad (0/0) [0/0]
|   |   |   |   |   |   country = BZ : bad (0/0) [0/0]
|   |   |   |   |   |   country = GI : bad (0/0) [0/0]
|   |   |   |   |   |   country = MZ : bad (0/0) [0/0]
|   |   |   |   |   |   country = SV : bad (0/0) [0/0]
|   |   |   |   |   |   country = CG : bad (0/0) [0/0]
|   |   |   |   |   |   country = TURKEY : bad (0/0) [0/0]
|   |   |   |   |   |   country = BA : bad (0/0) [0/0]
|   |   |   |   |   |   country = MU : bad (0/0) [0/0]
|   |   |   |   |   |   country = ITALY : bad (0/0) [0/0]
|   |   |   |   |   |   country = GT : bad (0/0) [0/0]
|   |   |   |   |   |   country = LA : bad (0/0) [0/0]
|   |   |   |   |   |   country = TG : bad (0/0) [0/0]
|   |   |   |   |   |   country = BH : bad (0/0) [0/0]
|   |   |   |   |   |   country = GM : bad (0/0) [0/0]
|   |   |   |   |   |   country = NI : bad (0/0) [0/0]
|   |   |   |   |   |   country = AD : bad (0/0) [0/0]
|   |   |   |   |   |   country = TN : bad (0/0) [0/0]
|   |   |   |   |   |   country = IQ : bad (0/0) [0/0]
|   |   |   |   |   |   country = BB : bad (0/0) [0/0]
|   |   |   |   |   |   country = CYPRUS : bad (0/0) [0/0]
|   |   |   |   |   |   country = KOREA : bad (0/0) [0/0]
|   |   |   |   |   |   country = NP : bad (0/0) [0/0]
|   |   |   |   |   |   country = MD : bad (0/0) [0/0]
|   |   |   |   |   |   country = GERMANY : bad (0/0) [0/0]
|   |   |   |   |   |   country = FJ : bad (0/0) [0/0]
|   |   |   |   |   |   country = IS : bad (0/0) [0/0]
|   |   |   |   |   |   country = RS : bad (0/0) [0/0]
|   |   |   |   |   |   country = KN : bad (0/0) [0/0]
|   |   |   |   |   |   country = SWITZERLAND : bad (0/0) [0/0]
|   |   |   |   |   |   country = MA : bad (0/0) [0/0]
|   |   |   |   |   |   country = LY : bad (0/0) [0/0]
|   |   |   |   |   |   country = NETHERLANDS : bad (0/0) [0/0]
|   |   |   |   |   |   country = MG : bad (0/0) [0/0]
|   |   |   |   |   |   country = PAKIST : bad (0/0) [0/0]
|   |   |   |   |   |   country = NIGERIA : bad (0/0) [0/0]
|   |   |   |   |   |   country = THAILA : bad (0/0) [0/0]
|   |   |   |   |   |   country = KY : bad (0/0) [0/0]
|   |   |   |   |   |   country = VC : bad (0/0) [0/0]
|   |   |   |   |   |   country = PY : bad (0/0) [0/0]
|   |   |   |   |   |   country = INDONESIA : bad (0/0) [0/0]
|   |   |   |   |   |   country = KW : bad (0/0) [0/0]
|   |   |   |   |   |   country = MT : bad (0/0) [0/0]
|   |   |   |   |   |   country = CHINA : bad (0/0) [0/0]
|   |   |   |   |   |   country = ML : bad (0/0) [0/0]
|   |   |   |   |   |   country = SINGAPORE : bad (0/0) [0/0]
|   |   |   |   |   |   country = CD : bad (0/0) [0/0]
|   |   |   |   |   |   country = LK : bad (0/0) [0/0]
|   |   |   |   |   |   country = ISTANB : bad (0/0) [0/0]
|   |   |   |   |   |   country = COSTA RICA : bad (0/0) [0/0]
|   |   |   |   |   |   country = GY : bad (0/0) [0/0]
|   |   |   |   |   |   country = BW : bad (0/0) [0/0]
|   |   |   |   |   |   country = PN : bad (0/0) [0/0]
|   |   |   |   |   |   country = PAKISTAN : bad (0/0) [0/0]
|   |   |   |   |   |   country = LITHUANIA : bad (0/0) [0/0]
|   |   |   |   |   |   country = KZ : bad (0/0) [0/0]
|   |   |   |   |   |   country = PS : bad (0/0) [0/0]
|   |   |   |   |   |   country = POLAND : bad (0/0) [0/0]
|   |   |   |   |   |   country = INDIA : bad (0/0) [0/0]
|   |   |   |   |   |   country = AUSTRIA : bad (0/0) [0/0]
|   |   |   |   |   |   country = SPAIN : bad (0/0) [0/0]
|   |   |   |   |   |   country = ME : bad (0/0) [0/0]
|   |   |   |   |   |   country = LR : bad (0/0) [0/0]
|   |   |   |   |   |   country = UG : bad (0/0) [0/0]
|   |   |   |   |   |   country = ZW : bad (0/0) [0/0]
|   |   |   |   |   |   country = STATUS : bad (0/0) [0/0]
|   |   |   |   |   |   country = UNITEDSTATES : bad (0/0) [0/0]
|   |   |   |   |   |   country = EE : bad (0/0) [0/0]
|   |   |   |   |   |   country = VIET N : bad (0/0) [0/0]
|   |   |   |   |   |   country = CANADA : bad (0/0) [0/0]
|   |   |   |   |   |   country = HR : bad (0/0) [0/0]
|   |   |   |   |   |   country = TT : bad (0/0) [0/0]
|   |   |   |   |   |   country = PANAMA : bad (0/0) [0/0]
|   |   |   |   |   |   country = ZM : bad (0/0) [0/0]
|   |   |   |   |   |   country = CM : bad (0/0) [0/0]
|   |   |   |   |   |   country = ISRAEL : bad (0/0) [0/0]
|   |   |   |   |   |   country = HN : bad (0/0) [0/0]
|   |   |   |   |   |   country = SN : bad (0/0) [0/0]
|   |   |   |   |   |   country = BO : bad (0/0) [0/0]
|   |   |   |   |   |   country = VU : bad (0/0) [0/0]
|   |   |   |   |   |   country = DM : bad (0/0) [0/0]
|   |   |   |   |   |   country = CU : bad (0/0) [0/0]
|   |   |   |   |   |   country = BM : bad (0/0) [0/0]
|   |   |   |   |   |   country = CI : bad (0/0) [0/0]
|   |   |   |   |   |   country = GP : bad (0/0) [0/0]
|   |   |   |   |   |   country = AS : bad (0/0) [0/0]
|   |   |   |   |   |   country = SEYCHELLES : bad (0/0) [0/0]
|   |   |   |   |   |   country = AN : bad (0/0) [0/0]
|   |   |   |   |   |   country = SL : bad (0/0) [0/0]
|   |   |   |   |   |   country = NC : bad (0/0) [0/0]
|   |   |   |   |   |   country = MQ : bad (0/0) [0/0]
|   |   |   |   |   |   country = UN : bad (0/0) [0/0]
|   |   |   |   |   |   country = VENEZUELA : bad (0/0) [0/0]
|   |   |   |   |   |   country = KM : bad (0/0) [0/0]
|   |   |   |   |   |   country = BN : bad (0/0) [0/0]
|   |   |   |   |   |   country = TAIWAN : bad (0/0) [0/0]
|   |   |   |   |   |   country = GE : bad (0/0) [0/0]
|   |   |   |   |   |   country = JORDAN : bad (0/0) [0/0]
|   |   |   |   |   |   country = TC : bad (0/0) [0/0]
|   |   |   |   |   |   country = - : bad (0/0) [0/0]
|   |   |   |   |   |   country = REPUBLIC OF KOREA : bad (0/0) [0/0]
|   |   |   |   |   |   country = FRANCE : bad (0/0) [0/0]
|   |   |   |   |   |   country = MV : bad (0/0) [0/0]
|   |   |   |   |   |   country = AG : bad (0/0) [0/0]
|   |   |   |   |   |   country = VIET NAM : bad (0/0) [0/0]
|   |   |   |   |   |   country = VA : bad (0/0) [0/0]
|   |   |   |   |   |   country = AO : bad (0/0) [0/0]
|   |   |   |   |   |   country = LUXEMBOURG : bad (0/0) [0/0]
|   |   |   |   |   |   country = TK : bad (0/0) [0/0]
|   |   |   |   |   |   country = MC : bad (0/0) [0/0]
|   |   |   |   |   |   country = VI : bad (0/0) [0/0]
|   |   |   |   |   |   country = BAHAMAS : bad (0/0) [0/0]
|   |   |   |   |   |   country = IRELAND : bad (0/0) [0/0]
|   |   |   |   |   |   country = CV : bad (0/0) [0/0]
|   |   |   |   |   |   country = ET : bad (0/0) [0/0]
|   |   |   |   |   |   country = SY : bad (0/0) [0/0]
|   |   |   |   |   |   country = CK : bad (0/0) [0/0]
|   |   |   |   |   |   country = KG : bad (0/0) [0/0]
|   |   |   |   |   |   country = SR : bad (0/0) [0/0]
|   |   |   |   |   |   country = ????????????? : bad (0/0) [0/0]
|   |   |   |   |   |   country = BELGIUM : bad (0/0) [0/0]
|   |   |   |   |   |   country = KV : bad (0/0) [0/0]
|   |   |   |   |   |   country = MM : bad (0/0) [0/0]
|   |   |   |   |   |   country = HONG KONG : bad (0/0) [0/0]
|   |   |   |   |   |   country = PF : bad (0/0) [0/0]
|   |   |   |   |   |   country = EGYPT : bad (0/0) [0/0]
|   |   |   |   |   |   country = UGANDA : bad (0/0) [0/0]
|   |   |   |   |   |   country = UZ : bad (0/0) [0/0]
|   |   |   |   num_ip >= 3.5
|   |   |   |   |   country = US
|   |   |   |   |   |   max_host < 14.5 : good (84.33/4.64) [44.49/0.94]
|   |   |   |   |   |   max_host >= 14.5
|   |   |   |   |   |   |   avg_path < 6.17 : good (5.68/2.7) [1.46/0.43]
|   |   |   |   |   |   |   avg_path >= 6.17 : bad (2.14/0) [0.05/0]
|   |   |   |   |   country = UNITED STATES : bad (0.27/0.01) [0.25/0]
|   |   |   |   |   country = PE : good (0/0) [0/0]
|   |   |   |   |   country = NO : good (0.27/0.01) [0.01/0]
|   |   |   |   |   country = UK : good (0/0) [0/0]
|   |   |   |   |   country = KR : good (0/0) [0/0]
|   |   |   |   |   country = GB : bad (1.07/0.02) [1.3/0.01]
|   |   |   |   |   country = AU : bad (5.13/0.11) [1.36/0.28]
|   |   |   |   |   country = CA : good (0/0) [1/0]
|   |   |   |   |   country = AUSTRALIA : good (0/0) [0/0]
|   |   |   |   |   country = IN : bad (0.98/0.05) [0.49/0.01]
|   |   |   |   |   country = MY : good (0/0) [0/0]
