=== Run information ===

Scheme:       weka.classifiers.trees.REPTree -M 2 -V 0.001 -N 3 -S 1 -L -1 -I 0.0
Relation:     host+lexical+whitelist_training
Instances:    159658
Attributes:   12
              is_top_1m
              num_ip
              reg_time
              country
              registrar
              tld
              dot_num
              avg_host
              max_host
              avg_path
              max_path
              class
Test mode:    10-fold cross-validation

=== Classifier model (full training set) ===


REPTree
============

is_top_1m < 0.5
|   dot_num < 0.5
|   |   tld = com
|   |   |   registrar = CSC CORPORATE DOMAINS INC.
|   |   |   |   num_ip < 3.5
|   |   |   |   |   reg_time < 855244800 : bad (5.28/1.12) [2.1/0.06]
|   |   |   |   |   reg_time >= 855244800 : bad (23.15/0.67) [11.85/0.3]
|   |   |   |   num_ip >= 3.5 : good (37.6/2.58) [16.39/0.36]
|   |   |   registrar = DYNAMIC NETWORK SERVICES INC : bad (15.24/1.19) [8.08/0.09]
|   |   |   registrar = ENOM INC.
|   |   |   |   reg_time < 1149350400 : bad (133.18/8.74) [78.17/8.07]
|   |   |   |   reg_time >= 1149350400
|   |   |   |   |   num_ip < 3.5 : bad (796.23/15.76) [408.33/11.8]
|   |   |   |   |   num_ip >= 3.5 : bad (105.11/0.07) [50.5/1.36]
|   |   |   registrar = US LOCALITY : good (6.77/2.69) [10.37/1.33]
|   |   |   registrar = MARKMONITOR INC.
|   |   |   |   num_ip < 2.5 : bad (20.27/0.51) [11.47/1.23]
|   |   |   |   num_ip >= 2.5 : good (28.83/6.75) [13.45/4.39]
|   |   |   registrar = NETWORK SOLUTIONS LLC : bad (38.94/3.47) [21.87/4.23]
|   |   |   registrar = GODADDY.COM LLC
|   |   |   |   reg_time < 1177214400
|   |   |   |   |   num_ip < 2.5
|   |   |   |   |   |   country = US
|   |   |   |   |   |   |   avg_path < 8.52
|   |   |   |   |   |   |   |   max_host < 6.5
|   |   |   |   |   |   |   |   |   reg_time < 956505600 : bad (8.91/0.18) [5.4/1.11]
|   |   |   |   |   |   |   |   |   reg_time >= 956505600 : bad (35.01/5.54) [19.56/1.65]
|   |   |   |   |   |   |   |   max_host >= 6.5
|   |   |   |   |   |   |   |   |   avg_path < 3.53 : bad (112.71/9.16) [54.28/2.44]
|   |   |   |   |   |   |   |   |   avg_path >= 3.53
|   |   |   |   |   |   |   |   |   |   max_path < 8.5 : bad (197/3.23) [117.6/5.91]
|   |   |   |   |   |   |   |   |   |   max_path >= 8.5
|   |   |   |   |   |   |   |   |   |   |   reg_time < 1155139200
|   |   |   |   |   |   |   |   |   |   |   |   max_host < 12.5
|   |   |   |   |   |   |   |   |   |   |   |   |   max_path < 13.5
|   |   |   |   |   |   |   |   |   |   |   |   |   |   reg_time < 967219200 : bad (6.87/2.15) [5.05/1.05]
|   |   |   |   |   |   |   |   |   |   |   |   |   |   reg_time >= 967219200 : bad (31.61/1.65) [14.74/2.25]
|   |   |   |   |   |   |   |   |   |   |   |   |   max_path >= 13.5 : bad (14.42/0.1) [5.67/0]
|   |   |   |   |   |   |   |   |   |   |   |   max_host >= 12.5 : bad (45.16/0.61) [19.91/0.2]
|   |   |   |   |   |   |   |   |   |   |   reg_time >= 1155139200
|   |   |   |   |   |   |   |   |   |   |   |   reg_time < 1160971200 : bad (6.06/2.55) [1.7/0.03]
|   |   |   |   |   |   |   |   |   |   |   |   reg_time >= 1160971200
|   |   |   |   |   |   |   |   |   |   |   |   |   reg_time < 1176955200 : bad (9.79/0.14) [5.7/0.78]
|   |   |   |   |   |   |   |   |   |   |   |   |   reg_time >= 1176955200 : bad (2.26/0.76) [0.36/0.01]
|   |   |   |   |   |   |   avg_path >= 8.52 : bad (92.04/0.08) [46.03/0.12]
|   |   |   |   |   |   country = UNITED STATES : bad (0/0) [0/0]
|   |   |   |   |   |   country = PE : bad (23.77/0.53) [12.63/0.22]
|   |   |   |   |   |   country = NO : bad (0.67/0.3) [0.19/0.01]
|   |   |   |   |   |   country = UK : bad (0/0) [1/0]
|   |   |   |   |   |   country = KR : bad (10.8/0.81) [5.13/0.1]
|   |   |   |   |   |   country = GB : bad (11.53/0.54) [6.78/0.39]
|   |   |   |   |   |   country = AU : bad (17.44/0.39) [10.15/0.16]
|   |   |   |   |   |   country = CA
|   |   |   |   |   |   |   max_host < 7.5 : bad (2.31/1.07) [0.94/0.03]
|   |   |   |   |   |   |   max_host >= 7.5
|   |   |   |   |   |   |   |   reg_time < 1043899200 : bad (6.68/0.06) [3.48/0.06]
|   |   |   |   |   |   |   |   reg_time >= 1043899200 : bad (4.91/0.18) [1.73/0.04]
|   |   |   |   |   |   country = AUSTRALIA : bad (0/0) [0/0]
|   |   |   |   |   |   country = IN : bad (12.53/0.28) [11.66/0.12]
|   |   |   |   |   |   country = MY : bad (2.38/1.05) [0.66/0.02]
|   |   |   |   |   |   country = CN : bad (3.72/0.08) [1.32/0.03]
|   |   |   |   |   |   country = JP : bad (14.93/0.62) [4.17/0.14]
|   |   |   |   |   |   country = HU : bad (0/0) [0/0]
|   |   |   |   |   |   country = GH : bad (0/0) [0/0]
|   |   |   |   |   |   country = NL : bad (0/0) [0/0]
|   |   |   |   |   |   country = ES : bad (3.05/0.35) [3.7/0.03]
|   |   |   |   |   |   country = DE : bad (0.67/0.02) [0.19/0.01]
|   |   |   |   |   |   country = PA : bad (0/0) [0/0]
|   |   |   |   |   |   country = TR : bad (5.43/0.12) [1.8/0.33]
|   |   |   |   |   |   country = FR : bad (3.36/0.08) [0.94/0.03]
|   |   |   |   |   |   country = ID : bad (0.13/0) [0.04/0]
|   |   |   |   |   |   country = LT : bad (0/0) [0/0]
|   |   |   |   |   |   country = DK : bad (0/0) [0/0]
|   |   |   |   |   |   country = PL : bad (0/0) [0/0]
|   |   |   |   |   |   country = SG : bad (0/0) [0/0]
|   |   |   |   |   |   country = MX : bad (2.38/0.05) [0.95/0.02]
|   |   |   |   |   |   country = DZ : bad (0/0) [0/0]
|   |   |   |   |   |   country = UKRAINE : bad (0/0) [0/0]
|   |   |   |   |   |   country = KH : bad (0/0) [0/0]
|   |   |   |   |   |   country = BR : bad (0/0) [0/0]
|   |   |   |   |   |   country = CY
|   |   |   |   |   |   |   reg_time < 1160971200 : bad (2.28/0.1) [1.27/0.03]
|   |   |   |   |   |   |   reg_time >= 1160971200 : bad (4.45/0.05) [1.45/0.03]
|   |   |   |   |   |   country = COLOMBIA : bad (0/0) [0/0]
|   |   |   |   |   |   country = CZ : bad (0/0) [0.28/0]
|   |   |   |   |   |   country = RUSSIAN FEDERATION : bad (0/0) [0/0]
|   |   |   |   |   |   country = UA : bad (0/0) [0/0]
|   |   |   |   |   |   country = MN : bad (0/0) [0/0]
|   |   |   |   |   |   country = BRAZIL : bad (0/0) [0/0]
|   |   |   |   |   |   country = CZECH REPUBLIC : bad (0/0) [0/0]
|   |   |   |   |   |   country = IL : bad (2.38/0.05) [0.66/0.02]
|   |   |   |   |   |   country = SE : bad (0/0) [1.28/0]
|   |   |   |   |   |   country = AR : bad (16.64/0.37) [8.64/0.16]
|   |   |   |   |   |   country = RU : bad (4.88/0.11) [1.36/0.05]
|   |   |   |   |   |   country = BG : bad (0/0) [0/0]
|   |   |   |   |   |   country = HK : bad (2.38/0.05) [0.66/0.02]
|   |   |   |   |   |   country = PH : bad (2.38/0.05) [1.66/0.02]
|   |   |   |   |   |   country = AT : bad (0/0) [0/0]
|   |   |   |   |   |   country = ZA : good (2.38/1.32) [1.66/0.64]
|   |   |   |   |   |   country = BS : bad (0/0) [0/0]
|   |   |   |   |   |   country = LU : bad (0/0) [0/0]
|   |   |   |   |   |   country = CO : bad (2.38/0.05) [1.66/0.02]
|   |   |   |   |   |   country = TH : bad (5.43/0.12) [2.51/0.05]
|   |   |   |   |   |   country = TW : bad (4.39/0.1) [1.79/0.04]
|   |   |   |   |   |   country = NG : bad (0/0) [0/0]
|   |   |   |   |   |   country = YE : bad (0/0) [0/0]
|   |   |   |   |   |   country = LB : bad (0/0) [0/0]
|   |   |   |   |   |   country = KE : bad (0/0) [0/0]
|   |   |   |   |   |   country = BD : bad (4.71/0.11) [1.88/0.04]
|   |   |   |   |   |   country = CR : bad (0/0) [0/0]
|   |   |   |   |   |   country = EG : bad (0/0) [0/0]
|   |   |   |   |   |   country = CH : bad (0/0) [0/0]
|   |   |   |   |   |   country = BE : bad (0/0) [0/0]
|   |   |   |   |   |   country = PT : bad (2.38/0.05) [0.66/0.02]
|   |   |   |   |   |   country = FI : bad (0/0) [0/0]
|   |   |   |   |   |   country = THAILAND : bad (0/0) [0/0]
|   |   |   |   |   |   country = IT : bad (7.13/0.16) [2.99/0.07]
|   |   |   |   |   |   country = PK : bad (0/0) [0/0]
|   |   |   |   |   |   country = AZ : bad (0/0) [0/0]
|   |   |   |   |   |   country = SA : bad (0/0) [0/0]
|   |   |   |   |   |   country = AE : bad (2.38/0.05) [0.66/0.02]
|   |   |   |   |   |   country = AF : bad (0/0) [0/0]
|   |   |   |   |   |   country = IE : bad (0/0) [0/0]
|   |   |   |   |   |   country = GQ : bad (0/0) [0/0]
|   |   |   |   |   |   country = BRASIL : bad (0/0) [0/0]
|   |   |   |   |   |   country = TL : bad (0/0) [0/0]
|   |   |   |   |   |   country = BOSNIA AND HERZEGOVINA : bad (0/0) [0/0]
|   |   |   |   |   |   country = SI : bad (0/0) [0/0]
|   |   |   |   |   |   country = DO : bad (0/0) [0/0]
|   |   |   |   |   |   country = YU : bad (0/0) [0/0]
|   |   |   |   |   |   country = BT : bad (0/0) [0/0]
|   |   |   |   |   |   country = CAN : bad (0/0) [0/0]
|   |   |   |   |   |   country = NZ : bad (0.13/0) [0.04/0]
|   |   |   |   |   |   country = VE : bad (2.38/0.05) [0.66/0.02]
|   |   |   |   |   |   country = GUATEMALA : bad (0/0) [0/0]
|   |   |   |   |   |   country = MALAYSIA : bad (0/0) [0/0]
|   |   |   |   |   |   country = UNITED KINGDOM : bad (0/0) [0/0]
|   |   |   |   |   |   country = JO : bad (0/0) [0/0]
|   |   |   |   |   |   country = SOUTH AFRICA : bad (0/0) [0/0]
|   |   |   |   |   |   country = LV : bad (0/0) [0/0]
|   |   |   |   |   |   country = NA : bad (0/0) [0/0]
|   |   |   |   |   |   country = AM : bad (0/0) [0/0]
|   |   |   |   |   |   country = AL : bad (0/0) [0/0]
|   |   |   |   |   |   country = IR : bad (0/0) [0/0]
|   |   |   |   |   |   country = BY : bad (0/0) [0/0]
|   |   |   |   |   |   country = GR : bad (0/0) [0/0]
|   |   |   |   |   |   country = VN : bad (0/0) [0/0]
|   |   |   |   |   |   country = JM : bad (0/0) [0/0]
|   |   |   |   |   |   country = GA : bad (0/0) [0/0]
|   |   |   |   |   |   country = VG : bad (0/0) [0/0]
|   |   |   |   |   |   country = JAPAN : bad (0/0) [0/0]
|   |   |   |   |   |   country = PR : bad (0/0) [0/0]
|   |   |   |   |   |   country = AZERBAIJAN : bad (0/0) [0/0]
|   |   |   |   |   |   country = UY : bad (0/0) [0/0]
|   |   |   |   |   |   country = IRAN : bad (0/0) [0/0]
|   |   |   |   |   |   country = ROMANIA : bad (0/0) [0/0]
|   |   |   |   |   |   country = SD : bad (0/0) [0/0]
|   |   |   |   |   |   country = TZ : bad (4.75/0.11) [1.33/0.04]
|   |   |   |   |   |   country = EC : bad (0/0) [0/0]
|   |   |   |   |   |   country = MK : bad (0/0) [0/0]
|   |   |   |   |   |   country = SO : bad (0/0) [0/0]
|   |   |   |   |   |   country = SK : bad (0/0) [0/0]
|   |   |   |   |   |   country = UNITED : bad (0/0) [0/0]
|   |   |   |   |   |   country = ER : bad (0/0) [0/0]
|   |   |   |   |   |   country = RO : bad (0/0) [0/0]
|   |   |   |   |   |   country = QA : bad (0/0) [0/0]
|   |   |   |   |   |   country = OM : bad (0/0) [0/0]
|   |   |   |   |   |   country = CL : bad (0/0) [1/0]
|   |   |   |   |   |   country = SC : bad (0/0) [0/0]
|   |   |   |   |   |   country = BZ : bad (0/0) [0/0]
|   |   |   |   |   |   country = GI : bad (0/0) [0/0]
|   |   |   |   |   |   country = MZ : bad (0/0) [0/0]
|   |   |   |   |   |   country = SV : bad (0/0) [0/0]
|   |   |   |   |   |   country = CG : bad (0/0) [0/0]
|   |   |   |   |   |   country = TURKEY : bad (0/0) [0/0]
|   |   |   |   |   |   country = BA : bad (0/0) [0/0]
|   |   |   |   |   |   country = MU : bad (0/0) [0/0]
|   |   |   |   |   |   country = ITALY : bad (0/0) [0/0]
|   |   |   |   |   |   country = GT : bad (0/0) [0/0]
|   |   |   |   |   |   country = LA : bad (0/0) [0/0]
|   |   |   |   |   |   country = TG : bad (0/0) [0/0]
|   |   |   |   |   |   country = BH : bad (0/0) [0/0]
|   |   |   |   |   |   country = GM : bad (0/0) [0/0]
|   |   |   |   |   |   country = NI : bad (0/0) [0/0]
|   |   |   |   |   |   country = AD : bad (0/0) [0/0]
|   |   |   |   |   |   country = TN : bad (0/0) [0/0]
|   |   |   |   |   |   country = IQ : bad (0/0) [0/0]
|   |   |   |   |   |   country = BB : bad (0/0) [0/0]
|   |   |   |   |   |   country = CYPRUS : bad (0/0) [0/0]
|   |   |   |   |   |   country = KOREA : bad (0/0) [0/0]
|   |   |   |   |   |   country = NP : bad (0/0) [0/0]
|   |   |   |   |   |   country = MD : bad (0/0) [0/0]
|   |   |   |   |   |   country = GERMANY : bad (0/0) [0/0]
|   |   |   |   |   |   country = FJ : bad (0/0) [0/0]
|   |   |   |   |   |   country = IS : bad (0/0) [0/0]
|   |   |   |   |   |   country = RS : bad (0/0) [0/0]
|   |   |   |   |   |   country = KN : bad (4.75/0.11) [1.33/0.04]
|   |   |   |   |   |   country = SWITZERLAND : bad (0/0) [0/0]
|   |   |   |   |   |   country = MA : bad (0/0) [0/0]
|   |   |   |   |   |   country = LY : bad (0/0) [0/0]
|   |   |   |   |   |   country = NETHERLANDS : bad (0/0) [0/0]
|   |   |   |   |   |   country = MG : bad (0/0) [0/0]
|   |   |   |   |   |   country = PAKIST : bad (0/0) [0/0]
|   |   |   |   |   |   country = NIGERIA : bad (0/0) [0/0]
|   |   |   |   |   |   country = THAILA : bad (0/0) [0/0]
|   |   |   |   |   |   country = KY : bad (0/0) [0/0]
|   |   |   |   |   |   country = VC : bad (0/0) [0/0]
|   |   |   |   |   |   country = PY : bad (0/0) [0/0]
|   |   |   |   |   |   country = INDONESIA : bad (0/0) [0/0]
|   |   |   |   |   |   country = KW : bad (0/0) [0/0]
|   |   |   |   |   |   country = MT : bad (0/0) [0/0]
|   |   |   |   |   |   country = CHINA : bad (0/0) [0/0]
|   |   |   |   |   |   country = ML : bad (0/0) [0/0]
|   |   |   |   |   |   country = SINGAPORE : bad (0/0) [0/0]
|   |   |   |   |   |   country = CD : bad (0/0) [0/0]
|   |   |   |   |   |   country = LK : bad (0/0) [0/0]
|   |   |   |   |   |   country = ISTANB : bad (0/0) [0/0]
|   |   |   |   |   |   country = COSTA RICA : bad (0/0) [0.28/0]
|   |   |   |   |   |   country = GY : bad (0/0) [0/0]
|   |   |   |   |   |   country = BW : bad (0/0) [0/0]
|   |   |   |   |   |   country = PN : bad (0/0) [0/0]
|   |   |   |   |   |   country = PAKISTAN : bad (0/0) [0/0]
|   |   |   |   |   |   country = LITHUANIA : bad (0/0) [0/0]
|   |   |   |   |   |   country = KZ : bad (0/0) [0/0]
|   |   |   |   |   |   country = PS : bad (0/0) [0/0]
|   |   |   |   |   |   country = POLAND : bad (0/0) [0/0]
|   |   |   |   |   |   country = INDIA : bad (0/0) [0/0]
|   |   |   |   |   |   country = AUSTRIA : bad (0/0) [0/0]
|   |   |   |   |   |   country = SPAIN : bad (0/0) [0/0]
|   |   |   |   |   |   country = ME : bad (0/0) [0/0]
|   |   |   |   |   |   country = LR : bad (0/0) [0/0]
|   |   |   |   |   |   country = UG : bad (0/0) [0/0]
|   |   |   |   |   |   country = ZW : bad (0/0) [0/0]
|   |   |   |   |   |   country = STATUS : bad (0/0) [0/0]
|   |   |   |   |   |   country = UNITEDSTATES : bad (0/0) [0/0]
|   |   |   |   |   |   country = EE : bad (0/0) [0/0]
|   |   |   |   |   |   country = VIET N : bad (0/0) [0/0]
|   |   |   |   |   |   country = CANADA : bad (0/0) [0/0]
|   |   |   |   |   |   country = HR : bad (0/0) [0/0]
|   |   |   |   |   |   country = TT : bad (0/0) [0/0]
|   |   |   |   |   |   country = PANAMA : bad (0/0) [0/0]
|   |   |   |   |   |   country = ZM : bad (0/0) [0/0]
|   |   |   |   |   |   country = CM : bad (0/0) [0/0]
|   |   |   |   |   |   country = ISRAEL : bad (0/0) [0/0]
|   |   |   |   |   |   country = HN : bad (0/0) [0/0]
|   |   |   |   |   |   country = SN : bad (0/0) [0/0]
|   |   |   |   |   |   country = BO : bad (0/0) [0/0]
|   |   |   |   |   |   country = VU : bad (0/0) [0/0]
|   |   |   |   |   |   country = DM : bad (0/0) [0/0]
|   |   |   |   |   |   country = CU : bad (0/0) [0/0]
|   |   |   |   |   |   country = BM : bad (0/0) [0/0]
|   |   |   |   |   |   country = CI : bad (0/0) [0/0]
|   |   |   |   |   |   country = GP : bad (0/0) [0/0]
|   |   |   |   |   |   country = AS : bad (0/0) [0/0]
|   |   |   |   |   |   country = SEYCHELLES : bad (0/0) [0/0]
|   |   |   |   |   |   country = AN : bad (0/0) [0/0]
|   |   |   |   |   |   country = SL : bad (0/0) [0/0]
|   |   |   |   |   |   country = NC : bad (0/0) [0/0]
|   |   |   |   |   |   country = MQ : bad (0/0) [0/0]
|   |   |   |   |   |   country = UN : bad (0/0) [0/0]
|   |   |   |   |   |   country = VENEZUELA : bad (0/0) [0/0]
|   |   |   |   |   |   country = KM : bad (0/0) [0/0]
|   |   |   |   |   |   country = BN : bad (0/0) [0/0]
|   |   |   |   |   |   country = TAIWAN : bad (0/0) [0/0]
|   |   |   |   |   |   country = GE : bad (0/0) [0/0]
|   |   |   |   |   |   country = JORDAN : bad (0/0) [0/0]
|   |   |   |   |   |   country = TC : bad (0/0) [0/0]
|   |   |   |   |   |   country = - : bad (0/0) [0/0]
|   |   |   |   |   |   country = REPUBLIC OF KOREA : bad (0/0) [0/0]
|   |   |   |   |   |   country = FRANCE : bad (0/0) [0/0]
|   |   |   |   |   |   country = MV : bad (0/0) [0/0]
|   |   |   |   |   |   country = AG : bad (0/0) [0/0]
|   |   |   |   |   |   country = VIET NAM : bad (0/0) [0/0]
|   |   |   |   |   |   country = VA : bad (0/0) [0/0]
|   |   |   |   |   |   country = AO : bad (0/0) [0/0]
|   |   |   |   |   |   country = LUXEMBOURG : bad (0/0) [0/0]
|   |   |   |   |   |   country = TK : bad (0/0) [0/0]
|   |   |   |   |   |   country = MC : bad (0/0) [0/0]
|   |   |   |   |   |   country = VI : bad (0/0) [0/0]
|   |   |   |   |   |   country = BAHAMAS : bad (0/0) [0/0]
|   |   |   |   |   |   country = IRELAND : bad (0/0) [0/0]
|   |   |   |   |   |   country = CV : bad (0/0) [0/0]
|   |   |   |   |   |   country = ET : bad (0/0) [0/0]
|   |   |   |   |   |   country = SY : bad (0/0) [0/0]
|   |   |   |   |   |   country = CK : bad (0/0) [0/0]
|   |   |   |   |   |   country = KG : bad (0/0) [0/0]
|   |   |   |   |   |   country = SR : bad (0/0) [0/0]
|   |   |   |   |   |   country = ????????????? : bad (0/0) [0/0]
|   |   |   |   |   |   country = BELGIUM : bad (0/0) [0/0]
|   |   |   |   |   |   country = KV : bad (0/0) [0/0]
|   |   |   |   |   |   country = MM : bad (0/0) [0/0]
|   |   |   |   |   |   country = HONG KONG : bad (0/0) [0/0]
|   |   |   |   |   |   country = PF : bad (0/0) [0/0]
|   |   |   |   |   |   country = EGYPT : bad (0/0) [0/0]
|   |   |   |   |   |   country = UGANDA : bad (0/0) [0/0]
|   |   |   |   |   |   country = UZ : bad (0/0) [0/0]
|   |   |   |   |   num_ip >= 2.5 : bad (32.64/9.16) [16.93/3.11]
|   |   |   |   reg_time >= 1177214400
|   |   |   |   |   num_ip < 2.5
|   |   |   |   |   |   num_ip < 0.5
|   |   |   |   |   |   |   avg_path < 6.73
|   |   |   |   |   |   |   |   max_path < 8.5
|   |   |   |   |   |   |   |   |   avg_path < 5.78 : bad (604.1/14.04) [298.83/7.86]
|   |   |   |   |   |   |   |   |   avg_path >= 5.78 : bad (53.12/0.23) [27.91/0.69]
|   |   |   |   |   |   |   |   max_path >= 8.5 : bad (170.83/10.76) [74.29/2.98]
|   |   |   |   |   |   |   avg_path >= 6.73 : bad (246.03/2.06) [127.4/2.06]
|   |   |   |   |   |   num_ip >= 0.5 : bad (2198.53/18.31) [1078.11/8.46]
|   |   |   |   |   num_ip >= 2.5
|   |   |   |   |   |   avg_path < 4.54
|   |   |   |   |   |   |   max_host < 15.5
|   |   |   |   |   |   |   |   avg_host < 12.5 : bad (24.67/1.57) [14.6/0.28]
|   |   |   |   |   |   |   |   avg_host >= 12.5
|   |   |   |   |   |   |   |   |   avg_host < 13.5
|   |   |   |   |   |   |   |   |   |   num_ip < 3.5 : good (4.12/0.23) [1.89/0.29]
|   |   |   |   |   |   |   |   |   |   num_ip >= 3.5 : bad (3/1) [0.24/0]
|   |   |   |   |   |   |   |   |   avg_host >= 13.5 : bad (3.86/1) [2.52/0]
|   |   |   |   |   |   |   max_host >= 15.5 : bad (12.2/0.01) [7.19/0]
|   |   |   |   |   |   avg_path >= 4.54 : bad (68.71/1.46) [29.17/2.11]
|   |   |   registrar = RU-CENTER-RU : bad (74.5/3.91) [37.05/0.45]
|   |   |   registrar = NETWORK SOLUTIONS LLC.
|   |   |   |   num_ip < 3.5
|   |   |   |   |   reg_time < 953956800
|   |   |   |   |   |   num_ip < 1
|   |   |   |   |   |   |   reg_time < 884318400 : bad (25.87/0.54) [10.31/0.27]
|   |   |   |   |   |   |   reg_time >= 884318400 : bad (15.52/2.32) [7.19/0.16]
|   |   |   |   |   |   num_ip >= 1 : bad (54.62/19.27) [38.23/11.09]
|   |   |   |   |   reg_time >= 953956800
|   |   |   |   |   |   avg_path < 6.03
|   |   |   |   |   |   |   max_path < 7.5 : bad (86.18/2.17) [43.03/3.63]
|   |   |   |   |   |   |   max_path >= 7.5
|   |   |   |   |   |   |   |   country = US : bad (32.43/7.36) [19.47/3.53]
|   |   |   |   |   |   |   |   country = UNITED STATES : bad (0.06/0.02) [0.02/0]
|   |   |   |   |   |   |   |   country = PE : bad (0/0) [0/0]
|   |   |   |   |   |   |   |   country = NO : bad (0.06/0) [0.02/0]
|   |   |   |   |   |   |   |   country = UK : bad (0.06/0) [0.02/0]
|   |   |   |   |   |   |   |   country = KR : bad (0.59/0.05) [0.29/0.03]
|   |   |   |   |   |   |   |   country = GB : bad (0.06/0.02) [0.06/0.02]
|   |   |   |   |   |   |   |   country = AU : bad (0.26/0.01) [0.18/0.01]
|   |   |   |   |   |   |   |   country = CA : bad (0.17/0.01) [0.08/0.01]
|   |   |   |   |   |   |   |   country = AUSTRALIA : bad (0/0) [0/0]
|   |   |   |   |   |   |   |   country = IN : bad (5.61/0.23) [2.23/0.26]
|   |   |   |   |   |   |   |   country = MY : bad (0.06/0) [0.04/0]
|   |   |   |   |   |   |   |   country = CN : bad (0.22/0.01) [0.13/0.01]
|   |   |   |   |   |   |   |   country = JP : bad (0.11/0.03) [0.04/0.01]
|   |   |   |   |   |   |   |   country = HU : bad (0/0) [0/0]
|   |   |   |   |   |   |   |   country = GH : bad (0/0) [0/0]
|   |   |   |   |   |   |   |   country = NL : bad (0.11/0) [0.04/0.01]
|   |   |   |   |   |   |   |   country = ES : bad (0.17/0.01) [0.11/0.01]
|   |   |   |   |   |   |   |   country = DE : bad (0.17/0.01) [0.08/0.01]
|   |   |   |   |   |   |   |   country = PA : bad (0.06/0) [0.02/0]
|   |   |   |   |   |   |   |   country = TR : good (0/0) [0.02/0]
|   |   |   |   |   |   |   |   country = FR : bad (0.17/0.01) [0.08/0.01]
|   |   |   |   |   |   |   |   country = ID : bad (0.06/0) [0.02/0]
|   |   |   |   |   |   |   |   country = LT : bad (0/0) [0/0]
|   |   |   |   |   |   |   |   country = DK : bad (0/0) [0/0]
|   |   |   |   |   |   |   |   country = PL : bad (0/0) [0/0]
|   |   |   |   |   |   |   |   country = SG : bad (0/0) [0/0]
|   |   |   |   |   |   |   |   country = MX : bad (2.71/0.11) [1.02/0.13]
|   |   |   |   |   |   |   |   country = DZ : bad (0/0) [0/0]
|   |   |   |   |   |   |   |   country = UKRAINE : bad (0.06/0) [0.02/0]
|   |   |   |   |   |   |   |   country = KH : bad (0/0) [0/0]
|   |   |   |   |   |   |   |   country = BR : bad (0/0) [0/0]
|   |   |   |   |   |   |   |   country = CY : bad (0/0) [0/0]
|   |   |   |   |   |   |   |   country = COLOMBIA : bad (0/0) [0/0]
|   |   |   |   |   |   |   |   country = CZ : bad (0.06/0) [0.02/0]
|   |   |   |   |   |   |   |   country = RUSSIAN FEDERATION : bad (0/0) [0/0]
|   |   |   |   |   |   |   |   country = UA : bad (0.06/0) [0.02/0]
|   |   |   |   |   |   |   |   country = MN : bad (0.06/0) [0.02/0]
|   |   |   |   |   |   |   |   country = BRAZIL : bad (0/0) [0/0]
|   |   |   |   |   |   |   |   country = CZECH REPUBLIC : bad (0/0) [0/0]
|   |   |   |   |   |   |   |   country = IL : bad (0/0) [0/0]
|   |   |   |   |   |   |   |   country = SE : bad (0.06/0) [0.02/0]
|   |   |   |   |   |   |   |   country = AR : bad (0/0) [0/0]
|   |   |   |   |   |   |   |   country = RU : bad (0/0) [0/0]
|   |   |   |   |   |   |   |   country = BG : bad (0/0) [0/0]
|   |   |   |   |   |   |   |   country = HK : bad (0.11/0) [0.06/0.01]
|   |   |   |   |   |   |   |   country = PH : bad (0/0) [0/0]
|   |   |   |   |   |   |   |   country = AT : bad (0.11/0) [0.04/0.01]
|   |   |   |   |   |   |   |   country = ZA : bad (0/0) [0.02/0]
|   |   |   |   |   |   |   |   country = BS : bad (0/0) [0/0]
|   |   |   |   |   |   |   |   country = LU : bad (0/0) [0/0]
|   |   |   |   |   |   |   |   country = CO : bad (0.06/0) [0.06/0]
|   |   |   |   |   |   |   |   country = TH : bad (0.06/0) [0.02/0]
|   |   |   |   |   |   |   |   country = TW : bad (0.11/0) [0.06/0.01]
|   |   |   |   |   |   |   |   country = NG : bad (0.11/0) [0.06/0.01]
|   |   |   |   |   |   |   |   country = YE : bad (0/0) [0/0]
|   |   |   |   |   |   |   |   country = LB : bad (0/0) [0/0]
|   |   |   |   |   |   |   |   country = KE : bad (0/0) [0/0]
|   |   |   |   |   |   |   |   country = BD : bad (0.06/0) [0.02/0]
|   |   |   |   |   |   |   |   country = CR : bad (0/0) [0/0]
|   |   |   |   |   |   |   |   country = EG : bad (0/0) [0/0]
|   |   |   |   |   |   |   |   country = CH : bad (0/0) [0/0]
|   |   |   |   |   |   |   |   country = BE : bad (0/0) [0/0]
|   |   |   |   |   |   |   |   country = PT : bad (0/0) [0/0]
|   |   |   |   |   |   |   |   country = FI : bad (0/0) [0/0]
|   |   |   |   |   |   |   |   country = THAILAND : bad (0/0) [0/0]
|   |   |   |   |   |   |   |   country = IT : bad (0/0) [0/0]
|   |   |   |   |   |   |   |   country = PK : bad (0/0) [0/0]
|   |   |   |   |   |   |   |   country = AZ : bad (0/0) [0/0]
|   |   |   |   |   |   |   |   country = SA : bad (0.06/0) [0.02/0]
|   |   |   |   |   |   |   |   country = AE : bad (0/0) [0/0]
|   |   |   |   |   |   |   |   country = AF : bad (0/0) [0/0]
|   |   |   |   |   |   |   |   country = IE : bad (0/0) [0/0]
|   |   |   |   |   |   |   |   country = GQ : bad (0/0) [0/0]
|   |   |   |   |   |   |   |   country = BRASIL : bad (0/0) [0/0]
|   |   |   |   |   |   |   |   country = TL : bad (0/0) [0/0]
|   |   |   |   |   |   |   |   country = BOSNIA AND HERZEGOVINA : bad (0/0) [0/0]
|   |   |   |   |   |   |   |   country = SI : bad (0/0) [0/0]
|   |   |   |   |   |   |   |   country = DO : bad (0/0) [0/0]
|   |   |   |   |   |   |   |   country = YU : bad (0/0) [0/0]
|   |   |   |   |   |   |   |   country = BT : bad (0/0) [0/0]
|   |   |   |   |   |   |   |   country = CAN : bad (0/0) [0/0]
|   |   |   |   |   |   |   |   country = NZ : bad (0.04/0) [0.01/0]
|   |   |   |   |   |   |   |   country = VE : bad (0/0) [0/0]
|   |   |   |   |   |   |   |   country = GUATEMALA : bad (0/0) [0/0]
|   |   |   |   |   |   |   |   country = MALAYSIA : bad (0/0) [0/0]
|   |   |   |   |   |   |   |   country = UNITED KINGDOM : bad (0/0) [0/0]
|   |   |   |   |   |   |   |   country = JO : bad (0/0) [0/0]
|   |   |   |   |   |   |   |   country = SOUTH AFRICA : bad (0/0) [0/0]
|   |   |   |   |   |   |   |   country = LV : bad (0/0) [0/0]
|   |   |   |   |   |   |   |   country = NA : bad (0/0) [0/0]
|   |   |   |   |   |   |   |   country = AM : bad (0/0) [0/0]
|   |   |   |   |   |   |   |   country = AL : bad (0/0) [0/0]
|   |   |   |   |   |   |   |   country = IR : bad (0/0) [0/0]
|   |   |   |   |   |   |   |   country = BY : bad (0/0) [0/0]
|   |   |   |   |   |   |   |   country = GR : bad (0/0) [0/0]
|   |   |   |   |   |   |   |   country = VN : bad (0/0) [0/0]
|   |   |   |   |   |   |   |   country = JM : bad (0/0) [0/0]
|   |   |   |   |   |   |   |   country = GA : bad (0/0) [0/0]
|   |   |   |   |   |   |   |   country = VG : bad (0/0) [0/0]
|   |   |   |   |   |   |   |   country = JAPAN : bad (0/0) [0/0]
|   |   |   |   |   |   |   |   country = PR : bad (0/0) [1/0]
|   |   |   |   |   |   |   |   country = AZERBAIJAN : bad (0/0) [0/0]
|   |   |   |   |   |   |   |   country = UY : bad (0/0) [0/0]
|   |   |   |   |   |   |   |   country = IRAN : bad (0/0) [0/0]
|   |   |   |   |   |   |   |   country = ROMANIA : bad (0/0) [0/0]
|   |   |   |   |   |   |   |   country = SD : bad (0/0) [0/0]
|   |   |   |   |   |   |   |   country = TZ : bad (0/0) [0/0]
|   |   |   |   |   |   |   |   country = EC : bad (2.6/0.11) [0.98/0.12]
|   |   |   |   |   |   |   |   country = MK : bad (0/0) [0/0]
|   |   |   |   |   |   |   |   country = SO : bad (0/0) [0/0]
|   |   |   |   |   |   |   |   country = SK : bad (0/0) [0/0]
|   |   |   |   |   |   |   |   country = UNITED : bad (0/0) [0/0]
|   |   |   |   |   |   |   |   country = ER : bad (0/0) [0/0]
|   |   |   |   |   |   |   |   country = RO : bad (0/0) [0/0]
|   |   |   |   |   |   |   |   country = QA : bad (0/0) [0/0]
|   |   |   |   |   |   |   |   country = OM : bad (0/0) [0/0]
|   |   |   |   |   |   |   |   country = CL : bad (0/0) [0/0]
|   |   |   |   |   |   |   |   country = SC : bad (0/0) [0/0]
|   |   |   |   |   |   |   |   country = BZ : bad (0/0) [0/0]
|   |   |   |   |   |   |   |   country = GI : bad (0/0) [0/0]
|   |   |   |   |   |   |   |   country = MZ : bad (0/0) [0/0]
|   |   |   |   |   |   |   |   country = SV : bad (0/0) [0/0]
|   |   |   |   |   |   |   |   country = CG : bad (0/0) [0/0]
|   |   |   |   |   |   |   |   country = TURKEY : bad (0/0) [0.04/0]
|   |   |   |   |   |   |   |   country = BA : bad (0/0) [0/0]
|   |   |   |   |   |   |   |   country = MU : bad (0/0) [0/0]
|   |   |   |   |   |   |   |   country = ITALY : bad (0/0) [0/0]
|   |   |   |   |   |   |   |   country = GT : bad (0/0) [0/0]
|   |   |   |   |   |   |   |   country = LA : bad (0/0) [0/0]
|   |   |   |   |   |   |   |   country = TG : bad (0/0) [0/0]
|   |   |   |   |   |   |   |   country = BH : bad (2.6/1.11) [0.98/0.12]
|   |   |   |   |   |   |   |   country = GM : bad (0/0) [0/0]
|   |   |   |   |   |   |   |   country = NI : bad (0/0) [0/0]
|   |   |   |   |   |   |   |   country = AD : bad (0/0) [0/0]
|   |   |   |   |   |   |   |   country = TN : bad (0/0) [0/0]
|   |   |   |   |   |   |   |   country = IQ : bad (0/0) [0/0]
|   |   |   |   |   |   |   |   country = BB : bad (0/0) [0/0]
|   |   |   |   |   |   |   |   country = CYPRUS : bad (0/0) [0/0]
|   |   |   |   |   |   |   |   country = KOREA : bad (0/0) [0/0]
|   |   |   |   |   |   |   |   country = NP : bad (0/0) [0/0]
|   |   |   |   |   |   |   |   country = MD : bad (0/0) [0/0]
|   |   |   |   |   |   |   |   country = GERMANY : bad (0/0) [0/0]
|   |   |   |   |   |   |   |   country = FJ : bad (0/0) [0/0]
|   |   |   |   |   |   |   |   country = IS : bad (0/0) [0/0]
|   |   |   |   |   |   |   |   country = RS : bad (0/0) [0/0]
|   |   |   |   |   |   |   |   country = KN : bad (0/0) [0/0]
|   |   |   |   |   |   |   |   country = SWITZERLAND : bad (0/0) [0/0]
|   |   |   |   |   |   |   |   country = MA : bad (0/0) [0/0]
|   |   |   |   |   |   |   |   country = LY : bad (0/0) [0/0]
|   |   |   |   |   |   |   |   country = NETHERLANDS : bad (0/0) [0/0]
|   |   |   |   |   |   |   |   country = MG : bad (0/0) [0/0]
|   |   |   |   |   |   |   |   country = PAKIST : bad (0/0) [0/0]
|   |   |   |   |   |   |   |   country = NIGERIA : bad (0/0) [0/0]
|   |   |   |   |   |   |   |   country = THAILA : bad (0/0) [0/0]
|   |   |   |   |   |   |   |   country = KY : bad (0/0) [0/0]
|   |   |   |   |   |   |   |   country = VC : bad (0/0) [0/0]
|   |   |   |   |   |   |   |   country = PY : bad (0/0) [0/0]
|   |   |   |   |   |   |   |   country = INDONESIA : bad (0/0) [0/0]
|   |   |   |   |   |   |   |   country = KW : bad (0/0) [0/0]
|   |   |   |   |   |   |   |   country = MT : bad (0/0) [0/0]
|   |   |   |   |   |   |   |   country = CHINA : bad (0.11/0) [0.04/0.01]
|   |   |   |   |   |   |   |   country = ML : bad (0/0) [0/0]
|   |   |   |   |   |   |   |   country = SINGAPORE : bad (0/0) [0/0]
|   |   |   |   |   |   |   |   country = CD : bad (0/0) [0/0]
|   |   |   |   |   |   |   |   country = LK : bad (0/0) [0/0]
|   |   |   |   |   |   |   |   country = ISTANB : bad (0/0) [0/0]
|   |   |   |   |   |   |   |   country = COSTA RICA : bad (0/0) [0/0]
|   |   |   |   |   |   |   |   country = GY : bad (0/0) [0/0]
|   |   |   |   |   |   |   |   country = BW : bad (0/0) [0/0]
|   |   |   |   |   |   |   |   country = PN : bad (0/0) [0/0]
|   |   |   |   |   |   |   |   country = PAKISTAN : bad (0/0) [0/0]
|   |   |   |   |   |   |   |   country = LITHUANIA : bad (0/0) [0/0]
|   |   |   |   |   |   |   |   country = KZ : bad (0/0) [0.02/0]
|   |   |   |   |   |   |   |   country = PS : bad (0/0) [0/0]
|   |   |   |   |   |   |   |   country = POLAND : bad (0/0) [0/0]
|   |   |   |   |   |   |   |   country = INDIA : bad (0/0) [0/0]
|   |   |   |   |   |   |   |   country = AUSTRIA : bad (0/0) [0/0]
|   |   |   |   |   |   |   |   country = SPAIN : bad (0/0) [0/0]
|   |   |   |   |   |   |   |   country = ME : bad (0/0) [0/0]
|   |   |   |   |   |   |   |   country = LR : bad (0/0) [0/0]
|   |   |   |   |   |   |   |   country = UG : bad (0/0) [0/0]
|   |   |   |   |   |   |   |   country = ZW : bad (0/0) [0/0]
|   |   |   |   |   |   |   |   country = STATUS : bad (0/0) [0/0]
|   |   |   |   |   |   |   |   country = UNITEDSTATES : bad (0/0) [0/0]
|   |   |   |   |   |   |   |   country = EE : bad (0.06/0) [0.02/0]
|   |   |   |   |   |   |   |   country = VIET N : bad (0/0) [0/0]
|   |   |   |   |   |   |   |   country = CANADA : bad (0/0) [0/0]
|   |   |   |   |   |   |   |   country = HR : bad (0/0) [0/0]
|   |   |   |   |   |   |   |   country = TT : bad (0/0) [0/0]
|   |   |   |   |   |   |   |   country = PANAMA : bad (0/0) [0/0]
|   |   |   |   |   |   |   |   country = ZM : bad (0/0) [0/0]
|   |   |   |   |   |   |   |   country = CM : bad (0/0) [0/0]
|   |   |   |   |   |   |   |   country = ISRAEL : bad (0/0) [0/0]
|   |   |   |   |   |   |   |   country = HN : bad (0/0) [0/0]
|   |   |   |   |   |   |   |   country = SN : bad (0/0) [0/0]
|   |   |   |   |   |   |   |   country = BO : bad (0/0) [0/0]
|   |   |   |   |   |   |   |   country = VU : bad (0/0) [0/0]
|   |   |   |   |   |   |   |   country = DM : bad (0/0) [0/0]
|   |   |   |   |   |   |   |   country = CU : bad (0/0) [0/0]
|   |   |   |   |   |   |   |   country = BM : bad (0/0) [0/0]
|   |   |   |   |   |   |   |   country = CI : bad (0/0) [0.02/0]
|   |   |   |   |   |   |   |   country = GP : bad (0/0) [0/0]
|   |   |   |   |   |   |   |   country = AS : bad (0/0) [0/0]
|   |   |   |   |   |   |   |   country = SEYCHELLES : bad (0/0) [0/0]
|   |   |   |   |   |   |   |   country = AN : bad (0/0) [1/0]
|   |   |   |   |   |   |   |   country = SL : bad (0/0) [0/0]
|   |   |   |   |   |   |   |   country = NC : bad (0/0) [0/0]
|   |   |   |   |   |   |   |   country = MQ : bad (0/0) [0/0]
|   |   |   |   |   |   |   |   country = UN : bad (0/0) [0/0]
|   |   |   |   |   |   |   |   country = VENEZUELA : bad (0/0) [0/0]
|   |   |   |   |   |   |   |   country = KM : bad (0/0) [0/0]
|   |   |   |   |   |   |   |   country = BN : bad (0/0) [0/0]
|   |   |   |   |   |   |   |   country = TAIWAN : bad (0/0) [0/0]
|   |   |   |   |   |   |   |   country = GE : bad (0/0) [0/0]
|   |   |   |   |   |   |   |   country = JORDAN : bad (0/0) [0/0]
|   |   |   |   |   |   |   |   country = TC : bad (0/0) [0/0]
|   |   |   |   |   |   |   |   country = - : bad (0/0) [0/0]
|   |   |   |   |   |   |   |   country = REPUBLIC OF KOREA : bad (0/0) [0/0]
|   |   |   |   |   |   |   |   country = FRANCE : bad (0/0) [0/0]
|   |   |   |   |   |   |   |   country = MV : bad (0/0) [0/0]
|   |   |   |   |   |   |   |   country = AG : bad (0/0) [0/0]
|   |   |   |   |   |   |   |   country = VIET NAM : bad (0/0) [0/0]
|   |   |   |   |   |   |   |   country = VA : bad (0/0) [0/0]
|   |   |   |   |   |   |   |   country = AO : bad (0/0) [0/0]
|   |   |   |   |   |   |   |   country = LUXEMBOURG : bad (0/0) [0/0]
|   |   |   |   |   |   |   |   country = TK : bad (0/0) [0/0]
|   |   |   |   |   |   |   |   country = MC : bad (0/0) [0/0]
|   |   |   |   |   |   |   |   country = VI : bad (0/0) [0/0]
|   |   |   |   |   |   |   |   country = BAHAMAS : bad (0/0) [0/0]
|   |   |   |   |   |   |   |   country = IRELAND : bad (0/0) [0/0]
|   |   |   |   |   |   |   |   country = CV : bad (0/0) [0/0]
|   |   |   |   |   |   |   |   country = ET : bad (0/0) [0/0]
|   |   |   |   |   |   |   |   country = SY : bad (0/0) [0/0]
|   |   |   |   |   |   |   |   country = CK : bad (0/0) [0/0]
|   |   |   |   |   |   |   |   country = KG : bad (0/0) [0/0]
|   |   |   |   |   |   |   |   country = SR : bad (0/0) [0/0]
|   |   |   |   |   |   |   |   country = ????????????? : bad (0/0) [0/0]
|   |   |   |   |   |   |   |   country = BELGIUM : bad (0/0) [0/0]
|   |   |   |   |   |   |   |   country = KV : bad (0/0) [0/0]
|   |   |   |   |   |   |   |   country = MM : bad (0/0) [0/0]
|   |   |   |   |   |   |   |   country = HONG KONG : bad (0/0) [0/0]
|   |   |   |   |   |   |   |   country = PF : bad (0/0) [0/0]
|   |   |   |   |   |   |   |   country = EGYPT : bad (0/0) [0/0]
|   |   |   |   |   |   |   |   country = UGANDA : bad (0/0) [0/0]
|   |   |   |   |   |   |   |   country = UZ : bad (0/0) [0/0]
|   |   |   |   |   |   avg_path >= 6.03 : bad (52.67/0.36) [30.62/1.24]
|   |   |   |   num_ip >= 3.5
|   |   |   |   |   avg_path < 4.54 : good (25.78/2.77) [8.58/1.54]
|   |   |   |   |   avg_path >= 4.54 : bad (8.21/0.06) [3.77/1.11]
|   |   |   registrar = TUCOWS INC.
|   |   |   |   reg_time < 1070510400 : bad (81.27/9.37) [35.73/2.52]
|   |   |   |   reg_time >= 1070510400
|   |   |   |   |   country = US : bad (172.62/1.99) [93.47/5.08]
|   |   |   |   |   country = UNITED STATES : bad (0.35/0.09) [0.28/0]
|   |   |   |   |   country = PE : bad (1.85/0.02) [0.36/0.01]
|   |   |   |   |   country = NO : bad (0.14/0.04) [0.07/0.04]
|   |   |   |   |   country = UK : bad (0.28/0) [0.05/0]
|   |   |   |   |   country = KR : bad (4.44/0.05) [4.5/0.02]
|   |   |   |   |   country = GB
|   |   |   |   |   |   avg_path < 5.96
|   |   |   |   |   |   |   max_path < 7.5
|   |   |   |   |   |   |   |   num_ip < 1 : bad (4.1/0.09) [2.08/0.05]
|   |   |   |   |   |   |   |   num_ip >= 1 : bad (6.13/0.04) [1.39/0.02]
|   |   |   |   |   |   |   max_path >= 7.5 : bad (3.14/0.16) [2.02/0.03]
|   |   |   |   |   |   avg_path >= 5.96
|   |   |   |   |   |   |   num_ip < 1 : bad (2.8/0.04) [1.43/0.03]
|   |   |   |   |   |   |   num_ip >= 1 : bad (10.83/0) [5.5/1.01]
|   |   |   |   |   country = AU : bad (21.6/0.31) [4.6/0.11]
|   |   |   |   |   country = CA
|   |   |   |   |   |   max_path < 0.5 : bad (7.43/1.11) [4.2/1.03]
|   |   |   |   |   |   max_path >= 0.5 : bad (90.84/1.93) [43.01/2.49]
|   |   |   |   |   country = AUSTRALIA : bad (0/0) [0.04/0]
|   |   |   |   |   country = IN
|   |   |   |   |   |   avg_path < 6.73 : bad (8.01/0.15) [3.6/0.05]
|   |   |   |   |   |   avg_path >= 6.73 : bad (3.53/0.01) [0.94/0.01]
|   |   |   |   |   country = MY : bad (24.8/0.26) [9.88/0.13]
|   |   |   |   |   country = CN : bad (2.9/0.03) [1.14/0.02]
|   |   |   |   |   country = JP : bad (2.06/0.06) [0.52/0.01]
|   |   |   |   |   country = HU : bad (1.64/0.02) [1.32/0.01]
|   |   |   |   |   country = GH : bad (0/0) [0/0]
|   |   |   |   |   country = NL : good (0.42/0.41) [1.08/0.08]
|   |   |   |   |   country = ES : bad (4.68/0.05) [2.49/0.07]
|   |   |   |   |   country = DE : bad (2.27/0.02) [1.56/0.01]
|   |   |   |   |   country = PA : bad (0.07/0) [0.06/0]
|   |   |   |   |   country = TR : bad (26.59/0.28) [9.22/0.18]
|   |   |   |   |   country = FR : bad (3.64/0.04) [0.91/0.02]
|   |   |   |   |   country = ID
|   |   |   |   |   |   num_ip < 1 : bad (18.29/0.46) [9.02/0.24]
|   |   |   |   |   |   num_ip >= 1 : bad (39.46/0.15) [18.13/0.07]
|   |   |   |   |   country = LT : bad (0/0) [0/0]
|   |   |   |   |   country = DK : bad (0.07/0) [0.01/0]
|   |   |   |   |   country = PL : bad (0.07/0) [0.06/0]
|   |   |   |   |   country = SG : bad (0.14/0) [0.03/0]
|   |   |   |   |   country = MX : bad (3.78/1.04) [2.02/0.02]
|   |   |   |   |   country = DZ : bad (0/0) [0/0]
|   |   |   |   |   country = UKRAINE : bad (0.07/0) [0.01/0]
|   |   |   |   |   country = KH : bad (0/0) [0/0]
|   |   |   |   |   country = BR : bad (0/0) [1/0]
|   |   |   |   |   country = CY : bad (2.34/0.02) [0.58/0.01]
|   |   |   |   |   country = COLOMBIA : bad (0/0) [0/0]
|   |   |   |   |   country = CZ : bad (0.14/0) [0.03/0]
|   |   |   |   |   country = RUSSIAN FEDERATION : bad (0/0) [0/0]
|   |   |   |   |   country = UA : bad (0.28/0) [0.1/0]
|   |   |   |   |   country = MN : bad (0.21/0) [0.17/0]
|   |   |   |   |   country = BRAZIL : bad (0/0) [0/0]
|   |   |   |   |   country = CZECH REPUBLIC : bad (0/0) [0/0]
|   |   |   |   |   country = IL : bad (0.07/0) [0.1/0]
|   |   |   |   |   country = SE : bad (0.07/0) [0.01/0]
|   |   |   |   |   country = AR : bad (13.29/0.14) [10.59/0.07]
|   |   |   |   |   country = RU : bad (0.76/0.01) [0.19/0]
|   |   |   |   |   country = BG : bad (0/0) [0/0]
|   |   |   |   |   country = HK : bad (4.26/0.04) [1.32/0.02]
|   |   |   |   |   country = PH : bad (0/0) [0/0]
|   |   |   |   |   country = AT : bad (0.28/0) [0.05/0]
|   |   |   |   |   country = ZA : bad (11.51/1.12) [5.25/0.06]
|   |   |   |   |   country = BS : bad (0/0) [0/0]
|   |   |   |   |   country = LU : bad (0.07/0) [0.01/0]
|   |   |   |   |   country = CO : bad (2.2/0.02) [1.63/0.01]
|   |   |   |   |   country = TH
|   |   |   |   |   |   avg_path < 7.95 : bad (2.89/0.05) [1.89/0.02]
|   |   |   |   |   |   avg_path >= 7.95 : bad (2.39/0) [0.16/0]
|   |   |   |   |   country = TW : bad (0/0) [0/0]
|   |   |   |   |   country = NG : bad (3.85/0.04) [0.86/0.02]
|   |   |   |   |   country = YE : bad (0/0) [0/0]
|   |   |   |   |   country = LB : bad (0/0) [0/0]
|   |   |   |   |   country = KE : bad (0/0) [0/0]
|   |   |   |   |   country = BD : bad (0.56/0.01) [0.19/0]
|   |   |   |   |   country = CR : bad (0/0) [0/0]
|   |   |   |   |   country = EG : bad (0/0) [0/0]
|   |   |   |   |   country = CH : bad (0/0) [0/0]
|   |   |   |   |   country = BE : bad (0/0) [0/0]
|   |   |   |   |   country = PT : bad (0.56/0.01) [0.19/0]
|   |   |   |   |   country = FI : bad (0/0) [0/0]
|   |   |   |   |   country = THAILAND : bad (0/0) [0/0]
|   |   |   |   |   country = IT : bad (11.58/0.12) [10.22/0.06]
|   |   |   |   |   country = PK : bad (3.36/0.04) [1.64/0.02]
|   |   |   |   |   country = AZ : bad (0/0) [0/0]
|   |   |   |   |   country = SA : bad (0.07/0) [0.01/0]
|   |   |   |   |   country = AE : bad (3.43/0.04) [2.66/0.02]
|   |   |   |   |   country = AF : bad (0/0) [0/0]
|   |   |   |   |   country = IE : bad (1.64/0.02) [0.36/0.01]
|   |   |   |   |   country = GQ : bad (0/0) [0/0]
|   |   |   |   |   country = BRASIL : bad (0/0) [0/0]
|   |   |   |   |   country = TL : good (0/0) [0.04/0]
|   |   |   |   |   country = BOSNIA AND HERZEGOVINA : bad (0/0) [0/0]
|   |   |   |   |   country = SI : bad (0.14/0) [0.03/0]
|   |   |   |   |   country = DO : bad (0/0) [0/0]
|   |   |   |   |   country = YU : bad (0/0) [0/0]
|   |   |   |   |   country = BT : bad (0/0) [0/0]
|   |   |   |   |   country = CAN : bad (0/0) [0/0]
|   |   |   |   |   country = NZ : bad (0.06/0) [0.05/0.04]
|   |   |   |   |   country = VE : bad (0/0) [0/0]
|   |   |   |   |   country = GUATEMALA : bad (0/0) [0/0]
|   |   |   |   |   country = MALAYSIA : bad (0/0) [0/0]
|   |   |   |   |   country = UNITED KINGDOM : bad (0/0) [0/0]
|   |   |   |   |   country = JO : bad (0/0) [0/0]
|   |   |   |   |   country = SOUTH AFRICA : bad (0/0) [0/0]
|   |   |   |   |   country = LV : bad (0/0) [0/0]
|   |   |   |   |   country = NA : bad (0/0) [0/0]
|   |   |   |   |   country = AM : bad (3.29/0.03) [0.63/0.02]
|   |   |   |   |   country = AL : bad (0/0) [0/0]
|   |   |   |   |   country = IR : bad (0/0) [1/0]
|   |   |   |   |   country = BY : bad (0/0) [0/0]
|   |   |   |   |   country = GR : bad (0/0) [0.04/0]
|   |   |   |   |   country = VN : bad (0.35/0) [0.11/0]
|   |   |   |   |   country = JM : bad (0/0) [0/0]
|   |   |   |   |   country = GA : bad (0/0) [0/0]
|   |   |   |   |   country = VG : bad (0/0) [0/0]
|   |   |   |   |   country = JAPAN : bad (0/0) [0/0]
|   |   |   |   |   country = PR : bad (0/0) [0/0]
|   |   |   |   |   country = AZERBAIJAN : bad (0/0) [0/0]
|   |   |   |   |   country = UY : bad (0/0) [0.04/0]
|   |   |   |   |   country = IRAN : bad (0.14/0) [0.03/0]
|   |   |   |   |   country = ROMANIA : bad (0/0) [0/0]
|   |   |   |   |   country = SD : bad (0/0) [0/0]
|   |   |   |   |   country = TZ : bad (0/0) [0/0]
|   |   |   |   |   country = EC : bad (0/0) [0/0]
|   |   |   |   |   country = MK : bad (0/0) [0/0]
|   |   |   |   |   country = SO : bad (0/0) [0/0]
|   |   |   |   |   country = SK : bad (0/0) [0/0]
|   |   |   |   |   country = UNITED : bad (0/0) [0/0]
|   |   |   |   |   country = ER : bad (0/0) [0/0]
|   |   |   |   |   country = RO : bad (0/0) [0/0]
|   |   |   |   |   country = QA : bad (0/0) [0/0]
|   |   |   |   |   country = OM : bad (0/0) [0/0]
|   |   |   |   |   country = CL : bad (0/0) [1/0]
|   |   |   |   |   country = SC : bad (1.64/0.02) [0.32/0.01]
|   |   |   |   |   country = BZ : bad (0/0) [0/0]
|   |   |   |   |   country = GI : bad (0/0) [0/0]
|   |   |   |   |   country = MZ : bad (0/0) [0/0]
|   |   |   |   |   country = SV : bad (0/0) [0/0]
|   |   |   |   |   country = CG : bad (0/0) [0/0]
|   |   |   |   |   country = TURKEY : bad (0.14/0) [0.11/0]
|   |   |   |   |   country = BA : bad (0/0) [0/0]
|   |   |   |   |   country = MU : bad (0/0) [0/0]
|   |   |   |   |   country = ITALY : bad (0/0) [0/0]
|   |   |   |   |   country = GT : bad (0/0) [0/0]
|   |   |   |   |   country = LA : bad (0/0) [0/0]
|   |   |   |   |   country = TG : bad (0/0) [0/0]
|   |   |   |   |   country = BH : bad (0/0) [0/0]
|   |   |   |   |   country = GM : bad (0/0) [0/0]
|   |   |   |   |   country = NI : bad (0/0) [0/0]
|   |   |   |   |   country = AD : bad (0.14/0) [0.03/0]
|   |   |   |   |   country = TN : bad (0/0) [0.04/0]
|   |   |   |   |   country = IQ : bad (1.64/0.02) [0.32/0.01]
|   |   |   |   |   country = BB : bad (0/0) [0/0]
|   |   |   |   |   country = CYPRUS : bad (0/0) [0/0]
|   |   |   |   |   country = KOREA : bad (0/0) [0/0]
|   |   |   |   |   country = NP : bad (0/0) [0/0]
|   |   |   |   |   country = MD : bad (0/0) [0/0]
|   |   |   |   |   country = GERMANY : bad (0.07/0) [0.01/0]
|   |   |   |   |   country = FJ : bad (0/0) [0/0]
|   |   |   |   |   country = IS : bad (0/0) [0/0]
|   |   |   |   |   country = RS : bad (1.64/0.02) [0.32/0.01]
|   |   |   |   |   country = KN : bad (0/0) [0/0]
|   |   |   |   |   country = SWITZERLAND : bad (0/0) [0/0]
|   |   |   |   |   country = MA : bad (0/0) [0/0]
|   |   |   |   |   country = LY : bad (0/0) [0/0]
|   |   |   |   |   country = NETHERLANDS : bad (0/0) [0/0]
|   |   |   |   |   country = MG : bad (0.07/0) [0.01/0]
|   |   |   |   |   country = PAKIST : bad (0/0) [0/0]
|   |   |   |   |   country = NIGERIA : bad (0/0) [0/0]
|   |   |   |   |   country = THAILA : bad (0/0) [0/0]
|   |   |   |   |   country = KY : bad (0/0) [0/0]
|   |   |   |   |   country = VC : bad (0.07/0) [0.01/0]
|   |   |   |   |   country = PY : bad (0/0) [0/0]
|   |   |   |   |   country = INDONESIA : bad (0/0) [0/0]
|   |   |   |   |   country = KW : bad (0/0) [0/0]
|   |   |   |   |   country = MT : bad (0/0) [0/0]
|   |   |   |   |   country = CHINA : bad (0.49/0.01) [0.18/0]
|   |   |   |   |   country = ML : bad (0/0) [0/0]
|   |   |   |   |   country = SINGAPORE : bad (0/0) [0/0]
|   |   |   |   |   country = CD : bad (0/0) [0/0]
|   |   |   |   |   country = LK : bad (0/0) [0/0]
|   |   |   |   |   country = ISTANB : bad (0/0) [0/0]
|   |   |   |   |   country = COSTA RICA : bad (0/0) [0.04/0]
|   |   |   |   |   country = GY : bad (0/0) [0/0]
|   |   |   |   |   country = BW : bad (0/0) [0/0]
|   |   |   |   |   country = PN : bad (0/0) [0/0]
|   |   |   |   |   country = PAKISTAN : bad (0/0) [0/0]
|   |   |   |   |   country = LITHUANIA : bad (0/0) [0/0]
|   |   |   |   |   country = KZ : bad (0/0) [0.04/0]
|   |   |   |   |   country = PS : bad (0/0) [0/0]
|   |   |   |   |   country = POLAND : bad (0/0) [0/0]
|   |   |   |   |   country = INDIA : bad (0.14/0) [0.03/0]
|   |   |   |   |   country = AUSTRIA : bad (0/0) [0/0]
|   |   |   |   |   country = SPAIN : bad (0.07/0) [0.01/0]
|   |   |   |   |   country = ME : bad (0/0) [0/0]
|   |   |   |   |   country = LR : bad (0/0) [0/0]
|   |   |   |   |   country = UG : bad (0/0) [1/0]
|   |   |   |   |   country = ZW : bad (0/0) [0/0]
|   |   |   |   |   country = STATUS : bad (0/0) [0/0]
|   |   |   |   |   country = UNITEDSTATES : bad (0/0) [0/0]
|   |   |   |   |   country = EE : bad (0.07/0) [0.01/0]
|   |   |   |   |   country = VIET N : bad (0/0) [0/0]
|   |   |   |   |   country = CANADA : bad (0/0) [0/0]
|   |   |   |   |   country = HR : bad (0.14/0) [0.07/0]
|   |   |   |   |   country = TT : bad (0/0) [0/0]
|   |   |   |   |   country = PANAMA : bad (0/0) [0/0]
|   |   |   |   |   country = ZM : bad (0/0) [0/0]
|   |   |   |   |   country = CM : bad (0/0) [0/0]
|   |   |   |   |   country = ISRAEL : bad (0/0) [0/0]
|   |   |   |   |   country = HN : bad (0/0) [0/0]
|   |   |   |   |   country = SN : bad (0/0) [0/0]
|   |   |   |   |   country = BO : bad (0/0) [0/0]
|   |   |   |   |   country = VU : bad (0/0) [0/0]
|   |   |   |   |   country = DM : bad (0/0) [0/0]
|   |   |   |   |   country = CU : bad (0/0) [0/0]
|   |   |   |   |   country = BM : bad (0/0) [0/0]
|   |   |   |   |   country = CI : bad (0/0) [0.04/0]
|   |   |   |   |   country = GP : bad (0/0) [0/0]
|   |   |   |   |   country = AS : bad (0/0) [0/0]
|   |   |   |   |   country = SEYCHELLES : bad (0.07/0) [0.01/0]
|   |   |   |   |   country = AN : bad (0/0) [0/0]
|   |   |   |   |   country = SL : bad (0/0) [0/0]
|   |   |   |   |   country = NC : bad (0/0) [0/0]
|   |   |   |   |   country = MQ : bad (0/0) [0/0]
|   |   |   |   |   country = UN : bad (0/0) [0/0]
|   |   |   |   |   country = VENEZUELA : bad (0/0) [0/0]
|   |   |   |   |   country = KM : bad (0/0) [0/0]
|   |   |   |   |   country = BN : bad (0/0) [0/0]
|   |   |   |   |   country = TAIWAN : bad (0/0) [0/0]
|   |   |   |   |   country = GE : bad (0/0) [0/0]
|   |   |   |   |   country = JORDAN : bad (0/0) [0/0]
|   |   |   |   |   country = TC : bad (0/0) [0/0]
|   |   |   |   |   country = - : bad (0/0) [0/0]
|   |   |   |   |   country = REPUBLIC OF KOREA : bad (0/0) [0/0]
|   |   |   |   |   country = FRANCE : bad (0/0) [0/0]
|   |   |   |   |   country = MV : bad (0/0) [0/0]
|   |   |   |   |   country = AG : bad (0/0) [0/0]
|   |   |   |   |   country = VIET NAM : bad (0/0) [0/0]
|   |   |   |   |   country = VA : bad (0/0) [0/0]
|   |   |   |   |   country = AO : bad (0/0) [0/0]
|   |   |   |   |   country = LUXEMBOURG : bad (0/0) [0/0]
|   |   |   |   |   country = TK : bad (0/0) [0/0]
|   |   |   |   |   country = MC : bad (0/0) [0/0]
|   |   |   |   |   country = VI : bad (0/0) [0/0]
|   |   |   |   |   country = BAHAMAS : bad (0/0) [0/0]
|   |   |   |   |   country = IRELAND : bad (0/0) [0/0]
|   |   |   |   |   country = CV : bad (0/0) [0/0]
|   |   |   |   |   country = ET : bad (0/0) [0/0]
|   |   |   |   |   country = SY : bad (0/0) [0/0]
|   |   |   |   |   country = CK : bad (0/0) [0/0]
|   |   |   |   |   country = KG : bad (0/0) [0/0]
|   |   |   |   |   country = SR : bad (0/0) [0/0]
|   |   |   |   |   country = ????????????? : bad (0/0) [0/0]
|   |   |   |   |   country = BELGIUM : bad (0/0) [0/0]
|   |   |   |   |   country = KV : bad (0/0) [0/0]
|   |   |   |   |   country = MM : bad (0/0) [0/0]
|   |   |   |   |   country = HONG KONG : bad (0/0) [0.04/0]
|   |   |   |   |   country = PF : bad (0/0) [0/0]
|   |   |   |   |   country = EGYPT : bad (0/0) [0/0]
|   |   |   |   |   country = UGANDA : bad (0/0) [0/0]
|   |   |   |   |   country = UZ : bad (0/0) [0/0]
|   |   |   registrar = GODADDY.COM INC. : bad (316.62/9.85) [141.97/5.9]
|   |   |   registrar = NOM-IQ LTD DBA COM LAUDE : bad (0/0) [0/0]
|   |   |   registrar = HOSTING CONCEPTS B.V. D/B/A OPENPROVIDER : bad (13.55/0.16) [10.74/0.08]
|   |   |   registrar = SE DIREKT : bad (16.93/0.21) [11.42/0.1]
|   |   |   registrar = REGISTER.COM INC.
|   |   |   |   country = US : bad (72.82/3.83) [38.26/2.42]
|   |   |   |   country = UNITED STATES : bad (4.01/1.06) [1.3/0.02]
|   |   |   |   country = PE : bad (0.04/0) [0.01/0]
|   |   |   |   country = NO : bad (0.05/0.01) [0.02/0.01]
|   |   |   |   country = UK : bad (0.05/0) [0.02/0]
|   |   |   |   country = KR : bad (0.69/0.02) [0.37/0]
|   |   |   |   country = GB : bad (2.12/1.03) [0.72/0.02]
|   |   |   |   country = AU : bad (0.39/0.02) [0.2/0]
|   |   |   |   country = CA : bad (0.28/0) [0.15/0]
|   |   |   |   country = AUSTRALIA : bad (0/0) [0.01/0]
|   |   |   |   country = IN : bad (0.7/0.01) [1.45/0]
|   |   |   |   country = MY : bad (0.03/0) [0.03/0]
|   |   |   |   country = CN : bad (0.24/0) [0.17/0]
|   |   |   |   country = JP : bad (0.09/0.01) [0.05/0]
|   |   |   |   country = HU : bad (0/0) [0/0]
|   |   |   |   country = GH : bad (0/0) [0/0]
|   |   |   |   country = NL : bad (0.08/0) [0.03/0]
|   |   |   |   country = ES : bad (0.28/0.01) [0.2/0.01]
|   |   |   |   country = DE : bad (0.13/0) [0.06/0]
|   |   |   |   country = PA : bad (0.01/0) [0.01/0]
|   |   |   |   country = TR : bad (2.04/0.02) [0.66/0.02]
|   |   |   |   country = FR : bad (0.13/0) [0.08/0]
|   |   |   |   country = ID : bad (0.04/0) [1.03/0]
|   |   |   |   country = LT : bad (0/0) [0/0]
|   |   |   |   country = DK : bad (0.01/0) [0/0]
|   |   |   |   country = PL : bad (0.01/0) [0.01/0]
|   |   |   |   country = SG : bad (2/0.02) [0.63/0.01]
|   |   |   |   country = MX : bad (0.09/0) [0.08/0]
|   |   |   |   country = DZ : bad (0/0) [0/0]
|   |   |   |   country = UKRAINE : bad (0.01/0) [0/0]
|   |   |   |   country = KH : bad (0/0) [0/0]
|   |   |   |   country = BR : bad (3.94/0.04) [2.24/0.02]
|   |   |   |   country = CY : bad (0.13/0) [0.06/0]
|   |   |   |   country = COLOMBIA : bad (0/0) [0/0]
|   |   |   |   country = CZ : bad (0.03/0) [0.02/0]
|   |   |   |   country = RUSSIAN FEDERATION : bad (0/0) [0/0]
|   |   |   |   country = UA : bad (0.05/0) [0.02/0]
|   |   |   |   country = MN : bad (0.04/0) [0.03/0]
|   |   |   |   country = BRAZIL : bad (0/0) [0/0]
|   |   |   |   country = CZECH REPUBLIC : bad (0/0) [0/0]
|   |   |   |   country = IL : bad (0.01/0) [0.02/0]
|   |   |   |   country = SE : bad (0.01/0) [0.01/0]
|   |   |   |   country = AR : bad (2/0.02) [0.63/0.01]
|   |   |   |   country = RU : bad (0.15/0) [0.05/0]
|   |   |   |   country = BG : bad (0/0) [0/0]
|   |   |   |   country = HK : good (0.19/0.18) [1.14/0.14]
|   |   |   |   country = PH : bad (0/0) [0/0]
|   |   |   |   country = AT : bad (0.05/0) [0.02/0]
|   |   |   |   country = ZA : bad (0/0) [0.01/0]
|   |   |   |   country = BS : bad (0/0) [0/0]
|   |   |   |   country = LU : bad (0.01/0) [0/0]
|   |   |   |   country = CO : bad (6.02/0.07) [1.92/0.03]
|   |   |   |   country = TH : bad (0.07/0) [0.03/0]
|   |   |   |   country = TW : bad (0.04/0) [0.03/0]
|   |   |   |   country = NG : bad (0.11/0) [0.05/0]
|   |   |   |   country = YE : bad (0/0) [0/0]
|   |   |   |   country = LB : bad (0/0) [0/0]
|   |   |   |   country = KE : bad (0/0) [0/0]
|   |   |   |   country = BD : bad (0.11/0) [0.05/0]
|   |   |   |   country = CR : bad (0/0) [0/0]
|   |   |   |   country = EG : bad (0/0) [0/0]
|   |   |   |   country = CH : bad (0/0) [0/0]
|   |   |   |   country = BE : bad (0/0) [1/0]
|   |   |   |   country = PT : bad (0.11/0) [0.05/0]
|   |   |   |   country = FI : bad (0/0) [0/0]
|   |   |   |   country = THAILAND : bad (0/0) [0/0]
|   |   |   |   country = IT : bad (0.01/0) [0/0]
|   |   |   |   country = PK : bad (0.01/0) [0/0]
|   |   |   |   country = AZ : bad (0/0) [0/0]
|   |   |   |   country = SA : bad (0.01/0) [0/0]
|   |   |   |   country = AE : bad (0.03/0) [0.01/0]
|   |   |   |   country = AF : bad (0/0) [0/0]
|   |   |   |   country = IE : bad (0/0) [1.01/0]
|   |   |   |   country = GQ : bad (0/0) [0/0]
|   |   |   |   country = BRASIL : bad (0/0) [0/0]
|   |   |   |   country = TL : good (0/0) [0.01/0]
|   |   |   |   country = BOSNIA AND HERZEGOVINA : bad (0/0) [0/0]
|   |   |   |   country = SI : bad (0.03/0) [0.01/0]
|   |   |   |   country = DO : bad (0/0) [0/0]
|   |   |   |   country = YU : bad (0/0) [0/0]
|   |   |   |   country = BT : bad (0/0) [0/0]
|   |   |   |   country = CAN : bad (0/0) [0/0]
|   |   |   |   country = NZ : bad (0.01/0) [0.01/0.01]
|   |   |   |   country = VE : bad (0/0) [0/0]
|   |   |   |   country = GUATEMALA : bad (0/0) [0/0]
|   |   |   |   country = MALAYSIA : bad (0/0) [0/0]
|   |   |   |   country = UNITED KINGDOM : bad (0/0) [0/0]
|   |   |   |   country = JO : bad (0/0) [0/0]
|   |   |   |   country = SOUTH AFRICA : bad (0/0) [0/0]
|   |   |   |   country = LV : bad (0/0) [0/0]
|   |   |   |   country = NA : bad (0/0) [0/0]
|   |   |   |   country = AM : bad (0/0) [0/0]
|   |   |   |   country = AL : bad (0/0) [0/0]
|   |   |   |   country = IR : bad (0/0) [0/0]
|   |   |   |   country = BY : bad (0/0) [0/0]
|   |   |   |   country = GR : bad (0/0) [0.01/0]
|   |   |   |   country = VN : bad (0.07/0) [0.03/0]
|   |   |   |   country = JM : bad (0/0) [0/0]
|   |   |   |   country = GA : bad (0/0) [0/0]
|   |   |   |   country = VG : bad (0/0) [0/0]
|   |   |   |   country = JAPAN : bad (0/0) [0/0]
|   |   |   |   country = PR : bad (0/0) [0/0]
|   |   |   |   country = AZERBAIJAN : bad (0/0) [0/0]
|   |   |   |   country = UY : bad (0/0) [0.01/0]
|   |   |   |   country = IRAN : bad (0.03/0) [0.01/0]
|   |   |   |   country = ROMANIA : bad (0/0) [0/0]
|   |   |   |   country = SD : bad (0/0) [0/0]
|   |   |   |   country = TZ : bad (0/0) [0/0]
|   |   |   |   country = EC : bad (0/0) [0/0]
|   |   |   |   country = MK : bad (0/0) [0/0]
|   |   |   |   country = SO : bad (0/0) [0/0]
|   |   |   |   country = SK : bad (0/0) [0/0]
|   |   |   |   country = UNITED : bad (0/0) [0/0]
|   |   |   |   country = ER : bad (0/0) [0/0]
|   |   |   |   country = RO : bad (0/0) [0/0]
|   |   |   |   country = QA : bad (0/0) [0/0]
|   |   |   |   country = OM : bad (0/0) [0/0]
|   |   |   |   country = CL : bad (0/0) [2/0]
|   |   |   |   country = SC : bad (0/0) [0/0]
|   |   |   |   country = BZ : bad (0/0) [0/0]
|   |   |   |   country = GI : bad (0/0) [0/0]
|   |   |   |   country = MZ : bad (0/0) [0/0]
|   |   |   |   country = SV : bad (0/0) [0/0]
|   |   |   |   country = CG : bad (0/0) [0/0]
|   |   |   |   country = TURKEY : bad (0.03/0) [0.02/0]
|   |   |   |   country = BA : bad (0/0) [0/0]
|   |   |   |   country = MU : bad (0/0) [0/0]
|   |   |   |   country = ITALY : bad (0/0) [0/0]
|   |   |   |   country = GT : bad (0/0) [0/0]
|   |   |   |   country = LA : bad (0/0) [0/0]
|   |   |   |   country = TG : bad (0/0) [0/0]
|   |   |   |   country = BH : bad (0/0) [0/0]
|   |   |   |   country = GM : bad (0/0) [0/0]
|   |   |   |   country = NI : bad (0/0) [0/0]
|   |   |   |   country = AD : bad (0.03/0) [0.01/0]
|   |   |   |   country = TN : bad (0/0) [0.01/0]
|   |   |   |   country = IQ : bad (0/0) [0/0]
|   |   |   |   country = BB : bad (0/0) [0/0]
|   |   |   |   country = CYPRUS : bad (0/0) [0/0]
|   |   |   |   country = KOREA : bad (0/0) [0/0]
|   |   |   |   country = NP : bad (0/0) [0/0]
|   |   |   |   country = MD : bad (0/0) [0/0]
|   |   |   |   country = GERMANY : bad (0.01/0) [0/0]
|   |   |   |   country = FJ : bad (0/0) [0/0]
|   |   |   |   country = IS : bad (0/0) [0/0]
|   |   |   |   country = RS : bad (0/0) [0/0]
|   |   |   |   country = KN : bad (0/0) [0/0]
|   |   |   |   country = SWITZERLAND : bad (0/0) [0/0]
|   |   |   |   country = MA : bad (0/0) [0/0]
|   |   |   |   country = LY : bad (0/0) [0/0]
|   |   |   |   country = NETHERLANDS : bad (0/0) [0/0]
|   |   |   |   country = MG : bad (0.01/0) [0/0]
|   |   |   |   country = PAKIST : bad (0/0) [0/0]
|   |   |   |   country = NIGERIA : bad (0/0) [0/0]
|   |   |   |   country = THAILA : bad (0/0) [0/0]
|   |   |   |   country = KY : bad (0/0) [0/0]
|   |   |   |   country = VC : bad (0.01/0) [0/0]
|   |   |   |   country = PY : bad (0/0) [0/0]
|   |   |   |   country = INDONESIA : bad (0/0) [0/0]
|   |   |   |   country = KW : bad (0/0) [0/0]
|   |   |   |   country = MT : bad (0/0) [0/0]
|   |   |   |   country = CHINA : bad (0.09/0) [0.04/0]
|   |   |   |   country = ML : bad (0/0) [0/0]
|   |   |   |   country = SINGAPORE : bad (0/0) [0/0]
|   |   |   |   country = CD : bad (0/0) [0/0]
|   |   |   |   country = LK : bad (0/0) [0/0]
|   |   |   |   country = ISTANB : bad (0/0) [0/0]
|   |   |   |   country = COSTA RICA : bad (0/0) [0.01/0]
|   |   |   |   country = GY : bad (0/0) [0/0]
|   |   |   |   country = BW : bad (0/0) [0/0]
|   |   |   |   country = PN : bad (0/0) [0/0]
|   |   |   |   country = PAKISTAN : bad (0/0) [0/0]
|   |   |   |   country = LITHUANIA : bad (0/0) [0/0]
|   |   |   |   country = KZ : bad (0/0) [0.01/0]
|   |   |   |   country = PS : bad (0/0) [0/0]
|   |   |   |   country = POLAND : bad (0/0) [0/0]
|   |   |   |   country = INDIA : bad (0.03/0) [0.01/0]
|   |   |   |   country = AUSTRIA : bad (0/0) [0/0]
|   |   |   |   country = SPAIN : bad (0.01/0) [0/0]
|   |   |   |   country = ME : bad (0/0) [0/0]
|   |   |   |   country = LR : bad (0/0) [0/0]
|   |   |   |   country = UG : bad (0/0) [0/0]
|   |   |   |   country = ZW : bad (0/0) [0/0]
|   |   |   |   country = STATUS : bad (0/0) [0/0]
|   |   |   |   country = UNITEDSTATES : bad (0/0) [0/0]
|   |   |   |   country = EE : bad (0.01/0) [0/0]
|   |   |   |   country = VIET N : bad (0/0) [0/0]
|   |   |   |   country = CANADA : bad (0/0) [0/0]
|   |   |   |   country = HR : bad (0.03/0) [0.02/0]
|   |   |   |   country = TT : bad (0/0) [0/0]
|   |   |   |   country = PANAMA : bad (0/0) [0/0]
|   |   |   |   country = ZM : bad (0/0) [0/0]
|   |   |   |   country = CM : bad (0/0) [0/0]
|   |   |   |   country = ISRAEL : bad (0/0) [0/0]
|   |   |   |   country = HN : bad (0/0) [0/0]
|   |   |   |   country = SN : bad (0/0) [0/0]
|   |   |   |   country = BO : bad (0/0) [0/0]
|   |   |   |   country = VU : bad (0/0) [0/0]
|   |   |   |   country = DM : bad (0/0) [0/0]
|   |   |   |   country = CU : bad (0/0) [0/0]
|   |   |   |   country = BM : bad (0/0) [0/0]
|   |   |   |   country = CI : bad (0/0) [0.01/0]
|   |   |   |   country = GP : bad (0/0) [0/0]
|   |   |   |   country = AS : bad (0/0) [0/0]
|   |   |   |   country = SEYCHELLES : bad (0.01/0) [0/0]
|   |   |   |   country = AN : bad (0/0) [0/0]
|   |   |   |   country = SL : bad (0/0) [0/0]
|   |   |   |   country = NC : bad (0/0) [0/0]
|   |   |   |   country = MQ : bad (0/0) [0/0]
|   |   |   |   country = UN : bad (0/0) [0/0]
|   |   |   |   country = VENEZUELA : bad (0/0) [0/0]
|   |   |   |   country = KM : bad (0/0) [0/0]
|   |   |   |   country = BN : bad (0/0) [0/0]
|   |   |   |   country = TAIWAN : bad (0/0) [0/0]
|   |   |   |   country = GE : bad (0/0) [0/0]
|   |   |   |   country = JORDAN : bad (0/0) [0/0]
|   |   |   |   country = TC : bad (0/0) [0/0]
|   |   |   |   country = - : bad (0/0) [0/0]
|   |   |   |   country = REPUBLIC OF KOREA : bad (0/0) [0/0]
|   |   |   |   country = FRANCE : bad (0/0) [0/0]
|   |   |   |   country = MV : bad (0/0) [0/0]
|   |   |   |   country = AG : bad (0/0) [0/0]
|   |   |   |   country = VIET NAM : bad (0/0) [0/0]
|   |   |   |   country = VA : bad (0/0) [0/0]
|   |   |   |   country = AO : bad (0/0) [0/0]
|   |   |   |   country = LUXEMBOURG : bad (0/0) [0/0]
|   |   |   |   country = TK : bad (0/0) [0/0]
|   |   |   |   country = MC : bad (0/0) [0/0]
|   |   |   |   country = VI : bad (0/0) [0/0]
|   |   |   |   country = BAHAMAS : bad (0/0) [0/0]
|   |   |   |   country = IRELAND : bad (0/0) [0/0]
|   |   |   |   country = CV : bad (0/0) [0/0]
|   |   |   |   country = ET : bad (0/0) [0/0]
|   |   |   |   country = SY : bad (0/0) [0/0]
|   |   |   |   country = CK : bad (0/0) [0/0]
|   |   |   |   country = KG : bad (0/0) [0/0]
|   |   |   |   country = SR : bad (0/0) [0/0]
|   |   |   |   country = ????????????? : bad (0/0) [0/0]
|   |   |   |   country = BELGIUM : bad (0/0) [0/0]
|   |   |   |   country = KV : bad (0/0) [0/0]
|   |   |   |   country = MM : bad (0/0) [0/0]
|   |   |   |   country = HONG KONG : bad (0/0) [0.01/0]
|   |   |   |   country = PF : bad (0/0) [0/0]
|   |   |   |   country = EGYPT : bad (0/0) [0/0]
|   |   |   |   country = UGANDA : bad (0/0) [0/0]
|   |   |   |   country = UZ : bad (0/0) [0/0]
|   |   |   registrar = MELBOURNE IT LTD
|   |   |   |   avg_path < 6.48 : bad (3.12/0.11) [3.51/0.05]
|   |   |   |   avg_path >= 6.48 : bad (7.03/0.01) [1.54/0.01]
|   |   |   registrar = ASCIO TECHNOLOGIES INC
|   |   |   |   num_ip < 3.5
|   |   |   |   |   avg_path < 5.68 : bad (14.26/0.38) [8.93/0.16]
|   |   |   |   |   avg_path >= 5.68 : bad (12.39/0.08) [7.75/0.06]
|   |   |   |   num_ip >= 3.5 : bad (12.29/0.01) [6.19/1.02]
|   |   |   registrar = REGISTER.IT S.P.A.
|   |   |   |   avg_path < 6.48
|   |   |   |   |   max_path < 6.5 : bad (5.4/0.08) [4.74/0.03]
|   |   |   |   |   max_path >= 6.5 : bad (2.85/0.14) [3.29/0.07]
|   |   |   |   avg_path >= 6.48 : bad (12.07/0.03) [4.08/0.02]
|   |   |   registrar = NETREGISTRY PTY LTD
|   |   |   |   num_ip < 0.5 : bad (6.44/0.17) [3.17/0.08]
|   |   |   |   num_ip >= 0.5 : bad (13.88/0.08) [5.93/0.04]
|   |   |   registrar = FASTDOMAIN INC. : bad (306.46/8.73) [148.91/4.84]
|   |   |   registrar = REGISTER.IT SPA : bad (10.16/0.12) [4.05/0.06]
|   |   |   registrar = ARDIS-RU : bad (5.08/0.06) [3.03/0.03]
|   |   |   registrar = WEBCC : bad (132.07/1.61) [58.68/0.79]
|   |   |   registrar = REG-ACTIVE24 : bad (3.39/0.04) [3.68/0.02]
|   |   |   registrar = LAUNCHPAD INC. (HOSTGATOR)
|   |   |   |   num_ip < 0.5 : bad (35.42/0.92) [17.45/0.46]
|   |   |   |   num_ip >= 0.5
|   |   |   |   |   num_ip < 2.5 : bad (73.81/0.25) [41.32/0.07]
|   |   |   |   |   num_ip >= 2.5 : bad (2.52/0.19) [0.81/0.14]
|   |   |   registrar = GO DADDY LLC : bad (47.41/0.58) [26.58/0.28]
|   |   |   registrar = MELBOURNE IT LTD. D/B/A INTERNET NAMES WORLDWIDE : bad (69.42/1.84) [46.02/0.42]
|   |   |   registrar = 1API GMBH : bad (13.55/0.16) [13.74/0.08]
|   |   |   registrar = HICHINA ZHICHENG TECHNOLOGY LTD. : bad (126.99/1.54) [56.65/0.76]
|   |   |   registrar = BIZCN.COMINC.
|   |   |   |   num_ip < 0.5 : bad (32.73/0.85) [16.13/0.43]
|   |   |   |   num_ip >= 0.5 : bad (70.55/0.4) [48.74/0.19]
|   |   |   registrar = ONLINENIC INC.
|   |   |   |   avg_path < 11.46
|   |   |   |   |   num_ip < 0.5 : bad (26.86/0.73) [13.26/0.36]
|   |   |   |   |   num_ip >= 0.5
|   |   |   |   |   |   num_ip < 2.5 : bad (51.64/0.19) [27.27/1.05]
|   |   |   |   |   |   num_ip >= 2.5 : bad (4.19/0.14) [2.62/0.11]
|   |   |   |   avg_path >= 11.46 : bad (5.36/1.01) [0.64/0.01]
|   |   |   registrar = IP MIRROR PTE LTD : bad (15.24/0.19) [5.08/0.09]
|   |   |   registrar = PDR LTD. D/B/A PUBLICDOMAINREGISTRY.COM
|   |   |   |   num_ip < 0.5
|   |   |   |   |   max_host < 4.5 : bad (7.93/1.02) [3.61/0.19]
|   |   |   |   |   max_host >= 4.5
|   |   |   |   |   |   avg_path < 6.73
|   |   |   |   |   |   |   max_path < 8.5
|   |   |   |   |   |   |   |   avg_path < 5.78
|   |   |   |   |   |   |   |   |   max_path < 5.5
|   |   |   |   |   |   |   |   |   |   avg_host < 15.5
|   |   |   |   |   |   |   |   |   |   |   max_host < 14.5
|   |   |   |   |   |   |   |   |   |   |   |   avg_host < 12.5 : bad (95.46/1.2) [49.34/0.65]
|   |   |   |   |   |   |   |   |   |   |   |   avg_host >= 12.5 : bad (13.06/0.37) [6.14/0.28]
|   |   |   |   |   |   |   |   |   |   |   max_host >= 14.5 : bad (6.27/0) [2.13/0]
|   |   |   |   |   |   |   |   |   |   avg_host >= 15.5 : bad (18.12/0.59) [9.72/0.19]
|   |   |   |   |   |   |   |   |   max_path >= 5.5 : bad (108.09/3.43) [51.83/2.25]
|   |   |   |   |   |   |   |   avg_path >= 5.78 : bad (21.29/0.09) [11.01/0.28]
|   |   |   |   |   |   |   max_path >= 8.5
|   |   |   |   |   |   |   |   avg_host < 18.5
|   |   |   |   |   |   |   |   |   avg_path < 5.05 : bad (19.88/2.04) [7.23/0.37]
|   |   |   |   |   |   |   |   |   avg_path >= 5.05 : bad (40.69/1.76) [19.44/0.65]
|   |   |   |   |   |   |   |   avg_host >= 18.5 : bad (6.61/0) [2.69/0.09]
|   |   |   |   |   |   avg_path >= 6.73 : bad (98.28/0.83) [51.02/0.74]
|   |   |   |   num_ip >= 0.5
|   |   |   |   |   country = US : bad (83.62/0.96) [35.4/0.6]
|   |   |   |   |   country = UNITED STATES : bad (5.18/0.2) [1.4/0.01]
|   |   |   |   |   country = PE : bad (4.91/0.02) [1.8/0.01]
|   |   |   |   |   country = NO : bad (0.55/0.19) [0.18/0.09]
|   |   |   |   |   country = UK : bad (0.55/0) [0.09/0]
|   |   |   |   |   country = KR : bad (7.21/0.21) [3.3/0.01]
|   |   |   |   |   country = GB : bad (4.52/0.11) [1.47/0.1]
|   |   |   |   |   country = AU : bad (101.3/0.56) [50.54/0.17]
|   |   |   |   |   country = CA : bad (8.9/0.03) [5.28/0.01]
|   |   |   |   |   country = AUSTRALIA : bad (2.99/0.01) [0.58/0]
|   |   |   |   |   country = IN : bad (180.95/0.77) [93.41/0.3]
|   |   |   |   |   country = MY : bad (13.75/0.05) [6.51/0.02]
|   |   |   |   |   country = CN : bad (45.62/0.17) [27.42/0.08]
|   |   |   |   |   country = JP : bad (0.97/0.19) [0.44/0]
|   |   |   |   |   country = HU : bad (0/0) [1/0]
|   |   |   |   |   country = GH : bad (1.5/0.01) [0.24/0]
|   |   |   |   |   country = NL : bad (2.33/1.01) [0.38/0]
|   |   |   |   |   country = ES : bad (13.39/0.14) [6.75/0.11]
|   |   |   |   |   country = DE : bad (4.38/0.02) [0.99/0.01]
|   |   |   |   |   country = PA : bad (6.12/0.02) [5.09/0.01]
|   |   |   |   |   country = TR : bad (30.62/0.11) [11.25/0.14]
|   |   |   |   |   country = FR : bad (2.88/0.01) [3.02/0]
|   |   |   |   |   country = ID : bad (43.82/0.16) [19.29/0.07]
|   |   |   |   |   country = LT : bad (1.5/0.01) [1.24/0]
|   |   |   |   |   country = DK : bad (0.14/0) [0.02/0]
|   |   |   |   |   country = PL : bad (1.64/0.01) [1.36/0]
|   |   |   |   |   country = SG : bad (0.28/0) [0.04/0]
|   |   |   |   |   country = MX : bad (15.94/0.06) [10.33/0.03]
|   |   |   |   |   country = DZ : bad (0/0) [0/0]
|   |   |   |   |   country = UKRAINE : bad (0.14/0) [0.02/0]
|   |   |   |   |   country = KH : bad (1.5/0.01) [0.24/0]
|   |   |   |   |   country = BR : bad (31.43/0.12) [12.1/0.05]
|   |   |   |   |   country = CY : bad (1.39/0.01) [1.5/0]
|   |   |   |   |   country = COLOMBIA : bad (0/0) [0/0]
|   |   |   |   |   country = CZ : bad (1.77/0.01) [0.38/0]
|   |   |   |   |   country = RUSSIAN FEDERATION : bad (0/0) [0/0]
|   |   |   |   |   country = UA : bad (26/0.1) [11.31/0.04]
|   |   |   |   |   country = MN : bad (0.42/0) [0.35/0]
|   |   |   |   |   country = BRAZIL : bad (0/0) [0/0]
|   |   |   |   |   country = CZECH REPUBLIC : bad (0/0) [0/0]
|   |   |   |   |   country = IL : bad (1.64/0.01) [1.45/0]
|   |   |   |   |   country = SE : bad (0.14/0) [0.12/0]
|   |   |   |   |   country = AR : bad (6.26/0.02) [1.11/0.01]
|   |   |   |   |   country = RU
|   |   |   |   |   |   avg_path < 4.28 : bad (4.25/0.04) [0.86/0.01]
|   |   |   |   |   |   avg_path >= 4.28 : bad (10.75/0.02) [3.66/0.01]
|   |   |   |   |   country = BG : bad (16.46/0.06) [5.67/0.03]
|   |   |   |   |   country = HK : bad (6.43/0.02) [2.15/0.01]
|   |   |   |   |   country = PH : bad (4.49/0.02) [1.73/0.01]
|   |   |   |   |   country = AT : bad (2.05/0.01) [0.33/0]
|   |   |   |   |   country = ZA : bad (1.5/0.01) [0.34/0]
|   |   |   |   |   country = BS : bad (0/0) [0/0]
|   |   |   |   |   country = LU : bad (0.14/0) [0.02/0]
|   |   |   |   |   country = CO : bad (28.05/0.1) [9.01/0.05]
|   |   |   |   |   country = TH
|   |   |   |   |   |   num_ip < 2.5 : bad (28.23/0.05) [8.02/0.02]
|   |   |   |   |   |   num_ip >= 2.5 : bad (2.39/0.06) [3.04/0.03]
|   |   |   |   |   country = TW : bad (0.42/0) [0.25/0]
|   |   |   |   |   country = NG : bad (32.54/0.12) [17.56/0.05]
|   |   |   |   |   country = YE : bad (0/0) [0/0]
|   |   |   |   |   country = LB : bad (0/0) [1/0]
|   |   |   |   |   country = KE : bad (0/0) [1/0]
|   |   |   |   |   country = BD
|   |   |   |   |   |   num_ip < 2.5 : bad (31.37/0.06) [14.55/0.02]
|   |   |   |   |   |   num_ip >= 2.5 : bad (2.66/0.07) [1.16/0.04]
|   |   |   |   |   country = CR : bad (4.49/0.02) [3.73/0.01]
|   |   |   |   |   country = EG : bad (1.5/0.01) [3.24/0]
|   |   |   |   |   country = CH : bad (2.99/0.01) [0.49/0]
|   |   |   |   |   country = BE : bad (0/0) [0/0]
|   |   |   |   |   country = PT : bad (5.6/0.02) [7.09/0.01]
|   |   |   |   |   country = FI : bad (1.5/0.01) [0.24/0]
|   |   |   |   |   country = THAILAND : bad (0/0) [0/0]
|   |   |   |   |   country = IT : bad (4.63/0.02) [2.75/0.01]
|   |   |   |   |   country = PK : bad (40.55/0.15) [12.58/0.07]
|   |   |   |   |   country = AZ : bad (0/0) [0/0]
|   |   |   |   |   country = SA : bad (1.64/0.01) [1.27/0]
|   |   |   |   |   country = AE : bad (4.77/0.02) [0.77/0.01]
|   |   |   |   |   country = AF : bad (0/0) [1/0]
|   |   |   |   |   country = IE : bad (0/0) [0.09/0]
|   |   |   |   |   country = GQ : bad (0/0) [0/0]
|   |   |   |   |   country = BRASIL : bad (0/0) [0/0]
|   |   |   |   |   country = TL : good (0/0) [0.09/0]
|   |   |   |   |   country = BOSNIA AND HERZEGOVINA : bad (0/0) [0/0]
|   |   |   |   |   country = SI : bad (0.28/0) [0.04/0]
|   |   |   |   |   country = DO : bad (0/0) [0/0]
|   |   |   |   |   country = YU : bad (0/0) [0/0]
|   |   |   |   |   country = BT : bad (0/0) [0/0]
|   |   |   |   |   country = CAN : bad (0/0) [0/0]
|   |   |   |   |   country = NZ : bad (0.14/0) [0.12/0.09]
|   |   |   |   |   country = VE : bad (4.49/0.02) [2.73/0.01]
|   |   |   |   |   country = GUATEMALA : bad (0/0) [0/0]
|   |   |   |   |   country = MALAYSIA : bad (0/0) [0/0]
|   |   |   |   |   country = UNITED KINGDOM : bad (0/0) [0/0]
|   |   |   |   |   country = JO : bad (0/0) [0/0]
|   |   |   |   |   country = SOUTH AFRICA : bad (0/0) [0/0]
|   |   |   |   |   country = LV : bad (0/0) [0/0]
|   |   |   |   |   country = NA : bad (0/0) [0/0]
|   |   |   |   |   country = AM : bad (0/0) [0/0]
|   |   |   |   |   country = AL : bad (1.5/0.01) [0.24/0]
|   |   |   |   |   country = IR : bad (0/0) [0/0]
|   |   |   |   |   country = BY : bad (0/0) [0/0]
|   |   |   |   |   country = GR : bad (0/0) [0.09/0]
|   |   |   |   |   country = VN : bad (2.19/0.01) [0.45/0]
|   |   |   |   |   country = JM : bad (0/0) [0/0]
|   |   |   |   |   country = GA : bad (0/0) [0/0]
|   |   |   |   |   country = VG : bad (0/0) [0/0]
|   |   |   |   |   country = JAPAN : bad (0/0) [0/0]
|   |   |   |   |   country = PR : bad (0/0) [0/0]
|   |   |   |   |   country = AZERBAIJAN : bad (0/0) [0/0]
|   |   |   |   |   country = UY : bad (1.5/0.01) [1.34/0]
|   |   |   |   |   country = IRAN : bad (0.28/0) [0.04/0]
|   |   |   |   |   country = ROMANIA : bad (0/0) [0/0]
|   |   |   |   |   country = SD : bad (0/0) [0/0]
|   |   |   |   |   country = TZ : bad (0/0) [0/0]
|   |   |   |   |   country = EC : bad (0/0) [0/0]
|   |   |   |   |   country = MK : bad (1.5/0.01) [0.24/0]
|   |   |   |   |   country = SO : bad (0/0) [0/0]
|   |   |   |   |   country = SK : bad (0/0) [0/0]
|   |   |   |   |   country = UNITED : bad (0/0) [0/0]
|   |   |   |   |   country = ER : bad (0/0) [0/0]
|   |   |   |   |   country = RO : bad (2.99/0.01) [2.49/0]
|   |   |   |   |   country = QA : bad (0/0) [0/0]
|   |   |   |   |   country = OM : bad (0/0) [0/0]
|   |   |   |   |   country = CL : bad (0/0) [0/0]
|   |   |   |   |   country = SC : bad (0/0) [0/0]
|   |   |   |   |   country = BZ : bad (0/0) [0/0]
|   |   |   |   |   country = GI : bad (0/0) [0/0]
|   |   |   |   |   country = MZ : bad (0/0) [0/0]
|   |   |   |   |   country = SV : bad (0/0) [0/0]
|   |   |   |   |   country = CG : bad (0/0) [0/0]
|   |   |   |   |   country = TURKEY : bad (1.77/0.01) [0.47/0]
|   |   |   |   |   country = BA : bad (0/0) [0/0]
|   |   |   |   |   country = MU : bad (0/0) [0/0]
|   |   |   |   |   country = ITALY : bad (0/0) [0/0]
|   |   |   |   |   country = GT : bad (0/0) [0/0]
|   |   |   |   |   country = LA : bad (0/0) [0/0]
|   |   |   |   |   country = TG : bad (0/0) [0/0]
|   |   |   |   |   country = BH : bad (0/0) [0/0]
|   |   |   |   |   country = GM : bad (0/0) [0/0]
|   |   |   |   |   country = NI : bad (0/0) [0/0]
|   |   |   |   |   country = AD : bad (0.28/0) [0.04/0]
|   |   |   |   |   country = TN : bad (0/0) [0.09/0]
|   |   |   |   |   country = IQ : bad (0/0) [0/0]
|   |   |   |   |   country = BB : bad (0/0) [0/0]
|   |   |   |   |   country = CYPRUS : bad (0/0) [0/0]
|   |   |   |   |   country = KOREA : bad (0/0) [0/0]
|   |   |   |   |   country = NP : bad (10.48/0.04) [3.7/0.02]
|   |   |   |   |   country = MD : bad (0/0) [0/0]
|   |   |   |   |   country = GERMANY : bad (0.14/0) [0.02/0]
|   |   |   |   |   country = FJ : bad (0/0) [0/0]
|   |   |   |   |   country = IS : bad (0/0) [0/0]
|   |   |   |   |   country = RS : bad (1.5/0.01) [0.24/0]
|   |   |   |   |   country = KN : bad (0/0) [0/0]
|   |   |   |   |   country = SWITZERLAND : bad (0/0) [0/0]
|   |   |   |   |   country = MA : bad (0/0) [0/0]
|   |   |   |   |   country = LY : bad (0/0) [0/0]
|   |   |   |   |   country = NETHERLANDS : bad (0/0) [0/0]
|   |   |   |   |   country = MG : bad (0.14/0) [0.02/0]
|   |   |   |   |   country = PAKIST : bad (0/0) [0/0]
|   |   |   |   |   country = NIGERIA : bad (0/0) [1/0]
|   |   |   |   |   country = THAILA : bad (0/0) [0/0]
|   |   |   |   |   country = KY : bad (0/0) [0/0]
|   |   |   |   |   country = VC : bad (0.14/0) [0.02/0]
|   |   |   |   |   country = PY : bad (0/0) [0/0]
|   |   |   |   |   country = INDONESIA : bad (0/0) [0/0]
|   |   |   |   |   country = KW : bad (1.5/0.01) [0.24/0]
|   |   |   |   |   country = MT : bad (0/0) [0/0]
|   |   |   |   |   country = CHINA : bad (0.97/0) [0.34/0]
|   |   |   |   |   country = ML : bad (0/0) [0/0]
|   |   |   |   |   country = SINGAPORE : bad (0/0) [0/0]
|   |   |   |   |   country = CD : bad (0/0) [0/0]
|   |   |   |   |   country = LK : bad (0/0) [0/0]
|   |   |   |   |   country = ISTANB : bad (0/0) [0/0]
|   |   |   |   |   country = COSTA RICA : bad (0/0) [0.09/0]
|   |   |   |   |   country = GY : bad (0/0) [0/0]
|   |   |   |   |   country = BW : bad (0/0) [0/0]
|   |   |   |   |   country = PN : bad (0/0) [0/0]
|   |   |   |   |   country = PAKISTAN : bad (0/0) [0/0]
|   |   |   |   |   country = LITHUANIA : bad (0/0) [0/0]
|   |   |   |   |   country = KZ : bad (0/0) [0.09/0]
|   |   |   |   |   country = PS : bad (0/0) [0/0]
|   |   |   |   |   country = POLAND : bad (2.99/0.01) [0.49/0]
|   |   |   |   |   country = INDIA : bad (1.77/0.01) [0.29/0]
|   |   |   |   |   country = AUSTRIA : bad (0/0) [0/0]
|   |   |   |   |   country = SPAIN : bad (0.14/0) [0.02/0]
|   |   |   |   |   country = ME : bad (0/0) [0/0]
|   |   |   |   |   country = LR : bad (0/0) [0/0]
|   |   |   |   |   country = UG : bad (0/0) [0/0]
|   |   |   |   |   country = ZW : bad (0/0) [0/0]
|   |   |   |   |   country = STATUS : bad (0/0) [0/0]
|   |   |   |   |   country = UNITEDSTATES : bad (0/0) [0/0]
|   |   |   |   |   country = EE : bad (0.14/0) [0.02/0]
|   |   |   |   |   country = VIET N : bad (0/0) [0/0]
|   |   |   |   |   country = CANADA : bad (0/0) [0/0]
|   |   |   |   |   country = HR : bad (0.28/0) [0.14/0]
|   |   |   |   |   country = TT : bad (0/0) [0/0]
|   |   |   |   |   country = PANAMA : bad (0/0) [0/0]
|   |   |   |   |   country = ZM : bad (0/0) [0/0]
|   |   |   |   |   country = CM : bad (0/0) [0/0]
|   |   |   |   |   country = ISRAEL : bad (0/0) [0/0]
|   |   |   |   |   country = HN : bad (0/0) [0/0]
|   |   |   |   |   country = SN : bad (0/0) [0/0]
|   |   |   |   |   country = BO : bad (1.5/0.01) [0.24/0]
|   |   |   |   |   country = VU : bad (0/0) [0/0]
|   |   |   |   |   country = DM : bad (0/0) [0/0]
|   |   |   |   |   country = CU : bad (0/0) [0/0]
|   |   |   |   |   country = BM : bad (0/0) [0/0]
|   |   |   |   |   country = CI : bad (0/0) [0.09/0]
|   |   |   |   |   country = GP : bad (0/0) [0/0]
|   |   |   |   |   country = AS : bad (0/0) [0/0]
|   |   |   |   |   country = SEYCHELLES : bad (0.14/0) [0.02/0]
|   |   |   |   |   country = AN : bad (0/0) [0/0]
|   |   |   |   |   country = SL : bad (0/0) [0/0]
|   |   |   |   |   country = NC : bad (0/0) [0/0]
|   |   |   |   |   country = MQ : bad (0/0) [0/0]
|   |   |   |   |   country = UN : bad (0/0) [0/0]
|   |   |   |   |   country = VENEZUELA : bad (0/0) [0/0]
|   |   |   |   |   country = KM : bad (0/0) [0/0]
|   |   |   |   |   country = BN : bad (0/0) [0/0]
|   |   |   |   |   country = TAIWAN : bad (0/0) [0/0]
|   |   |   |   |   country = GE : bad (0/0) [1/0]
|   |   |   |   |   country = JORDAN : bad (0/0) [0/0]
|   |   |   |   |   country = TC : bad (0/0) [0/0]
|   |   |   |   |   country = - : bad (0/0) [0/0]
|   |   |   |   |   country = REPUBLIC OF KOREA : bad (0/0) [0/0]
|   |   |   |   |   country = FRANCE : bad (0/0) [0/0]
|   |   |   |   |   country = MV : bad (0/0) [0/0]
|   |   |   |   |   country = AG : bad (0/0) [0/0]
|   |   |   |   |   country = VIET NAM : bad (1.5/0.01) [0.24/0]
|   |   |   |   |   country = VA : bad (0/0) [0/0]
|   |   |   |   |   country = AO : bad (0/0) [0/0]
|   |   |   |   |   country = LUXEMBOURG : bad (0/0) [0/0]
|   |   |   |   |   country = TK : bad (0/0) [0/0]
|   |   |   |   |   country = MC : bad (0/0) [0/0]
|   |   |   |   |   country = VI : bad (0/0) [0/0]
|   |   |   |   |   country = BAHAMAS : bad (0/0) [0/0]
|   |   |   |   |   country = IRELAND : bad (0/0) [0/0]
|   |   |   |   |   country = CV : bad (0/0) [0/0]
|   |   |   |   |   country = ET : bad (0/0) [0/0]
|   |   |   |   |   country = SY : bad (0/0) [0/0]
|   |   |   |   |   country = CK : bad (0/0) [0/0]
|   |   |   |   |   country = KG : bad (0/0) [0/0]
|   |   |   |   |   country = SR : bad (0/0) [0/0]
|   |   |   |   |   country = ????????????? : bad (0/0) [0/0]
|   |   |   |   |   country = BELGIUM : bad (0/0) [0/0]
|   |   |   |   |   country = KV : bad (0/0) [0/0]
|   |   |   |   |   country = MM : bad (0/0) [0/0]
|   |   |   |   |   country = HONG KONG : bad (0/0) [0.09/0]
|   |   |   |   |   country = PF : bad (0/0) [0/0]
|   |   |   |   |   country = EGYPT : bad (0/0) [0/0]
|   |   |   |   |   country = UGANDA : bad (0/0) [0/0]
|   |   |   |   |   country = UZ : bad (0/0) [0/0]
|   |   |   registrar = WILD WEST DOMAINS LLC
|   |   |   |   country = US
|   |   |   |   |   num_ip < 1.5 : bad (32.77/0.85) [16.11/0.43]
|   |   |   |   |   num_ip >= 1.5
|   |   |   |   |   |   reg_time < 1261368000 : bad (19.34/0.21) [13.23/1.1]
|   |   |   |   |   |   reg_time >= 1261368000
|   |   |   |   |   |   |   reg_time < 1304740800
|   |   |   |   |   |   |   |   reg_time < 1303963200
|   |   |   |   |   |   |   |   |   reg_time < 1262923200 : good (3.17/0.17) [1.09/0.09]
|   |   |   |   |   |   |   |   |   reg_time >= 1262923200 : bad (3.1/0.02) [1.27/0.03]
|   |   |   |   |   |   |   |   reg_time >= 1303963200 : good (24.39/1.33) [19.7/0.66]
|   |   |   |   |   |   |   reg_time >= 1304740800
|   |   |   |   |   |   |   |   reg_time < 1460822400 : bad (15.91/0.11) [12.06/0.03]
|   |   |   |   |   |   |   |   reg_time >= 1460822400 : bad (4.65/1.01) [0.79/0.03]
|   |   |   |   country = UNITED STATES : bad (0.25/0.05) [0.2/0]
|   |   |   |   country = PE : bad (0.15/0.01) [0.04/0]
|   |   |   |   country = NO : bad (0.2/0.05) [0.08/0.02]
|   |   |   |   country = UK : bad (4.9/2.19) [1.42/0.07]
|   |   |   |   country = KR : bad (2.57/0.14) [1.23/0.04]
|   |   |   |   country = GB : good (0.54/0.5) [1.33/0.3]
|   |   |   |   country = AU : bad (1.43/0.1) [0.67/0.02]
|   |   |   |   country = CA
|   |   |   |   |   reg_time < 1261454400
|   |   |   |   |   |   num_ip < 1 : bad (11.65/0.31) [5.75/0.16]
|   |   |   |   |   |   num_ip >= 1 : bad (25.57/0.09) [12.15/0.04]
|   |   |   |   |   reg_time >= 1261454400
|   |   |   |   |   |   reg_time < 1262923200 : good (2.34/0.79) [0.91/0.39]
|   |   |   |   |   |   reg_time >= 1262923200 : bad (13.21/0.15) [5.65/0.07]
|   |   |   |   country = AUSTRALIA : bad (0/0) [0.02/0]
|   |   |   |   country = IN : bad (14.38/0.59) [8.88/0.21]
|   |   |   |   country = MY : bad (0.1/0) [0.09/0]
|   |   |   |   country = CN : bad (0.89/0.04) [0.55/0.01]
|   |   |   |   country = JP : bad (0.35/0.06) [0.16/0.01]
|   |   |   |   country = HU : bad (0/0) [0/0]
|   |   |   |   country = GH : bad (2.35/1.09) [0.68/0.04]
|   |   |   |   country = NL : bad (0.3/0.01) [0.09/0]
|   |   |   |   country = ES : bad (3.39/0.16) [2.34/0.07]
|   |   |   |   country = DE : bad (0.49/0.02) [0.21/0.01]
|   |   |   |   country = PA : bad (0.05/0) [0.04/0]
|   |   |   |   country = TR : bad (0.25/0.01) [0.13/0.02]
|   |   |   |   country = FR : bad (0.49/0.02) [0.27/0.01]
|   |   |   |   country = ID : bad (2.5/0.1) [0.77/0.04]
|   |   |   |   country = LT : bad (0/0) [0/0]
|   |   |   |   country = DK : bad (0.05/0) [0.01/0]
|   |   |   |   country = PL : bad (0.05/0) [0.04/0]
|   |   |   |   country = SG : bad (0.1/0) [0.03/0]
|   |   |   |   country = MX : bad (2.7/0.11) [1.95/0.04]
|   |   |   |   country = DZ : bad (0/0) [0/0]
|   |   |   |   country = UKRAINE : bad (0.05/0) [0.01/0]
|   |   |   |   country = KH : bad (0/0) [0/0]
|   |   |   |   country = BR : bad (2.35/0.09) [1.68/0.04]
|   |   |   |   country = CY : bad (0.49/0.02) [0.21/0.01]
|   |   |   |   country = COLOMBIA : bad (0/0) [0/0]
|   |   |   |   country = CZ : bad (0.1/0) [0.05/0]
|   |   |   |   country = RUSSIAN FEDERATION : bad (0/0) [0/0]
|   |   |   |   country = UA : bad (0.2/0.01) [0.08/0]
|   |   |   |   country = MN : bad (0.15/0.01) [0.11/0]
|   |   |   |   country = BRAZIL : bad (0/0) [0/0]
|   |   |   |   country = CZECH REPUBLIC : bad (0/0) [0/0]
|   |   |   |   country = IL : bad (2.4/0.1) [0.74/0.04]
|   |   |   |   country = SE : bad (0.05/0) [0.04/0]
|   |   |   |   country = AR
|   |   |   |   |   reg_time < 1265472000
|   |   |   |   |   |   reg_time < 1261454400 : bad (10.25/0.18) [5.67/0.07]
|   |   |   |   |   |   reg_time >= 1261454400 : good (4.01/1.39) [1.57/0.68]
|   |   |   |   |   reg_time >= 1265472000 : bad (75.19/0.75) [35.68/0.38]
|   |   |   |   country = RU : bad (0.54/0.02) [0.18/0.01]
|   |   |   |   country = BG : bad (0/0) [0/0]
|   |   |   |   country = HK : bad (0.69/0.03) [0.45/0.01]
|   |   |   |   country = PH : bad (0/0) [0/0]
|   |   |   |   country = AT : bad (0.2/0.01) [0.06/0]
|   |   |   |   country = ZA : bad (0/0) [0.02/0]
|   |   |   |   country = BS : bad (0/0) [0/0]
|   |   |   |   country = LU : bad (0.05/0) [0.01/0]
|   |   |   |   country = CO : bad (0.4/0.02) [0.22/0.01]
|   |   |   |   country = TH : bad (0.25/0.01) [0.09/0]
|   |   |   |   country = TW : bad (0.15/0.01) [0.09/0]
|   |   |   |   country = NG : bad (2.75/0.11) [0.86/0.04]
|   |   |   |   country = YE : bad (0/0) [0/0]
|   |   |   |   country = LB : bad (0/0) [0/0]
|   |   |   |   country = KE : bad (0/0) [0/0]
|   |   |   |   country = BD : bad (2.75/0.11) [5.84/0.04]
|   |   |   |   country = CR : bad (0/0) [0/0]
|   |   |   |   country = EG : bad (4.7/0.19) [1.36/0.07]
|   |   |   |   country = CH : bad (0/0) [0/0]
|   |   |   |   country = BE : bad (0/0) [0/0]
|   |   |   |   country = PT : bad (0.4/0.02) [0.16/0.01]
|   |   |   |   country = FI : bad (0/0) [0/0]
|   |   |   |   country = THAILAND : bad (0/0) [0/0]
|   |   |   |   country = IT : bad (0.05/0) [0.01/0]
|   |   |   |   country = PK : bad (0.05/0) [0.01/0]
|   |   |   |   country = AZ : bad (0/0) [0/0]
|   |   |   |   country = SA : bad (0.05/0) [0.01/0]
|   |   |   |   country = AE : bad (0.1/0) [0.03/0]
|   |   |   |   country = AF : bad (0/0) [0/0]
|   |   |   |   country = IE : bad (0/0) [0.02/0]
|   |   |   |   country = GQ : bad (0/0) [0/0]
|   |   |   |   country = BRASIL : bad (0/0) [0/0]
|   |   |   |   country = TL : good (0/0) [0.02/0]
|   |   |   |   country = BOSNIA AND HERZEGOVINA : bad (0/0) [0/0]
|   |   |   |   country = SI : bad (0.1/0) [0.03/0]
|   |   |   |   country = DO : bad (0/0) [0/0]
|   |   |   |   country = YU : bad (0/0) [0/0]
|   |   |   |   country = BT : bad (0/0) [0/0]
|   |   |   |   country = CAN : bad (0/0) [0/0]
|   |   |   |   country = NZ : bad (0.05/0) [1.04/0.02]
|   |   |   |   country = VE : bad (0/0) [0/0]
|   |   |   |   country = GUATEMALA : bad (0/0) [0/0]
|   |   |   |   country = MALAYSIA : bad (0/0) [0/0]
|   |   |   |   country = UNITED KINGDOM : bad (0/0) [0/0]
|   |   |   |   country = JO : bad (0/0) [0/0]
|   |   |   |   country = SOUTH AFRICA : bad (0/0) [0/0]
|   |   |   |   country = LV : bad (0/0) [0/0]
|   |   |   |   country = NA : bad (0/0) [0/0]
|   |   |   |   country = AM : bad (0/0) [0/0]
|   |   |   |   country = AL : bad (0/0) [0/0]
|   |   |   |   country = IR : bad (0/0) [0/0]
|   |   |   |   country = BY : bad (0/0) [0/0]
|   |   |   |   country = GR : bad (2.35/0.09) [0.7/0.04]
|   |   |   |   country = VN : bad (2.6/0.1) [0.77/0.04]
|   |   |   |   country = JM : bad (0/0) [0/0]
|   |   |   |   country = GA : bad (0/0) [0/0]
|   |   |   |   country = VG : bad (0/0) [0/0]
|   |   |   |   country = JAPAN : bad (0/0) [0/0]
|   |   |   |   country = PR : bad (0/0) [0/0]
|   |   |   |   country = AZERBAIJAN : bad (0/0) [0/0]
|   |   |   |   country = UY : bad (0/0) [0.02/0]
|   |   |   |   country = IRAN : bad (0.1/0) [0.03/0]
|   |   |   |   country = ROMANIA : bad (0/0) [0/0]
|   |   |   |   country = SD : bad (0/0) [0/0]
|   |   |   |   country = TZ : bad (0/0) [0/0]
|   |   |   |   country = EC : bad (0/0) [0/0]
|   |   |   |   country = MK : bad (0/0) [0/0]
|   |   |   |   country = SO : bad (0/0) [0/0]
|   |   |   |   country = SK : bad (0/0) [0/0]
|   |   |   |   country = UNITED : bad (0/0) [0/0]
|   |   |   |   country = ER : bad (0/0) [0/0]
|   |   |   |   country = RO : bad (0/0) [0/0]
|   |   |   |   country = QA : bad (0/0) [0/0]
|   |   |   |   country = OM : bad (0/0) [0/0]
|   |   |   |   country = CL : bad (2.35/0.09) [0.68/0.04]
|   |   |   |   country = SC : bad (0/0) [0/0]
|   |   |   |   country = BZ : bad (0/0) [0/0]
|   |   |   |   country = GI : bad (0/0) [0/0]
|   |   |   |   country = MZ : bad (0/0) [0/0]
|   |   |   |   country = SV : bad (0/0) [0/0]
|   |   |   |   country = CG : bad (0/0) [0/0]
|   |   |   |   country = TURKEY : bad (0.1/0) [0.07/0]
|   |   |   |   country = BA : bad (0/0) [0/0]
|   |   |   |   country = MU : bad (0/0) [0/0]
|   |   |   |   country = ITALY : bad (0/0) [0/0]
|   |   |   |   country = GT : bad (0/0) [0/0]
|   |   |   |   country = LA : bad (0/0) [0/0]
|   |   |   |   country = TG : bad (0/0) [0/0]
|   |   |   |   country = BH : bad (0/0) [0/0]
|   |   |   |   country = GM : bad (0/0) [0/0]
|   |   |   |   country = NI : bad (0/0) [0/0]
|   |   |   |   country = AD : bad (0.1/0) [0.03/0]
|   |   |   |   country = TN : bad (0/0) [0.02/0]
|   |   |   |   country = IQ : bad (0/0) [0/0]
|   |   |   |   country = BB : bad (0/0) [0/0]
|   |   |   |   country = CYPRUS : bad (0/0) [0/0]
|   |   |   |   country = KOREA : bad (0/0) [0/0]
|   |   |   |   country = NP : bad (0/0) [0/0]
|   |   |   |   country = MD : bad (0/0) [0/0]
|   |   |   |   country = GERMANY : bad (0.05/0) [0.01/0]
|   |   |   |   country = FJ : bad (0/0) [0/0]
|   |   |   |   country = IS : bad (0/0) [0/0]
|   |   |   |   country = RS : bad (0/0) [0/0]
|   |   |   |   country = KN : bad (0/0) [0/0]
|   |   |   |   country = SWITZERLAND : bad (0/0) [0/0]
|   |   |   |   country = MA : bad (0/0) [0/0]
|   |   |   |   country = LY : bad (0/0) [0/0]
|   |   |   |   country = NETHERLANDS : bad (0/0) [0/0]
|   |   |   |   country = MG : bad (0.05/0) [0.01/0]
|   |   |   |   country = PAKIST : bad (0/0) [0/0]
|   |   |   |   country = NIGERIA : bad (0/0) [0/0]
|   |   |   |   country = THAILA : bad (0/0) [0/0]
|   |   |   |   country = KY : bad (0/0) [0/0]
|   |   |   |   country = VC : bad (0.05/0) [0.01/0]
|   |   |   |   country = PY : bad (0/0) [0/0]
|   |   |   |   country = INDONESIA : bad (0/0) [0/0]
|   |   |   |   country = KW : bad (0/0) [0/0]
|   |   |   |   country = MT : bad (0/0) [0/0]
|   |   |   |   country = CHINA : bad (0.35/0.01) [0.14/0.01]
|   |   |   |   country = ML : bad (0/0) [0/0]
|   |   |   |   country = SINGAPORE : bad (0/0) [0/0]
|   |   |   |   country = CD : bad (0/0) [0/0]
|   |   |   |   country = LK : bad (0/0) [0/0]
|   |   |   |   country = ISTANB : bad (0/0) [0/0]
|   |   |   |   country = COSTA RICA : bad (0/0) [0.02/0]
|   |   |   |   country = GY : bad (0/0) [0/0]
|   |   |   |   country = BW : bad (0/0) [0/0]
|   |   |   |   country = PN : bad (0/0) [0/0]
|   |   |   |   country = PAKISTAN : bad (0/0) [0/0]
|   |   |   |   country = LITHUANIA : bad (0/0) [0/0]
|   |   |   |   country = KZ : bad (0/0) [0.02/0]
|   |   |   |   country = PS : bad (0/0) [0/0]
|   |   |   |   country = POLAND : bad (0/0) [0/0]
|   |   |   |   country = INDIA : bad (0.1/0) [0.03/0]
|   |   |   |   country = AUSTRIA : bad (0/0) [0/0]
|   |   |   |   country = SPAIN : bad (0.05/0) [0.01/0]
|   |   |   |   country = ME : bad (0/0) [0/0]
|   |   |   |   country = LR : bad (0/0) [0/0]
|   |   |   |   country = UG : bad (0/0) [0/0]
|   |   |   |   country = ZW : bad (0/0) [0/0]
|   |   |   |   country = STATUS : bad (0/0) [0/0]
|   |   |   |   country = UNITEDSTATES : bad (0/0) [0/0]
|   |   |   |   country = EE : bad (0.05/0) [0.01/0]
|   |   |   |   country = VIET N : bad (0/0) [0/0]
|   |   |   |   country = CANADA : bad (0/0) [0/0]
|   |   |   |   country = HR : bad (0.1/0) [0.05/0]
|   |   |   |   country = TT : bad (0/0) [0/0]
|   |   |   |   country = PANAMA : bad (0/0) [0/0]
|   |   |   |   country = ZM : bad (0/0) [0/0]
|   |   |   |   country = CM : bad (0/0) [0/0]
|   |   |   |   country = ISRAEL : bad (0/0) [0/0]
|   |   |   |   country = HN : bad (0/0) [0/0]
|   |   |   |   country = SN : bad (0/0) [0/0]
|   |   |   |   country = BO : bad (0/0) [0/0]
|   |   |   |   country = VU : bad (0/0) [0/0]
|   |   |   |   country = DM : bad (0/0) [0/0]
|   |   |   |   country = CU : bad (0/0) [0/0]
|   |   |   |   country = BM : bad (0/0) [0/0]
|   |   |   |   country = CI : bad (0/0) [0.02/0]
|   |   |   |   country = GP : bad (0/0) [0/0]
|   |   |   |   country = AS : bad (0/0) [0/0]
|   |   |   |   country = SEYCHELLES : bad (0.05/0) [0.01/0]
|   |   |   |   country = AN : bad (0/0) [0/0]
|   |   |   |   country = SL : bad (0/0) [0/0]
|   |   |   |   country = NC : bad (0/0) [0/0]
|   |   |   |   country = MQ : bad (0/0) [0/0]
|   |   |   |   country = UN : bad (0/0) [0/0]
|   |   |   |   country = VENEZUELA : bad (0/0) [0/0]
|   |   |   |   country = KM : bad (0/0) [0/0]
|   |   |   |   country = BN : bad (0/0) [0/0]
|   |   |   |   country = TAIWAN : bad (0/0) [0/0]
|   |   |   |   country = GE : bad (0/0) [0/0]
|   |   |   |   country = JORDAN : bad (0/0) [0/0]
|   |   |   |   country = TC : bad (0/0) [0/0]
|   |   |   |   country = - : bad (0/0) [0/0]
|   |   |   |   country = REPUBLIC OF KOREA : bad (0/0) [0/0]
|   |   |   |   country = FRANCE : bad (0/0) [0/0]
|   |   |   |   country = MV : bad (0/0) [0/0]
|   |   |   |   country = AG : bad (0/0) [0/0]
|   |   |   |   country = VIET NAM : bad (0/0) [0/0]
|   |   |   |   country = VA : bad (0/0) [0/0]
|   |   |   |   country = AO : bad (0/0) [0/0]
|   |   |   |   country = LUXEMBOURG : bad (0/0) [0/0]
|   |   |   |   country = TK : bad (0/0) [0/0]
|   |   |   |   country = MC : bad (0/0) [0/0]
|   |   |   |   country = VI : bad (0/0) [0/0]
|   |   |   |   country = BAHAMAS : bad (0/0) [0/0]
|   |   |   |   country = IRELAND : bad (0/0) [0/0]
|   |   |   |   country = CV : bad (0/0) [0/0]
|   |   |   |   country = ET : bad (0/0) [0/0]
|   |   |   |   country = SY : bad (0/0) [0/0]
|   |   |   |   country = CK : bad (0/0) [0/0]
|   |   |   |   country = KG : bad (0/0) [0/0]
|   |   |   |   country = SR : bad (0/0) [0/0]
|   |   |   |   country = ????????????? : bad (0/0) [0/0]
|   |   |   |   country = BELGIUM : bad (0/0) [0/0]
|   |   |   |   country = KV : bad (0/0) [0/0]
|   |   |   |   country = MM : bad (0/0) [0/0]
|   |   |   |   country = HONG KONG : bad (0/0) [0.02/0]
|   |   |   |   country = PF : bad (0/0) [0/0]
|   |   |   |   country = EGYPT : bad (0/0) [0/0]
|   |   |   |   country = UGANDA : bad (0/0) [0/0]
|   |   |   |   country = UZ : bad (0/0) [0/0]
|   |   |   registrar = SAFENAMES LTD : bad (0/0) [0/0]
|   |   |   registrar = REGISTRAR OF DOMAIN NAMES REG.RU LLC : bad (42.33/0.51) [20.55/0.25]
|   |   |   registrar = DREAMHOST : bad (27.09/0.33) [11.47/0.16]
|   |   |   registrar = GIP RENATER : bad (0/0) [0/0]
|   |   |   registrar = WEBIQ DOMAINS SOLUTIONS PVT. LTD. (R131-AFIN)
|   |   |   |   num_ip < 0.5 : bad (6.44/0.17) [3.17/0.08]
|   |   |   |   num_ip >= 0.5 : bad (13.88/0.08) [4.93/0.04]
|   |   |   registrar = GANDI SAS
|   |   |   |   reg_time < 1329148800
|   |   |   |   |   num_ip < 2.5 : bad (12.68/0.29) [5.74/0.13]
|   |   |   |   |   num_ip >= 2.5
|   |   |   |   |   |   country = US : good (2.07/0.05) [2.04/0.03]
|   |   |   |   |   |   country = UNITED STATES : bad (0/0) [0/0]
|   |   |   |   |   |   country = PE : good (0/0) [0/0]
|   |   |   |   |   |   country = NO : bad (0.01/0) [0/0]
|   |   |   |   |   |   country = UK : good (0/0) [0/0]
|   |   |   |   |   |   country = KR : bad (0/0) [0.01/0]
|   |   |   |   |   |   country = GB : bad (0.01/0) [0.01/0]
|   |   |   |   |   |   country = AU : bad (0.02/0) [0/0]
|   |   |   |   |   |   country = CA : bad (0.03/0) [0.03/0]
|   |   |   |   |   |   country = AUSTRALIA : bad (0/0) [0/0]
|   |   |   |   |   |   country = IN : bad (0.06/0) [0.03/0]
|   |   |   |   |   |   country = MY : good (0/0) [0/0]
|   |   |   |   |   |   country = CN : bad (0/0) [0/0]
|   |   |   |   |   |   country = JP : bad (0.01/0) [0/0]
|   |   |   |   |   |   country = HU : good (0/0) [0/0]
|   |   |   |   |   |   country = GH : good (0/0) [0/0]
|   |   |   |   |   |   country = NL : good (0/0) [0/0]
|   |   |   |   |   |   country = ES : bad (0.01/0) [0.02/0]
|   |   |   |   |   |   country = DE : bad (0.01/0) [0/0]
|   |   |   |   |   |   country = PA : good (0/0) [0/0]
|   |   |   |   |   |   country = TR : good (0/0) [0/0]
|   |   |   |   |   |   country = FR
|   |   |   |   |   |   |   avg_path < 5.07
|   |   |   |   |   |   |   |   max_host < 6.5 : good (2.01/0.01) [1/0]
|   |   |   |   |   |   |   |   max_host >= 6.5 : bad (3.08/1.02) [0.04/0.01]
|   |   |   |   |   |   |   avg_path >= 5.07 : bad (2.08/0) [2.05/0]
|   |   |   |   |   |   country = ID : bad (0/0) [0/0]
|   |   |   |   |   |   country = LT : good (0/0) [0/0]
|   |   |   |   |   |   country = DK : good (0/0) [0/0]
|   |   |   |   |   |   country = PL : bad (0/0) [0/0]
|   |   |   |   |   |   country = SG : bad (0/0) [0/0]
|   |   |   |   |   |   country = MX : bad (0/0) [0/0]
|   |   |   |   |   |   country = DZ : good (0/0) [0/0]
|   |   |   |   |   |   country = UKRAINE : bad (0/0) [0/0]
|   |   |   |   |   |   country = KH : good (0/0) [0/0]
|   |   |   |   |   |   country = BR : good (0/0) [0/0]
|   |   |   |   |   |   country = CY : good (0/0) [0/0]
|   |   |   |   |   |   country = COLOMBIA : good (0/0) [0/0]
|   |   |   |   |   |   country = CZ : good (0/0) [0/0]
|   |   |   |   |   |   country = RUSSIAN FEDERATION : good (0/0) [0/0]
|   |   |   |   |   |   country = UA : bad (0/0) [0/0]
|   |   |   |   |   |   country = MN : bad (0/0) [0/0]
|   |   |   |   |   |   country = BRAZIL : good (0/0) [0/0]
|   |   |   |   |   |   country = CZECH REPUBLIC : good (0/0) [0/0]
|   |   |   |   |   |   country = IL : bad (0/0) [0/0]
|   |   |   |   |   |   country = SE : good (0/0) [0/0]
|   |   |   |   |   |   country = AR : good (0/0) [0/0]
|   |   |   |   |   |   country = RU : good (0/0) [0/0]
|   |   |   |   |   |   country = BG : good (0/0) [0/0]
|   |   |   |   |   |   country = HK : bad (1.02/0) [0.01/0]
|   |   |   |   |   |   country = PH : good (0/0) [0/0]
|   |   |   |   |   |   country = AT : good (0/0) [0/0]
|   |   |   |   |   |   country = ZA : good (0/0) [0/0]
|   |   |   |   |   |   country = BS : good (0/0) [0/0]
|   |   |   |   |   |   country = LU : good (0/0) [0/0]
|   |   |   |   |   |   country = CO : good (0/0) [0/0]
|   |   |   |   |   |   country = TH : good (0/0) [0/0]
|   |   |   |   |   |   country = TW : good (0/0) [0/0]
|   |   |   |   |   |   country = NG : good (0/0) [0/0]
|   |   |   |   |   |   country = YE : good (0/0) [0/0]
|   |   |   |   |   |   country = LB : good (0/0) [0/0]
